type,x_0,x_1,x_2,x_3,x_4,x_5,x_6,x_7,x_8,x_9,x_10,x_11,x_12,x_13,x_14,x_15,x_16,x_17,x_18,x_19,x_20,x_21,x_22,x_23,x_24,x_25,x_26,x_27,x_28,x_29,x_30,x_31,x_32,x_33,x_34,x_35,x_36,x_37,x_38,x_39,x_40,x_41,x_42,x_43,x_44,x_45,x_46,x_47,x_48,x_49,x_50,x_51,x_52,x_53,x_54,x_55,x_56,x_57,x_58,x_59,x_60,x_61,x_62,x_63,x_64,x_65,x_66,x_67,x_68,x_69,x_70,x_71,x_72,x_73,x_74,x_75,x_76,x_77,x_78,x_79,x_80,x_81,x_82,x_83,x_84,x_85,x_86,x_87,x_88,x_89,x_90,x_91,x_92,x_93,x_94,x_95,x_96,x_97,x_98,x_99,x_100,x_101,x_102,x_103,x_104,x_105,x_106,x_107,x_108,x_109,x_110,x_111,x_112,x_113,x_114,x_115,x_116,x_117,x_118,x_119,x_120,x_121,x_122,x_123,x_124,x_125,x_126,x_127
003f3e6fc1634f4fc95c9a2e80bcf1fa,0.04317032,-0.042009678,-0.0032479018,-0.0025276833,0.021568384,-0.09229358,-0.08644391,0.0071422937,0.016674427,-0.00874627,-0.108454935,-0.16023996,0.049053457,-0.010545641,0.14731973,-0.0395888,-0.034891218,0.027342902,-0.020469612,0.10513015,-0.045793526,0.037711777,-0.038038768,0.13913935,0.099147685,-0.017248094,0.024036922,0.09279756,0.007907272,0.0048400452,-0.0013494121,-0.045206215,0.01018532,0.14732121,0.081024475,0.019826325,-0.011780564,-0.10103895,-0.05142302,-0.016228138,-0.13846073,0.008920822,0.10935926,-0.010814529,0.02218655,0.11702537,-0.023592861,0.12540472,0.017968573,-0.083731696,0.017438013,0.05504557,0.03801169,-0.09710433,-0.02276089,-0.17238174,0.035225596,-0.0063643456,-0.080294974,0.074995466,0.09654094,0.03709109,-0.140588,0.05761999,0.004462048,0.052876346,0.0073219966,0.0075390823,-0.010627361,-0.14728625,0.08321923,0.08967267,-0.118462384,-0.0652864,0.046399042,0.028552989,0.053679157,0.07134071,0.062841944,-0.05819931,-0.0100079095,0.0733903,-0.027471608,-0.061442643,-0.00639524,-0.029077511,0.009705169,0.18729445,0.09253839,-0.105395414,0.09885617,0.0076424708,-0.13814847,-0.012441447,0.059102684,0.13933429,-0.05795019,0.007833454,0.040512912,-0.01853975,0.0026741652,-0.03223215,0.055041414,-0.16382724,0.07236105,-0.08134796,-0.06612752,0.11225764,-0.04226484,-0.022905342,0.08759781,-0.051675227,-0.03363966,0.09098993,0.04811589,-0.012919057,-0.0639943,-0.07446135,-0.03282726,0.12737288,-0.015015957,-0.1253733,-0.005962883,0.007672818,-0.10253901,-0.07400871,-0.0073147556,0.14842798
003f7e2a32d6132d74bd1eafc793b6c1,0.11848861,-0.24394181,-0.054820452,0.0072978316,-0.119025744,0.16931105,-0.14998552,-0.114989184,0.13890797,0.29939935,-0.21806513,0.003929902,0.32490948,-0.10813181,0.15764047,-0.14211808,-0.028424772,0.11126928,-0.12269756,0.36461207,0.15614322,0.17392167,-0.16348517,0.3941022,0.11479305,-0.29861504,-0.015207594,0.22610503,0.020637352,0.28147534,-0.105219826,-0.15505289,0.24439025,0.3370045,0.37540138,0.048108224,0.21135119,-0.16429456,-0.12736164,-0.06588136,-0.07950641,-0.14139456,0.132684,-0.0791656,-0.0028351508,0.30926913,0.2896187,0.042801365,0.12287154,0.060621604,-0.34560713,0.015867459,-0.025105948,0.24263464,-0.18403573,-0.066676594,-0.3363511,0.30651554,-0.13376632,0.036056157,0.48962647,0.2728788,-0.23002617,0.1633112,0.11593946,0.3368426,0.18131332,0.041336723,0.19524452,-0.21993452,0.17646924,0.1105469,-0.49860153,-0.4457904,0.25706556,-0.18013321,0.024456942,-0.23813312,0.13545851,-0.2816228,0.01707631,0.075210765,-0.29796058,0.21367471,-0.1977514,-0.17110631,0.16251482,0.29136255,0.00066459784,-0.16250555,0.049161274,0.094778754,-0.28990176,-0.068978466,0.3200595,0.26943722,0.014548689,0.032441262,-0.015782852,0.14991082,-0.18498068,0.0980911,-0.2177083,-0.24554777,0.2341892,-0.13826092,0.00875986,0.059451416,-0.22060125,0.042002536,0.036828455,-0.37464672,0.23000574,0.46043307,0.18779007,-0.100096986,-0.29335165,-0.14352056,0.046810582,0.075409316,-0.1022956,-0.38295442,-0.13980596,-0.2252564,-0.26653072,-0.11008432,-0.030203454,0.26680806
004b3dc6622a2a9374f6c289faf52d92c014452076d83648adf8e09d9ac82512,0.024644239,-0.05498472,-0.026963739,0.015612614,-0.0025671362,-0.032275017,-0.045433972,0.01362554,0.04694415,0.006352919,-0.09332506,-0.08324021,0.0767073,-0.0054249926,0.088152714,-0.030330256,-0.013800544,0.02170812,-0.034000125,0.081364036,-0.0031652185,0.0010518619,-0.035281032,0.087924615,0.050444942,-0.019895108,0.03395169,0.0636264,0.018950356,0.020695293,-0.017107597,-0.031895977,0.0091318935,0.08620019,0.08953213,0.012836588,-0.002678957,-0.044981692,-0.034015637,-0.032092288,-0.07473749,-0.019116327,0.093120456,-0.018909723,0.009964161,0.08381959,0.0076903775,0.08369803,0.00073275866,-0.026742209,-0.022125063,0.046087865,0.020218238,-0.061165795,-0.020567864,-0.09106165,0.011065728,0.036069233,-0.049226273,0.06502665,0.057719734,0.030261122,-0.089905076,0.027980883,0.0038954976,0.054724704,0.0077900128,0.026728215,0.030582061,-0.10349106,0.027527496,0.054659557,-0.079592004,-0.062135093,0.03865051,0.030784396,0.042774163,0.04767728,0.046767946,-0.055622164,-0.020962771,0.053522807,-0.024993569,-0.02392758,-0.010211917,-0.02146472,0.011077712,0.1142974,0.03925511,-0.07223815,0.06749112,0.029912937,-0.10373726,-0.018261606,0.051283572,0.08809989,-0.05318992,0.019444557,0.05215957,-0.048277546,-0.009460697,-0.006501463,0.0091031715,-0.08540906,0.039396457,-0.046917304,-0.031783897,0.06342667,-0.05674984,0.009107647,0.038560063,-0.065489285,-1.4320714e-05,0.09036925,0.068584666,0.0028032744,-0.040664773,-0.057181507,0.004489154,0.07099247,-0.004974999,-0.08362652,-0.0088153295,-0.018307721,-0.04814515,-0.036249116,0.0027585197,0.06787321
0064bd63e7337da6616b0d6adb03ca99,0.011827633,-0.013957543,0.02264086,-0.051352628,0.027445326,-0.22943845,-0.2028809,0.010442774,-0.09000802,-0.06179478,-0.14138211,-0.24865113,0.0063329358,-0.071296126,0.25717092,-0.041055404,-0.06515656,0.0697815,-0.08017425,0.16272014,-0.038609657,0.1818179,-0.09173925,0.18729201,0.13503541,-0.09326646,-0.0016872416,0.20575066,0.015776275,0.1241523,-0.06290364,-0.07779747,0.032040913,0.31324482,0.16265395,0.02393906,0.044916272,-0.2824712,-0.13107045,-0.066338524,-0.17880757,0.052276038,0.18103094,0.013435632,0.11357778,0.28414398,-0.015339905,0.13651651,0.03633119,-0.08578998,-0.025948592,0.12000799,0.086039074,-0.09544581,-0.13495725,-0.28959635,-0.05235457,0.04755256,-0.09476356,0.08895659,0.2870488,0.09930819,-0.25477576,0.19703268,0.017069686,0.020653632,0.07102413,0.04854479,0.0248923,-0.17735878,0.121054165,0.20744847,-0.26829624,-0.06177074,0.1317668,0.04537572,0.14275682,0.07966396,0.1309526,-0.042486235,-0.056864332,0.09642161,-0.11850889,-0.026486354,0.06182103,-0.07684838,0.08854615,0.31298792,0.20098136,-0.14456438,0.114096284,0.042947322,-0.23832397,-0.028675077,0.15900046,0.25253588,-0.04846771,0.027566982,0.10121832,0.0016257776,-0.021279804,-0.008008221,0.0817283,-0.33276114,0.20811002,-0.10767198,-0.15960437,0.13034756,-0.028761338,-0.069851324,0.1788672,-0.047050912,-0.021467699,0.17021318,-0.0014404327,-0.029730206,-0.08736717,-0.20845313,-0.033046905,0.23728143,-0.1181006,-0.25384334,0.02502214,0.016114343,-0.21232522,-0.15443608,-0.0287235,0.3022378
009ed622bf936a036828fab19ceb69d78264ab51507396a3809bbe947ddd9ddf,0.029913098,-0.08700986,-0.0072213714,-0.011702704,0.013316918,0.010610112,0.00088740874,0.0486439,0.012200721,-0.010609262,-0.08347885,-0.027860293,0.0070701037,0.015748195,0.025393395,-0.060977228,-0.012481781,-0.0016667424,-0.027194705,0.095910504,0.010529379,-0.046280608,0.04720777,0.025116391,0.063234724,-0.016028551,-0.017781842,0.07955583,-0.010159267,-0.020141903,-0.049204186,-0.024261389,0.050926737,0.053254444,-0.015868137,0.037773147,0.016369153,-0.07191069,-0.030971019,-0.017785352,-0.06763795,0.06953502,0.040682,-0.056859355,0.033538952,0.04416058,-0.052199338,0.036716115,-0.037259478,-0.012134101,-0.048199277,-0.017307844,-0.025748067,-0.005765791,-0.05875332,-0.057231106,-0.03907424,0.0136657115,-0.011098541,0.08143486,0.07213681,-0.0019315407,-0.0845023,0.023993809,0.05898694,0.08321667,0.046026383,0.012371184,0.045882676,-0.048319083,0.03427746,0.054674733,-0.074896485,-0.035428856,0.091048785,0.030340862,-0.005042677,-0.0049352455,0.07421558,-0.09971832,-0.0102197025,0.031930093,-0.06114412,-0.021599133,-0.023958083,-0.039887942,-0.063939035,0.112774216,0.015945097,-0.09363902,0.0146082435,0.025730528,-0.08673422,-0.00017132168,0.03665467,0.012279723,-0.012017158,0.06472761,0.07776076,-0.014725157,-0.041541066,0.004209812,0.017974278,0.020096416,0.025888477,-0.04156039,-0.0044924743,-0.012061433,-0.06479073,-0.0059938976,0.019100891,0.012028398,-0.0062656626,0.084280245,0.05202799,-0.014156636,-0.0700052,-0.06665417,0.014172139,0.07849977,0.014289893,-0.08944747,-0.040481243,-0.03401223,-0.0012099463,-0.029505905,-0.0013730798,0.006599032
00bc7defa16eb3171966a8fb0e740750,0.025041131,-0.055664897,-0.033201944,-0.0074245636,0.0156446,-0.09631788,-0.031938855,0.04297265,0.01900872,-0.018008487,-0.0789877,-0.09496266,0.04131734,0.020987818,0.10177822,-0.008694342,-0.008400316,0.027200809,-0.019226402,0.08261411,-0.018811777,-0.014501204,-0.019906063,0.05923661,0.049961764,0.00828237,0.0594044,0.062995814,0.021653328,-0.029211508,-0.018786369,-0.011590744,-0.05839545,0.06355569,0.06544294,0.017174289,-0.025869975,-0.032907613,-0.04626458,-0.03364336,-0.07276121,0.012273973,0.1100017,-0.016932065,0.032613672,0.10099674,-0.03879237,0.113572955,-0.009868035,-0.04704031,0.031538952,0.051817477,0.027671184,-0.107897945,-0.008399097,-0.13588828,0.06317353,-0.013314104,-0.053089187,0.047091573,0.011864849,0.0009746952,-0.08698791,0.023809634,-0.020838313,0.037061855,-0.01717899,0.006773707,0.030493416,-0.107332475,0.026212346,0.042379502,-0.04613545,-0.017868074,0.034778506,0.06065267,0.020654261,0.07877362,0.054567438,-0.049672276,-0.021845438,0.084880516,-0.00043821434,-0.051604826,0.002396547,-0.0003504417,-0.0217849,0.09614282,0.06334981,-0.074923396,0.07004402,0.023577,-0.077067986,-0.00045960088,0.007821146,0.09315321,-0.053959552,0.04350997,0.061460044,-0.0802024,0.0014634499,-0.016781446,0.06055701,-0.08426648,0.025051985,-0.043057535,-0.055591416,0.06924969,-0.009286479,0.024008367,0.063384555,-0.01827707,-0.062253512,0.07492247,0.05520189,-0.006045956,-0.022812601,-0.053999864,-0.0011833338,0.08045087,-0.010712253,-0.057628207,0.012055952,0.012925388,-0.0272095,-0.03843979,-0.010577011,0.07780361
00c7fd6908fc5a04ab47adc5c7829ca7,0.033584367,-0.034223516,0.015660608,-0.035594113,0.06931725,-0.14287803,-0.10604145,0.020239754,-0.034011815,-0.025175462,-0.1144398,-0.14448753,-0.0037170423,-0.03718974,0.17316058,-0.02173185,-0.010837257,0.012375555,0.009801186,0.14669204,-0.07274493,0.08566343,-0.036438372,0.1450488,0.09376567,-0.030117048,0.007510752,0.1467398,-0.018935984,0.027555874,-0.029197495,-0.04889694,-0.02290817,0.2126368,0.0723634,0.0066148094,-0.009513233,-0.1313608,-0.06794793,-0.0027008115,-0.110998,0.024275187,0.113782294,-0.008116895,0.053899445,0.15319599,-0.02418376,0.1349625,0.024537222,-0.09555914,0.013952437,0.04095178,0.031632826,-0.072988346,-0.04462929,-0.21357523,0.0016446258,-0.035908323,-0.06601582,0.03412484,0.11910962,0.027705297,-0.16755676,0.08238771,-0.021574603,0.041283883,0.042709097,-0.03395553,-0.034436062,-0.13945575,0.11371626,0.10475238,-0.17736626,-0.03890797,0.10547066,0.0065649003,0.052082263,0.034956545,0.059645545,-0.05616623,-0.0025870188,0.08609849,-0.042418905,-0.061063457,0.0034038257,-0.055881232,0.03381127,0.2231099,0.1342574,-0.110252246,0.09442446,-0.015067899,-0.12402244,0.004491158,0.08783292,0.14758888,-0.033027355,0.011439249,0.0068475693,0.041064717,0.0018265964,-0.014002638,0.06823058,-0.2179635,0.06663297,-0.07088896,-0.046368394,0.10201929,-0.004470347,-0.062233232,0.088243626,-0.033152148,-0.051838975,0.100983895,-0.0049047614,-0.039876033,-0.047816806,-0.07086223,-0.058560394,0.15415858,-0.04942985,-0.11873882,0.019229239,-0.008719968,-0.15050891,-0.09216306,-0.07668203,0.20848814
00d50962dce0b43d78a3a5e830255150,0.039002243,-0.09571199,-0.052895878,0.0005556983,0.0033870195,-0.031514723,-0.021816075,0.040105652,0.06934284,0.010913299,-0.099692985,-0.08319502,0.0776996,-0.0076527568,0.0830652,-0.029898899,-0.014175203,0.007868415,-0.051481057,0.0802933,0.005978061,-0.045087904,-0.0122797005,0.072737455,0.06191054,0.0023807136,0.059188467,0.051185332,0.041800033,-0.03534913,-0.016029706,-0.0345637,-0.014168529,0.040377975,0.060640443,0.021780003,-0.019211208,-0.037577968,-0.039365895,-0.04304896,-0.0944705,-0.00485104,0.09074798,-0.067677274,0.01887073,0.0798277,-0.015871782,0.08556451,0.0027680642,-0.03416657,0.01963922,0.03697305,0.021219345,-0.07714582,-0.020979607,-0.10352278,0.05137689,0.035343148,-0.03786312,0.075870365,0.020697946,0.02269134,-0.09213373,0.015468244,0.016756512,0.0569478,-0.008599469,0.03424601,0.06367843,-0.09757006,0.0040925895,0.026680773,-0.054125216,-0.05001732,0.032745294,0.05765843,0.02028379,0.08114964,0.0759516,-0.0989693,-0.035460263,0.07543503,-0.0073852804,-0.05164398,-0.0331778,-0.007967763,-0.02246823,0.09069282,0.018478379,-0.089494735,0.07447281,0.032648973,-0.10078929,-0.028499184,0.029287638,0.0932411,-0.05915671,0.05698022,0.08054082,-0.10451181,-0.013974273,-0.005141036,0.054251418,-0.059769146,0.033315584,-0.053267863,-0.049429264,0.062526405,-0.047735475,0.042051785,0.03544923,-0.04492329,-0.027630914,0.07806893,0.07298401,0.0048395484,-0.03966275,-0.060186394,0.02725047,0.057654366,0.010357792,-0.080443904,-0.0067700683,-0.02339756,-0.019942245,-0.03085352,0.03152046,0.028011072
00f83a459e206283925ff0c2ac976d23,0.015367418,-0.039323237,-0.0001375415,-0.047766097,0.03481846,-0.061820157,-0.0077310065,0.04882246,-0.012946919,0.014005592,-0.046404894,-0.031619832,0.00031148794,-0.030776955,0.061543703,-0.020510502,0.01087245,-0.010844029,-0.024558118,0.07951991,0.0022868987,-0.0012644086,0.018805774,0.04256013,0.044271182,-0.021280117,0.0059694876,0.071508676,0.009540388,0.0022918808,-0.041272346,-0.026488531,-0.035541113,0.07332557,0.029308302,0.0049259546,-0.012051071,-0.036717456,-0.024750192,-0.0038786195,-0.04203663,0.015376819,0.03728596,-0.05058347,0.040747717,0.07326436,-0.009357334,0.06069747,0.014067811,-0.018945744,0.020899218,0.005270383,-0.0034523332,-0.03491761,-0.030759327,-0.096677564,-0.0057205227,0.0089647,0.0028159798,0.0064111585,0.050898552,0.023459518,-0.07872118,0.024632838,-0.013304256,0.025228964,0.03442365,-0.022043103,0.038293935,-0.05390446,0.021453343,0.016284198,-0.08435031,0.0006345748,0.075748496,0.015920103,-0.0051740077,0.03563296,0.06366431,-0.06248867,-0.0073311604,0.05626972,-0.038721442,-0.023506235,-0.017182276,-0.03050923,0.007410864,0.081526265,0.03544118,-0.071126826,0.044783972,0.014125409,-0.043380868,-0.0043444936,0.0419422,0.036198143,-0.005351356,0.050119136,0.024026372,-0.016712293,0.0024137371,0.019580064,0.05389876,-0.06442488,0.016236395,-0.026595153,-0.024417818,-0.0020848485,0.03138964,-0.01239492,0.031167911,0.019155473,-0.04255219,0.0374554,-0.019586632,-0.016161049,-0.029224746,-0.052839223,0.02562187,0.0599304,-0.016845446,-0.052411117,0.02106271,-0.039300606,-0.04458477,-0.04833529,-0.042386685,0.060248684
014cd58f9fe4febcfc159ca9b2253c65,0.03821414,-0.06886756,-0.020689614,0.0056522824,0.011495069,-0.04441324,-0.035298925,0.031119399,0.029826313,0.007816148,-0.08528631,-0.08181807,0.054004315,0.0033742671,0.09062184,-0.027893052,-0.006707927,0.009946318,-0.021710293,0.08913225,-0.00070221146,-0.01406004,-0.011459542,0.0891499,0.07575088,-0.008259379,0.044586293,0.074887745,0.012510147,-0.023357365,-0.018665643,-0.03633937,0.006075611,0.06827133,0.0606864,0.024367552,0.0025395378,-0.054757986,-0.02998647,-0.026997825,-0.08657966,0.010586668,0.08304814,-0.032093704,0.027479062,0.078971945,-0.015305245,0.09401846,0.0020076882,-0.0495479,0.007110373,0.034657884,0.009278832,-0.06269812,-0.011598161,-0.10544989,0.02125847,0.011890006,-0.05548968,0.06571763,0.04852991,0.016476028,-0.09985166,0.030690102,0.014240239,0.06497395,0.011436537,0.0020870299,0.039727747,-0.11019347,0.04679401,0.043609396,-0.076929815,-0.070168935,0.04037149,0.02411105,0.014174943,0.052050725,0.061231546,-0.07582034,-0.011061325,0.06279607,-0.025216518,-0.03709698,-0.027465712,-0.013050409,-0.015828578,0.108864106,0.04527133,-0.09589286,0.077262044,0.023564015,-0.10016214,-0.0106449025,0.040012863,0.081684105,-0.044910304,0.02582931,0.051141504,-0.04888859,-0.009550293,-0.0064913956,0.029237974,-0.073217355,0.029709963,-0.049849663,-0.035712212,0.05203334,-0.044987697,0.010770032,0.047500785,-0.03521437,-0.020459654,0.09097805,0.048290312,-0.010141479,-0.059137624,-0.047882386,0.0066695483,0.05927059,0.007194287,-0.092818215,-0.022869525,-0.0066277506,-0.041981388,-0.041750554,0.003990088,0.06403
017662f941ebe50c7e0d3fd9a826144a,0.099170394,-0.13413893,-0.06483487,0.056621034,-0.020170918,-0.00462193,-0.079217516,-0.01868324,0.11189729,0.04775672,-0.17228666,-0.13261981,0.15693654,0.03891231,0.15618832,-0.061401967,-0.017132157,0.0264673,0.0017161097,0.14140782,-0.022993183,-0.04910301,-0.07821243,0.18019572,0.086605296,-0.011790711,0.07674363,0.08113641,0.033051085,-0.011994881,0.009858361,-0.050181862,0.015606941,0.09995396,0.14263442,0.033556085,-0.017885974,-0.039322753,-0.049922425,-0.036387913,-0.15110873,-0.050004862,0.16351265,-0.042421576,-0.031935804,0.09253748,0.020768797,0.13637431,0.026326917,-0.09641202,-0.013338633,0.05380787,0.026215872,-0.10839039,0.0028943862,-0.14645833,0.07311635,0.013188419,-0.11293709,0.0984382,0.05905145,0.037879325,-0.12695839,0.016037438,0.0009943375,0.16658798,-0.029507907,0.018824155,0.023808049,-0.20255263,0.067170784,0.05010781,-0.1206093,-0.14663479,0.017663607,0.02334341,0.050043568,0.051961668,0.05410701,-0.12050286,-0.00064452237,0.11159484,-0.0063604275,-0.06287835,-0.073728696,-0.006393047,-0.0063920007,0.19150257,0.060752887,-0.12688002,0.12128715,0.009810845,-0.17000774,-0.033460435,0.07221118,0.16138509,-0.10299007,0.0067546386,0.02097036,-0.046372056,-0.023830516,-0.03628112,-0.00021911669,-0.13589786,0.031358898,-0.106524624,-0.022378258,0.15980726,-0.11821066,0.042110488,0.047456313,-0.15760891,-0.013997753,0.16703038,0.16450691,-0.0059794616,-0.0725559,-0.010405657,-0.028750315,0.087021865,0.028610064,-0.11102993,-0.046845496,-0.0020579877,-0.07836938,-0.038319375,0.022753986,0.11708359
018b04599563dbb78f5dec1ae033b293,0.05033593,-0.04864642,0.041149706,-0.03772445,0.04461188,-0.0130482055,-0.018378085,0.019093722,-0.034955416,0.0074825445,-0.07583788,-0.06059501,-0.04617906,0.021002457,0.061830763,-0.044808272,-0.014987465,-0.022151738,0.032374974,0.111598134,-0.02927696,-0.0035814974,0.04875525,0.075629644,0.092315316,-0.0061692987,-0.039836377,0.08883666,-0.052976154,-0.038619902,-0.007260322,-0.0040651625,0.052513104,0.08190549,-0.03773708,0.047054823,-0.007017795,-0.08556833,-0.012681319,0.023698917,-0.08597167,0.08095691,0.021462148,-0.029027255,0.047797605,0.021570716,-0.06074338,0.060542427,-0.016816337,-0.071073554,-0.001132552,-0.011769181,-0.025623001,-0.030253012,-0.024961751,-0.07411067,-0.03537355,-0.05258963,-0.028210204,0.039723005,0.069001436,-0.009881824,-0.107728824,0.0054723057,0.040758938,0.06554409,0.06001482,-0.059631452,-0.013674869,-0.07570548,0.09717487,0.058430783,-0.0951017,-0.0569478,0.10368983,-0.02166017,-0.03426912,-0.03631786,0.03218724,-0.07122025,0.037018493,0.016561441,-0.050163724,-0.03594931,-0.015192615,-0.036518376,-0.066224836,0.13697197,0.05162494,-0.12086488,0.029266134,-0.027488874,-0.07720541,0.02443061,0.029777085,0.011292488,0.008024749,-0.008302707,-0.01123365,0.06350077,-0.013688606,-0.0013370519,0.032934073,-0.033307746,0.004623799,-0.03870842,0.011302273,-0.0033592673,-0.04838556,-0.06581972,0.035447765,0.035854243,-0.020016633,0.04981196,0.0028081615,-0.028547443,-0.06604102,-0.015622535,-0.04753954,0.075459465,0.035707906,-0.07786915,-0.039079074,-0.0071118944,-0.051902786,-0.06396332,-0.05649726,0.09388928
018f728ff1ade3660da7de6802c5fdbc,0.03289918,-0.07365643,-0.03399471,-0.005687867,0.010252676,-0.054427702,-0.042184956,0.017415019,0.045052685,0.006582909,-0.09585605,-0.10854376,0.07177288,-0.015512935,0.10766342,-0.040330816,-0.013102928,0.029475119,-0.04214738,0.08557186,0.0045541446,-0.0048176413,-0.024096096,0.09983031,0.062215023,-0.012082189,0.04547089,0.0833916,0.027706567,-0.0025140385,-0.022517953,-0.040954255,-0.014496783,0.10066906,0.0977137,0.01029309,-0.010991336,-0.062321704,-0.04646784,-0.039617814,-0.1019396,-0.005585252,0.10459789,-0.039643466,0.02733933,0.11245469,0.005698156,0.08698823,0.022586681,-0.035003502,0.008218902,0.043495588,0.033279933,-0.06936406,-0.03173166,-0.12448416,0.018517643,0.0318377,-0.05352746,0.058074962,0.073338814,0.039730843,-0.114640266,0.044608176,0.012148335,0.052475344,-0.002930251,0.026902981,0.03898009,-0.10917087,0.03782917,0.055339757,-0.098965056,-0.066187635,0.05150498,0.03591301,0.03560965,0.07623918,0.06480445,-0.08498352,-0.03087367,0.08798769,-0.03494871,-0.038420487,-0.018141069,-0.014589978,0.009099495,0.13063864,0.055616394,-0.09244002,0.07636492,0.027856918,-0.11573773,-0.027162326,0.06187174,0.11636922,-0.048445694,0.02930221,0.06823553,-0.061753508,-0.017195491,0.0043590763,0.037890002,-0.113739155,0.057882063,-0.06628469,-0.055238664,0.0752059,-0.047779243,0.024462275,0.05239407,-0.05333584,-0.031305064,0.10142863,0.058675386,0.007145588,-0.051277064,-0.07979561,0.0058000814,0.08167202,-0.012077046,-0.100872554,-0.004683762,-0.0129009755,-0.056924086,-0.047071442,0.010545235,0.0777868
01c8543fd256a60a2124e5a949f1f3b4,0.05466844,-0.10573258,-0.047435034,0.0019017163,0.009140067,-0.034663133,-0.023006106,0.034630492,0.0517578,0.0027611,-0.12181471,-0.09071833,0.07713166,0.007535567,0.096200734,-0.050752092,-0.012500824,0.0077264323,-0.035796374,0.11606902,-0.01077674,-0.057138857,-0.00400322,0.09275097,0.07836505,-0.00496837,0.037499018,0.0902108,0.020601317,-0.028786564,-0.031201469,-0.04116389,-0.012533922,0.07867098,0.07561124,0.027307704,-0.010816408,-0.05156344,-0.039324842,-0.0258339,-0.10649923,0.021282414,0.10502178,-0.06371831,0.015637822,0.092172414,-0.013950606,0.10926401,0.0025293892,-0.04557854,-0.008625408,0.027219117,0.007848211,-0.0887069,-0.026617771,-0.13834749,0.029556189,0.012392113,-0.061032165,0.07813722,0.055032413,0.015812939,-0.10669656,0.021788297,0.018809518,0.08091935,-0.0011782211,0.010241883,0.040530972,-0.12344122,0.041197393,0.051978447,-0.08839052,-0.07188836,0.06537246,0.053155217,0.028492734,0.06178513,0.08049168,-0.10078908,-0.016687296,0.08898833,-0.031840622,-0.063918926,-0.03301133,-0.024761336,-0.026326373,0.13813417,0.04895121,-0.115084395,0.07353464,0.017364882,-0.124267615,-0.031586833,0.05494514,0.08815443,-0.06795545,0.05354787,0.06767146,-0.0738699,-0.022058263,-0.00862348,0.04765553,-0.07576089,0.024943952,-0.079334565,-0.03197036,0.06503878,-0.05232006,0.0194862,0.037820768,-0.036760047,-0.024107737,0.11180292,0.08671679,-0.008280864,-0.067581706,-0.057400916,0.010238853,0.09730522,0.010614664,-0.09689352,-0.02658768,-0.02071086,-0.035199054,-0.042476382,0.009701231,0.06547719
01f9c8db52f8edb462478310cfed7a23,0.040180773,-0.10011478,-0.0005356984,-0.015069434,0.02802116,0.0013027182,-0.010129886,0.05251761,-0.0047807987,-0.03100397,-0.10118747,-0.07578051,-0.0020676306,0.044622365,0.0645113,-0.057902005,-0.01982194,0.01637392,-0.00762352,0.11882451,0.0032137441,-0.032277506,0.03686457,0.048312552,0.099596426,-0.005774509,-0.02641084,0.09789061,-0.024989689,-0.043515123,-0.044293277,-0.035944276,0.059520125,0.076944396,-0.024987224,0.054719966,0.025980495,-0.11007878,-0.044649534,-0.019561606,-0.08722036,0.104452394,0.061618168,-0.05233127,0.055007372,0.06061207,-0.07282723,0.06982927,-0.03529114,-0.040901385,-0.050064918,-0.012780386,-0.030244567,-0.021019872,-0.06759601,-0.08995006,-0.017636023,-0.0027312594,-0.03950562,0.09567852,0.09500508,-0.017104832,-0.11250973,0.030088756,0.0638082,0.09655561,0.038619354,0.0048488574,0.01878198,-0.088618875,0.07674312,0.10037345,-0.10163604,-0.053990193,0.115478575,0.040573567,-0.0086782845,-0.0069306483,0.073094346,-0.10996998,-0.016400034,0.035836894,-0.053626843,-0.027189279,-0.01736149,-0.042094447,-0.07934152,0.15974438,0.05135787,-0.123221524,0.030550135,0.015090307,-0.11284073,0.008035161,0.049172357,0.03305823,-0.016722038,0.047982886,0.071392864,-0.0036495083,-0.049297802,-0.0032252702,0.034556072,9.321161e-05,0.03464059,-0.07004555,0.004551188,0.009360789,-0.08001421,-0.03502384,0.049296886,0.015558489,-0.012258513,0.113184154,0.07106572,-0.033152312,-0.09116314,-0.0653342,-0.02763736,0.11088218,0.0234011,-0.12620713,-0.06019811,-0.011472576,-0.01117194,-0.047768615,-0.021808688,0.056510564
020ffd8294b9c0bd4f6127b06fccffae,0.053561047,-0.12803507,-0.0174348,-0.0080478005,0.019045202,0.008536759,-0.01864799,0.048541926,0.05559483,0.016681423,-0.13909206,-0.07906091,0.06297151,0.007539582,0.081752844,-0.080919474,-0.012347575,-0.002668062,-0.032149874,0.14814828,0.00958782,-0.047717296,0.015381551,0.09472678,0.104510225,-0.02843248,-0.0010756012,0.11487706,0.004057085,-0.039000306,-0.03720605,-0.044973627,0.055694588,0.09321623,0.029684333,0.044106398,0.009614648,-0.086933725,-0.043267913,-0.025007783,-0.109030336,0.048713256,0.08230302,-0.08525715,0.045274574,0.0861616,-0.02421928,0.091656946,-0.008949597,-0.04937005,-0.038869906,0.008534027,-0.009813429,-0.04095164,-0.048930246,-0.11789591,-0.019030022,0.023803711,-0.052862696,0.08941659,0.101119496,0.019645676,-0.13041808,0.032940466,0.05995383,0.12185898,0.041549984,-0.0018960938,0.058706068,-0.11717315,0.070652045,0.060593933,-0.13272816,-0.10128372,0.11231577,0.026725246,0.0067906245,0.016602494,0.08921586,-0.14711267,-0.009382874,0.064061336,-0.06475849,-0.04660468,-0.04622844,-0.039704178,-0.04813022,0.164283,0.027307952,-0.14142546,0.06907771,0.017301157,-0.13534059,-0.01051774,0.06459278,0.079373375,-0.04390895,0.057141386,0.06731091,-0.02240225,-0.045148876,-0.002520048,0.032842256,-0.05034382,0.028784107,-0.07396706,-0.02220957,0.03342726,-0.08439094,0.00045735558,0.04684002,-0.031158743,-0.008079676,0.13045706,0.073596746,-0.027551405,-0.09208744,-0.067226775,0.006007311,0.09347252,0.024810206,-0.13568923,-0.050682735,-0.052553862,-0.0531294,-0.07157694,-0.011885103,0.065857224
0257ff0237e869e4b31d18322ec19b90,0.04222069,-0.032727756,0.024198476,-0.0172054,0.053740606,-0.08517819,-0.0945348,-0.009940179,-0.039429706,-0.037592333,-0.11133977,-0.13824797,-0.023811897,0.011092166,0.13559674,-0.034063693,-0.01857356,-0.0017820789,0.026710652,0.12811966,-0.075186506,0.059052143,-0.040958587,0.13383482,0.090926535,-0.011505067,-0.012200686,0.100498185,-0.037214857,0.0007662956,0.009482736,-0.022557551,0.018589687,0.15141109,0.041713975,0.030954862,-0.009212009,-0.116066195,-0.05964499,0.0014837162,-0.12271875,0.035011068,0.08535001,0.020484623,0.034197107,0.09122086,-0.037872553,0.11276231,0.0057164887,-0.119036175,0.0054235067,0.03834804,0.017692283,-0.08273655,-0.03349036,-0.16445746,0.019155156,-0.05451089,-0.074687995,0.04316847,0.08283974,0.0028866173,-0.13383457,0.05096276,-0.011353096,0.058159847,0.019173464,-0.028680127,-0.061795104,-0.1187517,0.11507815,0.08880141,-0.12918372,-0.059974473,0.068178624,-0.00325951,0.044864185,0.016281499,0.04035248,-0.040394638,0.015307337,0.049742173,-0.02598146,-0.04779321,0.016165748,-0.03680747,-0.00796412,0.20847765,0.108910665,-0.11106943,0.076726675,-0.017456489,-0.108540975,0.012577505,0.068319745,0.09962126,-0.039349236,-0.013379308,-0.010146075,0.06299932,-0.00051722064,-0.041125894,0.055450268,-0.15841193,0.042066444,-0.07652053,-0.025914848,0.10484837,-0.031471316,-0.061899103,0.09159574,-0.027993914,-0.03756716,0.06932273,0.017143479,-0.038585734,-0.054310184,-0.029989043,-0.0765799,0.13933927,-0.013739981,-0.090128765,-0.010600608,0.029164843,-0.11755373,-0.071273915,-0.05157426,0.18387178
02ad7b97d9f5c9d33e6fcb0feff3a3ac9e0d05972248e74d4074f79ce1aa89bf,0.053665437,-0.09223474,-0.031547952,0.0074812253,0.0018607306,0.02397933,-0.0033341504,0.010374365,0.061991647,0.04390698,-0.09038024,-0.033801552,0.085005544,0.015347582,0.052451815,-0.04612492,-0.0009702629,-0.0050972304,-0.0020141096,0.09625843,0.0049543446,-0.058858383,-0.011850239,0.07029422,0.051937915,-0.008246693,0.02916991,0.057269115,0.017740108,-0.021157233,-0.016184634,-0.023243502,0.012421856,0.03497481,0.05352364,0.022704806,-0.0020238596,-0.0021751532,-0.029587002,-0.010978451,-0.06561909,-0.004601716,0.06451214,-0.049394403,0.0030775066,0.045327242,0.010708089,0.06615648,-0.0030819848,-0.037163816,-0.026846508,-0.0003166271,-0.008528531,-0.038583543,-0.018059311,-0.059319407,0.022925466,0.019609062,-0.040039897,0.05275141,0.03394917,0.009319084,-0.05844109,0.002069658,0.012920614,0.09596671,0.012262863,0.004774063,0.029443959,-0.08691815,0.0359489,0.016162394,-0.05451414,-0.07732038,0.04259057,0.016820788,-0.00651464,0.015960239,0.034993984,-0.0961308,0.007517023,0.05350682,-0.012808666,-0.030057775,-0.05676627,-0.0144974785,-0.021713633,0.08922122,-0.00415816,-0.07432767,0.049920328,0.01133808,-0.078967445,-0.01602937,0.038749065,0.05839618,-0.046519518,0.03243927,0.034375384,-0.02868894,-0.022054229,-0.00507572,0.01476745,-0.01980869,-0.003931072,-0.056757435,0.010236409,0.04384931,-0.060227174,0.026763162,0.011212718,-0.061718438,-0.012551525,0.09710644,0.0819741,-0.009270732,-0.04892302,-0.014013167,0.0045056613,0.03266303,0.028993985,-0.049480416,-0.030445535,-0.034846306,-0.015396404,-0.027482353,0.0030090497,0.020698557
02b016d43b493b4c25bdd1bdba58c199bb43c764c0363e7ea4abe14ca71f6f02,0.16327089,-0.24688424,-0.10106526,0.03683546,0.044712957,-0.012847429,-0.004196967,0.10412884,0.19842581,0.00915452,-0.24783738,-0.19772041,0.1538091,0.13258296,0.20663786,-0.08664377,-0.0034485266,-0.01016998,0.039179426,0.2624866,-0.05111017,-0.21472235,0.003128729,0.18808447,0.18084425,0.08623673,0.15325446,0.116353795,0.03649716,-0.20629403,0.020324392,-0.03223564,-0.058081977,0.07450121,0.060818408,0.07833047,-0.08431508,0.004746819,-0.04148971,-0.036949556,-0.22839125,0.051514547,0.24195059,-0.12509781,0.0033228085,0.09052164,-0.124960236,0.25637063,-0.048958376,-0.16807948,0.04218792,0.030543676,-0.027296165,-0.22354364,0.011194303,-0.26152417,0.21386732,-0.060365368,-0.16549662,0.15573387,-0.080617435,-0.08468767,-0.17048559,-0.057684097,0.0007056618,0.26440316,-0.05955608,-0.026415931,0.001318212,-0.31320342,0.10510951,0.055815507,-0.11623512,-0.14627501,0.056122374,0.11895754,-0.045916066,0.11319728,0.1164889,-0.25527933,-0.014780716,0.21128118,0.053779054,-0.19457656,-0.10643809,-0.01054355,-0.1797663,0.2952322,0.06975703,-0.23459607,0.22272728,-0.0074888733,-0.20492022,-0.011420326,0.019065956,0.16380781,-0.17014802,0.09673102,0.08447895,-0.1400807,-0.035353534,-0.08128634,0.1111512,-0.06031507,-0.07396329,-0.16107953,0.048481952,0.19415313,-0.13931128,0.055000808,0.05080227,-0.12267093,-0.13480532,0.22911245,0.24101593,-0.023309156,-0.09471077,0.00345108,-0.046760794,0.14272317,0.11866756,-0.12245596,-0.06527594,-0.03965568,0.020014578,-0.06819196,-0.0032728137,0.07777196
02b51f81f1f26d649e555052d3655dbcb1af8dca97f2d1ad461b4ca73f1f31a4,-0.08496084,-0.0907245,-0.09410148,-0.18481787,-0.09249333,-0.47323912,-0.20791869,0.27237567,0.12846383,-0.1201227,-0.033391878,-0.6942716,0.23129149,-0.41834766,0.49529237,-0.13249438,-0.19757752,0.2116451,-0.5177998,-0.03971859,0.11655794,0.1458835,0.009375723,0.13396834,0.2525268,-0.043866515,0.2325636,0.14446948,0.3086135,-0.06904673,-0.06724186,-0.22835095,-0.14028592,0.20626062,0.2892121,0.024557453,-0.04741741,-0.400704,-0.15815786,-0.33326122,-0.34485912,-0.022467796,0.33767807,-0.23523228,0.28705752,0.57571924,0.03816181,0.17824003,0.122759126,-0.015211125,0.24971642,0.37195393,0.3511098,-0.27405596,-0.0866984,-0.40999058,0.13003238,0.493653,-0.04102581,0.32597944,0.36602592,0.34179503,-0.48331434,0.18936855,0.078173906,-0.22329354,-0.03553002,0.3497132,0.3447675,-0.2844831,-0.17376837,0.32760236,-0.09239911,-0.004871988,-0.007875609,0.23632812,0.25940531,0.67078614,0.37284943,-0.24768858,-0.32206106,0.24679004,-0.16276841,-0.18315803,0.10224912,0.0066279033,0.09851921,0.18960626,0.18850529,-0.26348606,0.3386921,0.15323247,-0.3676275,-0.25669733,0.106274895,0.52044505,-0.21140492,0.18807277,0.6299398,-0.61940867,0.058519863,-0.041829415,0.36889932,-0.53942263,0.5206418,-0.0967456,-0.6088137,0.12147749,0.07029568,0.24493924,0.29038632,-0.050328497,-0.14489073,0.07459817,-0.059846923,0.22119887,-0.13063188,-0.68159854,0.33507204,0.13150196,-0.15585755,-0.6032246,0.09639866,-0.12381761,-0.20974217,-0.2745742,0.34051597,0.14564198
032a439627f738fecd72d71fd28c5b56,0.04014926,-0.08640529,-0.027174447,-0.0003926314,0.0033719945,-0.03273262,-0.027116278,0.03714573,0.05569875,0.010929333,-0.107153565,-0.089471005,0.06926711,0.015566199,0.09041774,-0.04553584,-0.019105297,0.013049075,-0.022467284,0.09503626,-0.004692396,-0.03533226,0.0062351567,0.07881989,0.07819849,-0.0022292377,0.03412856,0.06830957,0.011526123,-0.03537203,-0.02068443,-0.040053226,0.011044431,0.0601988,0.045276005,0.025795743,-0.0048173447,-0.05818514,-0.03730342,-0.03244855,-0.10189756,0.015849605,0.0946815,-0.06002112,0.016402612,0.07229707,-0.02653497,0.096838206,-0.002068367,-0.053695392,0.00049820077,0.03139675,0.008798823,-0.07176503,-0.02799432,-0.11460763,0.03643419,0.011419856,-0.05004093,0.0851894,0.057286073,0.0141978245,-0.102489114,0.017040027,0.022584718,0.07552091,0.007890971,0.021449655,0.03719059,-0.10834468,0.03733885,0.043588314,-0.06513468,-0.060150854,0.043853786,0.034830265,0.014615556,0.058751002,0.06729834,-0.092073135,-0.015769355,0.070455424,-0.028671749,-0.05812014,-0.0221986,-0.010305546,-0.031215705,0.118956596,0.042272657,-0.10426091,0.073886454,0.013324545,-0.11478467,-0.024530582,0.041561708,0.07141556,-0.052728385,0.038336203,0.065110475,-0.05313225,-0.007933249,-0.009400309,0.039234284,-0.06500336,0.022297418,-0.06441018,-0.040140416,0.049375117,-0.059601244,0.011318573,0.03804172,-0.037314437,-0.026007464,0.0867365,0.076181516,-0.010972392,-0.064699806,-0.057166487,0.009317833,0.07362824,0.012360732,-0.09751831,-0.02955404,-0.007605806,-0.04176207,-0.04833656,0.010471932,0.057492997
03b3b43ca40f505de2f059d56477f15c,0.020441419,-0.06815154,-0.046936244,-0.0014514917,-0.0009999071,-0.10279706,-0.06515697,0.051996704,0.031532116,-0.025399107,-0.08973882,-0.14092876,0.076100424,0.006693622,0.13479936,-0.017570231,-0.017241761,0.047142383,-0.07453106,0.08706602,-0.0020696113,-0.0047890553,-0.033634134,0.07707542,0.0639514,-0.0066524358,0.07915638,0.08808676,0.048713308,-0.00654303,-0.033387665,-0.04493338,-0.045042653,0.09419256,0.10211672,0.01331469,-0.019149719,-0.06869484,-0.047720578,-0.06119057,-0.10610482,0.011647825,0.13695753,-0.027355663,0.036408342,0.13804938,-0.021627385,0.12294438,0.0016561013,-0.03598481,0.014207826,0.08031596,0.055717237,-0.13117032,-0.03391822,-0.1529065,0.061690893,0.03733849,-0.074419126,0.095095515,0.043523304,0.01189482,-0.1194104,0.04522244,-0.002250644,0.039431714,-0.024471583,0.050006505,0.06628018,-0.12641397,0.002556187,0.077106155,-0.064937636,-0.033406008,0.040544365,0.08905225,0.048410125,0.10575205,0.079468265,-0.07425231,-0.05720171,0.103240855,-0.012832997,-0.05626626,0.009544299,-0.020821465,-0.006084223,0.1281298,0.078187294,-0.090244286,0.086307496,0.03758515,-0.1201177,-0.036241394,0.033895146,0.13367409,-0.07084702,0.059552692,0.11876199,-0.13120219,-0.012890565,-0.02152435,0.05875664,-0.12182529,0.07852696,-0.07322355,-0.088214144,0.09870751,-0.04219369,0.04244535,0.07916908,-0.048727006,-0.0401455,0.11633342,0.08516367,0.00905983,-0.03631119,-0.109737866,0.026879137,0.110944696,-0.028326774,-0.11871251,0.0025681339,0.01361303,-0.029436111,-0.04915939,0.031531744,0.06917374
03b544f462bc9c6226ea4886084050074806439962eea99c59d3f2e5fa8e88f2,0.0321567,-0.05246983,-0.019402204,-0.0023793345,-0.0049556084,-0.0072789527,-0.030828428,0.0061107567,0.021820825,0.02353489,-0.05427935,-0.032771908,0.04027602,0.0024078088,0.05681647,-0.027475478,-0.0062119267,0.013251142,-0.011955549,0.06538044,0.006122507,0.004916795,-0.013619755,0.05926455,0.034573585,-0.021357682,0.013778124,0.047478355,0.012492493,0.0025151118,-0.012692067,-0.016045313,0.0032409683,0.059757944,0.05199208,0.015513568,0.019508312,-0.03797141,-0.022684965,-0.00954973,-0.0419566,0.0032074214,0.052599635,-0.030512892,0.008694036,0.04948205,0.012010423,0.046809196,0.01027395,-0.021057388,-0.010557343,0.016049972,0.0066247336,-0.018782176,-0.018719561,-0.057997823,-0.0044697765,0.01746146,-0.029022254,0.020617759,0.054148797,0.029788474,-0.0658194,0.020267254,0.009102611,0.047293752,0.010140889,-0.00340876,0.034644682,-0.0631745,0.029225405,0.022078069,-0.06892599,-0.04244981,0.038865115,0.005516286,0.0022341078,0.0052362056,0.038956504,-0.052967474,-0.0058137006,0.038452886,-0.037502855,-0.002766889,-0.0239466,-0.01538889,0.0093277525,0.0777439,0.015042253,-0.051173005,0.032148093,0.0160949,-0.05879388,-0.01399224,0.036033884,0.055288743,-0.0077373087,0.022473307,0.025115386,-0.008593757,-0.016478356,0.00514068,0.015332556,-0.044706948,0.029520795,-0.03937922,-0.007904447,0.028566135,-0.025228484,0.0039292313,0.022793574,-0.03530084,0.0018435814,0.07018709,0.027925285,-0.010305641,-0.039238647,-0.029637603,0.0045794426,0.045490008,-0.009912036,-0.06729498,-0.015605142,-0.022121983,-0.037710752,-0.028860645,-0.005726472,0.040892776
03ee77cc35efb49aa6db392247d242d6,0.025259472,-0.03515305,-0.016429357,-0.0041006105,0.02319037,-0.09034322,-0.052188147,0.018866733,0.01430541,0.0044724075,-0.069843784,-0.11355575,0.03712788,-0.014276537,0.10522638,-0.017313631,-0.018257463,0.00928032,-0.0170691,0.06890626,-0.025249567,0.017161855,-0.02977337,0.10106558,0.06319518,-0.0019258031,0.05179893,0.057273723,0.012979644,-0.009627024,0.0028466205,-0.0228437,-0.028572986,0.09547165,0.08184119,0.0006100954,-0.030108249,-0.05813976,-0.033731174,-0.01810882,-0.0888364,-0.020419778,0.090848014,-0.013537756,0.017887913,0.083606824,-0.0022174013,0.095603675,0.017993191,-0.059578795,0.039482296,0.05825398,0.04375096,-0.09831192,-0.0075726956,-0.13497604,0.03689654,0.0068726363,-0.046209365,0.03565121,0.03890884,0.024951505,-0.095454484,0.033207934,-0.021899262,0.024909623,-0.002828064,0.0048446935,0.0089806225,-0.11060997,0.028661614,0.04550204,-0.07625179,-0.031661887,0.029161321,0.023498654,0.034292556,0.07926163,0.042822447,-0.039460693,-0.020711398,0.07230427,-0.010080138,-0.051294547,0.0034736302,-0.0056758584,0.02693502,0.10081307,0.071074836,-0.077483766,0.084351435,0.0042885905,-0.08352631,-0.018396841,0.03370087,0.11532337,-0.043756127,0.015491242,0.041864015,-0.034224257,0.015908582,-0.017179215,0.056478634,-0.13771161,0.036299046,-0.04207546,-0.054975722,0.078507096,-0.006678571,0.011129338,0.057082918,-0.03520991,-0.037929315,0.043295477,0.025367627,0.0007739309,-0.027702738,-0.046908952,-0.0055420254,0.07454913,-0.01795902,-0.075677894,0.017253583,-0.003263992,-0.07153883,-0.043719266,-0.013233283,0.091854855
0424586cc6ae1f3a30e811665fcc4b934fd7cc8a2b084934fbd1bcd1fd48df25,0.023248013,-0.050539438,-0.03497878,0.02545588,-0.016351266,-0.02707206,-0.027259847,0.0064528473,0.06186502,0.016049655,-0.063855395,-0.063589245,0.07210803,-0.0012419103,0.060545366,-0.021106515,-0.0037297457,0.013131243,-0.014783178,0.04195245,-0.0095187705,-0.020279184,-0.038087774,0.06741375,0.025968034,-0.006512166,0.048528217,0.026609236,0.025941413,-0.010645347,5.9167753e-05,-0.0237786,-0.014642301,0.03167971,0.067931086,0.0060244594,-0.0050370614,-0.011390696,-0.026986608,-0.014848609,-0.059942387,-0.03567439,0.06674143,-0.022572255,-0.0072398894,0.04294517,0.027364047,0.057896603,0.02344377,-0.02681374,0.0020779262,0.03685709,0.022467628,-0.054567352,-0.0036433234,-0.06147617,0.04467905,0.016287353,-0.035051905,0.029753841,0.021250594,0.016357161,-0.04463179,0.009836499,-0.0014294278,0.04814641,-0.019465568,0.015668767,0.024033146,-0.07742775,0.00559063,0.014110883,-0.035099674,-0.044778176,0.001399389,0.01022078,0.02607105,0.044690743,0.031735204,-0.03629437,-0.0139824,0.047829263,-0.0012157186,-0.034672484,-0.028186245,0.008658154,0.0074396203,0.062098365,0.0153592825,-0.037081968,0.052871253,0.015435905,-0.061623123,-0.017494202,0.026085744,0.066543676,-0.053203516,0.015158528,0.028680637,-0.042240243,0.0017678156,-0.014335295,0.0198454,-0.06876658,0.025082877,-0.040817294,-0.019581936,0.063738674,-0.037633173,0.026722727,0.023088384,-0.0670297,-0.01471381,0.061467856,0.061698653,-0.0028236452,-0.020534199,-0.017963136,-0.00020568269,0.027474571,-0.0015800624,-0.043207504,-0.002106152,0.0034241253,-0.027830563,-0.012710973,0.018896736,0.039591935
0446ae8ec2d513bc52974a8231649b2c,0.038148407,-0.04944422,0.00029472372,0.004897493,0.007004526,-0.012865727,-0.05822513,-0.014322103,0.011731996,0.030694973,-0.09898539,-0.079436466,0.061656743,-0.02198402,0.09476322,-0.04530391,-0.008137526,0.01823586,-0.01827758,0.10283238,0.0014073306,0.051602576,-0.037068665,0.11711201,0.06695485,-0.05976416,-0.0060487255,0.08723996,-0.0004465089,0.05785576,-0.023009777,-0.04776604,0.06760573,0.12749924,0.081008434,0.013755024,0.02659646,-0.08611021,-0.041711368,-0.0028934851,-0.091830246,-0.018527703,0.054611128,-0.023951894,0.009020211,0.07713475,0.032663517,0.05918384,0.026686441,-0.04266413,-0.050521612,0.016791873,0.019337976,-0.014884969,-0.038307384,-0.08575791,-0.05009115,0.047087472,-0.040420223,0.0435595,0.12729426,0.049502797,-0.11348504,0.053228024,0.027873162,0.07686914,0.047684398,-0.0025533543,0.011682388,-0.081287496,0.07695385,0.054620814,-0.13380076,-0.10808026,0.079464845,-0.020498589,0.045522172,-0.0052699675,0.046447895,-0.05656349,-0.003926529,0.030042864,-0.06966744,-0.005818882,-0.02806518,-0.029440934,0.023858814,0.13662277,0.037665583,-0.07935637,0.045135833,0.0141872335,-0.11252246,-0.018640773,0.09211312,0.09499985,-0.015848743,-0.009812733,0.0038988271,0.030442722,-0.025252992,0.0027595498,0.0010819144,-0.105063885,0.075590715,-0.054530878,-0.030261006,0.05741753,-0.062046908,-0.028429136,0.04502383,-0.06419162,0.030102117,0.092411794,0.028901212,-0.018942041,-0.08619716,-0.053131927,-0.016696012,0.084373534,-0.023570389,-0.13005202,-0.040967666,-0.033972103,-0.088722594,-0.051460307,-0.013558174,0.117929764
044eaf948c12e75d6d92e9a8bbfd7cde,0.038013335,-0.07135066,-0.052965183,9.9066005e-05,0.0051558223,-0.051784653,-0.02526698,0.039761994,0.037192907,0.009014113,-0.083072014,-0.06239832,0.070237465,0.0030249662,0.08139866,-0.023191497,-0.011713792,0.02527163,-0.037049197,0.08832779,0.010828453,-0.038372062,-0.006190134,0.06749737,0.064881235,-0.005649904,0.054060932,0.080526814,0.024284225,-0.022825278,-0.03140439,-0.04037852,-0.035183594,0.056263253,0.0672308,0.0106681995,-0.005803789,-0.031990513,-0.038496204,-0.037575215,-0.07463079,0.009484332,0.103263356,-0.048059016,0.020063069,0.09290671,-0.0238893,0.096895196,-0.0036916195,-0.021229796,0.0084883785,0.034279384,0.018611895,-0.07359922,-0.020141557,-0.11375709,0.03822736,0.026663378,-0.039521143,0.060957976,0.04011975,0.018566394,-0.09565552,0.027307142,0.01418534,0.052064702,0.004799022,0.020158226,0.057165947,-0.10576292,0.011532867,0.03802701,-0.073312595,-0.038769707,0.049576703,0.06296269,0.007758598,0.06293975,0.07076017,-0.08352677,-0.023245947,0.07845527,-0.019735344,-0.038804956,-0.01867977,-0.008359482,-0.008809889,0.09819233,0.034272082,-0.0792698,0.077914156,0.030648373,-0.09785179,-0.018045785,0.026476555,0.078516096,-0.051847447,0.047807362,0.083780326,-0.08236643,-0.02786842,0.0064398167,0.045581736,-0.060678028,0.02759157,-0.050168544,-0.03866299,0.05527619,-0.038561657,0.02461251,0.03230585,-0.034113124,-0.030237883,0.09079308,0.06676194,0.0019238644,-0.047045417,-0.07095558,0.02494269,0.06398078,-0.0021291347,-0.078007676,-0.008239212,-0.025598284,-0.01995554,-0.037070476,-0.004640985,0.034000836
04d29fee25ab668406ab8e49c4f7a990,0.080156006,-0.23974083,-0.07916389,0.0019776144,-0.014756075,0.070227556,0.062686324,0.097929016,0.15528527,0.07696243,-0.15154445,0.007002021,0.14032556,0.039608218,0.059518356,-0.080011256,0.016981948,-0.017358152,-0.03335588,0.17801544,0.035598513,-0.16886468,0.017795725,0.083707206,0.08019267,-0.004651148,0.06059131,0.098940715,0.042507406,-0.098614655,-0.05357975,-0.037570104,-0.031306434,0.0073506357,0.05133966,0.060295437,0.01771269,0.008444213,-0.04018073,-0.029273884,-0.07756933,0.030394144,0.0989303,-0.15107304,0.0190035,0.08315528,-0.019081678,0.102489546,-0.02424348,0.0009458297,-0.043229643,-0.026330592,-0.047892075,-0.03524391,-0.054408077,-0.119454324,0.04544598,0.041519262,-0.06374556,0.09266594,0.008710958,-0.0039247163,-0.083922744,-0.018188596,0.026039781,0.20030773,0.009475578,-0.0019053088,0.13015315,-0.12737729,0.013507731,0.00022245952,-0.07327429,-0.1003796,0.09687741,0.06240861,-0.06487233,0.016085576,0.11345753,-0.23692043,-0.023200596,0.13380349,-0.024079274,-0.047620945,-0.122027494,-0.026210738,-0.09202816,0.12867591,-0.04841081,-0.14484045,0.090033084,0.024655584,-0.10536684,0.0016906892,0.035376966,0.043558266,-0.06635649,0.131784,0.11010824,-0.1135323,-0.056137763,0.017479204,0.052384764,0.041146517,-0.03272161,-0.0857292,0.030216033,0.03013217,-0.075744934,0.08442041,0.0023997684,-0.067807026,-0.046614524,0.17946045,0.15404639,-0.05544093,-0.09390171,-0.04100027,0.057707954,0.0658417,0.052898563,-0.084179595,-0.058399193,-0.0875477,0.02422108,-0.021742921,0.0076082963,-0.031874686
051a74d370c049e56396b9420df284d4,0.09407142,-0.1775775,-0.06552591,0.029602181,0.042577777,0.023469882,0.03395656,0.08164802,0.107507356,-0.01851391,-0.16515782,-0.108815685,0.073002994,0.11147124,0.100549765,-0.06787228,-0.010186591,-0.0103032775,0.011570948,0.15735321,-0.025432467,-0.17557143,0.049662277,0.06832494,0.11560901,0.07408885,0.078182615,0.075663835,0.014681484,-0.1507564,-0.014835965,-0.018947996,-0.0015478983,0.017706035,-0.012599172,0.062109552,-0.049690776,-0.02527189,-0.019305024,-0.024408907,-0.15975949,0.078165315,0.13698728,-0.09687962,0.020846747,0.032784026,-0.12453499,0.15823609,-0.07242695,-0.09166208,0.0125906,0.0011354493,-0.029848844,-0.14691678,-0.010931803,-0.15691611,0.11757733,-0.027963173,-0.08648311,0.1423576,-0.051189173,-0.068944074,-0.118456975,-0.045190457,0.040874433,0.16329017,-0.020624842,-0.0010417011,0.026254147,-0.18222335,0.06018757,0.0530061,-0.050213557,-0.07940546,0.068128735,0.112135224,-0.035013363,0.07037559,0.095333986,-0.18064888,-0.011677834,0.105250105,0.012605541,-0.13159859,-0.05473981,-0.0052153463,-0.15052171,0.19143796,0.023748709,-0.16414128,0.10556912,0.0014579026,-0.13111229,0.00078658503,0.004403682,0.05521637,-0.1012016,0.089925915,0.09737998,-0.11609009,-0.03356191,-0.04011324,0.074076466,0.025457462,-0.052333906,-0.10429703,0.026547646,0.07474634,-0.10631714,0.025260322,0.019817023,-0.039308187,-0.083425075,0.14652729,0.17571622,-0.01945973,-0.086750776,-0.017252577,-0.012144406,0.1058176,0.09395,-0.08798884,-0.07180491,-0.015252699,0.049153093,-0.028315857,0.017559867,-0.004484705
052055c5202730d16d4117083db7a74c,0.07745946,-0.14210312,-0.09881578,-0.0048039136,0.089638054,-0.10768107,0.030262345,0.13521002,0.08834443,-0.04176942,-0.16295049,-0.15042141,0.044571914,0.08031461,0.14717051,-0.023904014,-0.021494884,0.012102499,8.271434e-05,0.17675053,-0.018517425,-0.16186471,0.032600887,0.037830822,0.12180386,0.07689416,0.13254039,0.12957361,0.044528745,-0.13576281,-0.041249923,-0.01698798,-0.11026967,0.08980049,0.014264352,0.017445438,-0.08957599,-0.027740424,-0.050175022,-0.038679015,-0.15576485,0.085734926,0.20428213,-0.110288925,0.045020767,0.10229339,-0.17620726,0.19375096,-0.06349437,-0.07575771,0.049799826,0.016435258,-0.032455903,-0.20670825,-0.044328008,-0.22315054,0.16135278,-0.033450723,-0.08495575,0.13948822,-0.0650063,-0.07517035,-0.13670474,-0.028625092,0.003932939,0.11745467,-0.014837962,0.000980923,0.033835296,-0.19460085,0.061579756,0.07162614,-0.07153327,0.008483869,0.06740863,0.19193919,-0.011741867,0.15136668,0.10848623,-0.17462789,-0.06996981,0.16296776,0.03102031,-0.15604448,-0.007374216,-0.0077174664,-0.13307917,0.24006145,0.06865023,-0.1544625,0.16137683,0.034501094,-0.12766194,-0.029747577,0.015750203,0.10685662,-0.14542681,0.15716347,0.1040992,-0.15784657,-0.036084805,-0.030188823,0.12572174,-0.027335167,-0.043289375,-0.11320464,0.008986826,0.083495796,-0.044355087,0.03039103,0.027493758,-0.01863276,-0.15436837,0.16038567,0.14213015,-0.005548204,-0.042403847,-0.07390365,0.0043154433,0.17313546,0.054948024,-0.07003063,0.0073112166,-0.03825675,0.057571515,-0.03954508,-0.009813508,0.008121437
0540e803f1788f75369f434ace742346,0.06412103,-0.27465576,-0.079747334,0.09266623,-0.20024557,0.24761191,-0.13272063,-0.056216817,0.1024914,0.02874313,-0.26647526,-0.13510889,0.26414797,-0.019279892,0.09333493,-0.24617924,-0.09007934,0.13182472,-0.25448146,0.21519367,0.14791678,-0.017373009,-0.05714806,0.1492541,0.14688085,-0.23445606,-0.12470729,0.1807596,0.02335693,0.19562458,-0.1916031,-0.18831223,0.38634464,0.170243,0.23404248,0.13958788,0.19835563,-0.31849498,-0.11209413,-0.15145259,-0.19472262,0.013490027,0.11776651,-0.06131281,0.018648652,0.20196457,0.13079451,-0.02688111,-0.0273864,0.14510216,-0.3840205,0.0369967,0.055892654,0.10457715,-0.29206407,-0.04143823,-0.28249866,0.38770252,-0.12832354,0.3117583,0.4600242,0.17237814,-0.22990614,0.15632956,0.23009758,0.29297203,0.092360705,0.26932898,0.21867599,-0.09317635,0.027519988,0.23741183,-0.32415774,-0.4370348,0.23906423,-0.008123286,0.17661178,-0.13712192,0.23600234,-0.2519498,-0.100549445,-0.017005684,-0.28431535,0.18087652,-0.07442849,-0.17520466,-0.015193866,0.30729753,-0.034158863,-0.14360113,-0.046095964,0.14382751,-0.36055592,-0.124709934,0.28889826,0.202821,-0.059410803,0.13441847,0.27265427,-0.13438383,-0.20291705,0.031142844,-0.19800752,-0.03741281,0.36389318,-0.17059486,-0.15280253,0.061597835,-0.36472523,0.040827334,0.13471542,-0.23007642,0.33321118,0.44732907,0.32827988,0.035329532,-0.339718,-0.28360444,0.09128858,0.18223864,-0.08314917,-0.5221355,-0.27006269,-0.10988387,-0.077591114,-0.06377838,0.24023005,0.058637593
056c0f5cb55d4173ddc4f0d4a2596d9579bbabeeaff2c882c67d64610a9928bf,0.0811898,-0.1609879,-0.049955714,-0.0013070082,0.018714163,-0.14615719,-0.07076284,0.06289327,0.10404437,0.009658887,-0.16409443,-0.22977766,0.13209093,0.0008016695,0.24464008,-0.038782418,-0.007507966,0.009675746,-0.042841878,0.16833366,-0.071201645,-0.03614805,-0.06566938,0.22087008,0.129316,0.021959577,0.10827996,0.094190106,0.03367188,-0.092925176,0.009501902,-0.03783551,-0.09897242,0.11819961,0.16044764,0.034004066,-0.0334479,-0.067665406,-0.073645435,-0.057526782,-0.18076558,-0.03316622,0.19856039,-0.081273474,0.03156718,0.18394926,0.000550042,0.21206872,0.031245815,-0.13874574,0.096309856,0.09923673,0.06668488,-0.20115428,0.025393736,-0.2818856,0.16362636,-0.0045094355,-0.10869384,0.06928474,0.02239003,0.03636909,-0.20350398,0.03008177,-0.052243374,0.10439736,-0.057417404,0.0010123731,0.03250449,-0.23267317,0.058862574,0.05222919,-0.104283094,-0.10063467,0.021379724,0.051410973,0.03977108,0.1695285,0.11702759,-0.15066351,-0.02268038,0.20262411,0.022969365,-0.12645042,-0.04590169,0.002625438,-0.009446931,0.21205033,0.10628066,-0.18388514,0.20113558,-0.0065191314,-0.16698472,-0.020104347,0.047620773,0.23532511,-0.11446931,0.04675686,0.09216894,-0.1299546,0.014897568,-0.058299407,0.14281027,-0.2504958,0.044679932,-0.12106921,-0.100951366,0.18923132,-0.020428114,0.055192612,0.1060581,-0.09372933,-0.12579817,0.11677543,0.10390609,-0.0047690887,-0.052618925,-0.06470234,-0.0022030459,0.1212166,0.013425081,-0.13381115,0.028207164,-0.0073616737,-0.099596865,-0.101387136,-0.007324758,0.18833786
0593aa87b0426bac363a292228735991,0.050727744,-0.10217663,0.00052094826,-0.012778914,0.01902193,0.013415686,-0.04171002,0.02194376,0.008750277,0.03371599,-0.115588464,-0.05043037,0.03129504,-0.010542518,0.07532327,-0.061145492,-0.005662673,-0.006112206,-0.014745847,0.13277425,-0.0067337994,-0.004499498,0.0029632377,0.10497049,0.08878942,-0.05690881,-0.023444084,0.114679046,-0.019507544,0.005590175,-0.034227442,-0.055016764,0.058530085,0.10378095,0.040431086,0.03724729,0.035260692,-0.09159513,-0.053387124,-0.0040764576,-0.086567424,0.028321294,0.050725244,-0.06351507,0.03693825,0.07696724,-0.0062401327,0.050904095,0.003926268,-0.04031727,-0.055848446,-0.012476234,-0.016629929,0.0063701947,-0.056123223,-0.08916574,-0.04748438,0.0107964445,-0.037495602,0.058098897,0.13560878,0.045527875,-0.10407271,0.04576004,0.040112663,0.10230107,0.0519969,-0.023755131,0.03404798,-0.07867563,0.07567409,0.05964804,-0.14479694,-0.08608453,0.10454207,-0.008255709,0.010828301,-0.029541902,0.06614975,-0.10788437,0.00414766,0.049560033,-0.078360505,-0.01605696,-0.047934372,-0.052958608,-0.010779812,0.14983061,0.025372585,-0.1038109,0.046379276,0.0110882055,-0.11495457,-0.007992642,0.07483644,0.061316233,-0.012171335,0.033753425,0.02517771,0.03328958,-0.021916797,0.018400777,0.018645568,-0.06891647,0.040673133,-0.06367755,-0.012267122,0.02182934,-0.067885965,-0.024605874,0.031371124,-0.021024985,0.011282067,0.11763603,0.040458225,-0.037313513,-0.08336655,-0.060318228,-0.0038657577,0.09566417,0.0022874326,-0.12775947,-0.042346314,-0.040317588,-0.079639345,-0.06551401,-0.032005914,0.09022431
05bed5476fa174c7aef2eaf54f0ab27f6a39a2af1d7ed53357ccae68851a331c,0.052187886,-0.09809467,-0.016961167,-0.0021146333,0.019160602,0.015008079,0.0011064754,0.03108452,0.044369265,0.030808676,-0.081806935,-0.023715075,0.05175774,0.0034056848,0.04714932,-0.04376063,-0.00020778355,-0.013391616,0.0022804583,0.09152518,-0.0113444645,-0.05794981,-0.0043616095,0.065681085,0.043279435,-0.0051612146,0.0149446055,0.05333226,0.0023482954,-0.030152207,-0.007736231,-0.027789999,0.0023346194,0.039740328,0.031150166,0.02694344,0.0013759788,-0.012816228,-0.032419354,-0.009228606,-0.06623747,0.01323042,0.05917731,-0.053920895,0.0036121653,0.035576366,-0.010001984,0.053421915,0.002621986,-0.04684642,-0.0018605582,-0.0030424984,-0.011128529,-0.031184519,-0.021166343,-0.088098675,0.013332616,-0.0052025137,-0.027691862,0.02804242,0.031747214,0.014657454,-0.056040123,-0.0042999364,0.0056731026,0.08976773,0.007051208,-0.025222067,0.013746334,-0.08078428,0.03441939,0.005664143,-0.06436272,-0.051203854,0.050865237,0.010129704,-0.014852878,0.007873377,0.043818243,-0.091060765,0.002327505,0.062247153,-0.015667802,-0.031308543,-0.052838102,-0.017742228,-0.03616337,0.08506178,0.013112415,-0.07037995,0.054456055,0.004284982,-0.070551865,-0.0067904433,0.031564288,0.039876558,-0.025367947,0.03442764,0.021119999,-0.01537234,-0.014387122,0.005747904,0.030760344,-0.034918103,-0.00774357,-0.046865564,0.014239953,0.034443453,-0.034357853,0.014431211,0.0076210136,-0.028292026,-0.028449437,0.07671015,0.0554067,-0.022012463,-0.045178052,-0.011097169,-0.0027975894,0.045507744,0.026049636,-0.050656457,-0.020793142,-0.03402203,-0.029566023,-0.02305315,-0.017239025,0.04282602
060451d1d301ca6e255cbd2c903caf9d,0.109985605,-0.13504544,0.009888229,0.053294975,0.021018885,-0.014042461,-0.05867556,-0.04021515,0.11608602,0.020500485,-0.1703197,-0.14577387,0.10963389,-0.040655296,0.18873473,-0.07872429,0.020462435,-0.10438964,0.076500796,0.11105448,-0.19642355,-0.054886818,-0.0841681,0.24026315,0.085179746,-0.003426404,-0.025425877,0.030307727,-0.01860942,-0.110254355,0.08096321,-0.03388925,-0.015096058,0.041181218,0.09952722,0.033712298,-0.030312048,-0.010650882,-0.03850843,0.025833694,-0.16013259,-0.08263208,0.08154701,-0.039523903,-0.04017166,0.016403995,0.07285113,0.1106836,0.09311129,-0.21114828,0.10819236,0.028782515,0.03996826,-0.11132918,0.06345544,-0.23610462,0.1442667,-0.11289791,-0.104237065,-0.0037243173,-0.017080829,0.031583384,-0.09960118,-0.017694805,-0.10072389,0.14529136,-0.09336126,-0.064700246,-0.13389446,-0.12463663,0.08281016,-0.048161358,-0.07565558,-0.11076535,-0.035498016,-0.07152988,0.08672658,0.09089026,0.018712847,-0.06390553,0.05724085,0.12774122,0.09384946,-0.11823185,-0.07883119,0.010284459,0.008709585,0.15429588,0.0388337,-0.116399676,0.14072163,-0.09373224,-0.08767322,-0.00395125,0.06521547,0.16125424,-0.10686623,-0.058120895,-0.07891397,0.029330067,0.09431085,-0.07168404,0.109988265,-0.2560183,-0.029788833,-0.10491818,-0.009993573,0.24376665,-0.028189471,-0.030451281,0.05770367,-0.12036509,-0.0660991,0.010082337,0.08408588,-0.013090129,-0.017313626,0.11583718,-0.09790989,0.09720032,0.029798258,-0.053810626,0.0015275023,0.013314807,-0.139657,-0.07687267,-0.0050762156,0.19653822
0615cadf5248d9c355f4838f227a31a0,0.08666396,-0.19855924,-0.04370655,-0.010951338,0.019221863,0.049351677,0.034717385,0.09593772,0.072392814,0.006446863,-0.16119032,-0.057153236,0.049003497,0.05235296,0.06667124,-0.10481888,-0.01362164,-0.008418021,-0.028155534,0.17909132,0.014658902,-0.12110783,0.05573414,0.07163,0.13243511,0.004293071,0.002751844,0.1266487,0.0062553403,-0.102059335,-0.07357349,-0.05019373,0.051002264,0.05731239,-0.007803213,0.06988478,0.012712552,-0.08396145,-0.040372495,-0.017113615,-0.1208091,0.106519625,0.1002352,-0.12687783,0.048136402,0.06638378,-0.09213671,0.100214824,-0.04691144,-0.041219532,-0.053159256,-0.026425797,-0.043440856,-0.05242892,-0.077225186,-0.12601292,0.016539285,0.023356766,-0.06778886,0.13457842,0.06814581,-0.022256037,-0.12665744,-0.006505585,0.065549985,0.16873565,0.036198586,0.011902796,0.080746226,-0.12352739,0.054577433,0.07540385,-0.09798947,-0.09744876,0.13787492,0.07052818,-0.033551704,0.0022530814,0.12310532,-0.20750163,-0.026252361,0.085869275,-0.060371708,-0.050921977,-0.07209334,-0.043375548,-0.13732089,0.18605214,0.0069914656,-0.17659913,0.06582736,0.020224804,-0.13995275,0.002801636,0.04912287,0.044994783,-0.050010234,0.11131149,0.11408174,-0.065787815,-0.06167999,-0.0061866734,0.056113295,0.033017565,0.0031878534,-0.08552902,0.010392646,0.015561538,-0.10890476,0.010599023,0.028390883,-0.003746891,-0.025151234,0.17418587,0.1399528,-0.033200614,-0.116046734,-0.06551759,0.022001645,0.12176716,0.05165878,-0.14012578,-0.081582375,-0.06116032,0.012631318,-0.047216117,0.0016690213,0.005659166
0630318153df63416998b97a3498406f,0.042007565,-0.13760974,-0.009950468,-0.015722891,0.011641041,0.031127019,0.02030594,0.065252006,0.016568772,-0.024982663,-0.11199442,-0.04665248,0.0128191775,0.033124946,0.033397943,-0.09006734,-0.017766332,0.00034150924,-0.01946482,0.1226537,0.0052447445,-0.09252634,0.0545747,0.030810812,0.09381957,-0.013117813,-0.033367157,0.08968458,-0.012491475,-0.062153436,-0.054420404,-0.029230898,0.06875034,0.040086508,-0.027768144,0.06773947,0.025024952,-0.08803984,-0.030640785,-0.01421685,-0.09570638,0.101242974,0.041615516,-0.07477192,0.05082692,0.042156007,-0.07301578,0.041025143,-0.034920093,-0.019061217,-0.04808546,-0.028973358,-0.029162798,-0.02441581,-0.06738745,-0.08591148,-0.010472668,0.015146584,-0.029329004,0.10306953,0.078751996,-0.01866462,-0.100226186,0.013740885,0.06678798,0.11819781,0.0327103,0.004488988,0.049951956,-0.072143614,0.04032285,0.06626899,-0.07729502,-0.07047827,0.10813627,0.04673263,-0.010973968,-0.014324247,0.095803455,-0.13090348,-0.017434038,0.037293434,-0.063097216,-0.03686938,-0.034961734,-0.047058426,-0.10499462,0.14067121,0.010429091,-0.12216854,0.017846448,0.010312816,-0.10391292,0.0004877285,0.04372501,-0.0015313728,-0.023613123,0.08586641,0.08202961,-0.039204128,-0.038423337,-0.005763237,0.02744106,0.026636876,0.021566082,-0.0707593,-0.0048999074,-0.0061350684,-0.08396094,-0.010114966,0.038307697,0.025242152,-0.0010231356,0.12046687,0.089258455,-0.023348652,-0.10100222,-0.06291203,0.010046228,0.0876377,0.04098283,-0.11380865,-0.06987396,-0.029674973,0.011607379,-0.03834015,0.0035741061,0.011636195
06717e78164e7b2b1aa137adaa3d7d2d,0.022732686,-0.07113933,0.044435166,-0.076367274,0.07163283,-0.053412747,-0.005155947,0.068705864,-0.06295209,-0.036715373,-0.09210868,-0.05463418,-0.07721883,0.007615955,0.071521,-0.03380863,-0.006117362,-0.036692485,0.021333287,0.116527095,-0.051366363,-0.011744247,0.056733582,0.041440565,0.10007607,-0.016741823,-0.055988014,0.11451208,-0.04714725,-0.062243044,-0.039432924,-0.018387536,0.022809392,0.09400659,-0.0748219,0.049164195,0.009498873,-0.09742623,-0.042258676,0.012120608,-0.079639874,0.11866339,0.016551295,-0.04927245,0.07985135,0.054689255,-0.09535786,0.064147286,-0.021068852,-0.075112864,0.019203495,-0.026442492,-0.037115496,-0.019057773,-0.056988094,-0.1403618,-0.011291807,-0.072536886,-0.011598034,0.03181884,0.07864308,-0.0116614085,-0.110006705,0.033655062,0.032597803,0.040450074,0.05137929,-0.049903706,-0.012654779,-0.06878291,0.08724264,0.078073345,-0.106139354,0.005119833,0.13156031,0.019324921,-0.020934796,-0.013985399,0.060011063,-0.08827139,0.018435393,0.040164262,-0.045856003,-0.042286437,0.0047570504,-0.045460645,-0.0826466,0.15171614,0.061247427,-0.12887725,0.030789359,-0.024167607,-0.073379494,0.04282044,0.03201977,-4.2885426e-05,0.009940501,0.043189663,0.036264546,0.04212564,-0.010078227,0.0014314265,0.08105586,-0.053868778,-0.000113832706,-0.039125722,0.008155711,-0.006090943,-6.1020488e-05,-0.06610026,0.054201186,0.08627844,-0.05399348,0.045330994,-0.025268517,-0.047991604,-0.05007079,-0.0557749,-0.03028158,0.11384077,0.017962543,-0.077539325,-0.0069454084,-0.016608,-0.060242787,-0.08411285,-0.076691374,0.093484744
0683cdf921258b19802d093b921ffd9e83a9f753b3faaffa4d404590c64dbf0b,0.061347432,-0.11769742,-0.03114729,0.004548791,-0.004983225,0.051934052,0.011627648,0.03414809,0.04967979,0.022803623,-0.11492517,-0.026632562,0.0689971,0.008132091,0.037798706,-0.07179109,9.4724266e-05,-0.009160714,-0.011458193,0.11027756,0.011343079,-0.06928535,0.01437331,0.05426412,0.064601436,-0.026898384,-0.0032332218,0.07140368,0.0063592624,-0.030721882,-0.038526475,-0.03728139,0.052629054,0.029945068,0.029694458,0.03087361,0.011161656,-0.040422387,-0.0194608,-0.009322081,-0.06967559,0.024377313,0.041248597,-0.077041484,0.013254322,0.0387562,-0.011103156,0.04637751,-0.016055191,-0.010954726,-0.048834868,-0.020887688,-0.015816107,-0.011260729,-0.046925865,-0.058007818,-0.010326583,0.038167376,-0.034267917,0.0732859,0.06265826,0.008246634,-0.07878468,0.0067026317,0.049089722,0.11271969,0.016054021,0.007482351,0.044431653,-0.06503924,0.03293289,0.027375713,-0.082954206,-0.08316507,0.07298347,0.020949723,-0.0053409776,-0.0030803068,0.06926088,-0.128198,0.0010481101,0.041422013,-0.04590308,-0.022312213,-0.047495827,-0.041034546,-0.05065318,0.1046185,-0.0124830045,-0.09628378,0.029726101,0.01787304,-0.09402129,-0.013512686,0.053813115,0.03577447,-0.036867153,0.061695762,0.05496025,-0.029287461,-0.03300872,0.0042821546,0.0063026138,0.005364596,0.020495577,-0.06228456,0.01232995,0.01745092,-0.08515974,0.0032308502,0.0116023375,-0.032153755,0.0029429877,0.112856925,0.0943596,-0.018796712,-0.07777522,-0.03412458,0.0125343595,0.059265547,0.028182158,-0.08983675,-0.056222335,-0.039045602,-0.0019708225,-0.017349344,0.0067505874,0.009355515
06b9650176bc09c654e06af0544ff9583b8ae9e8e8bd1aab3cc4fb034cdf1517,0.035420362,-0.050830487,-0.014975364,-0.00062089594,0.0032198657,-0.02820158,-0.017587287,0.019084428,0.030803815,0.015451547,-0.07079409,-0.04189604,0.044348076,-0.003938097,0.047016945,-0.018568031,0.0026418692,0.0032000844,-0.0019074517,0.059320055,-0.0041084215,-0.019225352,-0.01779112,0.066179454,0.040563814,-0.0024361704,0.018460192,0.0423454,0.004960585,-0.0017268419,-0.016534869,-0.028145678,-0.007384698,0.053119905,0.049577136,0.0070965267,-0.009143971,-0.021431811,-0.027099125,-0.017202232,-0.054452736,-0.0018872748,0.048614148,-0.03234909,0.010188232,0.049383875,-0.0076476345,0.05749663,0.0024608858,-0.026554812,-0.00972612,0.012018386,-0.0032570101,-0.042856067,-0.020742629,-0.06416063,0.00822706,0.01086738,-0.038814623,0.033682495,0.028497659,0.008075427,-0.05067457,0.01950412,-0.001665361,0.053371564,0.0027771348,-0.009979338,0.0154281175,-0.07142464,0.023629017,0.017164525,-0.05112665,-0.03194684,0.029020555,0.0113506,0.011483137,0.029561894,0.03025798,-0.05215291,-0.0026084927,0.04477189,-0.021026101,-0.029120067,-0.021348098,-0.011565876,-0.0033969076,0.06695413,0.023284268,-0.050755158,0.045044456,0.008532345,-0.057407603,-0.006747356,0.031891588,0.051839627,-0.025004987,0.013648148,0.0285333,-0.016266443,-0.005612653,-0.0030627153,0.014299791,-0.046930555,0.014251774,-0.03943936,-0.01563153,0.03250828,-0.026824495,0.014143265,0.01786865,-0.03053801,-0.019827256,0.05880367,0.03716029,-0.007034448,-0.028270239,-0.023093536,0.0008532979,0.052898824,-0.0009924744,-0.043400396,-0.012991749,-0.01618912,-0.037483986,-0.02148287,-0.012883019,0.048397418
06d1f82e3edb6c0af1b42d711a29779d,0.03204722,-0.06378685,-0.019300727,-0.014362895,0.014347434,-0.07846048,-0.04068526,0.017971227,0.03434471,0.014292685,-0.096214436,-0.088305235,0.069496244,-0.038370956,0.10766013,-0.026826084,-0.013172403,0.017489893,-0.027717233,0.09890083,-0.007500321,0.017062223,-0.020475574,0.11453823,0.07786041,-0.016243124,0.045174986,0.08929747,0.01575046,0.008772656,-0.017924165,-0.042899303,-0.016449459,0.118013285,0.092029266,0.013016803,-0.0037700518,-0.06636485,-0.05025913,-0.025978617,-0.0887486,-0.021091096,0.09633197,-0.045696683,0.028998869,0.11703677,0.015131108,0.096115544,0.027889177,-0.04294851,0.0051949634,0.04033093,0.017164882,-0.06864127,-0.023892026,-0.14123648,0.009419761,0.02229019,-0.0445358,0.035798278,0.06535752,0.037528377,-0.12765491,0.046142533,-0.006199087,0.06010433,0.022785332,-0.0023117943,0.026587201,-0.12508084,0.053839885,0.04305116,-0.11129196,-0.051434554,0.06906816,0.017777603,0.020534286,0.06881041,0.07501614,-0.07650498,-0.010696983,0.07930401,-0.044803396,-0.05032961,-0.022264244,-0.019871116,0.018757094,0.13144803,0.05143784,-0.0997538,0.089986145,0.017161192,-0.10397631,-0.030643495,0.058222756,0.123520724,-0.041930646,0.02729037,0.040995266,-0.036696564,-0.005013276,0.0038963358,0.05451454,-0.1346086,0.05036964,-0.06298614,-0.052733704,0.062878445,-0.026818233,0.00711123,0.055468436,-0.046132863,-0.0391758,0.0883195,0.033973552,-0.008408553,-0.052665487,-0.07311492,0.0032238641,0.08170277,-0.021167286,-0.10234844,-0.0030583637,-0.034072224,-0.08494267,-0.0640824,-0.020057775,0.092695594
06d2b5ec5984610a164b2a5a50849286,0.0404158,-0.024067668,0.029288381,-0.04314153,0.095543705,-0.2090366,-0.13818502,0.010728764,-0.035478625,-0.05224792,-0.14173493,-0.1978815,-0.033046592,-0.05341519,0.2296298,-0.008410478,-0.009546732,-0.028272884,0.053432107,0.15454967,-0.16149116,0.09657019,-0.07116893,0.19112788,0.13187277,-0.008210928,0.00072730635,0.15610266,-0.030773746,-0.016009394,0.035018876,-0.03308988,-0.05683302,0.24950494,0.075630076,0.016405778,-0.023911454,-0.14595191,-0.10174891,0.011683709,-0.13508382,0.017180787,0.13503833,0.011467177,0.054476738,0.14904036,-0.04970944,0.15824488,0.03777741,-0.17521833,0.09014954,0.06071473,0.037140477,-0.12202539,-0.032663096,-0.31028417,0.064924374,-0.13157097,-0.09286432,0.0068628127,0.090114616,0.016560027,-0.1826332,0.08578864,-0.08511344,0.03500566,0.00063808274,-0.082425006,-0.118929125,-0.15926373,0.16529591,0.101209626,-0.18239225,0.0015447714,0.07414558,-0.0011386094,0.09440601,0.092666335,0.04216648,-0.017741363,0.00797759,0.13162844,0.022614338,-0.10264846,0.021651238,-0.027820459,0.038205788,0.27495468,0.18275182,-0.13651833,0.14496855,-0.060181122,-0.12854083,0.020907192,0.081435695,0.17997178,-0.06756923,-0.022900987,-0.039109778,0.075131945,0.06000301,-0.055161767,0.14187197,-0.3268148,0.0382376,-0.0914804,-0.038955614,0.17829008,0.035647843,-0.088923834,0.11222621,-0.026459975,-0.122579,0.0587315,-0.030277034,-0.061248478,-0.016339194,-0.029417992,-0.105330005,0.21252723,-0.050465126,-0.08306617,0.06557952,0.014511494,-0.18822703,-0.12604906,-0.12026132,0.29776585
07847630596c7a55101a80f26819d93d,-0.07544961,0.22973067,0.24140944,-0.19122002,0.0022084322,-0.09512667,-0.3053704,0.011643735,-0.31218523,-0.20627293,-0.16851649,-0.831234,-0.31960186,0.10382702,0.17958066,-0.27491078,-0.35396522,0.38256532,-0.46122128,0.21735986,0.33845586,0.52366614,0.5127248,0.12438023,0.7076372,-0.054451335,0.005032472,0.32802355,-0.24922524,0.12384595,-0.24940604,-0.18768153,0.912866,0.5938591,-0.16627079,0.3821886,-0.00036877813,-0.97946674,0.027883569,-0.102865994,-0.64975876,0.40192115,0.12955551,-0.14840797,0.32375863,0.21508496,-0.32229576,0.4123221,-0.36376387,-0.039300397,-0.21164192,0.25325972,0.0975818,-0.3612468,-0.19748071,0.16215785,-0.66829586,0.5160088,0.014932727,0.67201656,0.8232755,0.16378763,-0.88826585,0.21543843,0.86558855,-0.06445898,0.5317275,0.2309625,0.25439817,-0.46767867,0.40782556,0.85809577,-0.49874133,-0.65525794,0.606656,-0.08659198,-0.0039995853,-0.08053215,0.45707592,-0.17931893,-0.07689768,-0.4492001,-0.7835592,0.0928001,0.38173032,-0.14154452,-0.21213907,0.6582924,0.47831813,-0.61587584,0.097744234,0.25712258,-0.69732344,-0.14613643,0.20252177,0.2500138,0.14479399,-0.17796476,0.49497545,-0.002779936,-0.32971573,0.03253211,-0.058869444,-0.010709008,0.64820814,-0.08964923,-0.56035686,-0.25180447,-0.6702514,-0.33097464,0.4381302,0.2655723,0.38432553,0.13256037,-0.19934925,0.3029809,-0.720822,-0.79580384,0.004587128,0.2504281,0.120408975,-1.247667,-0.48243442,0.11060166,-0.31087717,-0.4085548,0.1391391,0.16242449
07940aac58f4b2e1712bc48a2470fcde,0.023519685,-0.046932835,-0.017189289,-0.019522328,0.007509719,-0.059441198,-0.06608882,-0.0040639546,0.01054012,0.034023177,-0.09273337,-0.07529351,0.06433074,-0.05007562,0.11073446,-0.026911207,-0.016436683,0.015486279,-0.03886195,0.10770343,-0.0009409152,0.057334904,-0.04134769,0.1227348,0.061370924,-0.051035408,0.009984949,0.10584834,0.011809275,0.056360014,-0.037832584,-0.05192526,0.017637413,0.13308759,0.09957197,0.005190118,0.018600142,-0.09371286,-0.05709395,-0.021505559,-0.07892671,-0.021236485,0.08322719,-0.02706439,0.030935653,0.12946402,0.03225702,0.06915415,0.0388086,-0.042817455,-0.009693789,0.045556698,0.02840243,-0.029577589,-0.046322335,-0.12144368,-0.027034229,0.03536437,-0.0456945,0.03885957,0.11716355,0.07026865,-0.11658032,0.07394998,0.004121738,0.046440497,0.029570097,0.008264524,0.033325695,-0.10375582,0.06380212,0.05872988,-0.14199252,-0.07032717,0.06619111,-0.00029829197,0.045797106,0.027587827,0.058328453,-0.057891846,-0.017870933,0.06801623,-0.06000827,-0.0072981226,-0.017817674,-0.02838611,0.0502789,0.13169074,0.049614336,-0.084167294,0.07602981,0.028158,-0.11609265,-0.027585596,0.08588381,0.11685665,-0.028463472,0.014628777,0.034442127,-0.004977305,-0.00774081,0.010023209,0.031053586,-0.13705991,0.07634438,-0.062662154,-0.060729686,0.052554123,-0.03409134,-0.0058520166,0.04481976,-0.06310487,-0.009222951,0.089326136,0.026784651,-0.022773119,-0.060154382,-0.078038745,0.00070005015,0.08475107,-0.046945166,-0.122823,-0.0075287223,-0.02902747,-0.09704588,-0.057199698,-0.019699277,0.11963325
079aaccc770e2019ad30c008498abd65,0.09353524,-0.19846284,-0.07132175,0.013099375,0.008252373,-0.14259498,-0.06776872,0.10174814,0.13342415,-0.025216952,-0.1613104,-0.2801167,0.11723463,0.083830506,0.26927862,-0.026566986,-0.017129237,0.0100508975,-0.016556593,0.17689423,-0.098284744,-0.08936874,-0.049601834,0.21603659,0.16672494,0.082552336,0.14749317,0.061792657,0.025611699,-0.18543145,0.04396151,-0.01375061,-0.10864665,0.050534736,0.117993124,0.08114375,-0.06485287,-0.04730551,-0.06851191,-0.063984394,-0.22412956,0.0025479894,0.23870553,-0.07280878,0.024810845,0.16360769,-0.057116896,0.27441487,-0.014340545,-0.17522827,0.14618488,0.12751462,0.065514036,-0.2876767,0.055569027,-0.31111178,0.25306913,-0.062875345,-0.14259265,0.10968888,-0.05851008,-0.017738655,-0.20826362,-0.006893893,-0.066014245,0.11948885,-0.1091821,0.025499932,0.010426887,-0.28946283,0.054930855,0.06183491,-0.04996788,-0.099681266,0.0031212098,0.079075694,0.0071855253,0.19701427,0.11438907,-0.16577001,-0.044024408,0.22084899,0.059386555,-0.16709821,-0.045022495,0.025348254,-0.10797034,0.19956957,0.13435584,-0.22400664,0.24131706,-0.026591592,-0.1758055,0.0069365487,-0.022915969,0.2241967,-0.13330814,0.043648582,0.13555644,-0.2007151,0.020564826,-0.09511185,0.18291843,-0.22027381,0.0043429206,-0.12745793,-0.10407793,0.21102767,-0.041283596,0.07232151,0.12870853,-0.09697426,-0.15003519,0.11640696,0.16135634,0.0023369961,-0.05565834,-0.05227097,-0.042640317,0.12926285,0.05979524,-0.12744662,0.008418097,0.041905604,-0.058105845,-0.114804894,0.01776347,0.1741371
0808eb4e0b36adc2a7ad5b2adc99b3c2,0.03337718,-0.021269735,-0.011927066,-0.0057990314,0.019652162,-0.09587328,-0.09017511,-0.010645528,0.0053319335,0.0137664545,-0.081889756,-0.10904558,0.050363597,-0.029831508,0.13897195,-0.011403259,-0.023372224,0.023843473,-0.015703475,0.1026916,-0.028986715,0.07835439,-0.067707404,0.14238828,0.06850478,-0.038677625,0.023773089,0.09865785,0.008887243,0.046735015,-0.017869117,-0.035912447,-0.007870278,0.158239,0.10631416,0.0072164694,0.0058794585,-0.096050076,-0.059266716,-0.015017818,-0.08491152,-0.017057408,0.11111909,0.002777563,0.027652824,0.14022146,0.019735083,0.09309747,0.0327095,-0.052732103,-0.004327031,0.05547502,0.035980873,-0.06275734,-0.04462822,-0.14336549,-0.009186543,0.015707042,-0.061101623,0.020678205,0.103153974,0.054018695,-0.1287044,0.07071878,-0.018614443,0.049368627,0.017467162,0.00044338522,0.0072128987,-0.12804899,0.07837927,0.06757984,-0.15119216,-0.053458925,0.050171446,0.007725025,0.06280815,0.045576207,0.054411545,-0.03801352,-0.011916029,0.075878754,-0.04284434,-0.022447253,-0.011823204,-0.036937322,0.06377135,0.15837875,0.09236786,-0.0822686,0.082206585,0.0076002553,-0.12102968,-0.021170475,0.071912974,0.13745807,-0.039297767,0.0038459415,0.014058553,0.013572302,-0.010542494,-0.004514065,0.027149266,-0.1791147,0.07350928,-0.05668717,-0.053687133,0.08706334,-0.02403205,-0.013634534,0.056085832,-0.07677855,-0.02725226,0.10145356,0.023341423,-0.018111464,-0.037209887,-0.0642972,-0.023288095,0.11107148,-0.047937904,-0.11150394,0.014351179,0.0017243206,-0.10801662,-0.07207109,-0.033415228,0.1624662
087a8b987bfcb13e7e995bdeb4b90726,0.033437155,-0.04245472,-0.048361685,0.012748581,0.009758851,-0.08953023,-0.07166753,0.02061067,0.042271193,-0.0008682033,-0.09530914,-0.121032,0.09170642,-0.010972176,0.12995929,-0.016806277,-0.014229455,0.041010078,-0.047757138,0.09058258,-0.0004385952,0.01890309,-0.06390726,0.107987545,0.04569346,-0.001989601,0.074457526,0.07214472,0.034172643,0.0185291,-0.0137808705,-0.041400056,-0.035563894,0.1026293,0.1238563,-0.0040475223,-0.016832247,-0.05830112,-0.045954835,-0.037119396,-0.09875875,-0.025861485,0.13121352,-0.020911006,0.017356245,0.12097379,0.0022582319,0.119413026,0.014659881,-0.043392833,0.02106107,0.07006285,0.053991623,-0.106319726,-0.017342975,-0.14029926,0.055599943,0.025095785,-0.066175885,0.06346481,0.04302282,0.03284056,-0.118257135,0.044969942,-0.019139213,0.03946238,-0.024350192,0.033047285,0.031335823,-0.13866764,0.025799537,0.053846136,-0.07651491,-0.044492267,0.019944172,0.046757307,0.060408413,0.09139843,0.06458398,-0.050872874,-0.037866578,0.08941254,-0.0066014263,-0.05971203,-0.011474979,-0.01653587,0.034532238,0.12102738,0.07413031,-0.07394726,0.10540918,0.03834702,-0.1036037,-0.029298075,0.041169755,0.14376794,-0.0686829,0.034030974,0.06414353,-0.08728009,-0.0013656962,-0.015635176,0.037071433,-0.14832991,0.05423672,-0.060070403,-0.06373855,0.10445633,-0.028836992,0.02945863,0.054836817,-0.075120285,-0.030556299,0.106587596,0.05902976,0.008256637,-0.032005616,-0.06414203,-0.00031097938,0.095322475,-0.022118906,-0.08563454,0.013221163,0.011464833,-0.06631647,-0.04252563,0.01781043,0.09770131
092e19c3294633a983811779058f0c35,0.03337973,-0.063589066,-0.038882833,0.01017,0.0004759367,-0.0608284,-0.05016985,0.045484163,0.03746439,-0.024278346,-0.101883754,-0.12700403,0.062104728,0.017163357,0.1097516,-0.039554264,-0.01682211,0.034781087,-0.04150031,0.07811139,-0.0044573513,-0.025437053,-0.011822804,0.07091431,0.063629374,0.011182905,0.0484726,0.06943956,0.0229106,-0.017322738,-0.022728262,-0.027572429,-0.013704839,0.069582805,0.06811873,0.026552968,-0.014640737,-0.07679334,-0.046511967,-0.042908557,-0.11169202,0.013672965,0.11031117,-0.031935193,0.019051528,0.09512775,-0.028802589,0.096856944,-0.020191774,-0.043627832,0.00040223455,0.05327851,0.037083793,-0.10295053,-0.030212738,-0.11758848,0.054278754,0.021569055,-0.05870458,0.09252335,0.053630885,0.00015578,-0.10327899,0.02723376,0.00999543,0.050020505,-0.0066098003,0.04586175,0.041192234,-0.10788395,0.011875182,0.07300169,-0.061444994,-0.05007755,0.036563642,0.07230841,0.04673865,0.07821653,0.07374103,-0.06347842,-0.045513093,0.06676961,-0.020394208,-0.050519988,-0.0054062773,-0.016565252,-0.025328854,0.12280622,0.06251915,-0.09638629,0.071121365,0.03399418,-0.11870529,-0.034614857,0.023779007,0.10578398,-0.059331063,0.052306242,0.099707045,-0.09023619,-0.01243292,-0.020677565,0.03919596,-0.08060756,0.051759332,-0.06632067,-0.0715893,0.07783877,-0.057937983,0.025524467,0.064342275,-0.039384943,-0.028926514,0.09478775,0.08044668,0.017981209,-0.05129163,-0.072546154,-0.0004936987,0.08452289,-0.013088134,-0.108071685,-0.018253246,0.007402591,-0.023045372,-0.04496307,0.029175991,0.057612427
097c73de543218e2d0edb52d5333601f,0.08739879,-0.109469675,-0.060998727,0.059670288,0.015232167,-0.032090917,-0.024671614,0.029854145,0.11596105,-0.009435313,-0.1291788,-0.15760474,0.103259884,0.09724488,0.13870846,-0.025628706,-0.022280036,0.004871507,0.03956575,0.10705207,-0.048527773,-0.09961436,-0.031683773,0.11473294,0.085996665,0.09032587,0.13080205,0.033030506,0.035776682,-0.12190993,0.045619123,-0.004716007,-0.037166342,0.020955514,0.04469978,0.036976486,-0.06610455,0.0130186025,-0.020671222,-0.027606444,-0.15148611,0.006844028,0.16422023,-0.038543306,-0.019382361,0.04499889,-0.07934711,0.16787605,-0.03341271,-0.11658647,0.05295017,0.056876533,0.0145962555,-0.1822121,0.0463849,-0.1486742,0.17904603,-0.057786595,-0.12545647,0.11483714,-0.07870977,-0.063800186,-0.090911865,-0.04794807,-0.010352283,0.13132183,-0.07181227,0.013300834,-0.011315119,-0.19449164,0.048064362,0.03371021,-0.013857822,-0.074342124,-0.023922466,0.088915974,0.0028902097,0.10698332,0.032853387,-0.101117276,-0.014376855,0.11492698,0.07522272,-0.13467573,-0.045345895,0.026374163,-0.090879776,0.16136381,0.062306225,-0.11881436,0.14651054,-0.010323302,-0.122688584,0.0046071243,-0.029950624,0.116708405,-0.12080401,0.023197712,0.045286667,-0.11146798,-0.001301869,-0.08125267,0.06322813,-0.04670691,-0.050757848,-0.08931196,0.0083867945,0.15111585,-0.09572001,0.037728265,0.03471514,-0.099329,-0.0859605,0.11428398,0.15395999,0.0052774344,-0.027260207,0.010631773,-0.054211907,0.07074715,0.08200452,-0.05118054,-0.03563541,0.025633158,0.018321436,-0.031220008,0.020934723,0.04696281
097d0891d4e3b47668d787792cfdf0ae,0.084204964,-0.08597465,-0.054557867,0.063637696,-0.0070843506,-0.013904636,-0.06669999,-0.021055918,0.10263325,0.048969794,-0.12910165,-0.1117942,0.14113316,0.027467255,0.12497339,-0.041605946,-0.0025997893,0.010248719,0.01183404,0.11263349,-0.034508612,-0.033098884,-0.07191883,0.15369281,0.062487274,-0.0094297575,0.069823734,0.05879239,0.03404923,-0.013580028,0.032735687,-0.033458117,0.0026887662,0.07280655,0.116063364,0.022432985,-0.010708257,-0.006018499,-0.03878294,-0.021892643,-0.1305125,-0.061381813,0.12148094,-0.023927134,-0.036896933,0.07551703,0.03400993,0.11056277,0.0426574,-0.08380446,0.00095325836,0.052426737,0.028378526,-0.08605656,0.0089697465,-0.120944336,0.069151945,-0.008031716,-0.09741388,0.0635245,0.020686666,0.033950925,-0.09280298,0.011914241,-0.023401918,0.1228821,-0.04141533,-0.0049873814,0.0029035276,-0.1546676,0.066051796,0.025930682,-0.08335134,-0.11696407,0.00518501,0.0060416195,0.036094908,0.050055336,0.02440733,-0.08437552,0.012471139,0.084191136,0.007894227,-0.06418363,-0.05523589,-0.0044516595,0.017883226,0.1302894,0.048763435,-0.09200074,0.09965608,0.0055787303,-0.12347413,-0.029892057,0.05695744,0.13289464,-0.077492684,-0.019779455,-0.0074068746,-0.027728608,-0.005376151,-0.03823394,-0.0028505255,-0.120673224,0.013911925,-0.07653862,-0.015741192,0.15254664,-0.08063669,0.021144733,0.038958244,-0.13168377,-0.013449875,0.12010624,0.11927832,-0.014966984,-0.043953683,0.0046213246,-0.045273863,0.06515619,0.019643724,-0.07423739,-0.021937309,-0.00073478173,-0.06714883,-0.023312386,0.022727488,0.11418168
09f623304b98d1bdc15ed33660ba337f29fa784f81e237b89d04c4f1a20d0d4b,0.03609758,-0.052683294,-0.03543614,0.021499446,0.0028992135,-0.016170925,-0.026683513,-0.00055992196,0.055925377,0.029821323,-0.082140625,-0.057274066,0.08371692,-0.014651173,0.077453606,-0.03241462,-0.0028671194,0.005015364,-0.013310065,0.07852652,0.0066242632,-0.0056258296,-0.026477717,0.08306739,0.04586601,-0.01925177,0.03228602,0.064024836,0.017562762,0.007445762,-0.014566201,-0.04236883,0.009821247,0.07363147,0.0786428,0.009091143,0.003969267,-0.024606101,-0.032143384,-0.011036362,-0.068085216,-0.028651375,0.071462385,-0.03785873,-0.004862414,0.061954927,0.029147992,0.05679371,0.013423551,-0.02846613,-0.009295414,0.029809713,0.014356257,-0.03528756,-0.02065617,-0.084712446,0.00044501282,0.026745072,-0.036776923,0.04095213,0.05863713,0.029301422,-0.077173255,0.0179597,0.0036550201,0.066853516,-0.0016430963,-0.0014324307,0.019123835,-0.088270165,0.035045642,0.024511551,-0.08086165,-0.068106234,0.026029665,0.007627569,0.027595693,0.024836164,0.04650016,-0.06109159,-0.015866874,0.057040356,-0.023207286,-0.023752816,-0.029645447,-0.012452528,0.025567677,0.0946617,0.0124748675,-0.059551146,0.05447926,0.02111593,-0.088937744,-0.02216147,0.05556945,0.07996757,-0.047225025,0.028339341,0.02373159,-0.028093506,-0.008825264,-0.00033339742,0.0028506923,-0.07301504,0.0328436,-0.051945817,-0.020868745,0.060843367,-0.046302658,0.017404854,0.017076127,-0.061182573,-0.0025657136,0.08927649,0.06233603,-0.008343065,-0.045159444,-0.026909808,-0.0012509096,0.05473606,-0.0034449305,-0.07744686,-0.02056277,-0.021000683,-0.043357868,-0.025405793,0.0008539854,0.047698323
09f83b8840be3869a1db8b8b49f2cb1fd0f8a04b9a0c09f56bdb54d272f8b788,0.12601975,-0.24247876,0.018095884,-0.05327786,0.06611204,0.02806635,-0.027391383,0.08453763,0.043457408,0.011074409,-0.22910099,-0.13845372,0.01024301,0.035746623,0.16521132,-0.1467719,-0.022527637,-0.044314817,0.014958333,0.27159795,-0.06769347,-0.0779397,0.06703882,0.17960988,0.22236416,-0.031999454,-0.069564305,0.1823268,-0.0514295,-0.122347124,-0.06273322,-0.05401365,0.10597247,0.13874345,-0.02790616,0.11508047,0.03308164,-0.16189194,-0.06314187,0.0020449052,-0.18883304,0.14080246,0.092044234,-0.13574769,0.09095243,0.107348815,-0.08935091,0.14041825,-0.024978017,-0.13413364,-0.038687088,-0.029708847,-0.045581292,-0.047183346,-0.09030981,-0.2269298,-0.025682565,-0.046420302,-0.08021501,0.12216476,0.16858926,0.011434657,-0.21923903,0.019815512,0.088164315,0.23058124,0.072867304,-0.052069295,0.017733693,-0.17655845,0.16708978,0.12292863,-0.2282158,-0.16739857,0.21304284,0.001780798,-0.03403475,-0.024862766,0.15315135,-0.25166538,0.021939404,0.11364515,-0.10887201,-0.07444012,-0.090614624,-0.08670514,-0.15122074,0.2993909,0.07891149,-0.28816965,0.09766598,-0.020896977,-0.2045711,0.011859868,0.102805115,0.07729334,-0.040736575,0.071125865,0.08068619,0.032301888,-0.060182147,-0.015441486,0.107979834,-0.093511835,0.02023622,-0.12428434,0.0029807813,0.042179927,-0.13177186,-0.059028372,0.08769566,0.0030383712,-0.03858728,0.19525848,0.09735879,-0.07334513,-0.1666741,-0.073518,-0.051053036,0.17513822,0.07584643,-0.23522244,-0.09802714,-0.06869558,-0.09160759,-0.14371115,-0.07332837,0.15543202
09fd6ee7e78f977f4cb86d35f4550a8c,0.042725984,-0.12013054,-0.016971756,-0.022593226,0.01885298,-0.007755541,-0.005074858,0.053795893,0.022199962,0.018816303,-0.108459234,-0.0546833,0.03180337,0.0014501038,0.07005786,-0.059206378,-0.0013785771,-0.012227429,-0.017708775,0.13507883,0.0027791122,-0.040487673,0.025890017,0.0828675,0.082772136,-0.024190962,-0.0026985377,0.10148875,-0.010199703,-0.03383108,-0.044454396,-0.043578766,0.015996478,0.07570653,0.02695241,0.043549977,0.01810987,-0.07175115,-0.038667105,-0.012609551,-0.084121585,0.047962725,0.056390878,-0.06843229,0.04148501,0.080404624,-0.02436458,0.078368746,0.0025687725,-0.04601555,-0.02382666,0.0030074343,-0.01682755,-0.034541212,-0.047561057,-0.11431412,-0.016306195,0.011881501,-0.027103858,0.06725684,0.079735026,0.019255893,-0.113802254,0.022535246,0.038854938,0.095365144,0.037444703,-0.012819949,0.052303974,-0.089801736,0.054519653,0.05584367,-0.11128512,-0.06546206,0.09820873,0.02249857,-0.02376619,0.0063200314,0.086655766,-0.12969187,-0.00470079,0.069429696,-0.06120762,-0.029796898,-0.037005097,-0.049344007,-0.055671204,0.13616116,0.023535687,-0.12458346,0.056270182,0.007295221,-0.09769335,-3.9167826e-05,0.050888125,0.04152429,-0.022720981,0.055195093,0.06634625,-0.020067025,-0.024098713,0.0055670617,0.040223263,-0.048479006,0.016840238,-0.06067373,-0.014004524,0.01730277,-0.042957626,0.0009978592,0.032234393,-0.010197967,-0.022759737,0.1010539,0.04969075,-0.028190687,-0.07760753,-0.06486381,0.009153009,0.08460477,0.0067272494,-0.11487174,-0.026601376,-0.051406268,-0.043672763,-0.053904627,-0.02748648,0.060798153
0a02f9f65079fc410334906886afb545,0.03298111,-0.030813055,-0.018124543,-0.00939094,0.014860479,-0.094909035,-0.052882012,0.015522647,0.027453382,0.014765319,-0.06647847,-0.11284228,0.058291465,-0.016968524,0.11843391,-0.01154167,-0.013487926,0.02072189,-0.010976515,0.083767444,-0.028574748,0.024615662,-0.03230194,0.111712426,0.06518491,0.0074733547,0.06903177,0.062453963,0.017589742,-0.0012737941,0.008058894,-0.03267802,-0.034083687,0.10110913,0.08039625,-0.0009651284,-0.03087524,-0.042136963,-0.03538824,-0.017458534,-0.08925424,-0.020719986,0.102945045,-0.017828096,0.022450346,0.09455301,0.0021689697,0.10504354,0.017347008,-0.067404926,0.035352547,0.054715164,0.032744437,-0.09078386,6.3072046e-05,-0.13368252,0.055437986,0.0058783162,-0.060156256,0.028237266,0.043495636,0.026717784,-0.115875274,0.03957927,-0.023521973,0.042439986,-0.0068729133,-0.006496987,0.012095096,-0.12481137,0.041149065,0.052155416,-0.080152355,-0.035871964,0.025504773,0.024680333,0.022818267,0.074002214,0.039192494,-0.044802845,-0.0062909494,0.084821545,-0.011834048,-0.0632061,-0.0019822207,0.0012006866,0.01534619,0.112958126,0.07183014,-0.08631385,0.10481989,0.0034325726,-0.08565243,-0.021543583,0.03793136,0.11657325,-0.046385985,0.00015088898,0.036121376,-0.034891684,0.007722619,-0.024464594,0.057951193,-0.14708047,0.031816524,-0.056832414,-0.043964345,0.082698956,-0.0070541627,0.0035792065,0.06076229,-0.049836468,-0.048190515,0.057390414,0.024197225,-0.002527636,-0.02069822,-0.04635162,-0.0137471035,0.06738887,-0.009598765,-0.06788312,0.0119082965,0.0016691,-0.07461626,-0.048948165,-0.01743298,0.09993811
0a1310fd4e68a3de2e57ce3f4888c81a,0.1453397,-0.23249392,-0.075869165,0.038886786,0.032777652,0.2027462,-0.025907595,-0.047469523,0.11788327,0.08162971,-0.4782144,-0.057950553,0.30094206,-0.23515627,0.11362721,-0.34786636,-0.047191046,-0.0016372734,-0.14785618,0.28607196,0.11316038,-0.06311169,0.03729285,0.19720635,0.1716188,-0.2562507,-0.1433672,0.35502228,0.09571036,0.25057757,-0.24169476,-0.31309798,0.3467202,0.40461937,0.1821727,0.00058647734,0.045512456,-0.30647862,-0.12321177,-0.022173896,-0.286576,-0.044788938,0.06617724,-0.23363484,0.024329845,0.15572043,0.11645975,-0.00072509516,0.081730805,0.041304134,-0.36756256,-0.09271486,-0.06520198,0.1379299,-0.3115829,-0.1312962,-0.41284332,0.334822,-0.031023085,0.30403113,0.50759614,0.25742242,-0.2503699,0.13048491,0.26424524,0.31257683,0.22938712,0.014798628,0.11066085,-0.12801398,0.14098968,0.15866053,-0.5294505,-0.34878945,0.3782787,-0.012544088,0.255267,-0.047645986,0.21432559,-0.34855947,-0.030870384,0.024331605,-0.33946314,0.025078336,-0.120436445,-0.1911147,0.11970746,0.4789068,-0.07977692,-0.16723637,-0.006490383,0.1426664,-0.3747434,-0.23425367,0.43301296,0.17069723,-0.14411506,0.1867053,0.052799612,0.09541701,-0.11719576,0.14748594,-0.13449872,-0.09311237,0.2709188,-0.1964617,-0.0053275814,0.043303557,-0.308385,-0.08852136,-0.009517108,-0.18743831,0.2104351,0.433432,0.19805813,0.015214219,-0.35430363,-0.22316708,0.09610027,0.30262044,-0.074023664,-0.4714231,-0.24558137,-0.2758434,-0.20439424,-0.05164748,0.07022794,0.060632788
0a1830c9206118843062d06d668c89622b88bea97fdb189e80b060d50905e7e3,0.045976404,-0.10172124,-0.019088194,-0.004857529,0.020611875,0.036034163,0.008217761,0.043294024,0.0408561,0.010159893,-0.094911404,-0.03002988,0.040453862,0.022844037,0.0360747,-0.057529535,-0.00030054784,-0.01400985,-0.0057820375,0.09813658,-0.0013689802,-0.06710192,0.02906823,0.046956856,0.062370315,-0.011400026,-0.00050734763,0.07587115,0.0056346715,-0.0361962,-0.036628168,-0.033109304,0.039746284,0.043711677,0.004442595,0.035475224,0.009074867,-0.04323724,-0.019418333,-0.009411864,-0.06944315,0.039004877,0.051049005,-0.06265624,0.02306849,0.033046965,-0.044938236,0.04014357,-0.026521966,-0.022946626,-0.044042684,-0.023870613,-0.031008296,-0.02204996,-0.046632193,-0.07165473,-0.003990785,0.013306441,-0.03520629,0.07035035,0.04879914,0.00012926784,-0.071317144,0.00069045206,0.047168702,0.09636759,0.023912739,0.0002440319,0.03177891,-0.061393876,0.03741849,0.038701545,-0.06437814,-0.06200257,0.07549577,0.027113726,-0.011700356,-0.00076253054,0.06289304,-0.11133684,-0.009681886,0.046662334,-0.038193464,-0.03925383,-0.046292383,-0.03209437,-0.06798557,0.11331106,0.0008287544,-0.08333962,0.030613478,0.016020186,-0.07489486,-0.011888393,0.032839254,0.019157989,-0.039181378,0.05643432,0.053330872,-0.01682802,-0.03684796,0.002978058,0.012651148,0.02125961,0.0069287354,-0.049538475,0.0249077,0.02294536,-0.068607315,0.0077716815,0.0096980035,-0.011621567,-0.0052416674,0.100338906,0.08220162,-0.018191222,-0.071451925,-0.033467904,0.0035397254,0.0596417,0.034152236,-0.0684296,-0.04185244,-0.033769596,0.009382167,-0.028980425,0.0058110254,0.0072756354
0a8befffe85d17791a83d3a46dbcd271,0.056526277,-0.10876691,-0.03216301,0.020459026,0.01314274,0.021401163,0.0054397834,0.041445017,0.063809894,-0.0019835886,-0.103250295,-0.056020595,0.059726708,0.031913817,0.054568324,-0.056899317,-0.00556698,0.012450801,-0.006824779,0.09699379,0.0037975109,-0.07733696,0.022579324,0.05254386,0.06657745,0.0112419,0.022644931,0.060509462,0.018894978,-0.05875718,-0.025050942,-0.03023991,0.03211381,0.032373108,0.02627795,0.041668013,-0.013911798,-0.032379612,-0.021010816,-0.01467491,-0.08353636,0.035812303,0.07819237,-0.06214043,0.010568681,0.041894242,-0.04133714,0.07587413,-0.014757185,-0.029573757,-0.025115285,0.010872367,-0.017149618,-0.05473374,-0.023355465,-0.07209946,0.023380015,0.009314719,-0.04979576,0.08921791,0.020159306,-0.011335291,-0.06847725,-0.0059312787,0.041753612,0.1048689,0.0064704837,0.018479342,0.04124166,-0.09851523,0.024894767,0.03386727,-0.05494547,-0.06855156,0.057404257,0.038763203,0.004493906,0.03204958,0.06568115,-0.1052895,-0.006844769,0.059747603,-0.021627018,-0.049125627,-0.04530313,-0.008324603,-0.06833853,0.11024455,0.0051706536,-0.08861491,0.059435498,0.016510757,-0.08906859,-0.011193621,0.028521538,0.05000922,-0.052496314,0.045864828,0.06158943,-0.05897647,-0.02735073,-0.007656958,0.025810037,0.0029396517,0.0064224442,-0.05290475,-0.0046456335,0.04236462,-0.080307916,0.021704853,0.020556984,-0.039254997,-0.010264601,0.1002736,0.090348504,0.0005751426,-0.06263747,-0.026199164,0.0076134065,0.063319236,0.03333603,-0.07723366,-0.04404613,-0.03057418,-0.0025732089,-0.024372444,0.018611958,0.010525767
0b6f94ccbe1d282fa632d43907932ec4,-0.0040916307,-0.014279866,0.01361897,-0.039790947,0.023121422,-0.05193959,-0.024776645,0.032696605,-0.028047698,-0.02141049,-0.036797695,-0.055505127,-0.018612554,-0.03627114,0.046143923,-0.01930962,-0.010474613,0.0088511305,-0.035799507,0.041249193,0.0028471868,0.015096112,0.0247289,0.032467764,0.04383748,-0.014449914,-0.012682787,0.057822205,-0.0035734964,0.006553527,-0.030469388,-0.025010286,7.1029295e-05,0.06701851,0.016627287,0.0070269373,0.0080446815,-0.06637902,-0.025706235,-0.011840361,-0.053735238,0.03255062,0.031425178,-0.024462448,0.043257862,0.06085405,-0.016559852,0.035386615,0.014115633,-0.008797438,0.008096981,0.016077846,0.020474968,-0.02827273,-0.033932142,-0.067963555,-0.029577069,0.023486283,-0.005622074,0.035107937,0.06736799,0.021910133,-0.07500032,0.031823196,0.020600308,-0.0076171933,0.03405415,0.0063137114,0.032916788,-0.045127954,0.0093685,0.048128787,-0.059814252,-0.0039825547,0.053249467,0.010058969,0.015018369,0.028268183,0.047643155,-0.028612107,-0.01887756,0.024744364,-0.047133576,-0.015203483,0.015923975,-0.019127034,0.0064724702,0.06533821,0.036675047,-0.049958054,0.018929273,0.0127590615,-0.049794413,-0.013204439,0.033756778,0.03727513,-0.0029858425,0.017068088,0.047101174,-0.022625932,-0.0036838527,0.014260109,0.047050066,-0.06162563,0.052260987,-0.027928924,-0.04878561,-0.008174163,0.010092534,-0.012492253,0.049104683,0.025630007,-0.018941842,0.023352833,-0.025297001,0.003400199,-0.0375417,-0.06964145,0.01746411,0.051548414,-0.022363206,-0.06948599,-0.0043007927,-0.011690268,-0.036738873,-0.047864396,-0.010665774,0.049011264
0bb2f4d84a08b94f4539a4615a6fadc2,0.05695239,-0.12528312,-0.018402524,-0.01166551,0.017180791,-0.0033398105,-0.0155574735,0.04844655,0.030565213,0.017360838,-0.13566445,-0.05684078,0.055429675,0.0056642722,0.0749739,-0.07595725,-0.014106362,0.009077248,-0.039022036,0.13706657,0.018426541,-0.050951064,0.01821022,0.081036575,0.094191276,-0.029677438,0.0022966943,0.10798848,0.0006471972,-0.025326882,-0.06109853,-0.04785955,0.033609442,0.0843613,0.029970024,0.050368667,0.016839566,-0.078553304,-0.043044828,-0.022314968,-0.10598949,0.054180477,0.07182795,-0.09038927,0.045284193,0.08202779,-0.03783172,0.08485587,-0.012788019,-0.032211088,-0.038353283,0.0058527226,-0.017386774,-0.033756565,-0.06940057,-0.117925145,-0.014208391,0.026966635,-0.036645137,0.095365666,0.100751676,0.030098248,-0.11852755,0.036732357,0.051946606,0.111425936,0.044137776,0.002869649,0.061848156,-0.1114985,0.047437556,0.070867896,-0.11756675,-0.07735936,0.11720382,0.03958191,0.0037575695,0.012754831,0.101711884,-0.14552975,-0.015329766,0.07229044,-0.06941373,-0.029133454,-0.043201063,-0.043997288,-0.050517395,0.16206513,0.027201464,-0.12277817,0.054654304,0.02421866,-0.124925844,-0.02129471,0.07363714,0.068759635,-0.028440693,0.077508144,0.07866688,-0.040933583,-0.034673743,0.013738859,0.045213707,-0.03827981,0.04819755,-0.06860387,-0.026976872,0.024666317,-0.06486123,0.0051278328,0.033520345,-0.021654358,-0.013791541,0.13329731,0.07952122,-0.025512077,-0.08480681,-0.083362766,0.013391131,0.102324255,0.011017452,-0.12869664,-0.038622316,-0.041897595,-0.038886953,-0.057578344,-0.0061382963,0.057989337
0bd8963ea2899b2d78d92e70d5bac4f2,0.040839467,-0.0692262,0.006808088,-0.026527645,0.05421465,-0.0518325,-0.02892661,0.04170051,-0.020379325,-0.02902997,-0.09503887,-0.07472689,-0.026051868,0.020351911,0.08086296,-0.035570808,-0.008215182,-0.013300334,0.015056866,0.10590812,-0.049924485,-0.010963415,0.014689195,0.06522641,0.084137335,-0.004693279,-0.02551734,0.09152678,-0.019976456,-0.042834505,-0.014938057,-0.019307708,0.007788945,0.08481728,-0.0071511734,0.020375649,0.0026200903,-0.08122034,-0.031838145,0.013430543,-0.09079092,0.05712953,0.05481653,-0.030156575,0.03397873,0.06241964,-0.062262736,0.08004393,-0.0046636183,-0.08319454,0.01210919,0.006203612,-0.009247559,-0.052861016,-0.03838398,-0.12964374,0.01727141,-0.0522574,-0.047110807,0.040356476,0.044068575,-0.011712169,-0.1009793,0.028645314,0.004111652,0.057858177,0.02220378,-0.028738856,-0.028310634,-0.07749546,0.065779395,0.051689003,-0.08325358,-0.023962962,0.087009124,0.028524725,0.013986545,0.021294339,0.045307957,-0.05734698,0.011012935,0.06475009,-0.0148331905,-0.049401898,-0.0047479356,-0.031151889,-0.054805797,0.14145334,0.065648325,-0.10711827,0.04099998,-0.0059506055,-0.06864802,0.014992944,0.031952202,0.04387306,-0.027537255,0.020231146,0.010259731,0.025305344,-0.00571997,-0.021676058,0.06486032,-0.074007,0.005872671,-0.051529437,-0.004916496,0.041110996,-0.019036848,-0.047165196,0.05840717,0.017819053,-0.05053696,0.06720222,0.021543704,-0.027730307,-0.04790992,-0.02388861,-0.049242828,0.10321828,0.0014390666,-0.060676016,-0.020756809,0.007029413,-0.057482697,-0.047937177,-0.054912873,0.10835627
0bf493ef499bf4331f7f9ebd444553cd,0.053664915,-0.15506887,-0.042796064,0.0206853,-0.02097118,0.044139437,-0.00096756464,0.044277076,0.06199051,0.035944473,-0.113632604,-0.010947508,0.09789122,0.030964047,0.042028144,-0.06655599,-0.004827779,0.021216363,-0.030918173,0.12427994,0.03033563,-0.09570744,-0.0068147234,0.05896727,0.046193603,-0.04415574,0.009459711,0.083102904,0.024539731,-0.01944246,-0.06260547,-0.042682674,0.03536191,0.027604813,0.051122207,0.036046527,0.0384015,-0.041667815,-0.039097846,-0.04024403,-0.06123322,0.0401831,0.07575367,-0.07318076,0.01839364,0.064590245,-0.006513248,0.036056392,-0.010085224,-0.0025747777,-0.08377868,-0.018639982,-0.022618901,-0.0013509598,-0.0754695,-0.06876444,-0.0017276488,0.041363448,-0.04525014,0.0932328,0.066907585,5.4157106e-05,-0.065639235,0.024051236,0.04023773,0.1379494,0.019283717,0.030866543,0.08187435,-0.0756385,0.019097677,0.040258005,-0.07867856,-0.074217916,0.06596057,0.05953754,-0.0027797222,-0.0020504799,0.08399818,-0.13274303,-0.021914622,0.06780381,-0.04003443,-0.0057229316,-0.06560593,-0.032521702,-0.05506638,0.09971403,-0.022173544,-0.08237977,0.030882848,0.033265475,-0.10266037,-0.017683167,0.059446353,0.038118258,-0.046065234,0.08141369,0.08351165,-0.0710327,-0.05133333,0.012719875,-0.0045512975,0.022124447,0.016295439,-0.068169594,0.01761684,0.018881397,-0.08952703,0.040648315,0.015163522,-0.052722327,0.020314619,0.16851886,0.14182636,-0.030550681,-0.080372795,-0.059627604,0.025059614,0.07002305,0.0069475574,-0.0835856,-0.05781368,-0.05418707,0.01804109,-0.014255864,0.014029965,-0.00069368386
0c3583b5cd35e822cc0d9f2fca77c3ee7fa7208e7028d3f38cc623f51e165218,0.023016931,-0.018424917,-0.035318285,-0.03344138,-0.013261003,-0.1714439,-0.2677905,0.13671997,-0.04566095,-0.21387959,-0.29483017,-0.75418043,0.02572498,0.18550465,0.32262748,-0.2566944,-0.25783244,0.35905498,-0.3631229,0.27339843,0.24469642,0.13130859,0.25188425,0.15516326,0.51835924,0.04891082,0.2291682,0.34634295,0.011892728,0.0051794173,-0.19432774,-0.18180034,0.4491733,0.46205324,0.062328193,0.25744563,-0.082990535,-0.65141666,-0.08846586,-0.18182921,-0.65813303,0.31925598,0.41791445,-0.11203497,0.2393443,0.3486979,-0.35902435,0.4610872,-0.26415527,-0.09255616,-0.16345188,0.2883507,0.12086985,-0.48805776,-0.19298086,-0.20010465,-0.19035767,0.38819003,-0.21098296,0.66782415,0.46707362,0.026618348,-0.681809,0.12466501,0.51924753,0.111729585,0.21487588,0.29299137,0.24894436,-0.54080737,0.20256558,0.6766495,-0.32016745,-0.46105582,0.3685896,0.24547234,0.104115196,0.2098478,0.38021418,-0.26084343,-0.2022016,-0.043383863,-0.4123685,-0.103597194,0.22157307,-0.06486478,-0.25667977,0.6674117,0.4119407,-0.50371665,0.21975903,0.25485954,-0.6401497,-0.15149774,0.14675668,0.35622203,-0.15572628,0.04680166,0.53779376,-0.3131748,-0.2656386,-0.08945881,0.034423355,-0.10126937,0.4637457,-0.22148576,-0.39209217,0.05659202,-0.52981454,-0.03463031,0.3937249,-0.011323347,0.12650986,0.39720646,0.20543393,0.21733734,-0.49723125,-0.5991407,0.021060757,0.34910694,0.08239715,-0.8632797,-0.34195697,0.096478656,-0.11015514,-0.24517505,0.21017808,0.11908229
