type,x_0,x_1,x_2,x_3,x_4,x_5,x_6,x_7,x_8,x_9,x_10,x_11,x_12,x_13,x_14,x_15,x_16,x_17,x_18,x_19,x_20,x_21,x_22,x_23,x_24,x_25,x_26,x_27,x_28,x_29,x_30,x_31,x_32,x_33,x_34,x_35,x_36,x_37,x_38,x_39,x_40,x_41,x_42,x_43,x_44,x_45,x_46,x_47,x_48,x_49,x_50,x_51,x_52,x_53,x_54,x_55,x_56,x_57,x_58,x_59,x_60,x_61,x_62,x_63,x_64,x_65,x_66,x_67,x_68,x_69,x_70,x_71,x_72,x_73,x_74,x_75,x_76,x_77,x_78,x_79,x_80,x_81,x_82,x_83,x_84,x_85,x_86,x_87,x_88,x_89,x_90,x_91,x_92,x_93,x_94,x_95,x_96,x_97,x_98,x_99,x_100,x_101,x_102,x_103,x_104,x_105,x_106,x_107,x_108,x_109,x_110,x_111,x_112,x_113,x_114,x_115,x_116,x_117,x_118,x_119,x_120,x_121,x_122,x_123,x_124,x_125,x_126,x_127
003f3e6fc1634f4fc95c9a2e80bcf1fa,0.062612735,-0.087518476,-0.019623611,0.024450356,0.0010404504,-0.018958058,-0.080993235,-0.01068889,0.03588499,0.031255744,-0.11438598,-0.13584556,0.094302684,0.0028618558,0.12927343,-0.0603335,-0.013232758,0.016579285,-0.018561391,0.11844236,-0.030612743,0.01057564,-0.064992495,0.17246422,0.08158436,-0.0399799,0.021730192,0.07321904,0.00697841,0.013208789,-0.0064848624,-0.044587612,0.053600967,0.120213605,0.092031285,0.0385929,0.02657878,-0.081972696,-0.045377415,-0.019587925,-0.12284946,-0.0065307263,0.09683995,-0.012439713,-0.011653034,0.113610305,0.0067990194,0.094629265,0.031880848,-0.07188918,-0.026964774,0.029146612,0.047690812,-0.036129136,-0.022676188,-0.10775936,0.02758067,0.019765507,-0.09152876,0.061699443,0.083346665,0.032381363,-0.107192926,0.056104712,0.016658442,0.09968915,0.008914585,0.0072995303,0.0020096297,-0.15135126,0.07493423,0.09158635,-0.09720492,-0.10579192,0.038933925,0.0046606334,0.026442626,0.032481212,0.015593538,-0.067641675,0.00010054372,0.06686248,-0.028463464,-0.04337782,-0.020131322,-0.024448588,0.003402906,0.15686645,0.061268426,-0.086631484,0.08624572,0.022737721,-0.12806144,-0.013884045,0.04760399,0.11046226,-0.05015724,-0.008968598,0.012569997,0.010778037,-0.023034653,-0.02444119,0.004722938,-0.12657355,0.06588525,-0.06058943,-0.041451532,0.116071455,-0.09743338,-0.034815256,0.04728688,-0.09884604,0.012583681,0.113816306,0.08368222,-0.015493849,-0.06953525,-0.044651374,-0.062135633,0.09569623,-0.0011776586,-0.12986428,-0.04114194,0.0034324427,-0.08501183,-0.05043216,-0.003144222,0.1113605
003f7e2a32d6132d74bd1eafc793b6c1,0.04551033,-0.14128907,-0.07211523,0.103883855,-0.07841324,-0.029895006,-0.16362013,-0.18240365,0.1332879,0.026894515,-0.28202352,-0.16616765,0.31557935,-0.17025225,0.18023713,-0.09428731,-0.029324992,0.13261808,-0.120028794,0.14681008,0.025543306,0.18169695,-0.27677628,0.34176686,-0.022007804,-0.25997633,0.017335858,0.13581693,0.1100491,0.38418606,-0.105130345,-0.14889567,0.13251172,0.44919294,0.51279455,-0.014678043,-0.03999229,-0.1707478,-0.09348589,-0.010467336,-0.115805164,-0.2840367,0.14071469,0.09190081,-0.13225017,0.23403354,0.2975714,0.11527159,0.14794876,0.034247186,-0.25711128,0.12037566,0.07445578,-0.03825988,-0.13757858,-0.21440515,-0.14368027,0.23119354,-0.079876944,0.09504826,0.2979221,0.1993679,-0.20596528,0.17096615,-0.013991506,0.15115923,0.019107636,0.15408744,0.02522782,-0.13373859,0.093134575,0.07716247,-0.5123931,-0.26967177,0.13358013,-0.089581154,0.29827562,-0.056805264,0.12429495,-0.08051108,-0.09471865,-0.0016282822,-0.1984934,0.1085912,-0.1426653,-0.1750922,0.23920126,0.3526378,0.08212242,0.021967305,0.07536978,0.0740635,-0.26782167,-0.24232283,0.32939035,0.36397693,-0.0931971,0.086788155,-0.076064214,-0.013989596,-0.05425548,0.064179204,-0.16540216,-0.34595597,0.33614632,-0.12378155,-0.11472019,0.26646352,-0.09580031,-0.047110446,0.05948983,-0.33950567,0.19607186,0.32089412,0.16651884,0.07221291,-0.10076105,-0.1719699,0.05632036,0.21472129,-0.19520524,-0.3174652,-0.0022835573,-0.06037338,-0.24255306,0.045616444,0.1325532,0.19927192
004b3dc6622a2a9374f6c289faf52d92c014452076d83648adf8e09d9ac82512,0.01893885,-0.05407217,-0.022073084,0.017739115,-0.0029898756,-0.018080322,-0.040445562,-0.005621886,0.035426904,0.002644896,-0.0646473,-0.06196119,0.050803922,-0.0043159267,0.06692989,-0.020308113,0.00012660943,0.008345583,-0.018319476,0.06028273,-0.01127641,0.0081925085,-0.043234963,0.08187052,0.022972234,-0.030883335,0.010774852,0.043866087,0.009369693,0.028411573,-0.012051754,-0.012032501,0.022783069,0.068757184,0.07009184,0.020039327,0.0028491647,-0.037346706,-0.026903534,-0.011777638,-0.04581573,-0.01739035,0.05424294,0.004964589,-0.010325415,0.05435228,0.019862494,0.059131686,0.00091141113,-0.017451908,-0.02805438,0.02993564,0.019024197,-0.030840717,-0.014894294,-0.053356487,0.007078067,0.023733946,-0.03209129,0.037936855,0.037648063,0.013494632,-0.06175511,0.022498881,-0.00013295433,0.048786685,0.009831268,0.017588219,0.009999128,-0.07216281,0.018937228,0.044990472,-0.06521627,-0.05381897,0.03416788,0.0151999,0.02287928,0.015149361,0.010971546,-0.030755747,-0.016379002,0.028112218,-0.030175408,-0.016233735,-0.0039390614,-0.023933066,0.0010383059,0.08784768,0.030129753,-0.042445727,0.041956816,0.01674955,-0.06964789,-0.013051661,0.03838026,0.054239735,-0.030457659,0.0024251677,0.018746419,-0.019555593,-0.007069057,-0.000645199,-0.005881834,-0.06208297,0.03517964,-0.02333518,-0.013229269,0.05119599,-0.05569143,-0.018374197,0.020706095,-0.05210506,0.017584627,0.06138486,0.05059778,0.0077312314,-0.025918696,-0.031546175,-0.0161867,0.05625928,-0.0039164973,-0.06883936,-0.0038203658,-0.006471224,-0.03198692,-0.023087388,-0.0071245213,0.04055171
0064bd63e7337da6616b0d6adb03ca99,0.08399388,-0.19550058,-0.07643422,-0.030927692,0.025722547,-0.15956102,-0.16221446,0.02990548,0.06902207,-0.00066091254,-0.20874497,-0.28865394,0.120505475,-0.056283254,0.29012114,-0.060547464,-0.027442584,0.06336871,-0.10016212,0.23276128,-0.020183256,0.06973463,-0.12722324,0.27674112,0.16199082,-0.062319577,0.073121004,0.19571903,0.030081464,0.00029383102,-0.056465913,-0.06665473,0.017689452,0.22943524,0.14183857,0.11487458,0.06037862,-0.22437753,-0.15662208,-0.029795393,-0.16219798,0.038788836,0.19755965,-0.07687943,0.05129152,0.254335,-0.05157288,0.2068593,-0.02705473,-0.067632526,-0.0017950931,0.093792096,0.11069782,-0.10896205,-0.07428495,-0.2694711,0.07795757,0.056993578,-0.12202392,0.17181191,0.12329767,0.042707253,-0.28282037,0.15750766,0.02090895,0.11585309,0.046761382,0.031297144,0.041408572,-0.29424644,0.098932154,0.21432945,-0.17180437,-0.0977143,0.04258695,0.07813061,0.031973068,0.13979936,0.0057508,-0.103661984,-0.065640345,0.16756773,-0.10486915,-0.1677238,0.048152562,-0.055138856,0.04218619,0.33230773,0.14935401,-0.1615967,0.18571867,0.03027226,-0.1932761,-0.015321286,0.050735887,0.22335038,-0.05582964,0.025072314,0.10994833,-0.05044673,-0.003806537,-0.0014976787,0.081394844,-0.26658806,0.15638246,-0.05726923,-0.12827244,0.16564786,-0.08503476,-0.08700426,0.101085864,-0.10296696,-0.04229975,0.15093891,0.08802461,-0.012564288,-0.08753848,-0.16670293,-0.0964397,0.21101516,-0.015156126,-0.319767,0.009106181,0.06366611,-0.13936721,-0.14068028,-0.021418996,0.17679037
009ed622bf936a036828fab19ceb69d78264ab51507396a3809bbe947ddd9ddf,0.04262247,-0.11962158,-0.021278085,0.0054777563,-0.01004567,0.04545919,-0.012568018,0.018957544,0.02879137,0.036598,-0.101551116,-0.0061584823,0.05564081,0.0039803376,0.038341936,-0.082101725,0.00369136,-0.018182417,-0.029188527,0.11026845,0.0072747655,-0.05744967,0.011716703,0.07614982,0.040006172,-0.058301117,-0.03272813,0.0802176,-0.00090940297,0.00849633,-0.049271643,-0.032116365,0.06659603,0.04675883,0.031010976,0.033063497,0.037153285,-0.059828084,-0.043090492,-0.016182529,-0.06795213,0.029695198,0.024111463,-0.04985369,0.006863592,0.041897263,0.008260753,0.023682408,0.0021164152,-0.015707072,-0.06515245,-0.025420161,-0.008257167,0.03220503,-0.060935143,-0.03587052,-0.05278975,0.039295156,-0.02100116,0.061351504,0.10280912,0.029037084,-0.08044065,0.04823987,0.04835966,0.11922442,0.043090057,0.0053787865,0.05597517,-0.06638283,0.038210314,0.037337013,-0.106496274,-0.10309945,0.08076342,-0.005620271,0.01732758,-0.027609235,0.059017874,-0.0995048,0.00411721,0.04442475,-0.081879035,-0.008795094,-0.050635263,-0.04575437,-0.025654787,0.118627675,0.003989785,-0.08714282,0.0149139315,0.027458498,-0.095855914,-0.016274286,0.060917486,0.040153258,-0.012932758,0.036480706,0.045727886,0.002778583,-0.043879002,0.009479228,-0.020076497,-0.021946212,0.0377558,-0.044104833,-0.007579907,0.029416569,-0.101175964,-0.01186858,0.009427631,-0.04786779,0.029424595,0.11172356,0.07927016,-0.017026106,-0.08002912,-0.046226095,0.005048973,0.07600383,0.0033658524,-0.1075247,-0.058013104,-0.039758887,-0.037469443,-0.028105387,0.004874139,0.032452274
00bc7defa16eb3171966a8fb0e740750,0.05984322,-0.11248478,-0.068300545,0.014467989,-0.0029593362,-0.043185994,-0.051756162,0.003869096,0.06606335,0.01959636,-0.09883132,-0.09781862,0.06215771,0.04292447,0.11981242,-0.0326976,0.0057884525,-0.0034132279,0.005743213,0.11501984,-0.031579573,-0.039176833,-0.04365988,0.11220856,0.047128815,-0.0047818962,0.056495126,0.07581888,0.031951346,-0.03062189,-0.0019030501,-0.009457982,0.014334569,0.05883407,0.06599551,0.055331204,0.0009503462,-0.05522104,-0.07737992,-0.020764634,-0.09810733,0.020755475,0.1022702,-0.028152488,-0.00878434,0.07805455,-0.010800302,0.11361675,-0.01962066,-0.0689114,-0.0073163453,0.028770141,0.030739605,-0.06574063,-0.021048779,-0.10191344,0.04980805,-0.010397563,-0.07409665,0.06595087,0.031031247,-0.011938218,-0.09098513,0.022530286,0.025979394,0.1375407,-0.000306403,-0.0129602095,0.025074817,-0.14037198,0.04935929,0.0572527,-0.06126111,-0.105408914,0.056598958,0.05208384,-0.00304597,0.024194561,0.016014552,-0.10063574,-0.0114782415,0.10217166,-0.028540967,-0.0629334,-0.018795522,-0.0035043303,-0.05943869,0.13182725,0.038341317,-0.09079359,0.075520046,0.011288005,-0.10786713,0.00045616316,0.022958703,0.08394618,-0.05267118,0.0229156,0.035410415,-0.037216343,-0.015948294,-0.022290727,0.029919146,-0.0513801,0.021853462,-0.05072064,-0.008362172,0.09816492,-0.10767442,-0.009380594,0.028884126,-0.060301874,-0.02727076,0.121786505,0.10583046,-0.006903207,-0.06584376,-0.01929523,-0.056240287,0.09410503,0.030881133,-0.11307203,-0.041395452,-0.0035535994,-0.0072492515,-0.04805018,-0.019323297,0.045900244
00c7fd6908fc5a04ab47adc5c7829ca7,0.07128765,-0.17737465,-0.038722433,-0.00963198,0.05001734,-0.046737194,-0.063624226,0.034241747,0.03273122,0.026227534,-0.15008587,-0.1414957,0.062772326,-0.00572493,0.16743341,-0.07378655,0.030799245,-0.04681299,0.003386565,0.16529205,-0.06986372,-0.03459101,-0.06342628,0.19595201,0.07515463,-0.0335131,0.033429477,0.11124076,0.018398214,-0.030744815,-0.038314454,-0.039989416,0.01763742,0.13009289,0.07640814,0.07150995,0.011978295,-0.106465675,-0.07246361,-0.006779042,-0.11365605,0.04452879,0.099564575,-0.054446746,-0.0070834365,0.117891274,-0.009401011,0.1177104,0.027930077,-0.102144904,-0.006063019,0.0013503103,0.0707452,-0.033750273,-0.038388804,-0.13117489,0.07254211,-0.009769057,-0.06926436,0.05490494,0.036614776,-0.023186078,-0.13617468,0.08072208,-0.004472262,0.14804861,0.020249287,-0.034919515,0.020217722,-0.1951954,0.085615136,0.1182497,-0.118633166,-0.09887772,0.07694756,0.025084931,0.0038580645,0.027287439,-0.0056248335,-0.1176299,-0.002624034,0.12678702,-0.027922014,-0.11407974,-0.041599758,-0.042837836,-0.025617672,0.20189184,0.081898265,-0.10426208,0.12653463,0.017458651,-0.12750255,-0.010941108,0.02241244,0.10893506,-0.046067,0.018878741,0.004648109,0.012038604,-0.026330505,-0.019362109,0.037547357,-0.1434803,0.026628345,-0.035085782,-0.033041775,0.15760687,-0.100790225,-0.10228964,0.009825535,-0.09062982,-0.01552239,0.13599002,0.087923445,-0.023308048,-0.03665515,-0.050838675,-0.10795854,0.13707298,0.028866852,-0.16702905,-0.047313236,-0.005313515,-0.09658448,-0.047077183,-0.04373476,0.1010143
00d50962dce0b43d78a3a5e830255150,0.043618098,-0.099978566,-0.06831021,0.0051548774,0.0016893549,-0.025170723,-0.042505715,0.012704965,0.05810885,0.009932079,-0.07123624,-0.062267113,0.04192043,0.010192934,0.075078234,-0.009834318,0.005376191,0.015919017,-0.035218008,0.090118445,0.013883999,-0.0147938365,-0.041101847,0.0821321,0.028481016,-0.028411046,0.034150228,0.06614252,0.03437359,0.0052542663,-0.02225259,-0.012386604,0.01652089,0.055078443,0.04658545,0.036462072,-0.001473812,-0.052732784,-0.05705331,-0.019389775,-0.061658587,0.014037952,0.06455267,-0.021615248,-0.009771669,0.06853053,-0.0046825474,0.075515576,-0.019465394,-0.017363219,-0.029301586,0.017709455,0.007528781,-0.02970245,-0.04287582,-0.06402037,0.022304114,0.02845283,-0.041620605,0.05793176,0.028327655,-0.006338352,-0.08666195,0.021357387,0.029177144,0.07831225,0.019650918,0.025352426,0.03345088,-0.08518451,0.010033675,0.04386608,-0.08027144,-0.058504518,0.058936924,0.060910944,-0.011651011,0.018733775,0.028961916,-0.076008685,-0.04836341,0.051558256,-0.045361698,-0.036483347,-0.012852703,-0.028337324,-0.040297076,0.109310426,0.030741652,-0.060053434,0.0468774,0.022450577,-0.082855076,-0.022121092,0.034987822,0.07441452,-0.027731795,0.04764246,0.044113196,-0.057395637,-0.028093625,0.00770756,0.018887933,-0.041110523,0.05743897,-0.039183743,-0.004009099,0.05539661,-0.073038846,0.0018896585,0.021028694,-0.049127076,0.0016892422,0.093165554,0.070210904,0.006870224,-0.044839177,-0.041409288,-0.013918135,0.07109816,-0.0030605583,-0.09632626,0.0003810452,-0.013922992,0.0035209865,-0.028279243,-0.005831197,0.001324839
00f83a459e206283925ff0c2ac976d23,0.018727873,-0.0559416,0.004494781,-0.003851069,0.003600224,-0.0041209986,-0.03419769,-0.020719044,-0.014093977,0.011532138,-0.06501005,-0.043657694,0.020436764,-0.014474611,0.059653368,-0.04468202,0.016212553,-0.030775402,-0.012006153,0.077382274,-0.020475775,0.0003800817,-0.03411305,0.0867179,0.026570637,-0.05552753,-0.028165001,0.044253085,-0.0036806958,0.049851887,-0.036106918,-0.025416173,0.031923875,0.077480845,0.057422757,0.025471568,0.004484387,-0.055785432,-0.02353358,0.012708354,-0.045680415,-0.008459017,0.016156925,-0.00051183504,-0.013473134,0.038170673,0.03135506,0.025024269,0.033839457,-0.028890802,-0.008403622,0.0003391913,0.0371572,-0.012870702,-0.040832516,-0.041768763,-0.00506179,0.014246065,-0.013412627,0.001151675,0.059181992,0.006204725,-0.055745896,0.050139632,-0.012240801,0.06368884,0.025555309,-0.0009525855,0.013114225,-0.04220869,0.03670664,0.03328938,-0.097448446,-0.057421178,0.045881473,-0.022392228,0.03994955,-0.012457938,0.015642444,-0.01843542,0.0032021361,0.024321895,-0.0449737,-0.012532493,-0.020540826,-0.033614412,0.021226503,0.09772568,0.027294645,-0.036892124,0.031342115,0.01630354,-0.04945325,-0.011513208,0.052764226,0.044901483,-0.007578049,-0.0026100487,-0.025030578,0.018200943,-0.00886752,-0.00033516146,-0.009920121,-0.07015191,0.03141956,-0.019124137,-0.025984531,0.05549823,-0.040961113,-0.072556295,0.016217155,-0.02933256,0.030566625,0.047957167,0.012583663,0.0057380977,-0.024919396,-0.018050067,-0.03145608,0.07756908,-0.01985371,-0.07717134,-0.012745331,-0.003020226,-0.061463483,-0.023372313,-0.0057663443,0.062063985
014cd58f9fe4febcfc159ca9b2253c65,0.06290438,-0.13298711,-0.072299704,0.02151118,0.0018946838,-0.02471926,-0.03839433,0.041276406,0.06446082,0.016180051,-0.08866576,-0.07265102,0.06560146,0.035753604,0.097614065,-0.03112471,0.01633075,0.012884443,-0.024339346,0.1136011,0.0211973,-0.052258022,-0.02513421,0.09903858,0.054191098,-0.024366535,0.049730077,0.09824878,0.03556637,-0.030025393,-0.031372197,-0.02546248,0.029037898,0.04688627,0.050605785,0.051247258,0.018588042,-0.058702946,-0.05267814,-0.029680364,-0.0898098,0.04083715,0.085826814,-0.034121998,0.0043196147,0.08033776,-0.017423945,0.103437446,-0.02765171,-0.038652703,-0.042748407,0.015337192,-0.005758524,-0.03242317,-0.03925916,-0.083658606,0.024869492,0.027954118,-0.0710949,0.087094076,0.04366822,-0.010022237,-0.10781736,0.022569355,0.04114766,0.125192,0.023292432,0.0073915045,0.048650984,-0.13376465,0.029076196,0.05865969,-0.08249658,-0.09670943,0.07442795,0.0688048,-0.025864864,0.030941539,0.042377245,-0.115140855,-0.039618876,0.079290815,-0.056275442,-0.047451545,-0.025105195,-0.025361892,-0.0673363,0.13138936,0.040179394,-0.09984354,0.071538344,0.027350191,-0.11287209,-0.020525275,0.039102886,0.06867044,-0.045585595,0.053705744,0.07020809,-0.065396294,-0.033418767,0.0058900565,0.013627723,-0.031381138,0.045624226,-0.056781996,0.0013964524,0.057812776,-0.10469922,0.00962503,0.02767048,-0.056347873,-0.0035373392,0.14266017,0.10187588,-0.002477739,-0.08199213,-0.048104513,-0.011327485,0.07639188,0.017589372,-0.1280985,-0.03575294,-0.0150011135,0.010367934,-0.040019885,-0.009309773,-0.0018024474
017662f941ebe50c7e0d3fd9a826144a,0.09480606,-0.124879494,-0.02627552,0.05429063,-0.034868278,0.05890803,-0.09001606,-0.021033442,0.050317466,0.06855559,-0.14056012,-0.09818322,0.12515749,0.0585285,0.123493575,-0.08993396,-0.0141768735,0.012087168,-0.001583628,0.13992026,-0.0053224764,-0.03356547,-0.04087573,0.16318582,0.096318275,-0.0407275,0.024493515,0.07832258,0.005063432,0.003212822,-0.00256477,-0.052003395,0.103397466,0.073395215,0.10115342,0.04467927,0.037997402,-0.07335729,-0.0327048,-0.05404626,-0.16176698,-0.00827457,0.11971809,-0.03871949,-0.00944143,0.09062193,0.041080803,0.0799512,0.036807556,-0.094165385,-0.06498371,0.027378196,0.0159119,-0.028150324,-0.022676287,-0.06722731,-0.023681171,0.04038694,-0.10105189,0.0687908,0.12822704,0.05355427,-0.10998758,0.017906219,0.046390604,0.17781152,0.010241098,0.012825217,0.04426259,-0.17096911,0.06683114,0.071031556,-0.12096843,-0.19038102,0.08365805,-0.014412762,0.023089144,-0.02213572,0.06695779,-0.12814243,0.021494802,0.0662595,-0.038685024,0.005435643,-0.0641804,-0.011687338,-0.034303658,0.1527317,0.055930246,-0.14405441,0.064849965,0.026794812,-0.18410839,-0.019568658,0.08773352,0.110170215,-0.077690765,-0.01893962,0.022918893,0.015770717,-0.06568319,-0.02768787,-0.03771002,-0.10132329,0.046439864,-0.10762755,-0.014934999,0.110143386,-0.17241812,0.029510783,0.055509202,-0.14181998,0.044284552,0.181757,0.1517686,-0.023727732,-0.11715092,-0.012003695,-0.039286766,0.062685855,0.024343848,-0.13187294,-0.1005906,-0.027443867,-0.08569138,-0.052919377,0.00038405997,0.123663306
018b04599563dbb78f5dec1ae033b293,0.030068405,-0.103263035,0.029600337,-0.027848482,0.007915262,0.031456016,-0.015139111,-0.006823026,-0.026565421,0.016512109,-0.09563726,-0.037485536,0.017415343,-0.025124285,0.056545854,-0.07089503,0.0066481777,-0.0476168,-0.01698944,0.11560939,-0.017548244,-0.020687364,-0.002305928,0.102494985,0.06307299,-0.069185354,-0.0682142,0.08226323,-0.041514114,0.013626824,-0.053483233,-0.026742514,0.05143469,0.06408654,0.006543111,0.05544314,0.036403753,-0.094434455,-0.022471284,0.024178864,-0.048993554,0.04199098,-0.0034905807,-0.036741994,0.013407334,0.035895143,0.0013539216,0.010095623,0.02051126,-0.016072,-0.007376738,-0.021311589,0.033520933,0.014544227,-0.06674239,-0.023399895,-0.039731055,0.026483983,-0.018495886,0.024085458,0.070021555,-0.006144383,-0.089308396,0.063587084,0.010270822,0.07329693,0.06658503,-0.021117663,0.034919817,-0.057544548,0.05756095,0.061085496,-0.10361812,-0.076994926,0.08053308,-0.034709476,0.020178221,-0.026351118,0.018374978,-0.045289837,0.02442882,0.02650481,-0.07396079,-0.03380304,-0.016261853,-0.045428578,-0.00036054838,0.1379134,0.008646058,-0.07586129,0.025489928,0.011235375,-0.058174048,0.0053439103,0.044075403,0.03873606,-0.007074199,-0.012920558,-0.00034254068,0.030096535,-0.03020493,0.017173454,-0.010004738,-0.065314524,0.04618114,-0.030896515,-0.034568455,0.030669358,-0.077268764,-0.09922992,0.020251323,0.001127196,0.040577184,0.054901328,0.014608263,-0.0034950909,-0.060312595,-0.035148147,-0.04612526,0.10911836,-0.01414629,-0.12499421,-0.045859523,-0.005010084,-0.08130228,-0.041437425,-0.016620852,0.062407598
018f728ff1ade3660da7de6802c5fdbc,0.05316242,-0.12449136,-0.0655906,0.0138323065,-0.00062542676,-0.011660867,-0.04136374,-0.011844802,0.06853456,0.03844673,-0.10958301,-0.06903676,0.0726518,0.016550498,0.09947046,-0.05076986,0.010408456,0.00033477298,-0.0111462595,0.10658605,-0.005620919,-0.040351216,-0.050021335,0.124704115,0.030846434,-0.031214185,0.030861078,0.09040739,0.038968127,0.016751526,-0.021017917,-0.030135011,0.023169877,0.09271619,0.10868119,0.032535996,0.00232185,-0.06122561,-0.076574706,-0.018016066,-0.09469966,0.0054626544,0.08305822,-0.024609495,-0.017689217,0.0723121,0.03315159,0.0785408,0.013757893,-0.04158276,-0.038747724,0.01640859,0.025410732,-0.033331413,-0.045699473,-0.09566962,0.010006258,0.009730613,-0.058735967,0.057447784,0.07641739,0.015916035,-0.09396241,0.04894251,0.03236234,0.13358651,0.0015882917,0.0035522166,0.036024276,-0.116243176,0.050641615,0.04913935,-0.118712455,-0.12489172,0.066587545,0.032291252,0.018490369,0.0028004174,0.028379677,-0.1121553,-0.020090815,0.096686795,-0.05451928,-0.034569453,-0.051687986,-0.028467251,-0.02444417,0.14757396,0.034088153,-0.07979076,0.061227854,0.018973446,-0.12676822,-0.03045788,0.06620951,0.08958896,-0.03091735,0.028298808,0.031154383,-0.026655033,-0.02732279,0.004614455,0.0003691263,-0.06511789,0.037388865,-0.06420543,-0.00071558234,0.09815722,-0.10412008,-0.011221565,0.010545188,-0.07978547,-0.0023434325,0.14710245,0.11202538,-0.007097473,-0.05983878,-0.0418415,-0.03132369,0.09470921,0.025079897,-0.11345198,-0.039605793,-0.018661806,-0.024609953,-0.031954307,-0.006070765,0.04623339
01c8543fd256a60a2124e5a949f1f3b4,0.05226797,-0.12557147,-0.084582336,0.0092178825,-0.0063972245,-0.025758728,-0.027143458,0.008808899,0.062471375,0.005195219,-0.07606944,-0.05548047,0.045360044,0.03515576,0.07924579,-0.020966597,0.016343242,-0.004415083,-0.017541211,0.104983106,-0.008146722,-0.058965065,-0.033365723,0.089385435,0.021523904,-0.024231026,0.029510105,0.0848294,0.031841647,-0.0049163206,-0.030429963,-0.004272826,0.0009992088,0.057950173,0.06254276,0.04389578,-9.030282e-05,-0.04704187,-0.058207624,-0.0027151369,-0.06368898,0.03638292,0.07033459,-0.025728129,-0.031115226,0.062322877,0.0080915885,0.09889201,-0.021722818,-0.021863872,-0.03589734,0.009299468,0.005121181,-0.04742059,-0.042306777,-0.07934648,0.028279547,0.0077021327,-0.053876042,0.054387797,0.029610144,-0.028239146,-0.079200104,0.024913806,0.026454382,0.113459416,0.0110351965,0.005600866,0.029430201,-0.10576991,0.02662538,0.051706135,-0.0836274,-0.086020574,0.07913654,0.07004676,-0.010261635,0.0040180865,0.031858597,-0.091597244,-0.03716578,0.07985935,-0.060879655,-0.058281343,-0.023283646,-0.033814408,-0.05966287,0.13170964,0.03679875,-0.076620676,0.053060517,0.0061211605,-0.09628537,-0.025751946,0.045119554,0.06054753,-0.038981155,0.052749,0.04167157,-0.059784096,-0.037547648,0.0020091897,0.019147461,-0.026341839,0.03539058,-0.059794713,0.012251489,0.062735796,-0.08925429,-0.013660377,0.0052875746,-0.035606284,-0.00011158032,0.11946117,0.093099855,0.0025712997,-0.063859224,-0.03199736,-0.023385145,0.10412808,0.011569473,-0.10488533,-0.022858407,-0.016829116,0.018288512,-0.029676856,-0.0128191635,-0.0052902037
01f9c8db52f8edb462478310cfed7a23,0.05644483,-0.13682938,-0.0009330906,0.008703274,-0.003233389,0.059833426,-0.025358196,0.03956043,0.00083363213,0.04835818,-0.12451266,-0.05074634,0.08541167,0.0054485286,0.07396773,-0.09592184,-0.0032575103,0.010752775,-0.043611906,0.1356673,0.025768321,-0.036003593,0.0064629973,0.110955246,0.092551194,-0.07012847,-0.049578752,0.09490962,-0.025999866,-0.009116667,-0.06038193,-0.0654059,0.08442408,0.05250302,0.029941283,0.041970525,0.07896277,-0.090292804,-0.04189976,-0.033344254,-0.087812744,0.04283049,0.047413148,-0.06458873,0.048884954,0.08573116,0.0069319033,0.03359503,0.029209131,-0.02849346,-0.076557495,-0.022055786,-0.00041925357,0.044177234,-0.06332386,-0.047159936,-0.05472241,0.056533277,-0.04549312,0.06775298,0.14401816,0.053872894,-0.10633839,0.06675764,0.044974368,0.10657624,0.038316667,0.0042612967,0.05243511,-0.105363704,0.06445918,0.080950566,-0.11453981,-0.11220229,0.09280073,-0.015923314,0.013006063,-0.011269115,0.05670412,-0.09155371,0.0005566951,0.042260807,-0.06473781,0.0018627119,-0.037355527,-0.04142927,-0.0008167571,0.124584295,0.036849417,-0.11688199,0.026688702,0.041826982,-0.11853281,-0.013304203,0.06831718,0.05732687,-0.011651502,0.004385036,0.051942136,0.016775012,-0.04987705,0.017292008,-0.022677,-0.07077479,0.0570212,-0.05975836,-0.031643987,0.034558926,-0.11009578,-0.020051325,0.042025864,-0.06471969,0.041711666,0.12974277,0.08975995,-0.042471703,-0.10309294,-0.056916893,-0.017822675,0.07560317,-0.002467393,-0.13979396,-0.079670444,-0.014503497,-0.074147545,-0.04857043,-0.002934293,0.10403562
020ffd8294b9c0bd4f6127b06fccffae,0.020941008,-0.10068503,-0.007390866,-0.0007950427,-0.004819626,0.019676458,-0.0417357,-0.0017099237,0.023848346,0.010354953,-0.10790897,-0.05826295,0.061266657,-0.027449125,0.0670565,-0.06847269,0.0012027845,-0.00047650211,-0.05040867,0.11654103,0.006496223,-0.0013990976,-0.037857547,0.10059146,0.056946095,-0.075504586,-0.043623082,0.09450542,-0.008776743,0.032533657,-0.049781818,-0.040617846,0.061759353,0.095115,0.05054133,0.03741609,0.0403771,-0.094054334,-0.048593912,-0.0055703633,-0.049047623,0.010684473,0.0338059,-0.03355438,0.014231628,0.07502734,0.02229258,0.042710483,0.010680583,-0.0051062796,-0.04708723,0.004209985,0.03186252,0.0068806726,-0.06123654,-0.064213336,-0.042654403,0.050828546,-0.038438644,0.05828687,0.10808148,0.02481679,-0.10334374,0.07681482,0.03056253,0.080400676,0.04451719,0.014114258,0.04049972,-0.070815615,0.052948896,0.064487286,-0.13214162,-0.09659902,0.07158774,-0.010245972,0.047235243,-0.0072971312,0.035005614,-0.061383832,-0.012602156,0.029456852,-0.08400036,-0.024602631,-0.015251161,-0.049900465,0.022813402,0.14584287,0.016580036,-0.06944029,0.035861097,0.018899225,-0.08631838,-0.01532916,0.070241116,0.085854754,-0.017533392,0.015046775,0.02594181,0.006152595,-0.036812212,0.009887961,-0.016191078,-0.08537233,0.0732917,-0.04042355,-0.045803275,0.04571042,-0.07579988,-0.046161648,0.041390087,-0.043372214,0.04319165,0.09078532,0.039388835,-0.012427368,-0.06661025,-0.056179248,-0.01682784,0.097133555,-0.02627719,-0.14232406,-0.032583516,-0.0189026,-0.080724806,-0.05372152,0.0002454375,0.07197452
0257ff0237e869e4b31d18322ec19b90,0.045429256,-0.121432304,0.044100925,-0.023404904,0.031141965,0.030612402,-0.064295165,0.009225588,-0.04913087,0.014031238,-0.13031292,-0.11686045,0.03478125,-0.021254443,0.10612711,-0.09413176,0.0018688276,-0.036548037,-0.031880125,0.15894485,-0.040525418,0.015164345,-0.031880785,0.16517918,0.11754984,-0.06763009,-0.056142688,0.08063803,-0.0674463,-0.020208387,-0.04152372,-0.04139061,0.07441852,0.08635189,0.009026505,0.0680622,0.071686774,-0.12002264,-0.028078457,-0.011038603,-0.09286807,0.04171285,0.038816728,-0.03808826,0.038455002,0.10569741,-0.01455136,0.042484637,0.039094847,-0.07297322,-0.009223233,-0.004689081,0.060776062,0.015726423,-0.053709354,-0.052829847,-0.008043053,0.033119068,-0.05728925,0.029203404,0.08183332,0.012176163,-0.116617255,0.08707277,-0.0025555198,0.07387897,0.049323957,-0.01301402,0.010973939,-0.116643146,0.09049729,0.11673218,-0.08730942,-0.09108422,0.06251166,-0.050802935,0.016231827,0.008950629,0.01243414,-0.041631363,0.033543892,0.035577334,-0.04883782,-0.04029411,0.017832141,-0.034397874,0.012228468,0.16046527,0.054494735,-0.11445142,0.068807185,0.03372406,-0.079013735,0.02388934,0.038053475,0.062282853,-0.025709974,-0.04215169,0.005272325,0.07238485,-0.04248865,-0.012836932,0.0092557175,-0.14275877,0.055811528,-0.034229606,-0.07306316,0.07726021,-0.08560443,-0.09827909,0.06450326,-0.043178566,0.034146387,0.054373812,0.010777321,-0.03649256,-0.07153779,-0.048915125,-0.090032354,0.10591247,-0.022648295,-0.14553563,-0.06080891,0.023175694,-0.1483975,-0.062872276,-0.024993865,0.14974315
02ad7b97d9f5c9d33e6fcb0feff3a3ac9e0d05972248e74d4074f79ce1aa89bf,0.034739953,-0.09599357,-0.0014528839,-0.011994807,-0.0026432802,0.05486944,0.00078587217,0.018159807,0.0013289417,0.03358302,-0.08241617,-0.00465407,0.04668492,-0.008548893,0.02304099,-0.07169651,0.0011557393,-0.0071179527,-0.032476578,0.09708212,0.023001758,-0.045444097,0.01166371,0.046194524,0.047705017,-0.06319168,-0.048795745,0.075838104,-0.0092960885,0.011210051,-0.06463191,-0.028339231,0.06045947,0.033660904,0.013992431,0.03166888,0.040235113,-0.04447794,-0.027299464,-0.0071845655,-0.04189393,0.03113568,0.005327197,-0.04186532,0.026978787,0.04033719,0.012796549,0.011568632,-0.0014797589,-0.0011454247,-0.066634685,-0.031884335,-0.0060641808,0.032378685,-0.067839794,-0.011290161,-0.05047199,0.051855322,-0.012382045,0.049949773,0.10072936,0.024559075,-0.06174956,0.043653976,0.037421305,0.07563027,0.048848234,0.015857395,0.040662974,-0.039824344,0.0337652,0.044384614,-0.08261075,-0.07997499,0.078627855,-0.00273279,0.009558758,-0.025907142,0.04113133,-0.069992825,0.002525549,0.011087734,-0.06626892,0.006318903,-0.034451462,-0.04401115,-0.008145009,0.09186925,-0.0076035038,-0.065601595,0.0024038085,0.02435816,-0.068570845,-0.02012611,0.060369164,0.03408743,-0.0108441925,0.030859342,0.04402589,0.00125362,-0.038590122,0.02023256,-0.015613949,-0.016956318,0.0420646,-0.041218083,-0.01160527,0.0044755386,-0.07493063,-0.014321004,0.018715119,-0.031313546,0.03646809,0.094867826,0.050931312,-0.009827152,-0.06562007,-0.046807982,0.010470463,0.049674917,-0.002980271,-0.0898992,-0.046620846,-0.033642553,-0.036946137,-0.034956075,0.005021078,0.022653455
02b016d43b493b4c25bdd1bdba58c199bb43c764c0363e7ea4abe14ca71f6f02,0.13288915,-0.2956154,-0.07655358,0.030224992,-0.034051668,0.16175842,-0.0025413667,0.08007042,0.09477731,0.08970551,-0.19939265,-0.012361801,0.11549591,0.14599876,0.09220828,-0.16430207,0.03794399,-0.09283082,0.024008501,0.25014427,-0.017204998,-0.25653964,0.041986674,0.13758433,0.09275961,-0.04735846,-0.024928229,0.13572529,0.024635354,-0.10994384,-0.050165042,-0.03269808,0.13256891,-0.024271578,0.015700318,0.097634315,0.074760884,-0.058125153,-0.06714444,-0.058226734,-0.19157982,0.12623766,0.080368355,-0.1258642,0.0054527186,0.04619363,-0.007397583,0.072486036,-0.00021969515,-0.10808898,-0.11932348,-0.0832593,-0.049348228,0.05214371,-0.113275334,-0.056591414,-0.026701543,0.027800482,-0.109670684,0.09876701,0.13617341,-0.023275457,-0.09688083,0.015170174,0.11459424,0.35689473,0.030864168,-0.03838897,0.104686394,-0.19460696,0.07762874,0.063302554,-0.1516596,-0.29304722,0.20379502,0.04064666,-0.053171705,-0.1070743,0.13826704,-0.30362797,0.020991428,0.15146987,-0.08150842,-0.026139434,-0.14043403,-0.061913963,-0.20320182,0.2065825,-0.03545126,-0.23074578,0.067884654,0.026480393,-0.22119284,-0.010675912,0.10812516,0.046591997,-0.07533351,0.07689294,0.08577711,-0.016735943,-0.124924846,-0.015300753,-0.007271398,0.049360804,-0.011108937,-0.15326446,0.076201394,0.09657662,-0.2953523,0.010093762,0.0074536162,-0.09628031,0.030950334,0.31542525,0.25159958,-0.071089104,-0.19120729,0.00012506662,-0.03351321,0.12675321,0.081776805,-0.1942124,-0.20360841,-0.13263409,0.02305763,-0.06897648,-0.018462194,0.024788864
02b51f81f1f26d649e555052d3655dbcb1af8dca97f2d1ad461b4ca73f1f31a4,0.1177586,-0.42201078,-0.29077852,-0.21379456,0.010353861,-0.18554616,-0.12767377,0.25694895,0.43678296,-0.011396661,-0.13604318,-0.52454853,0.15250061,-0.055020113,0.45092946,-0.115322895,-0.059207812,0.102242455,-0.17001665,0.29025468,0.06236873,-0.18136331,-0.005277677,0.19994093,0.23141891,0.17686182,0.32205588,0.30571127,0.27535653,-0.39482555,0.09068358,-0.12960626,-0.10141854,0.07565636,-0.03823674,0.30480358,0.069268115,-0.2805294,-0.36194983,-0.16083096,-0.2066232,0.2324957,0.29524833,-0.41400412,0.13064168,0.2682633,-0.3064585,0.3521036,-0.2927672,-0.04685604,0.032686297,0.056028508,0.032686338,-0.086363696,-0.09312217,-0.42918321,0.24870904,0.17965472,-0.23393583,0.57273257,0.06331896,-0.012509748,-0.55774474,-0.027433071,0.292915,0.3095857,0.06115249,0.045373328,0.11617452,-0.5847061,0.061135758,0.34852546,-0.05821332,-0.18431453,0.07995954,0.30233708,-0.1579919,0.34356648,0.018644663,-0.5784617,-0.18167232,0.45727652,-0.22196616,-0.45579922,0.02589901,-0.074772865,-0.299877,0.5170645,0.024462357,-0.31851345,0.3376149,-0.084190995,-0.27513257,-0.077241465,-0.031129142,0.28517467,-0.14260803,0.24769188,0.4206796,-0.29813135,0.025812412,-0.08621648,0.35654312,-0.077395864,0.18443798,-0.11809957,-0.013520842,0.11969879,-0.12873337,0.095911644,0.048640303,-0.095799044,-0.31768543,0.21807393,0.26292977,0.0010665145,-0.28261104,-0.3431548,-0.021343412,0.2232673,0.21653529,-0.6761239,-0.050644085,-0.15576789,0.12165497,-0.2882684,0.015650919,-0.09064881
032a439627f738fecd72d71fd28c5b56,0.041789614,-0.12314034,-0.087216586,0.0020302278,-0.016856577,-0.03352215,-0.02913878,0.017386371,0.096136786,0.022951894,-0.094596066,-0.045225672,0.068756476,0.021238832,0.08435594,-0.026142605,0.00033214426,0.019296799,-0.022991538,0.100842334,0.013743858,-0.047771763,-0.02795427,0.07492809,0.0221532,-0.028956132,0.032526284,0.093263924,0.04663536,0.0045624305,-0.03437939,-0.026930993,0.013668419,0.06123607,0.06508109,0.03868284,0.010921835,-0.06288173,-0.08663486,-0.016139641,-0.063022494,0.023350006,0.075262554,-0.045395676,-0.020482654,0.056885142,-0.0010904882,0.09902798,-0.03607711,-0.012324837,-0.051059242,0.012941693,-0.0032763833,-0.03128764,-0.065500945,-0.10042972,0.019848596,0.024683172,-0.04672019,0.10309777,0.06902241,-0.0017346534,-0.098282374,0.030785246,0.042303614,0.13117938,0.021435581,0.022817165,0.048856065,-0.103491336,0.022356253,0.03885227,-0.0949452,-0.08942157,0.06318734,0.06872387,0.00017588207,0.010401947,0.042129792,-0.122854196,-0.045096535,0.08847173,-0.078870036,-0.0558362,-0.03378399,-0.03765765,-0.045049768,0.14767006,0.01227606,-0.07269417,0.054733653,0.004060082,-0.108865395,-0.037280694,0.059271436,0.06532629,-0.029436966,0.07514933,0.06624851,-0.061847802,-0.01658712,0.013717599,0.014698847,-0.016554927,0.04518364,-0.06290843,0.005181771,0.047675375,-0.08849663,0.0016354269,0.0020584397,-0.052144587,-0.009371373,0.1354775,0.11559606,-0.010484997,-0.07701708,-0.057034533,0.0090735825,0.10058712,0.0165261,-0.13188952,-0.030109217,-0.024603304,0.012471413,-0.04005805,-0.0022261739,-0.011887216
03b3b43ca40f505de2f059d56477f15c,0.07616525,-0.15980394,-0.10016313,0.0036376214,0.007074311,-0.052404188,-0.05412657,0.07831286,0.090275094,-0.009636877,-0.079860754,-0.13736199,0.0612637,0.06457999,0.13022897,-0.017855858,0.017076105,0.04676692,-0.049829688,0.13726987,0.024886811,-0.053609557,-0.01157248,0.0931073,0.06392644,-0.009351677,0.07857067,0.11647413,0.04479157,-0.08255917,-0.031134084,-0.0056651984,0.014020735,0.04199538,0.002408149,0.06960803,0.0046412125,-0.06181696,-0.051259533,-0.047137585,-0.10844011,0.082702816,0.12194712,-0.055527445,0.018557396,0.121953055,-0.065341145,0.14333051,-0.062493272,-0.03843871,-0.042997636,0.025751574,-0.0037601371,-0.05986291,-0.048013896,-0.09240988,0.06192977,0.04103771,-0.09701925,0.11576137,0.0075814105,-0.04509418,-0.13669096,-0.011088376,0.061715502,0.12543517,0.021120682,0.025762746,0.042815797,-0.16463184,0.0011883568,0.09946541,-0.045569696,-0.062044073,0.10383572,0.13152379,-0.081762575,0.067777306,0.031025669,-0.14023073,-0.08100941,0.107018314,-0.06099482,-0.08646664,0.028233169,-0.022989228,-0.12414405,0.15409023,0.07006383,-0.1291585,0.082762316,0.015480531,-0.103340395,-0.009961329,0.011692347,0.0772394,-0.056295957,0.07358462,0.12377057,-0.10727838,-0.051518757,-0.0010951188,0.05595902,-0.033478197,0.07774965,-0.06607019,0.002090254,0.062263265,-0.13289514,0.038243398,0.04887651,-0.047234572,-0.03538648,0.14895004,0.11633053,0.01665511,-0.087789126,-0.078580216,-0.025753623,0.101706035,0.005388726,-0.16180502,-0.01646136,-0.0017822022,0.053023085,-0.067782186,-0.02372089,-0.04188142
03b544f462bc9c6226ea4886084050074806439962eea99c59d3f2e5fa8e88f2,0.031347867,-0.07175255,-0.027009444,0.018053656,-0.014869226,0.0067829182,-0.03739997,-0.030502558,0.020758368,0.028591437,-0.08508666,-0.021230185,0.058883864,-0.019660328,0.06015973,-0.047259882,0.005244622,-0.004049318,-0.012983976,0.06608576,-0.009038781,0.0031304746,-0.054801103,0.09073538,0.005047399,-0.064117454,-0.013942951,0.05241919,0.025962075,0.06741894,-0.032554045,-0.029497262,0.022915041,0.09697432,0.11115023,0.010056784,0.013538653,-0.053738814,-0.039670832,0.007853941,-0.038514134,-0.02874547,0.03588783,-0.0018372304,-0.030653447,0.035449225,0.0646294,0.030745337,0.0397128,-0.017163852,-0.043510668,0.0113932965,0.02754716,-0.010260996,-0.03987525,-0.057135805,-0.021141484,0.02495309,-0.022037474,0.016246993,0.08012215,0.040009003,-0.05595103,0.054375894,-0.0016659009,0.073903695,0.0050426736,0.0012232054,0.028669732,-0.048770085,0.036028966,0.017386371,-0.12336475,-0.07725115,0.041808106,-0.014238699,0.056634486,-0.028483165,0.030443782,-0.03941694,-0.0072605773,0.031712558,-0.055920754,0.00946532,-0.048580885,-0.037145965,0.04201626,0.104052275,0.008735983,-0.01750248,0.02464639,0.024204988,-0.07510385,-0.04888367,0.070818014,0.074438915,-0.0063807773,0.024332374,-0.012003519,0.0069027185,-0.011831083,0.011809881,-0.020643227,-0.0669118,0.053436227,-0.040351354,-0.012805583,0.072602935,-0.0423764,-0.03849567,0.005305368,-0.06818587,0.041099608,0.096640274,0.050745,-0.0006439665,-0.030884145,-0.025977934,-0.003043257,0.07940593,-0.022869248,-0.0870109,-0.025530083,-0.020253953,-0.057224322,-0.0038863234,0.01474789,0.05073547
03ee77cc35efb49aa6db392247d242d6,0.046072885,-0.09598287,-0.07908589,0.022894995,-0.0035341533,-0.05582802,-0.05321412,-0.009210952,0.08109983,0.02246255,-0.07152457,-0.08531268,0.05075676,0.04169122,0.099741645,-0.0043251947,-0.0009445323,-0.0042111566,0.00820457,0.085912466,-0.020423178,-0.027935486,-0.061354633,0.10791452,0.031265486,0.0050418256,0.07261484,0.059512537,0.042380974,-0.007153188,0.015635278,-0.004576643,0.002647972,0.07001896,0.089050196,0.03756595,-0.01790078,-0.05440099,-0.073378265,-0.008996202,-0.08056903,0.0009844468,0.09472324,-0.008704455,-0.035808396,0.049655247,0.010455736,0.1078173,-0.029492794,-0.049681522,-0.008390945,0.043622836,0.02874713,-0.08214712,-0.02593184,-0.10656252,0.052890453,-0.0036082012,-0.06418502,0.064390324,0.015458062,-0.02405773,-0.08017307,0.016053831,0.014717787,0.12601213,-0.00051829277,0.004285272,0.022289827,-0.12911063,0.023950912,0.043834537,-0.07241807,-0.08466274,0.04377926,0.059432235,-0.005752123,0.019543154,0.013143685,-0.09725449,-0.031930223,0.09549327,-0.028815545,-0.060231924,-0.026521213,-0.014779584,-0.03693623,0.12301181,0.032614924,-0.0692581,0.079041176,-0.0056391656,-0.101053625,-0.01399394,0.027489822,0.08954628,-0.04002915,0.039505254,0.04437746,-0.043767765,-0.005527919,-0.01963078,0.0317698,-0.045067284,0.017793175,-0.053185385,0.011643572,0.09418751,-0.08058468,0.0038068,0.010200355,-0.059097473,-0.0192281,0.10431584,0.103964314,-0.0038241108,-0.046186082,-0.018123489,-0.037810642,0.08950372,0.02951185,-0.101512656,-0.014388549,-0.017588975,0.007920238,-0.029085306,-0.019449443,0.0054367064
0424586cc6ae1f3a30e811665fcc4b934fd7cc8a2b084934fbd1bcd1fd48df25,0.034921125,-0.07599059,-0.060671814,0.016552217,0.0006662133,-0.048616245,-0.02767434,0.019572739,0.056791678,0.008724542,-0.060084283,-0.06583702,0.03788595,0.02070004,0.0677817,-0.014405636,0.011748305,0.015517537,-0.009300782,0.061661262,-0.00023520901,-0.025474528,-0.035937604,0.07310058,0.01828372,-0.011267528,0.05454213,0.055941127,0.035624843,-0.01121452,-0.015482899,-0.008737333,-0.0022727763,0.048528258,0.052564718,0.026908489,-0.0062756576,-0.03504661,-0.047424383,-0.0060711717,-0.06535084,0.007854986,0.068752564,-0.01592612,-0.012534306,0.04806372,0.0059182933,0.07928931,-0.0033154397,-0.030240124,-0.025320046,0.025368948,0.012052361,-0.049002532,-0.022644125,-0.061873984,0.041087963,0.0065062623,-0.032298267,0.036804378,0.020601997,-0.011860878,-0.061918497,0.013007484,0.023237865,0.07682559,0.0011241083,0.0031676672,0.02592822,-0.09623669,0.008646685,0.04072063,-0.054228764,-0.046914443,0.043609723,0.0468375,-0.0147807365,0.025630629,0.016902579,-0.06044478,-0.03156034,0.055337053,-0.0323079,-0.046876114,-0.014422518,-0.004224087,-0.039749876,0.09035052,0.03650462,-0.04465682,0.050598253,0.017974006,-0.071444124,-0.020202644,0.019024381,0.047318205,-0.038138393,0.03859642,0.034355953,-0.037011724,-0.01399418,-0.0034462735,0.023381505,-0.039273027,0.031238185,-0.035094883,0.0065307794,0.05573446,-0.06302949,-0.0011443538,0.010810423,-0.053517047,-0.016279379,0.08856582,0.07380465,0.0010347265,-0.029019997,-0.03157603,-0.019482259,0.05089029,0.013273964,-0.07095322,-0.0061010877,0.0043993294,0.0065649697,-0.018197626,-0.01628082,0.00062072225
0446ae8ec2d513bc52974a8231649b2c,0.040573694,-0.093002535,-0.012471752,-0.003551492,0.011546326,0.002041094,-0.031347897,0.038762778,0.015842453,-0.00079655397,-0.075049534,-0.09532743,0.049933333,0.0072183865,0.079933845,-0.040136337,0.0043754997,0.0302841,-0.045932863,0.10371871,0.028960543,0.005397596,-0.0074284556,0.08227309,0.07547164,-0.043557916,-0.0019762483,0.0735168,-0.012740347,-0.01837603,-0.040981177,-0.023373075,0.055400807,0.05394399,-0.0026297085,0.046990544,0.040179122,-0.070278846,-0.01409591,-0.0148243485,-0.07402986,0.035607874,0.044499956,-0.045727596,0.023844095,0.07826952,-0.032441024,0.056085657,-0.016101968,-0.015647154,-0.03571862,-0.0018499579,0.016276676,-0.004244934,-0.038647965,-0.04315259,-0.0025204315,0.066382006,-0.04079286,0.060581267,0.057965185,-0.0024473816,-0.11511735,0.027078956,0.033590287,0.05447266,0.050150834,0.023447635,0.024664428,-0.086544536,0.03384502,0.0777183,-0.06188955,-0.05915119,0.07079692,0.028721265,-0.018238496,0.038302705,0.025360757,-0.052734192,-0.031464066,0.02455497,-0.06832954,-0.041244768,0.016392427,-0.017024374,-0.034084123,0.111292765,0.036843956,-0.08876958,0.04379175,0.02351983,-0.06911107,0.0006006032,0.031936254,0.058530673,-0.021253694,0.0048718182,0.055571362,-0.023199378,-0.044284485,0.008105576,0.019655861,-0.057129197,0.07563026,-0.032661628,-0.037067167,0.023795584,-0.07460346,-0.020606466,0.04737681,-0.028607855,0.020601492,0.062311728,0.02714865,0.0043029925,-0.08033108,-0.0675429,-0.025185945,0.06819056,-0.023511171,-0.13777015,-0.02837587,-0.008414715,-0.03646995,-0.051247444,-0.01154525,0.03818316
044eaf948c12e75d6d92e9a8bbfd7cde,0.039820652,-0.114833646,-0.060098518,-0.002063734,-0.0066009783,-0.01083157,-0.023372805,0.015947666,0.035834514,0.016691107,-0.09166187,-0.024442168,0.052178252,-0.02044905,0.061320357,-0.042858835,0.004663574,0.019128626,-0.043048535,0.10060726,0.020074805,-0.03528364,-0.022332452,0.075549416,0.0359452,-0.06912817,-0.015261785,0.104394995,0.018173592,0.022771962,-0.064908,-0.03936095,0.019080209,0.06793031,0.054736376,0.030325977,0.025405021,-0.06282933,-0.0628315,-0.008631358,-0.03881619,0.022212869,0.044359032,-0.031272106,-0.0010512887,0.06562079,0.0048238086,0.052158106,-0.011390166,0.0145831,-0.056776132,-0.0056201397,0.008618672,0.006456471,-0.06757002,-0.07298152,-0.015212662,0.044544116,-0.019326156,0.06642592,0.09004372,0.022362033,-0.093391605,0.059021298,0.03807432,0.08474591,0.036064554,0.019283716,0.04474719,-0.06896216,0.017408496,0.048601165,-0.12613687,-0.06891173,0.07490424,0.046189222,0.013501459,-0.00594052,0.042439003,-0.0776979,-0.03389001,0.050371036,-0.082615174,-0.018658943,-0.024190765,-0.047318287,-0.0074563967,0.1293777,0.01581186,-0.050855942,0.037944224,0.021909779,-0.087400734,-0.03274511,0.05824266,0.059733726,-0.012414401,0.05531074,0.060114995,-0.041850295,-0.03505796,0.033452637,8.472997e-05,-0.042688258,0.06749395,-0.034802936,-0.013258535,0.042562075,-0.070148185,-0.026240224,0.007915331,-0.038608138,0.023019113,0.11309681,0.07093534,0.0043769637,-0.062410578,-0.07197774,0.011325237,0.08901275,-0.014142504,-0.122817494,-0.021219324,-0.029813584,-0.017256059,-0.032796666,-0.0065865032,0.0054427735
04d29fee25ab668406ab8e49c4f7a990,0.09430202,-0.2541006,-0.087375775,0.07303886,-0.03475302,0.12782891,0.026752215,0.030818734,0.09951359,0.09503894,-0.1523563,0.052163143,0.12708808,0.073641725,0.04686237,-0.11876936,0.060975995,-0.0670194,0.00517667,0.15000805,0.0050600823,-0.17232165,-0.04706412,0.13261256,-0.023370195,-0.10715731,-0.010106572,0.08315044,0.08297795,0.04093148,-0.06792457,-0.03572211,0.08290249,0.05157559,0.13966171,0.035373777,-0.0070520006,-0.010054508,-0.036891736,-0.026165938,-0.10656429,0.0137085095,0.033214267,-0.032328464,-0.07493787,0.031417426,0.12056746,0.04949027,0.059423734,-0.042453974,-0.17346352,-0.05296192,-0.05008395,0.039829407,-0.102395125,-0.0199428,-0.049887687,0.05571927,-0.05596095,0.023601951,0.09586973,-0.00025105674,-0.033553656,0.018580202,0.039719883,0.28867173,0.01130715,-0.0076701785,0.08549062,-0.10691953,0.029924676,-0.0013336799,-0.22175747,-0.22617081,0.19952595,0.01623075,0.008290167,-0.14077437,0.115241654,-0.21717583,-0.01859631,0.07400732,-0.08355758,0.046119954,-0.18124571,-0.079200454,-0.09873352,0.15612395,-0.022285625,-0.088900946,0.03710005,0.05299616,-0.18176724,-0.09190068,0.12517771,0.06567348,-0.06210741,0.12293405,-0.010770049,-0.026059147,-0.097332634,0.020556543,-0.061477713,0.011001302,0.033870067,-0.11434852,0.07266466,0.1426077,-0.18835735,0.0004252136,-0.0264069,-0.16946624,0.07117578,0.29916638,0.22137672,-0.03352565,-0.09813901,-0.0128911445,0.010454592,0.10345863,0.019716982,-0.11232117,-0.11610457,-0.11846177,-0.005689507,0.039442293,0.013137914,-0.013851833
051a74d370c049e56396b9420df284d4,0.06427615,-0.1982386,-0.0033153873,-0.011099661,0.008505612,0.1527508,0.05935271,0.08532415,0.0012850685,0.07057439,-0.11337992,0.05399286,0.032493357,0.06101791,0.003675429,-0.12580694,0.025319865,-0.0702274,-0.013924696,0.14278355,0.0077140024,-0.17325605,0.09403893,0.03242622,0.062474508,-0.04467201,-0.07824256,0.07964742,-0.023507059,-0.09325171,-0.0705599,-0.02539027,0.10070298,-0.05961494,-0.07387237,0.056308277,0.08098103,-0.040327866,-0.010675747,-0.02624426,-0.081229806,0.11466628,-0.017947936,-0.11410081,0.057593256,0.0031340364,-0.04108907,-0.015736392,-0.004691872,-0.032688692,-0.07663654,-0.099374875,-0.04331916,0.10285673,-0.081719756,0.007829711,-0.07222356,0.03791589,-0.017090395,0.051847547,0.1008847,0.012299618,-0.05313901,0.023250004,0.08071196,0.16558424,0.057128724,-0.035634883,0.09057497,-0.07383549,0.048153706,0.037099473,-0.07310819,-0.13443321,0.13992324,0.007877924,-0.047507085,-0.07244101,0.087494195,-0.16792361,0.03543182,0.049191937,-0.07396241,-0.0035300185,-0.072988905,-0.040801805,-0.105099864,0.08948932,-0.048268333,-0.14258286,-0.009428153,0.024355518,-0.08813656,0.01354848,0.047524896,-0.035873305,-0.0063961656,0.049552917,0.06583732,0.013651714,-0.07445469,0.019384267,-0.015572481,0.049231753,-0.023028193,-0.057583097,0.030299043,-0.023693781,-0.14246137,-0.01151916,-0.015401926,-0.021448368,0.023276523,0.1464016,0.11447967,-0.07220156,-0.121849924,-0.019208968,0.010367254,0.05293196,0.05266457,-0.10033166,-0.13992606,-0.075652,-0.006083882,-0.035732247,-0.011559673,0.004601628
052055c5202730d16d4117083db7a74c,0.09522998,-0.29593432,-0.083104156,-0.068255715,0.06309861,0.09150569,0.10035572,0.15013483,0.02571078,0.030891983,-0.16614915,-0.008891891,-0.017465597,0.08699979,0.0459103,-0.14582434,0.044334687,-0.12311614,0.016111488,0.20062448,-0.032279555,-0.28847903,0.12948178,0.03358073,0.06550493,-0.019429985,-0.04233061,0.14764974,0.0059213154,-0.21958166,-0.08829786,0.014081779,0.053575736,-0.04826249,-0.14399481,0.1043826,0.04888223,-0.07495555,-0.061612595,-0.019383589,-0.12605378,0.2037124,-0.0003347684,-0.20030949,0.05953643,0.012179938,-0.15792231,0.04588741,-0.035917826,-0.05740309,-0.037664164,-0.1478228,-0.05194918,0.08275558,-0.12773733,-0.05061701,0.023893204,0.013643722,-0.024184944,0.10304704,0.044819523,-0.05983229,-0.095833756,0.018162336,0.12555306,0.23349623,0.06499452,-0.0699194,0.101249635,-0.13549453,0.064225554,0.08777381,-0.059458766,-0.1503982,0.17817178,0.10637315,-0.0959105,-0.00995585,0.063283645,-0.27411276,-0.008059865,0.1468469,-0.1049208,-0.09826414,-0.04122248,-0.037571445,-0.23148356,0.19245979,-0.03985169,-0.20436577,0.05080749,0.009337082,-0.08946841,0.009843301,0.02810594,-0.050022203,-0.054090194,0.12108969,0.0790041,-0.02516263,-0.1038456,0.013512086,0.074242756,0.10253434,-0.052949388,-0.053358614,0.059339345,-0.01252687,-0.20425472,-0.056110863,-0.04110222,0.038108528,-0.044623096,0.17204298,0.14050499,-0.038808905,-0.13443948,-0.0446422,-0.038678978,0.14210561,0.101630256,-0.163416,-0.15105629,-0.096829236,0.067175604,-0.061504155,-0.046180293,-0.07783108
0540e803f1788f75369f434ace742346,0.101352036,-0.0228143,-0.12347075,0.12015749,-0.18471132,0.045512106,-0.19765961,-0.060446464,0.28043908,0.1305461,-0.24213955,-0.17063959,0.4241219,-0.14002807,0.15165395,-0.098303325,-0.19336678,0.36177665,-0.23675947,0.12447561,0.19942562,0.15822293,-0.097458586,0.1267428,0.11902312,-0.13580403,0.06146786,0.15389153,0.10205213,0.22220021,-0.039343204,-0.22144231,0.21189131,0.2510981,0.34456322,-0.043916248,0.09940904,-0.12974234,-0.12047375,-0.20865443,-0.1430318,-0.22525303,0.24462353,-0.06650339,0.088424414,0.27435595,0.1442148,0.08918396,-0.043012105,0.12650524,-0.38831055,0.13791442,-0.0640734,0.058037356,-0.14247346,-0.24485907,-0.2707574,0.3229773,-0.1899329,0.38203886,0.49062058,0.41523233,-0.24215382,0.04712586,0.21801907,0.14001064,-0.00033772952,0.23865917,0.069289714,-0.120252505,0.079020716,0.07371797,-0.28933886,-0.31075674,0.025853174,-0.033030797,0.23458508,0.0065147425,0.22479784,-0.21125275,-0.11243594,0.01872599,-0.1738695,0.20592506,-0.11796585,-0.106651284,0.2326701,0.21999678,-0.02085821,-0.094333075,0.024891965,0.02795488,-0.32581297,-0.16321918,0.31983998,0.33455217,-0.049783435,0.1350693,0.22611429,-0.13437063,-0.017916499,0.053823676,-0.13918339,-0.16136804,0.35102138,-0.15495019,-0.0968948,0.03200997,-0.10217263,0.34112984,0.1179085,-0.37843034,0.13156062,0.39671257,0.28463235,-0.028178176,-0.25065964,-0.24257652,0.24483994,-0.0038774507,-0.07605944,-0.29800972,-0.0806764,-0.11690161,-0.09781667,-0.08273196,0.2678088,0.21247758
056c0f5cb55d4173ddc4f0d4a2596d9579bbabeeaff2c882c67d64610a9928bf,0.08481432,-0.22723652,-0.13341676,0.034876827,-0.03668783,-0.038140696,-0.083880864,0.005521989,0.14710554,-0.014370749,-0.10935375,-0.1379453,0.0725977,0.13883603,0.1773324,-0.00087787514,0.025212321,-0.022066616,0.0060369982,0.20700073,-0.05301473,-0.093439505,-0.085236564,0.16423792,0.06129703,0.0066964896,0.0638348,0.12127467,0.026034959,-0.05717404,-0.009837701,0.024865288,0.01926117,0.04817734,0.060128976,0.1193546,0.035770368,-0.10175105,-0.12786838,-0.019914122,-0.1220894,0.08517435,0.14352447,-0.042273857,-0.05568386,0.101956114,-0.012898023,0.19572489,-0.10160846,-0.07087444,-0.013721699,0.02433393,0.010595631,-0.104663804,-0.0718616,-0.1297793,0.097421244,0.002162584,-0.14002962,0.11814471,0.011799956,-0.11227957,-0.16404915,0.008344841,0.054034505,0.28209168,0.018144766,0.014783977,0.043998078,-0.2016531,0.054193225,0.099839956,-0.08836229,-0.1831112,0.1312702,0.11746031,-0.05755387,-0.021759076,0.06751808,-0.21778846,-0.058970142,0.18003394,-0.068622686,-0.10542706,-0.039981406,-0.036284793,-0.15821652,0.2653873,0.010116496,-0.17382748,0.1345477,-0.017895635,-0.14964381,0.045330584,0.0547424,0.13307537,-0.070957914,0.07344257,0.102786355,-0.08707635,-0.07711347,-0.03934618,0.06688196,-0.019055327,0.066603705,-0.14233434,0.03469457,0.1404765,-0.20197077,-0.014822673,0.044758063,-0.047379933,-0.04658647,0.21284476,0.17888059,-0.013225177,-0.1374532,-0.00791697,-0.095481195,0.19735345,0.03497247,-0.22633266,-0.047222495,-0.03755604,0.06654925,-0.08337125,-0.047410235,-0.011238161
0593aa87b0426bac363a292228735991,0.051438443,-0.11150477,-0.06853052,0.021949349,-0.0045215376,-0.027462116,-0.060614094,0.0022035164,0.062273324,0.021997726,-0.08992896,-0.08109835,0.061990414,0.024916347,0.10550877,-0.023349533,0.012856088,0.0049781213,-0.015365937,0.10403767,-0.01158118,-0.024446433,-0.057070065,0.12192572,0.03639768,-0.02925928,0.050215643,0.08652353,0.030456427,0.0092441235,-0.008021833,-0.029575488,0.015080352,0.07952779,0.09408023,0.042643286,0.0051423507,-0.06326301,-0.073802255,-0.009926573,-0.087509446,0.0024050274,0.08641947,-0.025453912,-0.021288095,0.07327428,0.011223052,0.09686291,-0.013487324,-0.04189077,-0.036007773,0.021938443,0.019240828,-0.050955266,-0.032100912,-0.08822786,0.035778426,0.012892147,-0.06186108,0.065826364,0.05480435,0.001759856,-0.090179816,0.032984156,0.015388616,0.12108574,0.0063008117,-0.00030838978,0.032333072,-0.117088765,0.034969606,0.05477172,-0.10310842,-0.09633042,0.05893111,0.0460768,0.007457886,0.00668075,0.026517933,-0.099752806,-0.03284597,0.084573805,-0.05410665,-0.053007793,-0.037560757,-0.030503964,-0.026438817,0.14518641,0.033797536,-0.06686614,0.076957986,0.013163166,-0.11027511,-0.026103182,0.04039036,0.09149907,-0.03967324,0.038036056,0.030626293,-0.037452426,-0.016612584,-0.0010560005,0.019540973,-0.060627986,0.042773485,-0.061552007,-0.008340012,0.08782254,-0.09478375,-0.011685237,0.014916554,-0.06336253,5.1385032e-05,0.12811434,0.09368118,8.811627e-05,-0.055390455,-0.043289196,-0.024865162,0.10126521,0.015886383,-0.12763478,-0.024270788,-0.010645781,-0.021432733,-0.040286753,-0.014553654,0.026723852
05bed5476fa174c7aef2eaf54f0ab27f6a39a2af1d7ed53357ccae68851a331c,0.0568345,-0.12002524,-0.04294037,0.023254354,-0.019666083,0.044215184,-0.029967839,-0.0018754506,0.05778453,0.049897276,-0.10066599,-0.019983675,0.08305508,0.017196745,0.05903818,-0.065744184,-0.0015811257,-0.009393776,-0.014783,0.10522291,-0.0007662113,-0.06118305,-0.032095753,0.092279896,0.02654889,-0.04193867,0.0043946397,0.067838155,0.022326402,0.026575925,-0.020447822,-0.04234311,0.056770686,0.056599718,0.0874612,0.036172688,0.024632672,-0.04760059,-0.06283797,-0.022981677,-0.088173136,0.0028411727,0.059886515,-0.03561196,-0.021949992,0.03823645,0.042301945,0.05201444,0.006833171,-0.038529847,-0.061380245,0.0025029054,0.0031700144,-0.011062084,-0.058551565,-0.069623366,-0.033407226,0.03508208,-0.043892153,0.053149577,0.10039866,0.03490222,-0.06854972,0.02555903,0.040235985,0.15124798,0.01355818,-0.0036814453,0.038810186,-0.09405657,0.041066356,0.022712983,-0.11562041,-0.1440597,0.08090545,0.0033959365,0.023673404,-0.04335262,0.062156096,-0.11928969,-0.0060486803,0.06422601,-0.06063602,0.0034098225,-0.07526765,-0.037382744,-0.030018099,0.11993049,0.0014814232,-0.07247449,0.04246615,0.019204225,-0.124198236,-0.034682807,0.077194646,0.06961246,-0.026485384,0.037834108,0.030968599,-0.018336719,-0.0376484,0.0063908263,-0.0146509,-0.032199662,0.03547508,-0.07180353,0.00999021,0.06747945,-0.108301155,0.0073824134,0.006587416,-0.07728808,0.026108656,0.15000856,0.11345997,-0.017072724,-0.087162256,-0.026263088,-0.0032865864,0.07419637,0.025400292,-0.11491326,-0.06591415,-0.05101642,-0.030396285,-0.023178568,0.007348108,0.045272663
060451d1d301ca6e255cbd2c903caf9d,0.045672644,-0.020219967,-0.043173067,0.059582118,-0.072544016,0.0046709864,-0.15684547,-0.14549121,0.11680056,0.026419738,-0.07144813,-0.10867623,0.061729535,0.14766267,0.17013639,0.034438748,-0.04287,-0.10221349,0.11333849,0.15891196,-0.18886207,-0.0073800334,-0.10335101,0.15879238,0.11433433,0.08810624,0.038050517,0.034425944,-0.063001186,-0.0542074,0.12819587,0.016202534,0.05963812,0.004696618,0.048859335,0.09656602,0.07924079,-0.07806814,-0.1215622,-0.004389378,-0.1393257,0.022824803,0.13963681,-0.003612211,-0.049218405,0.004889083,0.026916424,0.16557102,-0.0591121,-0.16184355,0.13283218,0.06640378,0.06321505,-0.14149219,0.008511508,-0.13124242,0.071524225,-0.114615396,-0.18302026,0.07238889,0.035634376,-0.08848898,-0.08327602,-0.001792783,0.02849804,0.28627852,-0.022570657,-0.037169363,-0.023637325,-0.15132271,0.14365831,0.04865735,0.029829301,-0.22815417,-0.0042952406,-0.032794856,0.02227564,-0.07295549,0.028780054,-0.12800391,0.08513605,0.15301754,0.054847375,-0.0677003,-0.0625586,0.033325534,-0.06370717,0.17783503,-0.06138261,-0.17695363,0.124758765,-0.086868234,-0.1184036,0.16725601,0.03951354,0.10528806,-0.06164714,-0.11982102,0.006797021,0.052595306,-0.009344035,-0.112044886,0.065104276,-0.04151081,-0.0638227,-0.14607076,0.0318751,0.16618727,-0.19737339,-0.046045046,0.051465575,-0.034680087,-0.033935163,0.0913753,0.11890363,-0.09143696,-0.1175238,0.1480421,-0.18558401,0.1597437,0.090068884,-0.14429441,-0.111466855,-0.0012006077,-0.027541175,-0.12413259,-0.036632415,0.14426495
0615cadf5248d9c355f4838f227a31a0,0.071133226,-0.1969831,-0.0044197184,-0.009660492,-0.00847924,0.10746212,-0.0040091877,0.05208203,0.008050472,0.046359744,-0.15695514,-0.029748833,0.07137968,-0.0127441995,0.057210226,-0.14342839,0.006044415,-0.012068928,-0.074520774,0.1798071,0.03735568,-0.058347657,0.019836584,0.12339388,0.10910936,-0.11151249,-0.090819485,0.13754903,-0.0234882,-0.006744795,-0.11600562,-0.073969096,0.12376902,0.0704625,0.010771045,0.064218,0.08341884,-0.12038059,-0.033412166,-0.011266601,-0.088539205,0.06770443,0.027987601,-0.09347814,0.043281212,0.08463928,-0.0067780507,0.017797453,0.02085461,-0.005688858,-0.10263393,-0.05339061,-0.005698508,0.069742836,-0.11579891,-0.0319044,-0.086314574,0.10470864,-0.051929925,0.08345184,0.17072102,0.043182187,-0.13219999,0.06977903,0.061610464,0.13620198,0.0846242,0.021672742,0.08621856,-0.09689215,0.05480518,0.09611809,-0.16232598,-0.14645012,0.14764614,-0.015148031,0.013181724,-0.044882115,0.08992733,-0.12511057,-0.012952742,0.03167209,-0.13425666,0.00603967,-0.045584407,-0.0713684,-0.03113293,0.179644,0.014401993,-0.14047629,0.021754468,0.046073966,-0.12562871,-0.020883098,0.09767108,0.06970903,-0.015956895,0.0392221,0.066203244,0.014022486,-0.077039,0.02938644,-0.028626012,-0.063873656,0.08902419,-0.059437264,-0.036677256,0.023454376,-0.14729328,-0.04488433,0.03861679,-0.0497019,0.07754328,0.16344634,0.09273585,-0.022120573,-0.1316577,-0.079373,0.0035124407,0.118609935,-0.0350166,-0.19779755,-0.09245177,-0.051269587,-0.09178163,-0.05577025,0.00366092,0.062296107
0630318153df63416998b97a3498406f,0.041913424,-0.17197253,-0.00083005754,-0.022228254,-0.013127974,0.062472686,-0.0138423275,0.047542714,-0.00065742363,0.025953816,-0.13690564,-0.041016556,0.07265339,-0.036322106,0.054131005,-0.11798547,-0.005313823,0.021497337,-0.08106482,0.16950181,0.04391913,-0.039823532,0.006388872,0.10749353,0.09175418,-0.12099122,-0.083287224,0.12620494,-0.029133305,0.017073877,-0.10872031,-0.057762764,0.10256941,0.08225182,0.020117752,0.06569746,0.08981217,-0.11847377,-0.041607678,-0.016921379,-0.06392458,0.056188248,0.017931866,-0.0704128,0.053344112,0.1027075,-0.0048743114,0.0058595915,0.01196485,0.023267267,-0.096691184,-0.043434452,0.0020971652,0.06701528,-0.1087095,-0.04467101,-0.07971959,0.10310737,-0.03377132,0.08473322,0.17024763,0.04855584,-0.13941108,0.095486805,0.055562835,0.10894234,0.07607013,0.02423096,0.07374076,-0.086234495,0.052685235,0.09558405,-0.15800995,-0.11138586,0.11341086,-0.0072984104,0.02442603,-0.02920567,0.079407975,-0.08883869,-0.030834597,0.025228873,-0.13490574,-0.006849369,-0.022563232,-0.08019993,0.00317456,0.17369892,0.021340314,-0.10925876,0.02063414,0.039611306,-0.10408646,-0.022436552,0.0947562,0.06164722,0.0005752887,0.053051427,0.06562648,-0.0011745461,-0.055247366,0.037257567,-0.034542266,-0.08497465,0.11278793,-0.054875724,-0.05531318,0.0094151925,-0.10773065,-0.041197337,0.048155658,-0.043339342,0.066207126,0.14513034,0.063406505,-0.020362765,-0.120667756,-0.101135015,0.009903651,0.1044405,-0.040780265,-0.19090113,-0.058672264,-0.02960307,-0.08345067,-0.056257088,0.009873109,0.072704375
06717e78164e7b2b1aa137adaa3d7d2d,0.032707594,-0.13942356,0.045807585,-0.030415056,0.012258098,0.073853575,-0.02472111,0.023504741,-0.04893007,0.015319879,-0.12708515,-0.05615393,0.033700127,-0.009039938,0.070085034,-0.09720357,0.011777658,-0.0459721,-0.035686225,0.15201555,-0.01830649,-0.026690166,0.004301928,0.118920505,0.105260246,-0.09675348,-0.08728291,0.09146973,-0.06624015,-0.017043827,-0.07385899,-0.049173534,0.09974223,0.05587107,-0.028345436,0.073746085,0.08439124,-0.09966324,-0.020176096,-0.0025932482,-0.07536531,0.0619771,-0.0043274877,-0.052306697,0.03655848,0.07262521,-0.015697258,0.009929161,0.033925377,-0.03648592,-0.020350115,-0.040916216,0.027495723,0.053906154,-0.078252725,-0.023526225,-0.043613657,0.044288956,-0.039504386,0.020042827,0.10363337,0.009326739,-0.10455262,0.0783382,0.024594098,0.08178032,0.06489708,-0.0045106173,0.03083606,-0.090858296,0.06934841,0.104189485,-0.11506766,-0.09684792,0.106236115,-0.043842588,0.015812991,-0.031177545,0.031559404,-0.055411607,0.028872602,0.018624231,-0.07546946,-0.017401213,0.0052770334,-0.046813622,-0.016489392,0.15036795,0.025739778,-0.11201663,0.030892463,0.030206949,-0.07799968,0.027020924,0.049011134,0.037021406,-0.010736624,-0.0198521,0.023738177,0.047031682,-0.058959913,0.009760808,-0.0194386,-0.09962566,0.05330012,-0.034804992,-0.041275047,0.045191646,-0.108295545,-0.09244217,0.052159086,-0.015789455,0.06304509,0.076165766,0.018188937,-0.019980911,-0.08706953,-0.050318293,-0.062624976,0.10749403,-0.023515947,-0.15315309,-0.0646377,-0.007265115,-0.121973716,-0.066453695,-0.02201261,0.0973956
0683cdf921258b19802d093b921ffd9e83a9f753b3faaffa4d404590c64dbf0b,0.04687706,-0.12220154,-0.04033725,-0.0018565173,-0.02178672,0.050573457,0.005050703,0.029334987,0.03379642,0.037217695,-0.095343225,0.009806064,0.057479776,0.00044314982,0.028146813,-0.065179616,0.013315538,-0.008213485,-0.024640195,0.10430425,0.02528834,-0.05913685,-0.0011561511,0.05029186,0.028614227,-0.06548367,-0.028673567,0.080865026,0.013794755,0.010292952,-0.059755612,-0.030321455,0.05499771,0.027335927,0.041975662,0.025547773,0.029692946,-0.046232283,-0.038084123,-0.005668966,-0.03834133,0.025633443,0.011208856,-0.055062726,0.007708231,0.036888905,0.020659376,0.02374051,-0.011635622,0.013193406,-0.07345307,-0.03163138,-0.012216307,0.0292767,-0.07165136,-0.029947344,-0.041082837,0.05416526,-0.022147896,0.05666085,0.0975088,0.020579008,-0.0726309,0.041423116,0.047400985,0.11063586,0.029374123,0.01248383,0.05860016,-0.048019696,0.025938343,0.025872264,-0.10947333,-0.09511793,0.08158136,0.017062541,0.006063527,-0.035912123,0.063885204,-0.10923996,-0.012829708,0.03675893,-0.08054677,0.0022867522,-0.04799364,-0.058792748,-0.027327955,0.10109757,-0.01253848,-0.073744744,0.0125856865,0.022470824,-0.087574475,-0.024112713,0.06905176,0.041859556,-0.010182873,0.062530614,0.052267347,-0.022042055,-0.036914133,0.021314103,-0.0183546,-0.0068681003,0.04921121,-0.052541856,0.008932807,0.016221961,-0.090278454,-0.009641359,0.0040834476,-0.03976706,0.025365576,0.12694672,0.087671466,-0.021376498,-0.07335024,-0.045668535,0.020800319,0.06868814,0.004193633,-0.1028644,-0.04861646,-0.04099241,-0.006925651,-0.016147185,0.002693836,0.006085592
06b9650176bc09c654e06af0544ff9583b8ae9e8e8bd1aab3cc4fb034cdf1517,0.030437943,-0.063041426,-0.033384327,0.009121397,-0.0031473557,-0.029937966,-0.01927307,0.0074300254,0.023199819,0.0003409019,-0.051020678,-0.03772197,0.028160049,0.001916238,0.041351937,-0.009047989,0.021675145,0.00039042713,-0.005598623,0.04604567,-0.0028800985,-0.019545797,-0.042509574,0.06889872,0.0031234326,-0.026929522,0.0070975777,0.036804818,0.016017938,0.028192297,-0.030154161,-0.011289813,-0.0022424974,0.0556394,0.061202615,0.012790652,-0.014660924,-0.027437601,-0.029863514,-0.0050418684,-0.03664902,-0.0015411288,0.031654228,0.004098125,-0.023912864,0.04109823,0.011766925,0.047701247,0.0031774454,-0.012664393,-0.030720554,0.007900906,0.008430224,-0.03167357,-0.033168767,-0.03516971,0.0128944125,0.018938089,-0.030952303,0.017450824,0.014509374,-0.015888445,-0.03686378,0.027794711,-0.007789053,0.058342513,0.003255091,0.0017841634,0.0064260676,-0.053796373,0.005281179,0.023878045,-0.06122323,-0.032443907,0.038029205,0.024610236,0.0086558685,0.009158826,0.0064250394,-0.033431835,-0.025521198,0.030274658,-0.040309723,-0.025022356,-0.009832571,-0.020527061,-0.01636869,0.06491616,0.028905481,-0.017878115,0.034416415,0.013933298,-0.04403657,-0.02311204,0.033206362,0.047785096,-0.016649766,0.019126767,0.011675671,-0.020468123,-0.014412561,0.0055556823,-0.004633214,-0.03693737,0.04065391,-0.026249938,-0.009473108,0.044818204,-0.04306849,-0.015550758,0.0055295946,-0.034569748,0.005223456,0.06331424,0.040616196,0.017063536,-0.017116008,-0.021172943,-0.014127533,0.06626892,-0.017109469,-0.053927954,-0.0029050736,-0.0055043795,-0.014898363,-0.0034668772,-0.011437395,0.010807158
06d1f82e3edb6c0af1b42d711a29779d,0.03485755,-0.11173469,-0.05151796,0.011367793,-0.009542333,-0.027226457,-0.03268405,-0.026476853,0.06334567,0.015989408,-0.0898359,-0.049664047,0.055895485,0.014338305,0.08345979,-0.031244358,0.011038297,-0.032603297,0.015035094,0.08334085,-0.035424236,-0.039874222,-0.04797569,0.11068058,0.029530741,-0.010645667,0.033824198,0.063748516,0.03250209,0.0098637,0.0014898315,-0.017791102,0.01947242,0.07187596,0.085337035,0.04787602,0.00079043285,-0.05909599,-0.07423121,-0.00025616333,-0.073879905,0.00043118023,0.058929976,-0.023473645,-0.033315856,0.041124694,0.03353101,0.0770214,0.005868173,-0.046285905,-0.015912378,0.01452396,0.024322953,-0.04771516,-0.032627553,-0.090484835,0.032364115,-0.0072069904,-0.04282327,0.038772307,0.0260703,-0.020979289,-0.080913775,0.03819666,0.010898069,0.13831422,0.009758015,-0.011993668,0.022800973,-0.11411538,0.047229666,0.032037344,-0.08834444,-0.10316983,0.06362548,0.023029063,0.010990588,-0.00086416083,0.02883084,-0.09578865,0.0008848723,0.08216446,-0.047805697,-0.059509445,-0.05012118,-0.023718644,-0.037616603,0.1319416,0.0067604277,-0.06795383,0.06592767,0.00060472515,-0.09910705,-0.025915483,0.04040426,0.079221025,-0.033758413,0.02054611,0.010445783,-0.022713406,-0.014514518,-0.013025988,0.02507193,-0.048334178,0.015432125,-0.0589036,-0.00045277248,0.09450866,-0.09307195,-0.038079735,0.0077568595,-0.049846787,-0.0077289534,0.1052863,0.09145326,-0.0067729885,-0.047512103,-0.021542609,-0.046401702,0.09637903,0.027489668,-0.107340835,-0.04680967,-0.02646823,-0.024476299,-0.032881442,-0.014925891,0.017180936
06d2b5ec5984610a164b2a5a50849286,0.05512113,-0.16339196,-0.01220647,-0.0024747245,0.052319594,-0.07133455,-0.12672384,-0.011683857,-0.03829884,-0.044421468,-0.15495217,-0.19436738,0.022145675,0.027067846,0.20509532,-0.03958978,0.041815598,-0.09704955,0.022964409,0.23013131,-0.16098036,-0.0012751726,-0.12339237,0.26828727,0.11527951,-0.05832724,-0.020950219,0.12156077,-0.075111836,-0.015812686,-0.029667174,0.005410936,0.028418459,0.16878986,0.05773574,0.118111305,0.06394328,-0.16219002,-0.088322185,0.019708103,-0.10820281,0.062306,0.11213318,0.024194347,-0.031208253,0.15677778,-0.033871,0.14316767,0.035423893,-0.13514186,0.07829117,0.011938947,0.12429976,-0.070185706,-0.068401486,-0.14415412,0.09955325,-0.061817672,-0.13084279,-0.0023608299,0.008024853,-0.10985615,-0.14649747,0.13534613,-0.07062986,0.1699481,0.017711502,-0.039970063,-0.033862155,-0.19479175,0.13969655,0.18901877,-0.109593734,-0.08010197,0.0926638,-0.005136039,0.01964834,0.020215191,-0.036303103,-0.03010698,-0.00501731,0.13256434,-0.0005827242,-0.1290584,0.02138503,-0.02898895,-0.026697656,0.26126602,0.11013989,-0.14878601,0.1605907,0.0073781535,-0.09056709,0.0699518,0.00813598,0.1160154,-0.052086063,-0.06594222,-0.043540023,0.071116656,-0.039341535,-0.038433623,0.059007484,-0.22895776,0.04954565,-0.044273175,-0.06834206,0.20115054,-0.14670795,-0.21131116,0.05217525,-0.040068578,-0.0059180455,0.09543385,0.032817878,-0.039725777,-0.040932562,0.0028108573,-0.21653879,0.25031894,-0.03824656,-0.19648807,-0.026967878,0.055557884,-0.13460511,-0.07359105,-0.094519846,0.17677082
07847630596c7a55101a80f26819d93d,0.04942173,-0.35858694,0.22765079,-0.33981675,0.2185095,-0.22216658,-0.2023929,0.051366616,0.0642042,-0.1779203,-0.5144021,-1.017246,0.21250825,-0.6898499,0.4632674,-0.41302282,-0.083737455,0.44383588,-0.71950597,0.31197566,0.4165696,0.6829114,0.08389567,0.5997787,0.7751999,-0.4032712,0.020791836,0.4873407,-0.09105047,-0.07875215,-0.31206492,-0.4484309,0.3850406,0.7182579,-0.061302252,0.377392,0.039181,-0.8103359,0.0944295,-0.025219254,-0.34855807,0.00048679212,0.1361288,-0.49641484,0.27992705,0.60225534,-0.23560064,0.303326,-0.03618469,0.17561549,-0.08121379,0.22896674,0.2164232,-0.0795311,-0.17962705,-0.15772524,-0.19863053,0.90567297,0.17012526,0.44128925,0.30489725,0.30427104,-1.1248479,0.17065808,0.27328762,-0.5036813,0.5580694,0.18431096,0.103537135,-0.6484069,0.013176685,0.66000926,-0.6308313,-0.09894179,0.27811545,-0.06578936,-0.037867807,0.7953355,0.13541241,0.022559013,-0.064691134,-0.25930634,-0.79242516,-0.3830662,0.6412352,-0.18072425,0.23317793,0.91916084,0.5646048,-0.24845314,0.21070415,0.27122965,-0.30007568,-0.3382924,0.16954122,0.58030105,-0.17118277,-0.016312066,0.40199882,-0.22304855,-0.15933356,0.2149214,0.17708012,-0.79195124,0.83847946,-0.0061970563,-0.5993015,0.030181205,-0.06750641,-0.29320914,0.5479063,-0.015282471,0.27645257,-0.25328177,-0.38214606,0.5500309,-0.41362292,-0.9569343,-0.035577066,0.21886452,-0.36493653,-1.2070552,0.09266561,0.13319756,-0.7962135,-0.4205649,-0.09544348,0.08762094
07940aac58f4b2e1712bc48a2470fcde,0.038749475,-0.10300251,-0.05405137,0.006408471,-0.003810049,-0.02627161,-0.058523264,-0.022663442,0.0465643,0.028417716,-0.11529806,-0.07602506,0.07696467,-0.017320728,0.11360578,-0.040208705,-0.00090864627,-0.0020508412,-0.025287231,0.11961044,-0.016726745,0.0016224195,-0.066096894,0.13709413,0.04209973,-0.047472514,0.008307222,0.09911789,0.020772384,0.046212915,-0.0378532,-0.041044287,0.03697467,0.11133459,0.10140312,0.036242098,0.017478313,-0.0921683,-0.07676349,-0.0033666003,-0.0815355,-0.009867085,0.07422578,-0.016997097,-0.013111059,0.08954732,0.02797037,0.076124325,0.015703958,-0.04250896,-0.02673801,0.029629046,0.039983835,-0.03616274,-0.05214896,-0.10900785,0.011170412,0.021473259,-0.058075923,0.0696508,0.079054885,0.025292972,-0.103953406,0.0697757,0.012455516,0.10699582,0.011145559,0.011644309,0.025182946,-0.116450064,0.059471652,0.065436885,-0.1310862,-0.10762389,0.05167831,0.018684085,0.042590506,0.0038563602,0.021519626,-0.07358053,-0.023820605,0.079028755,-0.0612349,-0.035974767,-0.03243104,-0.033882182,0.00896549,0.15865381,0.030003374,-0.071199514,0.07460909,0.020540437,-0.116190575,-0.033551987,0.06981956,0.10024073,-0.03424606,0.020415662,0.023441639,-0.0177459,-0.012239926,-0.001661622,0.011087047,-0.08874316,0.06123645,-0.059457976,-0.034587815,0.0870903,-0.0864279,-0.03895655,0.015564134,-0.079696566,0.008699471,0.11408051,0.08815828,-0.013329136,-0.060077514,-0.04853122,-0.035693944,0.108424924,-0.010041385,-0.14325754,-0.035828356,-0.009235399,-0.05129451,-0.035574023,-0.0037421514,0.06924122
079aaccc770e2019ad30c008498abd65,0.085209735,-0.20184624,-0.10353955,0.041447077,-0.06331916,0.0108865285,-0.11768471,0.0050246697,0.14548211,-0.035353933,-0.07460155,-0.16745502,0.06742547,0.17576946,0.18153156,0.010663168,-0.0007769278,-0.017222356,0.021700684,0.22155453,-0.06397132,-0.06367,-0.06651994,0.15395227,0.118301734,0.02924821,0.051345013,0.09622999,-0.020880572,-0.10019754,0.024345282,0.028521018,0.06799336,-0.011512458,-0.011713938,0.15349092,0.062902026,-0.104920045,-0.10323271,-0.035814155,-0.14157096,0.10425841,0.15393768,-0.03792357,-0.038227215,0.10870319,-0.031418364,0.20320737,-0.1285757,-0.07622033,0.015443886,0.036844686,-0.0030359246,-0.10595231,-0.07087091,-0.09949679,0.07883091,0.00045163656,-0.17964399,0.12919463,0.0018525686,-0.12915696,-0.16790731,-0.02709155,0.05811827,0.27731794,0.024702288,0.041676853,0.011384086,-0.2140319,0.061256927,0.11787031,-0.044914752,-0.18428911,0.14453346,0.0855046,-0.08604274,-0.03192868,0.074360296,-0.20295714,-0.057896122,0.15426095,-0.055263143,-0.09133979,-0.014565211,-0.019769095,-0.19294508,0.23898493,0.00374907,-0.21050872,0.14154087,-0.035899796,-0.13644394,0.10486061,0.033351444,0.119713,-0.0796165,0.026136838,0.13080603,-0.081150465,-0.09164808,-0.053001445,0.078398824,-0.019773439,0.07262248,-0.15945326,0.029172068,0.11193584,-0.22655003,0.006864627,0.09131053,-0.043793723,-0.028177101,0.19177419,0.16796722,-0.018549547,-0.1868366,0.011793353,-0.14286315,0.19466029,0.018713757,-0.2443589,-0.07160081,-0.028846774,0.05237577,-0.1197155,-0.03770129,0.012243839
0808eb4e0b36adc2a7ad5b2adc99b3c2,0.06578044,-0.0879879,-0.03998768,0.024197659,0.006966077,-0.029204687,-0.07531031,0.0048115216,0.030589567,0.026975019,-0.11031717,-0.11407429,0.084457055,0.0031931344,0.13111113,-0.046862606,-0.0097326655,0.013619719,-0.01987614,0.12462397,-0.023757223,0.006420689,-0.06436252,0.15638731,0.072189,-0.03819821,0.015498721,0.087885804,0.0050859973,0.009352455,-0.03136114,-0.03147357,0.038913053,0.10794309,0.0824079,0.04095543,0.026716208,-0.08973448,-0.056816027,-0.019871173,-0.1038415,0.007472602,0.10739207,-0.0124419145,0.009129905,0.12143278,0.0042600175,0.082173504,0.017448077,-0.05702678,-0.038641997,0.027981339,0.041604765,-0.04042189,-0.045301866,-0.10725469,0.009954318,0.021200882,-0.08263258,0.05719148,0.077859215,0.02892999,-0.11319773,0.05707693,0.011762979,0.106661536,0.005119556,0.010660548,0.015649823,-0.14087848,0.06641833,0.08599833,-0.10543989,-0.08754892,0.042027295,0.019894896,0.03479497,0.033570617,0.020045344,-0.062600404,-0.018243246,0.07890389,-0.033312682,-0.03732249,-0.020238081,-0.026787119,0.014012096,0.14447874,0.07160497,-0.095623285,0.07826928,0.018759487,-0.12175952,-0.019723026,0.041537955,0.096424915,-0.042761367,0.00234902,0.024830388,0.005815281,-0.026075756,-0.009220892,0.002206152,-0.1217222,0.05966636,-0.041933402,-0.040250514,0.09223446,-0.09061303,-0.023601783,0.027754536,-0.09626852,-0.00020635076,0.12623282,0.084769554,-0.013321457,-0.051023304,-0.041442554,-0.05175537,0.099308245,-0.0066755237,-0.13080177,-0.031572703,0.018489959,-0.061280493,-0.05347538,-0.008582228,0.112773985
087a8b987bfcb13e7e995bdeb4b90726,0.06336451,-0.10628108,-0.06486532,0.02275402,0.008721824,-0.028470285,-0.061936054,0.009102801,0.059903324,0.01603942,-0.08932415,-0.10002881,0.06555123,0.041164387,0.11745636,-0.028649312,0.011218096,-0.00030112866,-0.0056295646,0.11384511,-0.018943144,-0.025334151,-0.057912003,0.12513089,0.03759595,-0.0021299673,0.053928144,0.06701408,0.023087109,-0.0188949,0.00028182997,-0.013661675,0.02584874,0.06383359,0.07206167,0.041127294,0.003458464,-0.059689075,-0.05203273,-0.01759738,-0.1016526,0.022167092,0.097589366,-0.022825696,-0.014422643,0.076921366,-0.0039556813,0.109620966,-0.007957959,-0.06435967,-0.012597436,0.028903047,0.03320682,-0.05584854,-0.021955265,-0.08605123,0.052961264,-0.0027212084,-0.072547525,0.056451667,0.020006483,-0.017347693,-0.09882695,0.019522041,0.018131873,0.12321078,-0.009175235,0.0027631482,0.014677884,-0.14543891,0.039166313,0.062496435,-0.06259573,-0.09385751,0.05816194,0.042880416,-0.007864775,0.018022873,0.023462037,-0.094535045,-0.02273365,0.08573185,-0.022542033,-0.065030925,-0.028516525,-0.0198294,-0.05144695,0.12569335,0.052501548,-0.089252,0.08942787,0.018338943,-0.10004871,-0.00587891,0.022783486,0.08553839,-0.05055095,0.023533428,0.031807616,-0.037638612,-0.026217522,-0.020493366,0.019387998,-0.071959466,0.024798144,-0.052075244,0.0020182235,0.10043498,-0.10148411,-0.011465842,0.018912375,-0.0725225,-0.008652336,0.1279224,0.093068756,-0.003757284,-0.055503737,-0.015729226,-0.06098359,0.09188273,0.028343841,-0.10369057,-0.03289883,0.0035422975,-0.017245032,-0.03979883,-0.013189735,0.043953825
092e19c3294633a983811779058f0c35,0.08646582,-0.1352237,-0.06818449,0.031765167,-0.006688081,0.031262904,-0.02766562,0.05992656,0.07475728,0.040688902,-0.0860036,-0.060463704,0.07333519,0.08030992,0.079567656,-0.055214126,0.017863667,0.008450037,-0.00044890316,0.11010043,0.017840123,-0.08504867,0.010164815,0.081464075,0.044878755,0.00071590656,0.044697788,0.06677118,0.027893852,-0.062738135,-0.0077288956,-0.0042303028,0.041578483,-0.0029643364,0.01792826,0.044696428,0.012117445,-0.028525641,-0.03440073,-0.045941684,-0.11406561,0.049294766,0.08464073,-0.050070126,-0.0025519873,0.06342879,-0.012927227,0.076521255,-0.02676522,-0.060978424,-0.06848507,-0.0014287409,-0.025815852,-0.013034772,-0.030452194,-0.036050465,0.024359204,0.018811539,-0.07783657,0.0606401,0.039761797,-0.021286031,-0.06707599,-0.028369453,0.04774904,0.146595,0.015910987,0.008216721,0.041550547,-0.124673694,0.010227136,0.04564852,-0.051364806,-0.10978154,0.094247326,0.07162266,-0.050631817,-0.00046412696,0.052211467,-0.12980852,-0.031756666,0.070701495,-0.029893631,-0.024083145,-0.043789737,-0.011836165,-0.10951917,0.0913825,0.03598147,-0.12213164,0.049516015,0.02741657,-0.1183852,-0.017829685,0.014714673,0.0474307,-0.05251726,0.05426317,0.07160266,-0.041030794,-0.05276795,-0.013233884,0.0029182942,-0.00011721437,0.008359368,-0.07485238,0.027615534,0.057875663,-0.13668191,0.05236013,0.022492332,-0.08027414,-0.008304201,0.15444979,0.13724649,-0.005400353,-0.0906718,-0.013244028,-0.026662735,0.037810214,0.029590623,-0.088665575,-0.063825145,-0.040803526,0.03299134,-0.03960096,-0.01632993,-0.002831506
097c73de543218e2d0edb52d5333601f,0.10831764,-0.23015663,-0.006367908,0.019637471,0.0044160173,0.16584238,0.03456114,0.09500817,0.02544592,0.0964268,-0.13635604,-0.0021926854,0.08269707,0.09484784,0.04756006,-0.145967,0.019141562,-0.073930494,0.014873527,0.1647919,0.0104721,-0.17888436,0.08074056,0.090077244,0.09933885,-0.024898322,-0.022140361,0.07596088,1.614797e-05,-0.13368598,-0.03791317,-0.03564005,0.1284895,-0.062799275,-0.056944028,0.06821008,0.0741152,-0.023578133,0.0018899164,-0.058032315,-0.146141,0.11422254,0.02853027,-0.13133487,0.043276142,0.03386495,-0.03263712,0.018001257,0.019276712,-0.08459524,-0.095371395,-0.07523462,-0.051417332,0.08076799,-0.052679513,0.014324805,-0.042665526,0.03265298,-0.06828793,0.06424015,0.09509865,0.004030442,-0.063615315,-0.017898234,0.09115253,0.22525269,0.035088357,-0.03645195,0.09143619,-0.14453167,0.048581008,0.048733663,-0.07585812,-0.19123521,0.16322291,0.008486548,-0.0716141,-0.05969057,0.089480355,-0.21759605,0.044826936,0.071242474,-0.04217681,-0.0071110576,-0.0998328,-0.030748952,-0.15360934,0.10810507,-0.012536539,-0.18744329,0.032342255,0.039794393,-0.15747434,0.005073255,0.031029535,-0.0054268604,-0.05574762,0.042218834,0.057320964,0.016002014,-0.10016723,-0.013251022,-0.014724831,0.03936315,-0.03458591,-0.09211366,0.04798695,0.033814806,-0.2046889,0.013541454,0.0040314863,-0.08365306,0.026130151,0.20759848,0.16327748,-0.0674693,-0.13927595,-0.018792368,-0.029911768,0.027082268,0.08587435,-0.12042409,-0.17501841,-0.098904744,-0.013537962,-0.05375043,-0.03211103,0.032651022
097d0891d4e3b47668d787792cfdf0ae,0.087105274,-0.095679656,-0.07091049,0.06150927,-0.030820556,0.014264813,-0.07623108,-0.008815687,0.09093435,0.06736057,-0.11029693,-0.081358634,0.121916406,0.065983474,0.10912378,-0.05390719,-0.0069375564,0.01300586,0.002468212,0.12462493,-0.0017342515,-0.045791704,-0.037993226,0.12324196,0.06616182,-0.013854821,0.060314693,0.07984859,0.04143851,-0.004632456,0.018639518,-0.03435118,0.062567204,0.052834895,0.098294236,0.041712794,0.029224291,-0.042888697,-0.06252664,-0.049843624,-0.15053307,-0.006494854,0.11380004,-0.033625286,-0.016702807,0.081296876,0.037989814,0.09551943,0.011287988,-0.07522233,-0.061908424,0.04024642,0.0060142977,-0.044997938,-0.028505633,-0.08889088,-0.00040645228,0.010639986,-0.10235357,0.08581152,0.08559182,0.0380762,-0.09439016,0.009749567,0.045314122,0.17569289,-0.011997361,0.00058541243,0.045942344,-0.14830548,0.060786348,0.047029804,-0.08095056,-0.16858555,0.06994378,0.025930133,0.0046761218,-0.010280363,0.054249078,-0.14371534,0.006613864,0.08278088,-0.028539546,-0.017774187,-0.063117385,-0.011514332,-0.0362358,0.11880201,0.034004938,-0.121589035,0.06402891,0.020399667,-0.16287598,-0.023319053,0.07123318,0.09313544,-0.057301294,0.0039049229,0.043309223,-0.0216726,-0.04111138,-0.030324062,-0.016732622,-0.046893455,0.022644207,-0.09301718,0.0073622395,0.10716261,-0.14273655,0.03992617,0.032353234,-0.116564155,0.014941044,0.18009493,0.15670095,-0.03476119,-0.09678833,-0.014480663,-0.032648683,0.06274017,0.045392007,-0.10883106,-0.07476187,-0.036095846,-0.01920381,-0.038288426,0.009352205,0.08078456
09f623304b98d1bdc15ed33660ba337f29fa784f81e237b89d04c4f1a20d0d4b,0.027060198,-0.06855852,-0.036956742,0.025154838,-0.004824572,-0.0040211296,-0.023081204,-0.010647004,0.031722683,0.023033125,-0.06302494,-0.027232785,0.054583006,0.00062173256,0.056598578,-0.02670363,0.012433069,-0.0054711094,-0.009467253,0.07002989,0.007058206,-0.008691892,-0.034809113,0.07425087,0.014247351,-0.047040302,-0.00044713094,0.05788526,0.0126823485,0.03760337,-0.03153223,-0.0255045,0.027846707,0.06722261,0.07626194,0.017165506,0.010495069,-0.031540237,-0.03534846,0.0046711583,-0.042623717,-0.0112133715,0.03489321,-0.0030990944,-0.024337476,0.040496744,0.047531217,0.033817023,0.009060131,-0.012615255,-0.035291217,0.016468035,0.015008935,-0.010567974,-0.037151195,-0.051302627,-0.017229592,0.018369526,-0.019940488,0.021423927,0.06344233,0.008922499,-0.05584409,0.033065192,0.00297111,0.07411422,0.004283212,0.0041532973,0.019650633,-0.05715075,0.026249208,0.026386738,-0.094352484,-0.07116858,0.044812746,0.004676376,0.02078219,-0.026763983,0.032260016,-0.04320845,-0.022973746,0.03296846,-0.046602905,-0.0027455124,-0.03211291,-0.030488072,0.0091309305,0.08409754,0.011286175,-0.036659803,0.024378894,0.022670392,-0.07775583,-0.02639959,0.054808076,0.053499565,-0.020622302,0.030231785,0.007411153,-0.014011906,-0.018390507,0.009121947,-0.023103694,-0.048815593,0.04473089,-0.038325362,-0.011086186,0.05404994,-0.05554579,-0.017069403,0.0045285258,-0.047439963,0.025915416,0.09444865,0.0632502,-0.0076183076,-0.036492202,-0.022392664,-0.011805444,0.063529246,-0.009944641,-0.07911873,-0.021216245,-0.010719863,-0.024725135,-0.009464583,-0.0031508906,0.025251737
09f83b8840be3869a1db8b8b49f2cb1fd0f8a04b9a0c09f56bdb54d272f8b788,0.073018864,-0.21933597,-0.01591877,-0.0019505355,-0.0418276,0.08991779,-0.106745765,-0.010599859,0.049552437,0.037981603,-0.18598531,-0.10431835,0.09953235,0.024525689,0.1550156,-0.122071035,-0.01562371,-0.015912553,-0.06526383,0.2623775,-0.017161788,-0.026213197,-0.04012259,0.19529326,0.16479376,-0.11946888,-0.10234776,0.17279284,-0.060892764,0.026249211,-0.09807812,-0.06518701,0.14047688,0.09989616,0.042758033,0.11726194,0.13375038,-0.17943408,-0.09429262,-0.0069368095,-0.11541766,0.0679687,0.07176308,-0.07190142,0.030052058,0.13141902,0.019375874,0.08772906,-0.021181276,-0.017596437,-0.063506104,-0.010587244,0.03868264,0.0106241405,-0.14473206,-0.09519375,-0.079670146,0.0814543,-0.111021645,0.123669975,0.21578962,0.016159525,-0.1998059,0.09999677,0.07065635,0.22853008,0.099965595,0.032493345,0.07930533,-0.15079387,0.115231745,0.14713813,-0.20804717,-0.23172434,0.15761837,-0.022404714,0.03193472,-0.06705057,0.11337575,-0.14924787,-0.007993703,0.086876534,-0.16505608,-0.027177282,-0.042508457,-0.09811833,-0.026057944,0.2843613,0.016699491,-0.20893937,0.066767365,0.027262561,-0.17182618,0.018502574,0.13284811,0.12734246,-0.02667151,0.0005162406,0.102224566,0.005607001,-0.096962824,0.011517054,-0.0092504,-0.12641865,0.12719819,-0.119912855,-0.064056896,0.0657314,-0.22024016,-0.073328495,0.09712056,-0.05318362,0.08306001,0.20801501,0.1076932,-0.04836694,-0.19390433,-0.07535836,-0.07051032,0.20622154,-0.031430896,-0.3117612,-0.10075062,-0.038896106,-0.11654979,-0.13053702,-0.01523264,0.13336173
09fd6ee7e78f977f4cb86d35f4550a8c,0.039054275,-0.109804995,-0.019242726,0.013265058,-0.011922764,0.029366653,-0.032298535,0.014971325,0.023228351,0.032144606,-0.10266461,-0.061624307,0.07259981,-0.014247473,0.06533966,-0.0723071,0.0040657213,0.01109086,-0.04472889,0.11116967,0.025824264,-0.011186984,-0.018713446,0.105812185,0.05648015,-0.065731786,-0.014103363,0.07947611,-0.0033904088,0.023448326,-0.04894071,-0.05628318,0.060371414,0.074270934,0.06180498,0.040806536,0.038079143,-0.07375539,-0.030395389,-0.02047537,-0.073450014,0.0054950695,0.0434752,-0.031214012,0.010937366,0.078895904,0.021796633,0.039780416,0.024224713,-0.024516314,-0.06908275,0.0055554584,0.011056858,0.0060876193,-0.05401146,-0.050230082,-0.040577114,0.06284159,-0.03425011,0.06426584,0.100107454,0.04315335,-0.0997281,0.043016832,0.039535757,0.08449597,0.034760162,0.01770128,0.040432326,-0.081561826,0.04025756,0.06628459,-0.11906553,-0.093283445,0.06488238,-0.0026041304,0.013460825,-0.0042582857,0.04805654,-0.0753869,-0.016947575,0.03370632,-0.07314104,-0.0027107042,-0.020928932,-0.049769737,-0.0046189167,0.12310491,0.028002292,-0.075942494,0.039403915,0.027748508,-0.09585292,-0.029720508,0.06249536,0.0653146,-0.023743225,0.020619027,0.042884137,-0.0068213018,-0.030721633,0.008887718,-0.02551729,-0.07873812,0.06359907,-0.04644923,-0.03216464,0.05060836,-0.08197332,-0.009173774,0.025317661,-0.076341614,0.042700008,0.10610138,0.065189615,0.00058856385,-0.071164936,-0.06409522,-0.0058823405,0.06804959,-0.021829216,-0.13573961,-0.034627575,-0.029201139,-0.06604822,-0.032206852,0.008558355,0.05838696
0a02f9f65079fc410334906886afb545,0.05220738,-0.12690884,-0.107266776,0.01054063,-0.0039263396,-0.07859938,-0.035883542,0.010085569,0.1018252,0.013138691,-0.07559856,-0.080842555,0.06277075,0.026648808,0.11139429,-0.0022541322,0.018242573,0.0051714987,-0.0026178842,0.09396663,-0.016569998,-0.04707816,-0.06334042,0.10544867,0.007519462,-0.0005537093,0.08510056,0.083855964,0.072717,0.0054532383,-0.0069533233,-0.011808519,-0.017059337,0.07780449,0.095108114,0.041534185,-0.0336051,-0.047100905,-0.08830127,-0.0009328835,-0.074663065,0.014694323,0.09749868,-0.017225016,-0.041432958,0.059423454,0.011100082,0.12413957,-0.03866602,-0.037006196,-0.02818671,0.031565934,0.016495079,-0.077451184,-0.03938471,-0.11772767,0.07920817,0.0077742627,-0.058051303,0.07329623,0.011060394,-0.034040257,-0.10765646,0.029820275,0.013806446,0.14769804,-0.006020685,0.0013833314,0.036728263,-0.13778155,0.010393737,0.052135333,-0.0920814,-0.07418547,0.06273628,0.099158555,-0.017783903,0.02525942,0.0155077055,-0.12027777,-0.047602452,0.116879866,-0.053093325,-0.08813297,-0.029763315,-0.025453273,-0.06756563,0.15082596,0.031791985,-0.064994864,0.094862916,0.0012867581,-0.10184987,-0.04411239,0.035706792,0.08632261,-0.040499724,0.068421386,0.05733966,-0.07958548,-0.012784751,-0.008128165,0.04238246,-0.040588815,0.03643427,-0.064979166,0.019111797,0.09934934,-0.07565508,-0.01397575,0.0053657754,-0.05929545,-0.030919252,0.13033366,0.11482632,0.010207344,-0.035135176,-0.044693343,-0.027384667,0.10934597,0.03227656,-0.11513424,-0.010068236,-0.014187233,0.03142871,-0.020692782,-0.018284544,-0.03383559
0a1310fd4e68a3de2e57ce3f4888c81a,-0.009697974,-0.09329457,-0.11680573,-0.10683059,-0.08502972,-0.12607154,-0.14762132,-0.13936709,0.19669582,0.047853757,-0.44432604,-0.1480607,0.272427,-0.38821527,0.21365848,-0.17722915,-0.17270668,0.19273064,-0.2421793,0.20665346,0.07218855,0.14458722,-0.11723803,0.20736371,0.124389604,-0.2105635,-0.089803904,0.3706639,0.09565203,0.29056022,-0.17618248,-0.26299825,0.09728577,0.48229665,0.34129643,0.030296285,0.14055066,-0.37940827,-0.3597956,0.0018583315,-0.07998116,-0.17463236,0.10896893,-0.19442806,0.12843017,0.22144793,0.054564334,0.11553022,-0.054818124,0.1755723,-0.19325092,0.06997607,0.09995739,0.03671271,-0.26781434,-0.4816812,-0.2407387,0.23542884,-0.024109013,0.47858974,0.60870343,0.41613728,-0.39226636,0.34888044,0.23483132,0.12283619,0.10018867,0.09663512,0.16039535,-0.11350588,0.18392694,0.15958957,-0.42570522,-0.2988862,-0.024269104,-0.04825241,0.41813558,0.08449602,0.12511024,-0.22523177,-0.05538404,0.166769,-0.37012866,-0.041632608,-0.06383599,-0.18799122,0.38441136,0.5091168,-0.09237574,-0.09063201,0.03271748,-0.040543925,-0.2741825,-0.1532453,0.3662322,0.3163012,0.051108375,0.14059275,0.20875786,-0.068415985,0.099241816,0.11560307,-0.011289975,-0.21305099,0.32541817,-0.060110964,-0.20822126,-0.0025012088,-0.035475206,-0.023989191,0.042053476,-0.10908936,0.07251828,0.24803993,0.118089914,-0.044996005,-0.22437863,-0.33993456,0.20540169,0.30408978,-0.035633348,-0.5101965,-0.08771474,-0.043394476,-0.23749353,-0.17524649,0.17961039,0.22681491
0a1830c9206118843062d06d668c89622b88bea97fdb189e80b060d50905e7e3,0.031149697,-0.09553647,-0.009785012,-0.0032998885,0.0005496286,0.034485523,-0.022058865,0.020284368,0.011661496,0.028816242,-0.080902256,-0.02531658,0.052439522,-0.004246566,0.04195745,-0.05976405,0.007730079,-0.0020726887,-0.035955627,0.092307195,0.012927867,-0.021776814,-0.0020487001,0.07715128,0.042666808,-0.065675445,-0.027495356,0.07890801,-0.0006365802,0.01980791,-0.05405211,-0.038511183,0.057524215,0.056330685,0.040096954,0.031291306,0.04010362,-0.061657853,-0.0237752,-0.009632101,-0.052048635,0.01217122,0.029433578,-0.03316666,0.018106012,0.05617305,0.0051967013,0.018013244,0.0046442878,-0.0020696458,-0.060292628,-0.01722517,-0.0016384088,0.015749559,-0.058129866,-0.04022742,-0.041770954,0.053026147,-0.026482658,0.04343461,0.096701585,0.03492174,-0.07969755,0.043820795,0.034293488,0.07055323,0.036857225,0.01362385,0.045142207,-0.056009278,0.029644096,0.04956269,-0.094012894,-0.08412639,0.073215276,-0.0064871823,0.009193224,-0.016658803,0.05054113,-0.06707553,-0.012910366,0.026459113,-0.07439074,-0.009087961,-0.031881876,-0.04573614,-0.01304512,0.10533784,0.016693177,-0.062468536,0.013743892,0.030994697,-0.072288185,-0.026002659,0.052050326,0.042814627,-0.017022898,0.023976846,0.040394537,0.0007637545,-0.042520985,0.02004205,-0.024293479,-0.03754392,0.05756384,-0.035790104,-0.012238974,0.032750677,-0.07642835,-0.010174399,0.022364266,-0.036714055,0.040047254,0.09655998,0.06167789,-0.011352696,-0.071405806,-0.051241424,0.002081516,0.056672003,-0.010068847,-0.097396486,-0.03481674,-0.018646661,-0.03747562,-0.03393329,0.008266005,0.039448284
0a8befffe85d17791a83d3a46dbcd271,0.05820022,-0.10474025,-0.042178884,0.03925948,-0.015590578,0.039910074,-0.02262201,0.0026821503,0.066479586,0.03525851,-0.084872656,-0.02000971,0.070064016,0.044816025,0.051607158,-0.05333583,0.0062724743,-0.0010229496,0.009167395,0.09043529,-0.0013008429,-0.059221536,-0.0065704575,0.07280559,0.03064273,-0.016342012,0.012603577,0.05710386,0.03134417,-0.015129972,-0.008160956,-0.025954785,0.061595928,0.024782922,0.064322986,0.0340321,0.009694857,-0.030079186,-0.03737351,-0.017232712,-0.08104891,0.014555041,0.063917436,-0.03575982,-0.015000177,0.033819243,0.022528542,0.06006709,0.007985769,-0.035217673,-0.058119956,0.0080375625,-0.017937833,-0.013675558,-0.03072367,-0.041556392,-0.019733453,0.016229382,-0.054786958,0.055951755,0.061995614,0.0101398295,-0.05100125,0.0024186922,0.047303684,0.141672,0.012711557,0.0071513546,0.04657864,-0.09414786,0.026517848,0.013971124,-0.078975566,-0.12647665,0.07757749,0.010634415,0.010452308,-0.026359458,0.062291313,-0.11015728,0.0051858095,0.060277198,-0.039586026,-0.006472713,-0.067129664,-0.01284497,-0.0545908,0.09751006,-0.0053174724,-0.077663444,0.038636047,0.012404005,-0.10574934,-0.014414646,0.059162375,0.05516851,-0.041239716,0.023551108,0.03450999,-0.023177668,-0.037535947,-0.006455714,-0.008935615,-0.0042734677,0.01613717,-0.06529476,0.01705082,0.06034878,-0.116704345,0.026783148,0.013135988,-0.07540847,0.022563785,0.1319303,0.10864876,-0.011750626,-0.07920034,-0.0025107907,-0.0018208032,0.056183383,0.025178524,-0.07954519,-0.063268766,-0.050488353,-0.010991538,-0.025261898,0.0053654793,0.02423583
0b6f94ccbe1d282fa632d43907932ec4,0.0013427861,-0.07112976,-0.009912623,-0.027839381,0.0069205705,0.00013144943,-0.015950175,-0.008786226,0.015606921,-0.026014851,-0.053011745,-0.041624617,-0.0026564044,-0.022159362,0.03899695,-0.025488473,0.0111725535,-0.015648715,-0.022311354,0.06524583,-0.007168871,-0.012556745,-0.007569358,0.0556966,0.027661528,-0.032352015,-0.02634887,0.05615048,-0.01066528,0.008233603,-0.031749833,-0.0151756415,0.015213631,0.05792843,0.0056154155,0.03652922,0.016751755,-0.061138175,-0.03390811,0.018890625,-0.025502194,0.023379806,0.008379314,-0.022638716,-0.0088736825,0.026685113,-0.006486888,0.029287226,-0.0028798676,0.0151756145,-0.0014478972,-0.006782564,0.023617132,-0.0066221473,-0.052214142,-0.028657056,-0.008578949,0.039439093,-0.015068289,0.038320895,0.027387634,-0.024068607,-0.06896612,0.029072588,0.016348602,0.043425787,0.049024105,0.010341933,0.01969776,-0.05041228,0.013489755,0.047036633,-0.07262382,-0.04318211,0.050616387,0.0034562275,0.007854026,-0.001831954,0.011543787,-0.03221271,-0.017940937,0.023099534,-0.074395604,-0.039722893,0.011675087,-0.03032164,-0.010219198,0.10924261,0.0024356788,-0.028625743,0.021704685,-0.00025102287,-0.028008558,-0.0058524823,0.039642744,0.039993476,-0.011102725,0.009578464,0.019428987,-0.018318245,-0.022659749,0.015079677,0.01983898,-0.032772336,0.05395208,-0.030111048,-0.0152455345,0.016169077,-0.04028755,-0.052674394,0.026765883,0.009459896,0.010544033,0.029685363,-0.002782414,0.0205857,-0.050252285,-0.037090626,-0.02344669,0.083416335,-0.027038768,-0.098481275,-0.015289034,-0.011245331,-0.021907482,-0.03559857,-0.009580387,-0.004576515
0bb2f4d84a08b94f4539a4615a6fadc2,0.039667938,-0.1268305,-0.0027528536,-0.0021233368,-0.0143530285,0.05534859,-0.020319898,0.0065504797,0.013384434,0.033069722,-0.11916485,-0.015521673,0.06406237,-0.020325614,0.04333934,-0.08996725,-0.0012421772,0.00364924,-0.05222035,0.11805056,0.02610586,-0.033673305,-0.011135517,0.0874433,0.054564193,-0.087856255,-0.05779098,0.08857594,-0.014341417,0.02900392,-0.077685155,-0.047162145,0.07296943,0.06606604,0.03399124,0.04980144,0.053106386,-0.07788333,-0.038599055,-0.0057067685,-0.055270538,0.026694743,0.0056246473,-0.05743691,0.018079214,0.051378272,0.01461717,0.020946005,0.009907655,0.0077058217,-0.07420559,-0.020737004,-0.0023731291,0.04529919,-0.088855885,-0.041017536,-0.060778234,0.06438397,-0.021276211,0.071160235,0.12989289,0.046335418,-0.089404754,0.06799831,0.046442676,0.10301129,0.056001987,0.014529603,0.052418463,-0.06545338,0.039396722,0.064218864,-0.13433714,-0.10906656,0.096154004,-0.0134998085,0.035684165,-0.03915281,0.06591985,-0.091439806,-0.009068429,0.028685682,-0.103136145,0.009224915,-0.041456886,-0.060114883,-0.002860762,0.14502852,0.001256693,-0.0723774,0.01329229,0.024869,-0.08893231,-0.030539183,0.09148886,0.06583199,2.1056621e-05,0.040943917,0.037479497,-0.00095709536,-0.039883733,0.02889008,-0.017709568,-0.05003478,0.084632784,-0.04438856,-0.031908065,0.02721029,-0.08338307,-0.030023206,0.020980682,-0.046136018,0.05333188,0.119229354,0.06547266,-0.015366409,-0.081574045,-0.066511944,0.0016833247,0.091509774,-0.024059413,-0.14550817,-0.04856209,-0.031451233,-0.06572313,-0.0394891,0.012726458,0.05609823
0bd8963ea2899b2d78d92e70d5bac4f2,0.039696503,-0.12566686,-0.0061409343,-0.016765678,0.027611554,0.010175961,-0.027686626,0.026604157,-0.025053728,0.0013834691,-0.09931276,-0.06507546,0.016208814,0.010450258,0.07632707,-0.06116103,0.01611304,-0.033932224,-0.018896084,0.12735716,-0.029428557,-0.028446553,-0.016832776,0.10974726,0.06842961,-0.058720972,-0.045364752,0.08161101,-0.026539942,-0.01546075,-0.051085632,-0.020984415,0.045649234,0.06737627,0.009533109,0.044183664,0.051047165,-0.09016089,-0.026234938,0.011795664,-0.06835825,0.040432885,0.029929047,-0.03337966,0.0017915599,0.079357006,-0.01946697,0.04422973,0.023777384,-0.051690172,-0.0039127287,-0.0126925735,0.036737766,0.0073572802,-0.059165884,-0.044479124,0.006720678,0.015759815,-0.04726631,0.019580822,0.049820703,-0.013884253,-0.09125468,0.073920965,0.00195962,0.08357114,0.041650835,-0.008791842,0.014578725,-0.08857275,0.053235397,0.08034832,-0.08443345,-0.069303244,0.08491618,0.0057809236,0.010578061,0.0040505375,0.009198061,-0.043841545,0.003199157,0.057755664,-0.049578086,-0.04279046,0.000635111,-0.0374238,-0.027722673,0.1322189,0.041880775,-0.09068895,0.045504715,0.031541634,-0.057796158,0.0072717443,0.02900107,0.048179332,-0.021002509,-0.007083777,-0.00017257326,0.030544262,-0.042443093,-0.0016531373,0.01228373,-0.08515658,0.03988245,-0.025488125,-0.035790555,0.056538474,-0.08781854,-0.09256325,0.033713806,-0.021731686,0.017343633,0.07887369,0.025685621,-0.0100874575,-0.05832711,-0.032275077,-0.0746492,0.10491757,-0.024817694,-0.11531854,-0.047234613,0.010096255,-0.07993766,-0.036715183,-0.036648985,0.0785745
0bf493ef499bf4331f7f9ebd444553cd,0.07078316,-0.17816977,-0.041250728,0.039633535,-0.017232046,0.07468575,0.000965525,0.043218356,0.0347398,0.061489876,-0.09994118,0.019104464,0.0851145,0.046076935,0.031109205,-0.08141988,0.028208623,-0.0030403566,-0.017294591,0.12135972,0.029936057,-0.10093612,-0.009648952,0.087612346,0.005442846,-0.09527251,-0.01991681,0.074764036,0.03072856,0.011455786,-0.07617827,-0.028888937,0.07134221,0.030695679,0.06557945,0.022039449,0.018664144,-0.025671821,-0.014428164,-0.03082438,-0.06580841,0.03562493,0.035739053,-0.034734048,-0.014816738,0.044052783,0.053225175,0.020653544,0.030910881,-0.02380932,-0.12548593,-0.042140786,-0.03982355,0.039637692,-0.08003995,-0.0040117423,-0.04354073,0.049196042,-0.036030427,0.03537673,0.08130301,0.0044907965,-0.045844167,0.027833983,0.028898504,0.16168113,0.030339232,0.013895583,0.062134545,-0.07828041,0.026216578,0.026059486,-0.14172105,-0.11783595,0.1244632,0.03222137,-0.010420999,-0.06443742,0.08266189,-0.11928838,-0.0258565,0.03806629,-0.06595962,0.028760917,-0.09233767,-0.051120535,-0.060758945,0.0933374,0.0045551565,-0.07217321,0.023116523,0.047201052,-0.11737828,-0.05153164,0.08373722,0.0456835,-0.038100578,0.07189288,0.020768331,-0.025242567,-0.07136294,0.024119753,-0.049135946,-0.008133159,0.04045533,-0.07092735,0.03573702,0.055807803,-0.12567222,0.0128533365,0.0038007305,-0.09812075,0.056336753,0.2004677,0.14377677,-0.020751389,-0.08294133,-0.04250074,0.011085413,0.068026766,-0.013461878,-0.08530739,-0.06577339,-0.072943635,-0.0028231198,0.00700383,-0.00046906865,0.0066383905
0c3583b5cd35e822cc0d9f2fca77c3ee7fa7208e7028d3f38cc623f51e165218,0.28812888,-0.6148069,-0.070030324,-0.1610022,0.18717672,0.04636233,-0.013127684,0.3542506,0.2591659,0.04632189,-0.5679673,-0.6870101,0.36997664,-0.20387532,0.34838292,-0.51817197,-0.01732753,0.26592395,-0.4409879,0.38840973,0.36630118,-0.048050553,0.28407183,0.44747183,0.5525703,-0.16176368,0.22643705,0.43425408,0.15660065,-0.43861926,-0.19675961,-0.32160276,0.37647066,0.33260378,-0.11517159,0.31130543,0.0049237157,-0.43647054,0.070573784,-0.2195336,-0.60228735,0.20379356,0.2798973,-0.60728645,0.30251303,0.47336084,-0.34390044,0.30750188,-0.014334859,-0.09975379,-0.3421621,0.023284158,-0.060326613,0.07802373,-0.16882372,-0.2025997,-0.115898445,0.6491934,-0.060066145,0.5018577,0.2689993,0.26419243,-0.7978751,-0.059709907,0.45775846,0.12331831,0.3145313,0.0707537,0.21512629,-0.7469869,0.035859745,0.4709646,-0.42602935,-0.3723838,0.45134345,0.18489832,-0.2071574,0.5676171,0.230582,-0.5534809,-0.084899545,0.09343141,-0.51830256,-0.2864768,0.19587415,-0.07154542,-0.26900592,0.6709538,0.35691044,-0.4971941,0.22420087,0.22408646,-0.49061018,-0.32597524,0.1437029,0.33046424,-0.30354258,0.2180401,0.4390154,-0.24214028,-0.2542327,0.09453275,0.16382463,-0.29488817,0.4132105,-0.14631255,-0.177923,0.06649773,-0.42045352,0.112156406,0.2697578,-0.28238487,0.0887089,0.32799527,0.22769558,0.2900308,-0.47426143,-0.6590318,0.06609859,0.085173845,0.045615796,-0.8462029,-0.24608985,-0.11998089,-0.3017108,-0.27156395,-0.037099544,-0.09866004
