type,x_0,x_1,x_2,x_3,x_4,x_5,x_6,x_7,x_8,x_9,x_10,x_11,x_12,x_13,x_14,x_15,x_16,x_17,x_18,x_19,x_20,x_21,x_22,x_23,x_24,x_25,x_26,x_27,x_28,x_29,x_30,x_31,x_32,x_33,x_34,x_35,x_36,x_37,x_38,x_39,x_40,x_41,x_42,x_43,x_44,x_45,x_46,x_47,x_48,x_49,x_50,x_51,x_52,x_53,x_54,x_55,x_56,x_57,x_58,x_59,x_60,x_61,x_62,x_63,x_64,x_65,x_66,x_67,x_68,x_69,x_70,x_71,x_72,x_73,x_74,x_75,x_76,x_77,x_78,x_79,x_80,x_81,x_82,x_83,x_84,x_85,x_86,x_87,x_88,x_89,x_90,x_91,x_92,x_93,x_94,x_95,x_96,x_97,x_98,x_99,x_100,x_101,x_102,x_103,x_104,x_105,x_106,x_107,x_108,x_109,x_110,x_111,x_112,x_113,x_114,x_115,x_116,x_117,x_118,x_119,x_120,x_121,x_122,x_123,x_124,x_125,x_126,x_127
003f3e6fc1634f4fc95c9a2e80bcf1fa,0.067136824,-0.051949013,-0.027325008,0.017571801,-0.020986091,0.120586164,0.0077774567,0.03739496,-0.08976535,-0.036557652,-0.037327733,0.0047825826,0.004031272,-0.002329232,-0.02304581,0.001590999,0.054517273,0.07662508,0.046656605,-0.071676016,0.02580972,0.010180996,-0.053040218,-0.0492683,-0.019228593,-0.03687569,-0.054660074,0.0036653492,-0.067846835,-0.09298354,-0.044708733,-0.022118675,0.024572475,0.07813832,0.05876935,-0.0322853,-0.032923117,-0.07802046,-0.015235332,0.06335051,-0.09258653,-0.07764185,-0.090113334,0.04941025,-0.05010681,-0.043494176,0.0059683663,0.0051634726,0.00845585,-0.012562584,0.01596513,-0.011974146,-0.014858735,-0.09613486,-0.043824878,0.10870913,-0.03580259,-0.013093969,0.014016957,-0.011132059,0.06891419,0.010957072,0.0013191054,-0.0432717,0.079238795,-0.09157111,0.104808725,-0.031225996,0.061976127,0.010010644,-0.061338466,0.057200383,0.00967338,-0.006695988,-0.07928248,-0.053675234,-0.039563093,0.037182704,-0.024782129,0.002044975,-0.06604937,0.07136319,0.03188987,0.048154786,0.080732495,-0.004544156,0.0540162,-0.066916145,0.010908475,0.036715038,0.03410837,0.04481217,0.07498146,-0.053318676,-0.11291112,0.05270671,0.06754232,0.09313287,-0.074225895,0.052416503,0.05934944,0.038526736,0.013269977,0.015099984,0.011311321,0.0489032,-0.046946112,-0.0027759,0.08395014,-0.021571627,0.003163745,0.06315178,-0.10119218,-0.024855126,0.031269714,-0.036323242,0.030754993,0.004759867,-0.07601553,0.05427393,0.101314604,0.11187886,-0.0023266603,-0.020291975,0.0013975601,0.047465418,0.029398136,0.031111585
003f7e2a32d6132d74bd1eafc793b6c1,0.31711444,0.10956628,0.28255916,0.04406649,-0.27999082,-0.085323445,0.1117911,-0.10693538,-0.017608572,-0.20885211,-0.27853307,-0.10116835,0.3722844,0.03947117,0.23268028,0.15533318,-0.04730821,0.2664118,0.02881819,-0.35274515,-0.10951207,-0.21394503,-0.066362225,-0.30981424,0.058385596,-0.04700688,0.0031596492,-0.2565903,-0.33881956,-0.2649812,-0.38214725,-0.12131713,0.19329019,0.30543354,0.007479896,-0.22063808,-0.13438824,-0.22514884,0.20864476,0.322099,-0.009144422,-0.22731866,0.11131777,0.24517003,0.23760399,0.10241969,0.23358245,0.14407079,-0.42362535,-0.24591628,0.31179884,0.04088388,-0.055378634,0.073063575,-0.025325665,-0.028947411,-0.3732314,-0.2845829,0.2648408,-0.07637902,-0.015486222,-0.08435003,0.14334404,-0.31568822,0.007049044,-0.31069064,0.051688097,-0.4354496,0.25145054,0.3827351,-0.36498165,-0.08287674,0.31705287,-0.09665715,-0.28772172,-0.0489583,-0.20431598,-0.01851418,0.5657082,-0.1334985,-0.06555475,0.3178109,0.22801189,0.065666184,0.17314076,-0.35117993,0.33270672,-0.082267985,-0.32051787,0.037380498,0.027582696,0.00052807207,0.15451221,-0.41171262,-0.15468588,0.04627497,0.18221676,-0.20992532,-0.24359311,-0.030954065,0.30759364,0.2624794,0.26385656,0.3085424,0.231649,0.07215116,0.19724722,0.084631495,0.11035248,0.0118030105,-0.1938839,0.21232352,-0.2966453,0.15472984,0.036806997,0.21457087,0.44893414,-0.13038425,-0.014377146,-0.08445481,0.014067918,0.17753857,-0.11397674,0.07317335,0.22222824,0.010844859,0.23528355,-0.062716745
004b3dc6622a2a9374f6c289faf52d92c014452076d83648adf8e09d9ac82512,0.057561144,-0.015462315,0.003210172,0.021905849,-0.022928525,0.036637507,-0.0071864245,0.021505669,-0.033878073,-0.038772225,-0.028845703,-0.0008765818,0.012282552,-0.0054436447,-0.0034561243,0.0069089076,0.013309926,0.05877643,0.0030965502,-0.061593786,0.014085306,-0.02299984,-0.0157784,-0.057964344,-0.014558173,-9.5907555e-05,-0.028416814,0.010836668,-0.09682499,-0.07589833,-0.047850937,-0.034309734,0.04767998,0.0808261,0.031806156,-0.023012314,-0.021107983,-0.023764344,0.0036130596,0.05589067,-0.068786405,-0.050895523,-0.027583392,0.045886368,0.0008972815,-0.011038433,0.017323503,0.038045183,-0.05133051,-0.025421182,0.016031217,0.021076744,0.019690108,-0.06444303,-0.019313544,0.0631549,-0.06988386,-0.024768796,0.018864019,-0.021942329,0.00775902,-0.0073500434,0.011014148,-0.036354546,0.04062141,-0.059585046,0.03835532,-0.06576933,0.050862413,0.03152958,-0.06947562,0.016752262,0.023272214,-0.0023301607,-0.05205144,0.0028116049,-0.041080274,0.019802159,0.02072433,-0.011741878,-0.049401555,0.053966977,0.05277837,0.026931508,0.051361855,-0.032361083,0.047126636,-0.057058915,-0.009840709,0.03831001,0.043268993,0.031616688,0.04546093,-0.04761921,-0.07406263,-0.009687761,0.06507147,0.036639012,-0.058441903,0.021591518,0.07887656,0.033706367,0.035343394,0.03928963,0.040215306,0.023746634,0.01334652,0.0030304103,0.043977577,-0.024839887,-0.030892773,0.027396908,-0.08855096,-0.0070010414,0.007764111,0.021084134,0.052957915,-0.0041005234,-0.05144359,0.043641493,0.04952887,0.08877559,-0.022176415,-0.002771519,0.041657116,0.01565932,0.0395926,0.009722977
0064bd63e7337da6616b0d6adb03ca99,-0.027877454,-0.12768424,0.0216411,0.047932293,0.053470362,0.1610368,0.04803471,0.010646963,-0.075466186,0.05169001,-0.037731312,0.06621983,-0.033059496,-0.06135708,-0.05061046,-0.04895345,-0.002601249,-0.0068754414,0.1882951,-0.00066170405,0.10930971,0.017522667,-0.008277054,0.011933697,-0.09180336,-0.04180155,-0.2132165,0.06938994,-0.059755594,-0.056677986,-0.017555468,-0.06231773,0.03154582,0.035888944,0.08391279,-0.013923048,0.02347091,-0.109716184,-0.08922458,0.057450335,-0.10523594,-0.08054965,-0.16022591,0.06146615,-0.066843905,-0.08564023,-0.08005209,0.016370675,0.066158965,-0.020192891,0.05914828,-0.09626145,-0.08811752,-0.15000297,-0.07688015,0.15355635,0.08033295,0.06399254,0.011719782,0.028392976,0.021047238,-0.015540723,-0.07606745,-0.026762951,0.116755694,-0.018114882,0.10847418,0.095626265,-0.03676364,-0.11053295,-0.011135273,0.16775556,-0.03185357,-0.034542985,-0.10979825,-0.1424899,-0.002424241,0.04313667,-0.08849846,0.09037636,-0.038621426,-0.021612845,-0.04946405,0.0855847,0.050818846,0.022485327,-0.001280909,0.038024634,-0.027714888,0.009603826,-0.019377515,0.06435366,0.18490984,-0.018888446,-0.06533043,0.112138316,-0.06696452,0.09045379,-0.07905054,-0.057120353,-0.016027782,0.082771026,0.023597771,0.029359048,-0.024820633,0.01584111,-0.13105881,-0.0872446,0.10032507,-0.026355013,0.040303573,0.07116767,-0.07355625,-0.023103349,0.020793343,-0.05755844,0.013187111,-0.017994432,-0.16211961,0.078029215,0.14651354,0.22358312,0.13695551,-0.11273066,-0.103643954,0.12783691,0.02909291,0.09995871
009ed622bf936a036828fab19ceb69d78264ab51507396a3809bbe947ddd9ddf,0.052520543,-0.013672162,0.0003400623,0.01719111,-0.01747026,0.04408703,0.011664458,0.008614375,-0.049305744,-0.03569914,-0.0430944,-0.005500944,0.039477523,-0.008069529,0.0017305589,0.007824282,0.018208724,0.05334189,0.020527078,-0.062484976,0.009817128,-0.008313851,-0.029845025,-0.051411435,-0.011247172,-0.019199679,-0.029358447,-0.010056588,-0.073718935,-0.0656411,-0.059177384,-0.021145346,0.032714885,0.063204125,0.044874214,-0.031540807,-0.027169062,-0.045997202,0.003195019,0.05668028,-0.04885935,-0.05950886,-0.034798354,0.045891114,-0.004989114,-0.020770311,0.019410647,0.023134153,-0.018790213,-0.036049392,0.0388805,-0.004515868,-0.003464275,-0.04345245,-0.020096045,0.041297145,-0.059970994,-0.03585696,0.03431555,-0.008482241,0.023160249,0.017130738,0.00872391,-0.05498755,0.03967157,-0.078625396,0.04492435,-0.060803782,0.042742826,0.041054185,-0.0715009,0.016924938,0.03511272,-0.0040935744,-0.059486024,-0.025940133,-0.042962003,0.017061198,0.021299062,-0.014835692,-0.027019288,0.06200669,0.03166773,0.038728517,0.056745626,-0.03531027,0.054811563,-0.04227082,-0.03666855,0.02354668,0.02320259,0.0290937,0.05681741,-0.06317967,-0.0563023,0.020333325,0.04708901,0.016260028,-0.05058316,0.013413319,0.05885142,0.052702926,0.030375326,0.036505926,0.023359217,0.025281193,-0.008740008,0.003348682,0.06549045,-0.0101207895,-0.019727616,0.05196527,-0.06616827,0.0024133143,0.014889566,0.006707031,0.0509119,-0.002142829,-0.04908744,0.03227064,0.049625613,0.08235749,-0.024550898,-0.007933742,0.021390423,0.03316425,0.032033537,0.011502458
00bc7defa16eb3171966a8fb0e740750,0.06922856,-0.0026150306,-0.05098002,0.004044773,-0.037863594,0.09971407,-0.009048791,0.023945982,-0.11163634,-0.07797825,-0.04795347,-0.025470147,0.023914376,0.0016695983,-0.00741879,0.031455107,0.044436507,0.09053271,0.0013248554,-0.07486704,0.01578711,0.004364836,-0.05027304,-0.06850052,-0.0069492604,-0.002988451,-0.027853893,0.00855668,-0.08010411,-0.11198564,-0.057345953,-0.039303713,0.03505797,0.08754463,0.0746878,-0.021071615,-0.042833656,-0.06518265,-0.021568686,0.059291504,-0.08167081,-0.07699786,-0.056889594,0.048602674,-0.03816446,-0.037475362,0.026617408,-0.005870621,-0.009608613,-0.013469789,0.00628294,0.013318292,0.039502874,-0.07930254,-0.0385112,0.0811609,-0.07903952,-0.03757759,0.031473543,-0.010081168,0.057681315,0.03845379,-0.006357712,-0.047828514,0.062776454,-0.09724142,0.09272048,-0.08788994,0.072743766,0.053461645,-0.075144954,0.02937824,0.01484067,0.005953196,-0.07548954,0.0054690936,-0.05406732,0.047090262,-0.015718663,-0.020047909,-0.07562627,0.07816648,0.04967736,0.040004708,0.09467046,-0.0088802725,0.052802294,-0.08084307,0.0074810856,0.046860285,0.06717687,0.06371615,0.052311268,-0.06382034,-0.10851401,0.011762422,0.08551933,0.05846486,-0.05775715,0.050823428,0.086604044,0.040159024,0.014708396,0.019651948,0.019816503,0.0639421,-0.030974474,0.014194462,0.100743964,-0.006745465,-0.03180128,0.09893763,-0.089167155,-0.023310477,0.018220348,-0.01743982,0.043725275,0.010500984,-0.07963439,0.06300122,0.09461241,0.07842646,-0.04532842,-0.012180066,0.031696968,0.054743733,0.015202973,0.02698761
00c7fd6908fc5a04ab47adc5c7829ca7,0.0643829,-0.072472595,-0.019001788,-0.012766447,-0.047454312,0.13027887,-0.01445964,0.05174331,-0.077068284,-0.040771205,-0.035386957,0.020114318,-0.020083334,-0.015401796,-0.025823375,0.00025844586,0.05580527,0.07783956,0.05902023,-0.056095198,0.024031514,-0.007882736,-0.047980595,-0.056839116,-0.031768564,-0.008721954,-0.0391353,0.045770075,-0.06741277,-0.08293178,-0.020957895,-0.05148221,0.057741538,0.08609382,0.039790776,-0.0091345515,-0.038843557,-0.04015527,-0.023539238,0.082513556,-0.085205324,-0.06976324,-0.1300779,0.033516508,-0.048472732,-0.035119455,-0.00940687,0.011235251,0.03136685,-0.0016971808,-0.030470934,0.014992682,0.013528208,-0.09232584,-0.051269244,0.11394589,-0.027707387,-0.016674895,-0.007871088,-0.053950574,0.06542925,-0.04453028,-0.008841837,-0.007856837,0.062306058,-0.09548031,0.10411226,-0.00627701,0.07085429,0.009532188,-0.057904482,0.0654689,-0.014730805,0.020388853,-0.034057446,-0.036529902,-0.027227478,0.050712366,-0.030355671,0.03247067,-0.08578545,0.041520037,0.058899183,0.034576606,0.039026283,0.01673823,0.024112048,-0.06341108,0.046419907,0.06690243,0.034912154,0.047544677,0.06603659,-0.041489515,-0.13222718,0.021134356,0.097062126,0.12169914,-0.06595802,0.07055312,0.082564905,0.008779082,-0.021394212,0.0049148523,0.0043699923,0.035363685,-0.027652288,-0.0074159135,0.059625637,-0.05281402,-0.021630174,0.040650215,-0.1099483,-0.05313972,0.041124847,-0.0072246,0.03506238,-0.0013241194,-0.07818822,0.063711405,0.10502846,0.10468343,-0.0074472288,-0.011069601,0.025386037,0.0320088,0.05543034,0.031328708
00d50962dce0b43d78a3a5e830255150,0.09145602,-0.004649514,-0.048013385,0.013499493,-0.03716807,0.06654502,-0.009577602,0.024911338,-0.0971375,-0.060697053,-0.028960712,-0.021667147,0.032863576,0.0018578937,-0.009790197,0.027439669,0.033054292,0.08883068,-0.011702482,-0.07753168,0.018415323,0.012386222,-0.04566539,-0.07518606,0.0018999095,-0.004899798,-0.028311264,-0.017299024,-0.075310156,-0.09085882,-0.06447785,-0.027091043,0.021021327,0.07360785,0.054032385,-0.039084867,-0.039862808,-0.057730477,0.006938589,0.052319296,-0.07191609,-0.07269688,-0.039619554,0.05220953,-0.039936937,-0.030403236,0.031957403,0.004912128,-0.017498415,-0.018954646,0.018037422,0.0146920765,0.019226987,-0.061052714,-0.029978968,0.071402095,-0.08769508,-0.046435516,0.024066184,-0.013954995,0.043703876,0.042228203,0.023859775,-0.060158063,0.0591956,-0.09486487,0.08231868,-0.07004168,0.08224461,0.058839098,-0.07851564,0.011206275,0.018602215,0.0049803024,-0.079441026,0.00021928642,-0.06710352,0.027213236,0.0059758346,-0.026687752,-0.06797281,0.085281655,0.029510463,0.02906887,0.091315374,-0.013658181,0.052952096,-0.08914644,-7.915718e-06,0.030282222,0.06431365,0.056937154,0.042884786,-0.07430653,-0.094788656,0.01593597,0.06678514,0.045048848,-0.061459158,0.041070923,0.08404847,0.046331808,0.022435438,0.026659101,0.03394476,0.05789083,-0.014264495,0.008708271,0.08108484,0.0046915994,-0.044619992,0.07389189,-0.08650551,-0.006482075,0.02310951,-0.011466553,0.040082484,0.0037562503,-0.04724341,0.036479846,0.08099571,0.08233726,-0.043338563,0.0055771,0.025692208,0.03532855,0.022918621,0.012789173
00f83a459e206283925ff0c2ac976d23,0.06545057,-0.014681867,0.0048277783,0.0024740477,-0.045203153,0.04824982,0.00012397405,0.006006869,-0.047684543,-0.04517831,-0.039069556,0.005570154,0.025837237,-0.011857858,0.016978517,0.0076104575,0.018092187,0.061843984,0.026580561,-0.057384085,0.01959057,-0.015623346,-0.03033729,-0.053386528,-0.012279631,-0.0073193405,-0.023219584,-0.003360277,-0.07639677,-0.0748039,-0.047965888,-0.039767828,0.044928227,0.07220682,0.027662363,-0.023021795,-0.02328031,-0.030783322,0.0010672619,0.06534315,-0.042403072,-0.059167005,-0.03982838,0.042679753,0.0076762987,-0.01989753,0.011986903,0.027600612,-0.023826333,-0.034779515,0.029405827,0.007119128,0.007918481,-0.053423926,-0.026269555,0.053678907,-0.06600399,-0.029357389,0.033096295,-0.028624002,0.020629568,-0.0013430866,0.00947717,-0.034945324,0.0486631,-0.063339435,0.03847103,-0.050298303,0.05239109,0.03548775,-0.07205438,0.022461358,0.023244245,-0.0012762672,-0.059623223,-0.027259378,-0.041640334,0.020313337,0.024597341,-0.0069681187,-0.043964107,0.058081288,0.04583184,0.020145833,0.045605805,-0.024610937,0.040542632,-0.042955473,-0.020665463,0.031376764,0.031615708,0.025748225,0.05629902,-0.057922978,-0.075499244,0.020223502,0.049908273,0.028629456,-0.05382102,0.012988682,0.07034139,0.03587059,0.024889713,0.045412857,0.026515068,0.028501606,-0.0027003074,0.009311955,0.05441804,-0.013010465,-0.028139831,0.034856487,-0.0798931,-0.0009360299,0.019046512,0.019172221,0.052879747,-0.010510194,-0.035940167,0.024653032,0.059793424,0.08073789,-0.020843532,-0.0013780028,0.037059337,0.022898218,0.04999487,0.01477317
014cd58f9fe4febcfc159ca9b2253c65,0.078658655,-0.022170827,-0.007124896,0.024306409,-0.03822069,0.06809045,-3.9374652e-05,0.024458706,-0.070377566,-0.053891644,-0.050732452,-0.014655394,0.023971425,-0.0012317272,0.00045798492,0.009864858,0.032435164,0.07402141,0.012884602,-0.0947471,0.018267216,-0.009432437,-0.028096505,-0.07699911,-0.022724198,-0.008515347,-0.04964115,0.010496404,-0.11868134,-0.10576696,-0.064496815,-0.049679283,0.053703256,0.104720786,0.06116002,-0.037667695,-0.037979867,-0.05202154,-0.01201788,0.08783332,-0.09191901,-0.072707966,-0.05840948,0.05855286,-0.009495537,-0.040720657,0.025810018,0.024206787,-0.054696023,-0.03485309,0.029644137,0.0050754147,0.026849503,-0.08554683,-0.031767596,0.095988385,-0.08189205,-0.037496615,0.045163978,-0.014350193,0.03204531,0.016814778,0.0033861522,-0.059039444,0.077226184,-0.09710828,0.08126281,-0.07931579,0.070216775,0.03534966,-0.09897307,0.03639607,0.025642913,-0.0015024949,-0.08124644,-0.020049812,-0.06229573,0.03643875,0.01640435,-0.011321724,-0.07374388,0.077068135,0.060388,0.053407826,0.081255175,-0.04164122,0.06965668,-0.062126573,-0.0070887515,0.044645738,0.054048892,0.054829568,0.06417382,-0.06839451,-0.097337544,0.00959548,0.07151065,0.06484607,-0.07968231,0.040308446,0.081442885,0.054458905,0.036308467,0.053196367,0.042797893,0.04671149,-0.00031524425,0.011143665,0.086074635,-0.026962982,-0.023153996,0.06650195,-0.11321856,-0.008381592,0.020737527,0.009925704,0.06710518,-0.010093329,-0.06975575,0.058419507,0.08900221,0.11054544,-0.017014883,0.00414893,0.036871117,0.036600713,0.045288496,0.029331725
017662f941ebe50c7e0d3fd9a826144a,0.07167614,-0.05205366,-0.049840447,0.02988488,-0.014539611,0.093767025,-0.013443984,0.048835393,-0.073719546,-0.040819965,-0.039996795,0.016805355,0.008622498,-0.011458847,-0.04292013,-0.016523784,0.054769598,0.091624334,0.025591541,-0.08281709,0.022681242,0.0015320627,-0.04367658,-0.056148972,-0.015539395,-0.03237124,-0.056878828,0.012230274,-0.08780036,-0.09730032,-0.030410368,-0.03271212,0.032974873,0.09048206,0.058022484,-0.029705847,-0.02189027,-0.05119846,-0.01336441,0.055287883,-0.09514069,-0.0737607,-0.07685888,0.049388383,-0.048752703,-0.045186967,0.00874427,0.019820115,-0.01491639,-0.0039238473,0.0011294915,0.0077525,-0.007998674,-0.091304556,-0.036841415,0.110015705,-0.051436346,-0.015993103,-0.00017725913,-0.00863296,0.042047497,0.012784109,0.009777648,-0.044620305,0.08030092,-0.10387314,0.08491524,-0.04782617,0.058580086,0.0013684961,-0.07139857,0.050478194,0.017069189,0.0030333602,-0.05339677,-0.038010884,-0.043718107,0.040993318,-0.021364644,-0.0016305625,-0.051958438,0.072658844,0.032293316,0.050599635,0.07719184,-0.002484897,0.054091662,-0.066548765,0.014531419,0.036740802,0.04022863,0.058888026,0.060305946,-0.048378695,-0.108212225,0.014381215,0.07086358,0.09049363,-0.0847578,0.062355574,0.07266878,0.043803185,0.0099052945,0.021827815,0.023049023,0.0384086,-0.020688392,0.010420268,0.07760946,-0.027536029,-0.011241865,0.038642522,-0.10710775,-0.020756077,0.04609983,-0.01677508,0.023598172,-0.0030822838,-0.060310144,0.07417739,0.09137796,0.12452119,-0.020260233,-0.008399404,0.010663577,0.033088427,0.016852064,0.024583446
018b04599563dbb78f5dec1ae033b293,0.070259616,-0.052417926,-0.076908186,0.010498966,0.010187488,0.1263148,-0.036986414,0.053599942,-0.09588559,-0.048891574,-0.012517853,-0.002592457,-0.01353138,-0.033535928,-0.03984282,-0.0025469593,0.038232967,0.06653514,0.035307605,-0.030400196,0.06172416,0.037676707,-0.05447061,-0.05732198,0.0012435268,-0.0118605755,-0.04975194,0.01410853,-0.051223554,-0.08675219,-0.0015903792,-0.018931003,0.023366725,0.041473757,0.09532253,-0.0034187005,-0.042382017,-0.05509071,-0.019252095,0.032855324,-0.096024886,-0.054725472,-0.105402544,0.016844865,-0.089630805,-0.051898643,0.012147048,-0.006256653,0.06904724,-0.015953584,0.002726558,0.0091454815,0.0256762,-0.1004154,-0.03145207,0.1021169,-0.05388636,-0.0055497377,-0.017721327,-0.017327612,0.05525001,0.047002725,-0.018130317,0.0023333493,0.08468999,-0.051174685,0.08620381,-9.959593e-05,0.05343087,0.008574804,-0.05464625,0.02503837,-0.0014129779,-0.0075017745,-0.05708092,-0.037107635,-0.057582956,0.028822463,-0.065032214,-0.010333339,-0.05069087,0.051625658,-0.012524303,0.038489606,0.054760166,0.03595292,0.0036636,-0.07779622,0.019906001,0.0059174625,0.06706098,0.05557838,0.08036402,-0.02929624,-0.1018669,0.02539867,0.052789465,0.09847515,-0.03076859,0.021322422,0.06426856,0.0024347494,-0.009942215,-0.0023383754,0.0023249655,0.044434715,-0.058223665,-0.0033105582,0.085042305,-0.01876433,-0.024740197,0.04677768,-0.057044506,-0.038650863,0.019755878,-0.045688715,-0.0032865698,0.037535895,-0.06916393,0.07366866,0.11690245,0.113488086,-0.0283175,-0.043451276,-0.02030175,0.054170832,-0.0014257734,0.025861867
018f728ff1ade3660da7de6802c5fdbc,0.09379602,-0.007208793,-0.013270346,0.009188848,-0.067046195,0.07477761,-0.008426414,0.020864224,-0.08350948,-0.069863915,-0.053715713,-0.012884957,0.024537029,0.008427272,0.006164199,0.013642346,0.041774873,0.09503931,0.005426419,-0.09207997,0.016458074,0.00019753221,-0.043832485,-0.08968124,-0.0006141533,-0.016862456,-0.032667093,0.0072928537,-0.11574098,-0.11834904,-0.078467704,-0.043834265,0.062414356,0.11104356,0.06962369,-0.026394563,-0.048947975,-0.06262155,-0.0020577258,0.08852222,-0.08069265,-0.08488627,-0.06837567,0.054213308,-0.014672494,-0.0350258,0.022195451,0.01324595,-0.034027994,-0.044484153,0.0248328,0.019178772,0.03739572,-0.07196484,-0.035292007,0.0881267,-0.10178996,-0.036685973,0.039010126,-0.022371482,0.041762475,0.015800118,0.0056831604,-0.060071893,0.06426408,-0.09740789,0.08017351,-0.09073312,0.083108336,0.065256104,-0.10494419,0.03360632,0.03225734,-0.0030023877,-0.09654842,-0.014689392,-0.0700501,0.037794966,0.023240676,-0.02208473,-0.08825894,0.08881388,0.06462769,0.045403503,0.094356515,-0.03139702,0.060578603,-0.07677917,-0.0035625752,0.043394554,0.05672159,0.05705465,0.06655985,-0.09385485,-0.108097434,0.01645393,0.081170686,0.059784587,-0.064185254,0.029123288,0.09254002,0.056179885,0.04288991,0.053719323,0.044682026,0.05519293,-0.0042794794,0.01251296,0.08204215,-0.029093634,-0.031446107,0.08349169,-0.114539415,-0.0066254423,0.022271117,0.0017981387,0.076155715,-0.018549621,-0.07040401,0.058720145,0.08634385,0.11010296,-0.026296776,0.0071702222,0.04650689,0.038226087,0.047813073,0.024822412
01c8543fd256a60a2124e5a949f1f3b4,0.07268758,-0.017172664,0.032193042,-0.0039580893,-0.077838935,0.09995052,0.01431576,0.033832975,-0.048218053,-0.06460047,-0.071176074,-0.007806729,-0.0026469824,0.015318837,0.022189911,0.024498066,0.026821136,0.058888204,0.046003833,-0.081498526,0.01754276,-0.03485314,-0.010237388,-0.07795249,-0.034845326,-0.006201454,-0.050891582,0.05160188,-0.14001994,-0.11469136,-0.06417593,-0.07976276,0.08926082,0.13084504,0.051398125,-0.008494128,-0.0272897,-0.029615058,-0.024066044,0.10779219,-0.072595,-0.08070727,-0.089269586,0.05836579,0.013884742,-0.035057854,0.004794631,0.02388308,-0.06380365,-0.03188317,0.00079690374,0.009553428,0.04847401,-0.08257726,-0.05988923,0.10967913,-0.06635873,-0.030668367,0.050629426,-0.038956467,0.042183433,-0.03258903,-0.036657356,-0.017292688,0.082450286,-0.075648025,0.07354357,-0.06651471,0.052262466,0.031790137,-0.091678925,0.060782097,0.016397955,0.009798691,-0.067339145,-0.021930525,-0.02871729,0.069652215,0.018891297,0.02204139,-0.10490589,0.050493717,0.08580264,0.055900145,0.06451881,-0.053072758,0.05239639,-0.040050644,0.00067818054,0.07253554,0.032644138,0.047013205,0.093751654,-0.06745165,-0.11948859,0.0036341897,0.09859915,0.09461898,-0.065713085,0.030749196,0.08880422,0.05343697,0.015388798,0.040904853,0.02899732,0.050007205,0.0016231558,0.006766326,0.087811634,-0.053738933,-0.011882249,0.07511745,-0.118040524,-0.008858663,0.020844297,0.02407908,0.09383524,-0.024238497,-0.082531095,0.06569977,0.096760474,0.12246351,0.021198358,-0.019100482,0.07257637,0.024590995,0.075985886,0.04455668
01f9c8db52f8edb462478310cfed7a23,0.10269118,-0.038029335,-0.058223344,0.010422295,-0.035062745,0.11789284,-0.013971813,0.0464792,-0.10460223,-0.06642284,-0.027164215,0.00045131324,0.009638321,0.0027768724,-0.035826504,0.0073581394,0.06100759,0.106056914,0.009707896,-0.098943084,0.008901197,0.025017338,-0.078207284,-0.06904129,-0.002400258,-0.0154208075,-0.010699824,-0.00796828,-0.07949106,-0.107477896,-0.03409843,-0.011241768,0.023749664,0.075309455,0.05353781,-0.034866065,-0.051737256,-0.05711486,0.0121863065,0.0607578,-0.10382353,-0.075790055,-0.08627738,0.035141245,-0.057047836,-0.04041066,0.02176889,0.005084958,0.01656435,-0.0057285917,-0.0017807457,0.029923005,0.0017330114,-0.08190481,-0.037458498,0.09808304,-0.061806068,-0.034845695,-0.0014717687,-0.026844844,0.08090156,0.025694093,0.021392973,-0.046800178,0.071195625,-0.12805285,0.101427995,-0.064385556,0.09668765,0.044330698,-0.08453678,0.035233356,0.011016018,0.0033768835,-0.069544815,-0.022184499,-0.051993795,0.04033631,-0.014492726,-0.022130873,-0.069102556,0.08697126,0.04564544,0.030086312,0.08840855,0.016601574,0.050559025,-0.099458225,0.0134709785,0.050332136,0.058276124,0.061481066,0.045273982,-0.062033214,-0.122106,0.030171372,0.08609037,0.09028213,-0.07312394,0.092189446,0.08026682,0.03531638,0.00054846634,0.018588567,0.01063974,0.06459316,-0.028004808,0.01712637,0.09118247,-0.028798813,-0.01675133,0.060106117,-0.11142183,-0.033558626,0.04914802,-0.017553005,0.03713112,0.007166413,-0.06858079,0.060891844,0.103076935,0.09906577,-0.051287826,0.016399007,0.010579975,0.03911147,0.016375588,0.002833606
020ffd8294b9c0bd4f6127b06fccffae,0.11342835,0.0017479792,-0.019888332,0.010194918,-0.062359013,0.077239275,-0.023871757,0.024026409,-0.09404088,-0.07699838,-0.045440532,-0.018268768,0.039553147,0.0019361114,0.0036262523,0.019677833,0.03743889,0.10666786,-0.012406472,-0.1021067,0.01669283,-0.0037548807,-0.057925135,-0.094735526,0.0064848135,0.0003575082,-0.010782279,-0.01706297,-0.113751374,-0.11707042,-0.06997075,-0.035951864,0.052223507,0.09940163,0.05759328,-0.02456144,-0.06004494,-0.049486756,0.02119144,0.07955744,-0.08721508,-0.07187127,-0.06431414,0.045321792,-0.02073143,-0.03189821,0.036903434,0.01970545,-0.03410854,-0.038451936,0.024812449,0.042448387,0.040115144,-0.07020656,-0.03684185,0.077010475,-0.110576324,-0.061842155,0.039830618,-0.02566546,0.051326457,0.030246029,0.025431737,-0.044044204,0.06329138,-0.1068335,0.08008913,-0.10017015,0.10412472,0.07666204,-0.1101751,0.011275449,0.039170858,0.00032899526,-0.07723991,0.0072648586,-0.073119216,0.03566813,0.031949006,-0.039868742,-0.08160298,0.103956476,0.05951232,0.03849814,0.08591933,-0.025375413,0.05563585,-0.09033662,-0.0019196109,0.050279144,0.06433048,0.05160245,0.04665664,-0.08776963,-0.107021146,0.0109152105,0.109614745,0.056958966,-0.062193114,0.041025512,0.11531185,0.040611878,0.036432162,0.04257708,0.055154108,0.06490621,-0.0023802598,0.025544142,0.084048815,-0.013362871,-0.054464724,0.069996566,-0.10747605,-0.0147733865,0.035918243,0.013445625,0.083620705,-0.0014813545,-0.055389464,0.049977366,0.08847665,0.09674479,-0.049422882,0.01918586,0.052321065,0.029248998,0.046830084,0.015829813
0257ff0237e869e4b31d18322ec19b90,0.0668646,-0.057683453,-0.05497556,0.018348051,-0.028022284,0.14806318,-0.01782081,0.043464012,-0.110840276,-0.04143137,-0.03873902,0.008727328,-0.009834974,-0.010599333,-0.045739584,-0.015490731,0.08047895,0.08594918,0.049376685,-0.080121554,0.038705997,0.028582692,-0.076478206,-0.041760515,-0.029025666,-0.035772342,-0.06658678,0.02223628,-0.071577676,-0.11005084,-0.027567983,-0.03059574,0.016505208,0.07451292,0.07138734,-0.03200343,-0.026396757,-0.083338715,-0.02954211,0.0684329,-0.11553799,-0.08407584,-0.1191596,0.053685762,-0.07574083,-0.059880916,-0.0065726987,-0.0063366196,0.029229764,-0.006004801,0.003233906,-0.008588525,-0.021319816,-0.121984124,-0.055200417,0.14072786,-0.02700657,-0.0051776357,-0.0048383786,-0.001281388,0.08220941,0.018557638,-0.0034345137,-0.04011862,0.09333221,-0.09950563,0.13601731,-0.01733902,0.0689329,-0.010935459,-0.07696192,0.08859733,-0.005513449,0.002852155,-0.08791667,-0.058337744,-0.04682141,0.058067303,-0.058611654,0.01553619,-0.07366994,0.072914585,0.031418838,0.04076587,0.098914504,0.01721657,0.043494467,-0.0777123,0.034930345,0.042867526,0.038456958,0.07257405,0.07301608,-0.047490284,-0.12928872,0.06104169,0.062229898,0.12725708,-0.08361852,0.076298885,0.056740336,0.046106875,0.0096967025,0.015687395,0.0073070703,0.04795803,-0.06470336,-0.0011208773,0.11073107,-0.030360073,0.011221752,0.06483916,-0.123766586,-0.036379483,0.05028552,-0.043576397,0.012226628,-0.00024392796,-0.09388585,0.0855561,0.123582356,0.12787285,-0.01435931,-0.010188532,-0.003590315,0.058930203,0.028021278,0.037716832
02ad7b97d9f5c9d33e6fcb0feff3a3ac9e0d05972248e74d4074f79ce1aa89bf,0.061950345,-0.0037448225,-0.01419764,0.015912175,-0.024017531,0.04923682,-0.001980222,0.012957641,-0.05770222,-0.051739253,-0.034371566,-0.019011974,0.02915495,-0.002955475,0.00082697946,0.02489191,0.015918795,0.061822236,0.018916927,-0.064902134,0.0071471306,-0.0045044576,-0.027340474,-0.060692806,-0.0025299496,-0.01249273,-0.029114267,-0.013548309,-0.07332163,-0.086946785,-0.06685796,-0.027435225,0.03680535,0.074253835,0.053689793,-0.038926348,-0.03683077,-0.058864955,0.008223342,0.06713148,-0.05623175,-0.05346763,-0.035229187,0.044777177,-0.011863242,-0.0249638,0.03378093,0.010470519,-0.026160177,-0.041985128,0.033091955,0.014966585,0.016116159,-0.058387898,-0.026638493,0.05267097,-0.07416285,-0.032421023,0.029402524,-0.0039440114,0.020360703,0.014914222,0.010706443,-0.0448064,0.058153037,-0.07665365,0.054712377,-0.06426238,0.06471314,0.047950674,-0.0805924,0.008822738,0.033144068,-0.007472904,-0.08047129,-0.012733213,-0.053164862,0.025661618,0.029853288,-0.014720789,-0.05258083,0.07113569,0.032643445,0.03262931,0.07796928,-0.032725096,0.058219224,-0.05408428,-0.026588073,0.032289512,0.038857542,0.03565802,0.055113308,-0.06414572,-0.07606677,0.013981959,0.055169355,0.030328207,-0.057048578,0.02700855,0.07212708,0.05182795,0.03074919,0.039565857,0.03652195,0.04765413,-0.01225398,0.005385443,0.06741118,0.0016066646,-0.03491345,0.07145496,-0.07293932,-0.0014560928,0.010706164,-0.0020109392,0.062020727,-0.0050568837,-0.058919884,0.03491156,0.058039762,0.08293996,-0.031219494,0.00019767036,0.02015188,0.036435425,0.03505276,0.017052112
02b016d43b493b4c25bdd1bdba58c199bb43c764c0363e7ea4abe14ca71f6f02,0.09427805,-0.001465835,-0.044807035,-0.036834054,-0.12021656,0.22629158,0.0025271787,0.052412063,-0.178839,-0.14816873,-0.09257939,-0.05209479,0.00037349263,-0.005671605,0.003369024,0.07935258,0.06532751,0.10682588,0.037916474,-0.08570142,0.056076497,0.003497355,-0.059115134,-0.11308398,-0.049389746,0.0162348,-0.05057283,0.112265654,-0.14884144,-0.1886003,-0.068041645,-0.11626131,0.11738478,0.17949247,0.13613029,-8.5153115e-06,-0.06547485,-0.10459777,-0.07703467,0.11738688,-0.13746887,-0.12770197,-0.2068015,0.07640137,-0.07064633,-0.08121193,-0.009341677,-0.025480261,0.03175883,-0.034536365,-0.042176895,0.016908647,0.1334445,-0.16649398,-0.12450653,0.16888623,-0.10016955,-0.04067913,0.054280482,-0.04952815,0.119224705,0.0029808672,-0.07732078,-0.022395365,0.1046058,-0.11503884,0.1789732,-0.06498676,0.10769516,0.072364174,-0.12663896,0.08887437,-0.015022444,0.018374829,-0.13142693,-0.030689506,-0.051232122,0.13032824,-0.0777271,0.032184105,-0.19846019,0.065330036,0.11589887,0.05639731,0.116454385,0.0013023581,0.043567363,-0.11366287,0.040056493,0.10132034,0.11878493,0.10440117,0.14848793,-0.10221939,-0.20536037,0.032887656,0.17594221,0.1817389,-0.06490265,0.08259217,0.1599893,0.04450633,-0.0051890165,-0.008599634,0.022952937,0.1306507,-0.08886329,-0.03514411,0.1789889,-0.032466147,-0.035677757,0.2094919,-0.14205024,-0.044864196,0.0073894267,-0.04678212,0.0904556,-0.005416984,-0.16703455,0.1083774,0.20026815,0.15320142,-0.0029129952,-0.063257016,0.08385814,0.10950311,0.080613986,0.064510524
02b51f81f1f26d649e555052d3655dbcb1af8dca97f2d1ad461b4ca73f1f31a4,0.49118587,-0.25897115,0.14464043,0.01729995,-0.4355718,0.4136631,-0.016102735,0.40241885,0.026526695,-0.12023635,-0.28555766,0.24142954,-0.23110534,0.044275563,0.10002089,-0.15872915,0.18557857,0.36368552,0.21042673,-0.3248091,0.017800817,-0.17495011,-0.11925688,-0.35223255,-0.09293162,-0.16925828,-0.23370674,0.2782093,-0.7021945,-0.4055169,-0.08535759,-0.32996574,0.38560224,0.60542935,0.106567696,0.04399836,-0.19965808,0.15083766,0.10776102,0.5046359,-0.39161882,-0.23790117,-0.48508734,0.23255791,0.042397123,-0.12749813,-0.036516406,0.22330673,-0.316181,-0.15027942,-0.1399329,0.10712351,0.09429969,-0.46088132,-0.25853354,0.60312486,-0.3022018,-0.06415275,0.05840414,-0.4288897,0.23920514,-0.281558,-0.050381288,0.09777088,0.42262265,-0.2776069,0.17906974,-0.19741037,0.2595528,0.11314204,-0.3280527,0.27971092,0.07348478,0.14550434,-0.08312065,-0.1165332,-0.17959471,0.22159965,0.06373599,0.091278106,-0.37839368,0.1505564,0.3659048,0.19730397,0.069117114,-0.28079236,0.07175847,-0.13467781,0.20393908,0.3719427,0.11862296,0.10124659,0.31401223,-0.23350298,-0.57062095,-0.15174092,0.4900107,0.699056,-0.31680563,0.17542443,0.42433447,0.014309284,0.0061858115,0.1956653,0.17280422,0.026974555,0.13937286,0.13493481,0.17241818,-0.61018354,-0.04325121,-0.091796674,-0.6977499,-0.18147048,0.21960542,0.19733417,0.4736479,-0.15724549,-0.15900664,0.41479918,0.49118176,0.6951489,0.06547586,0.08264427,0.41635087,-0.15351237,0.47835043,0.101039216
032a439627f738fecd72d71fd28c5b56,0.089332014,-0.015129094,0.005050946,-0.004903902,-0.06408495,0.057557866,-0.006111029,0.01943584,-0.0637527,-0.05943427,-0.0415037,-0.015238959,0.02732998,-0.011022645,0.010224295,0.012671268,0.02246423,0.085224114,0.0052358536,-0.08678324,0.012195716,-0.026486028,-0.0377459,-0.09181086,0.002624412,-0.0070663737,-0.012582297,-0.0010028691,-0.09503421,-0.09897137,-0.052549165,-0.050366536,0.061094046,0.10003671,0.042677052,-0.028043455,-0.056535866,-0.026445827,0.019657677,0.08360249,-0.060480174,-0.055386208,-0.04986559,0.0410881,-0.0006506702,-0.013056199,0.03817913,0.027065765,-0.037665527,-0.032266386,0.014728528,0.03860307,0.036357615,-0.053340927,-0.036143497,0.069986045,-0.09329224,-0.056174353,0.02647485,-0.039886035,0.043556422,-0.007367522,0.008186216,-0.029770348,0.037137095,-0.08337775,0.06048313,-0.08267218,0.078549884,0.06070248,-0.09078814,0.011774014,0.038609926,0.0103089865,-0.05293561,0.005821313,-0.05870087,0.039256897,0.033975568,-0.014115455,-0.07122397,0.07827175,0.065938994,0.019420424,0.055983223,-0.030455379,0.046436794,-0.069184266,0.0008860588,0.056037992,0.05063002,0.032573946,0.042388823,-0.070662595,-0.09322375,-0.001949172,0.101593494,0.055537708,-0.046344254,0.032471877,0.10611194,0.026376031,0.021812422,0.0386491,0.044797204,0.04124365,0.012710801,0.013744843,0.06033274,-0.03183702,-0.050571803,0.0398525,-0.096496955,-0.017808273,0.02933358,0.022407582,0.07982746,-0.014525909,-0.039244458,0.04073083,0.06473848,0.07423666,-0.047321685,0.016771132,0.058800884,0.011541594,0.045220446,0.0029933583
03b3b43ca40f505de2f059d56477f15c,0.09911925,-0.05310116,-0.04050124,0.010796502,-0.028232787,0.121383645,-0.012772634,0.04338619,-0.12001889,-0.054457907,-0.039172176,-0.00054081564,0.006257674,-0.0010007785,-0.0350743,0.008499406,0.06310569,0.10819374,0.04486166,-0.10132176,0.011145845,0.025107821,-0.080665156,-0.056120906,-0.020545393,-0.03419323,-0.03661484,-0.012578138,-0.06922819,-0.095387235,-0.029101094,-0.009582368,0.018003704,0.065848306,0.06403642,-0.055577252,-0.045031946,-0.06915833,0.011784856,0.063303865,-0.08968553,-0.08489462,-0.098915264,0.050968602,-0.066327885,-0.04380028,0.013545054,-0.001233174,0.026756272,-0.008473535,0.011665139,0.0069239317,-0.02422861,-0.09125948,-0.047564477,0.112395905,-0.053014483,-0.020915674,-0.006861334,-0.023831585,0.08317275,0.015318852,0.015433965,-0.043817647,0.07124307,-0.12241434,0.118632205,-0.040879246,0.08861782,0.028845442,-0.07942978,0.06179117,-0.0011831839,-0.0034869867,-0.080035314,-0.059215967,-0.041851353,0.044387598,-0.017350571,-0.007948671,-0.055658873,0.08650815,0.033425238,0.029633816,0.08768774,0.013621336,0.04584153,-0.086512335,0.012939726,0.052340224,0.0509759,0.065026335,0.06143762,-0.05610785,-0.122764006,0.055523075,0.0789402,0.09890651,-0.0898031,0.09257307,0.0708562,0.028990071,0.006619387,0.01614271,0.008847662,0.047888808,-0.04511656,-0.0025890362,0.09591844,-0.031187689,-0.021415593,0.07784886,-0.11980976,-0.040148642,0.055773843,-0.032042034,0.025436128,0.0071104504,-0.07016866,0.050153077,0.109141506,0.10534545,-0.031777933,0.004289827,-0.014176944,0.04629447,0.018890359,0.011055113
03b544f462bc9c6226ea4886084050074806439962eea99c59d3f2e5fa8e88f2,0.0700077,-0.019108906,-0.03298498,0.026167253,0.0032425656,0.04369908,-0.012801076,0.011067877,-0.06004217,-0.0318806,-0.022112938,0.002770554,0.030104196,-0.01888803,-0.012305806,-0.0022559208,0.026431756,0.06821571,0.018402454,-0.06676578,0.012288537,0.0008823502,-0.040272728,-0.05360532,0.003929145,-0.014895145,-0.019469831,-0.037734687,-0.048615985,-0.06631735,-0.038104687,-0.005227573,0.004614695,0.040670354,0.03155847,-0.04217432,-0.03595888,-0.04357283,0.0072113,0.041639052,-0.055178624,-0.04481552,-0.020954588,0.02239941,-0.02895567,-0.024113983,0.033609387,0.014489333,-0.005047541,-0.0141339805,0.039448503,0.022622753,-0.016219214,-0.03942726,-0.00665018,0.04887894,-0.06655749,-0.026823048,0.0068919384,-0.010215757,0.021613598,0.0130076315,0.03046191,-0.042442754,0.029054599,-0.083165675,0.045760583,-0.052310824,0.06514011,0.03117792,-0.05613341,0.003106179,0.02465858,-0.001332481,-0.043974716,-0.011984808,-0.05224925,0.008265109,0.01665688,-0.02315483,-0.025424441,0.068875946,0.014702723,0.019371295,0.05482766,-0.0016163867,0.042233475,-0.06525608,-0.014137144,0.017408544,0.03523282,0.029911501,0.033673994,-0.04785631,-0.05623992,0.012599506,0.046307378,0.016583974,-0.04650713,0.025973314,0.052812766,0.021944521,0.02817771,0.016445026,0.021893462,0.022092981,-0.0020316984,9.499985e-05,0.056272842,0.0009971149,-0.022998953,0.032292534,-0.054949924,-0.005757804,0.022031307,0.0015159369,0.025263255,0.018891118,-0.028811954,0.029355975,0.044861197,0.067524746,-0.045041874,-0.0018101659,0.004161671,0.01959595,0.0028222487,-0.0056469855
03ee77cc35efb49aa6db392247d242d6,0.09170898,-0.0073872744,-0.017475363,0.019104898,-0.045641977,0.07159161,-0.003574594,0.022383407,-0.098277606,-0.06733833,-0.050613604,-0.014682307,0.040201757,-0.003787644,-0.007131292,0.027858837,0.030009955,0.092835516,0.004694796,-0.10087705,0.009941087,-0.0051778806,-0.0594108,-0.080258414,-0.005788827,-0.016429141,-0.022258785,-0.027177298,-0.09021057,-0.11099807,-0.0736868,-0.018080585,0.030499445,0.08099665,0.06274853,-0.048165523,-0.056265913,-0.08379129,0.018263562,0.0805033,-0.074134335,-0.071432434,-0.046993285,0.066019885,-0.025126195,-0.024267271,0.035748858,0.010874316,-0.013740628,-0.030685958,0.03905654,0.010927434,0.0075228675,-0.06350985,-0.030983236,0.08155165,-0.10172044,-0.04729611,0.024923299,-0.01320779,0.042117562,0.020894257,0.020848973,-0.07210836,0.06697014,-0.107295685,0.08466773,-0.08280112,0.08432134,0.059308074,-0.09947691,0.018864904,0.03904735,0.00023451567,-0.0903897,-0.025645588,-0.06624185,0.026917968,0.032941476,-0.03338618,-0.06361121,0.09376026,0.038720746,0.029205652,0.09718662,-0.02188118,0.06737103,-0.08743539,-0.020226607,0.03680228,0.051118687,0.053673625,0.059845064,-0.089217976,-0.095913276,0.019330874,0.0725415,0.038253043,-0.0683556,0.036596663,0.09370408,0.059014205,0.0304002,0.032731153,0.04278667,0.061520956,-0.019181333,0.015555231,0.07853161,-0.00484186,-0.04466002,0.08209089,-0.09041211,-0.004374042,0.021830266,-0.0041225073,0.06609655,-0.0041569993,-0.058156535,0.044637144,0.090616465,0.101130545,-0.048035357,0.0026347472,0.029456962,0.048369583,0.035687312,0.01451762
0424586cc6ae1f3a30e811665fcc4b934fd7cc8a2b084934fbd1bcd1fd48df25,0.052041993,0.006937072,0.02645752,0.007918274,-0.04339046,0.033768658,0.021396728,-0.0060413876,-0.052371945,-0.052712332,-0.048242018,-0.033492997,0.051284865,0.0035151332,0.020780735,0.025023224,0.00841052,0.049331106,0.01876142,-0.073258735,0.014394023,-0.021303587,-0.017856468,-0.05602562,-0.00685896,0.0032986063,-0.041108575,-0.009724905,-0.077442296,-0.086127676,-0.073178425,-0.03204568,0.053065665,0.07971377,0.045858275,-0.038711134,-0.023507096,-0.061105058,0.0024553663,0.06824961,-0.03578681,-0.06466608,-0.02330988,0.049240176,0.016033344,-0.017493727,0.023497086,0.013720473,-0.052544415,-0.045947872,0.048543375,0.0039785565,0.026224129,-0.044202182,-0.025771149,0.042190786,-0.07865072,-0.039915763,0.048723858,-0.013486401,0.021015678,0.006683289,-0.0015143411,-0.051539592,0.040952686,-0.073447935,0.05241606,-0.0654235,0.053554352,0.053011153,-0.084436566,0.020605111,0.04567104,-0.007082085,-0.08430182,-0.021578515,-0.04664684,0.031667706,0.047783896,-0.0131381955,-0.060640454,0.06274369,0.050174877,0.03385962,0.07217083,-0.054979507,0.05927313,-0.03163285,-0.039652266,0.027696246,0.023599189,0.027152764,0.06459726,-0.07477095,-0.056384146,0.024070755,0.04875569,0.0059855822,-0.04915064,0.0033638165,0.07263875,0.056697257,0.037486475,0.054887973,0.033941764,0.047173154,-0.0049496144,-0.00056989765,0.058626194,0.004212781,-0.041229926,0.07336313,-0.064680375,0.013784712,0.0067670415,0.011073921,0.07777246,-0.012494755,-0.05748435,0.02340451,0.0554308,0.07455957,-0.017198166,-0.015237517,0.039316606,0.035873353,0.053214967,0.019523533
0446ae8ec2d513bc52974a8231649b2c,0.0787835,-0.0058992854,-0.02058481,-0.012790599,-0.06286656,0.088202864,-0.0031213816,0.033465784,-0.08762061,-0.07315541,-0.03722704,-0.033906467,0.013648357,0.0013052262,0.01221597,0.026426867,0.040999934,0.082485236,-0.0069939564,-0.073781304,0.0100560505,1.3073131e-05,-0.045940377,-0.069609635,0.012696295,-0.0065097413,0.000360689,0.015139932,-0.07562402,-0.09592442,-0.038313057,-0.03236609,0.044489108,0.08992014,0.05036155,-0.013235159,-0.047073442,-0.048052512,0.009227142,0.06582266,-0.060419478,-0.06226178,-0.074498534,0.03968238,-0.033021495,-0.030533075,0.023933811,-0.002058339,-0.0003735363,-0.027443945,0.0042112703,0.030753486,0.04880757,-0.05413248,-0.049566492,0.07224003,-0.095871694,-0.04055275,0.026411843,-0.04099164,0.06014668,0.012574121,0.0037455205,-0.02061825,0.053434264,-0.074640125,0.075298786,-0.07162586,0.07534195,0.06995136,-0.07669681,0.009214146,0.01354803,0.004405935,-0.07228961,-0.00461392,-0.052847687,0.038231745,0.012818394,-0.015777107,-0.08725007,0.07218494,0.049977377,0.0141495485,0.069799975,-0.009209972,0.03554805,-0.07772964,0.013133388,0.046506546,0.06540536,0.035695996,0.05061204,-0.07617375,-0.10204253,0.0032952635,0.08763328,0.067247026,-0.03053672,0.04110302,0.08387636,0.014164343,0.0060478593,0.016619312,0.024119427,0.06373561,-0.012322741,0.0075576473,0.07208161,-0.018151315,-0.03452763,0.07325454,-0.07198796,-0.02211624,0.017236406,-0.013049574,0.05600807,-0.0032164024,-0.05570997,0.036756836,0.08303932,0.068903714,-0.036659524,-0.0077965227,0.051342014,0.02568348,0.043932367,0.0071344846
044eaf948c12e75d6d92e9a8bbfd7cde,0.07064912,-0.017426519,0.01690693,0.009171447,-0.07566354,0.0747265,0.012073355,0.023231156,-0.058463093,-0.053481393,-0.06319404,-0.017552616,0.02695115,0.0067187245,0.02259207,0.02812448,0.022408074,0.057218675,0.029824859,-0.07595117,0.01203922,-0.03080378,-0.01739419,-0.06821388,-0.018430412,-0.002695848,-0.038873617,0.016266843,-0.107560314,-0.1002631,-0.06618339,-0.06815881,0.07592025,0.10530717,0.04067144,-0.020388704,-0.036973283,-0.04597133,-0.01063663,0.08531708,-0.064252675,-0.06847769,-0.07386959,0.051847637,0.0070896014,-0.0234633,0.013392876,0.01591496,-0.05225864,-0.041911207,0.019678198,0.015207127,0.04793433,-0.06432352,-0.05313267,0.07959969,-0.074344575,-0.035185,0.055002116,-0.029776622,0.028305732,-0.020185512,-0.01587201,-0.03357181,0.06364009,-0.080473565,0.0638987,-0.058418337,0.063991964,0.046562824,-0.089765735,0.038182437,0.022173434,0.0038607249,-0.076277815,-0.016078223,-0.047027405,0.049244132,0.024953218,0.00039823286,-0.08836528,0.0656404,0.06952226,0.044403255,0.06275871,-0.041569605,0.0465461,-0.038494863,-0.021590054,0.05197822,0.031575505,0.038948543,0.08575062,-0.07965995,-0.09590396,0.01873508,0.075966954,0.059701886,-0.054867264,0.010441116,0.10030374,0.052393347,0.034558557,0.04708293,0.03544011,0.051935323,-0.0083706165,0.0049482184,0.07250944,-0.02536933,-0.026957555,0.07487247,-0.10327424,-0.008240579,0.00893915,0.0094478475,0.085674345,-0.027235594,-0.07609939,0.048463844,0.07666772,0.10756791,-0.00020854763,-0.017361347,0.06574815,0.03146352,0.0758354,0.032086425
04d29fee25ab668406ab8e49c4f7a990,0.09158171,0.055353615,-0.038170185,-0.026048029,-0.079782575,0.07759293,-0.047036465,0.0065287435,-0.10741785,-0.13114925,-0.023372447,-0.05289967,0.07953187,-0.008265721,0.059498575,0.056487214,0.007917667,0.07989874,-0.055037264,-0.089343265,0.039793946,0.0031179162,-0.041823134,-0.11596353,0.047419354,0.04008196,0.0049634613,-0.03948198,-0.09673051,-0.13370457,-0.080389254,-0.06730505,0.0734956,0.09291983,0.08070202,0.00908732,-0.053501643,-0.076385364,0.01564837,0.06835873,-0.04033388,-0.099025615,-0.06242007,0.033220973,-0.006171191,-0.006504741,0.06101134,-0.015944656,-0.044706482,-0.050966073,0.02847511,0.06597211,0.123769596,-0.07838044,-0.042233467,0.039113317,-0.15140422,-0.060138073,0.07321248,-0.0243862,0.043874424,0.046443343,-0.002555964,-0.03766812,0.036666963,-0.08104912,0.08769203,-0.094431184,0.13456085,0.14036101,-0.13057435,-0.044396147,0.031158796,-0.016373493,-0.10911414,0.044664033,-0.096450046,0.044570405,0.049841806,-0.05110594,-0.120733775,0.12056593,0.061887074,0.008473036,0.07271777,-0.039234657,0.059861444,-0.11568171,-0.0010752705,0.025240086,0.07450671,0.0692467,0.032727893,-0.123058744,-0.11173301,0.0035952318,0.091198504,0.0041513992,0.0021121977,-0.008242855,0.1470799,0.051639356,0.023331776,0.06433389,0.07573356,0.08015612,0.005447191,0.038379267,0.070323534,-0.004159128,-0.091020435,0.102813154,-0.06796235,0.0033390208,0.019632593,0.026441017,0.096104346,-0.0056292983,-0.039256927,0.03615919,0.08240663,0.050221868,-0.061522644,-0.014013905,0.07438348,0.058386166,0.07132057,0.010138667
051a74d370c049e56396b9420df284d4,0.067127444,-0.017348295,-0.06036784,0.0012378631,-0.02850187,0.108120576,-0.02356912,0.026531672,-0.09502885,-0.046639822,-0.02420488,-0.0052471557,0.0060101333,-0.00080187386,-0.02858758,-0.0023869262,0.04329134,0.07706114,-0.00012396133,-0.07689841,0.028420443,0.020046363,-0.051865704,-0.0513463,-0.008201852,0.008007297,-0.038577717,0.02805919,-0.06866051,-0.099990346,-0.041312486,-0.038616277,0.024464555,0.08346645,0.06397549,-0.010009979,-0.02759888,-0.060736347,-0.025004476,0.04121493,-0.09472535,-0.068062134,-0.079557344,0.04484521,-0.053171653,-0.052598666,-0.001291818,-0.0079611745,0.0067819445,-0.00047201713,-0.011602665,0.015618238,0.04659704,-0.09265848,-0.04374993,0.10198204,-0.05683171,-0.02007597,0.019042453,-0.0022570167,0.05035472,0.03919534,-0.014643327,-0.022225436,0.07497975,-0.07605155,0.102223486,-0.049186423,0.06394976,0.03398638,-0.068717286,0.046905465,-0.01525995,0.014777388,-0.07029226,0.00092807517,-0.050822347,0.048050594,-0.050813932,-0.014827413,-0.0859012,0.06455428,0.040597178,0.027559817,0.08791583,0.0065652444,0.0505101,-0.086718254,0.02764967,0.05637718,0.06053435,0.07245007,0.044330854,-0.055707168,-0.09663733,0.026443211,0.06580617,0.086569004,-0.04031341,0.052568343,0.07077344,0.029130466,0.01169552,0.012646474,0.027396344,0.05588107,-0.03620787,0.0038978613,0.07535604,-0.022547709,-0.030364404,0.062613264,-0.081755035,-0.036873028,0.029472137,-0.012435749,0.034207538,0.0006322757,-0.079459116,0.08108159,0.08443432,0.09962476,-0.031905156,0.007072632,0.012862731,0.059041187,0.022441965,0.026005771
052055c5202730d16d4117083db7a74c,0.050738495,-0.13325888,-0.12982464,0.05435637,0.05228136,0.21085021,-0.03267968,0.08583032,-0.15362814,-0.01700646,-0.006754134,0.035095718,-0.043417938,-0.056022543,-0.11754377,-0.02985333,0.05592616,0.10064499,0.11162459,-0.031064924,0.13395238,0.027304664,-0.051533293,-0.060476452,-0.08084109,0.027626043,-0.13680178,0.11731031,-0.084829584,-0.15075973,-0.015521661,-0.057491794,0.060093254,0.10229222,0.12039731,0.011499645,0.0039052332,-0.05331265,-0.110923745,0.041469563,-0.17219797,-0.09483779,-0.2031922,0.04236945,-0.11345242,-0.12804244,-0.044852648,0.035693787,0.095051594,0.0100415405,-0.022169912,-0.009677628,0.039948642,-0.21248154,-0.0747546,0.18528314,-0.0065578944,0.051405065,-0.061375976,-0.026726553,0.043858383,0.026038624,-0.062401336,0.0016910208,0.15174025,-0.07108515,0.16745962,0.014381767,0.026983852,-0.071464665,-0.056672994,0.0935714,-0.049334276,0.0150089525,-0.055360198,-0.041117463,-0.031880926,0.08813304,-0.18588234,0.043758646,-0.102660626,0.032224286,0.010324484,0.08690336,0.07855755,0.059203077,0.0015758113,-0.10638693,0.04617219,0.0654725,0.108555645,0.113003306,0.13356626,-0.00913854,-0.15922865,0.0028706943,0.07976262,0.19719592,-0.07201897,0.048719887,0.1033661,0.0140147135,-0.0056706653,-0.015128737,0.012551129,0.053427167,-0.08065831,-0.062147386,0.14377327,-0.030322108,-0.0021354526,0.06399213,-0.09246269,-0.08775141,0.007275788,-0.05743125,-0.01823185,0.041357256,-0.16322556,0.15376812,0.15219949,0.21771322,0.0055945106,-0.10809624,-0.0331201,0.10423842,0.004926873,0.084016666
0540e803f1788f75369f434ace742346,0.41912764,0.0062824483,0.14018017,0.06901952,-0.24416195,0.032129064,0.02640305,-0.04991763,-0.20052077,-0.2360942,-0.23672402,-0.112012036,0.36788592,-0.008490464,0.1578237,0.13852815,0.031416964,0.36341256,0.032532476,-0.3933585,-0.08131542,-0.097590424,-0.1850317,-0.34526736,0.0796381,-0.13130312,0.01936297,-0.3712665,-0.27759832,-0.28769642,-0.31809393,-0.017555436,0.12084488,0.23688848,0.07302532,-0.28581527,-0.20826198,-0.28991714,0.23404473,0.33286595,-0.07442493,-0.26459897,0.038707446,0.21275693,0.070614725,0.049541403,0.27534324,0.107573085,-0.21497749,-0.23703094,0.3116265,0.06531117,-0.1324113,0.009418421,-0.015751828,0.055518508,-0.42461136,-0.29574427,0.17706198,-0.06721798,0.1026349,-0.028335351,0.22210886,-0.34293815,0.053694393,-0.4721394,0.17478351,-0.3904784,0.36202437,0.37543708,-0.42419517,-0.11097871,0.3206343,-0.12136784,-0.3498646,-0.15158424,-0.274394,-0.034176305,0.49981636,-0.18668556,-0.037013397,0.43683344,0.1504664,0.067867704,0.23913394,-0.23726062,0.3303129,-0.21198799,-0.27948666,-0.006562809,0.060303763,0.053007036,0.17877866,-0.4331683,-0.28354895,0.11016143,0.23142244,-0.13409914,-0.28610155,0.053744197,0.3293518,0.24888143,0.21944627,0.28422993,0.19390866,0.06762177,0.107872665,0.09334472,0.15328474,0.035066333,-0.24266262,0.23744503,-0.33569458,0.0784496,0.08554158,0.120562114,0.34492117,-0.03733731,-0.02066243,-0.09211746,0.11387111,0.20304014,-0.22271226,0.073199786,0.13713938,0.071777545,0.1594215,-0.08634092
056c0f5cb55d4173ddc4f0d4a2596d9579bbabeeaff2c882c67d64610a9928bf,0.06636702,0.04091558,0.05142285,-0.0533871,-0.19209217,0.19423154,0.058971945,-0.012695692,-0.15580313,-0.16025047,-0.13795629,-0.07046238,0.042268608,0.028356712,0.06841048,0.097082205,0.06788669,0.073079415,0.02375741,-0.14454722,0.0082754055,-0.013905844,-0.043487906,-0.093958594,-0.05327273,-0.010961959,-0.06808339,0.0850633,-0.18201895,-0.18052484,-0.12827241,-0.14687659,0.11663274,0.19263369,0.114187725,-0.019366117,-0.057913035,-0.16238639,-0.06440574,0.16203412,-0.09368584,-0.1383428,-0.17216387,0.116429,-0.004876176,-0.051432326,-0.039034665,-0.057629216,-0.055875216,-0.06341821,-0.0030195396,-0.022398388,0.111099645,-0.12153543,-0.12987632,0.16325803,-0.09397085,-0.05142928,0.13053632,-0.011565935,0.1245476,-0.011966404,-0.07346249,-0.07208014,0.08918027,-0.13166086,0.16696918,-0.07698861,0.11966413,0.105128065,-0.14162056,0.1161356,-0.007981564,0.018286152,-0.19320002,-0.047358677,-0.05123866,0.12693503,0.008749226,0.04259203,-0.21843125,0.08991447,0.16309091,0.050211545,0.15469076,-0.071412854,0.08568921,-0.060956053,0.012793997,0.11091006,0.06334528,0.11726212,0.14112577,-0.15591218,-0.19660063,0.077202134,0.1372113,0.12749341,-0.07335777,0.07523549,0.1325156,0.11711526,0.029673077,0.046385262,0.036790054,0.13348216,-0.07984492,-0.008098684,0.17199963,-0.04301848,-0.023275735,0.26692927,-0.1528917,-0.017759478,0.01888609,-0.03535183,0.14667548,-0.051449344,-0.18198945,0.059501152,0.19311507,0.119541906,0.049299058,-0.03978596,0.11587254,0.13949141,0.13023598,0.08743635
0593aa87b0426bac363a292228735991,0.07688343,-0.005675947,-0.0050085047,0.01836452,-0.05384455,0.061723944,0.015396024,-0.0056792875,-0.09485137,-0.06107639,-0.056369495,-0.037209664,0.04900377,0.005626552,0.015325721,0.034495663,0.023128834,0.07654559,0.011970455,-0.09994421,0.018855358,0.00032115704,-0.04494143,-0.071143895,0.010448946,-0.0079608755,-0.035620365,-0.027944995,-0.09481919,-0.101734124,-0.080086984,-0.02947222,0.03410468,0.080673605,0.06710441,-0.04040135,-0.0381647,-0.090882644,0.0030775904,0.07859297,-0.068573125,-0.077083,-0.047301304,0.06382177,-0.0075342255,-0.03235937,0.027043879,0.0004821613,-0.032509122,-0.04652806,0.04768704,0.0031485283,0.009277219,-0.058086168,-0.034515694,0.057870034,-0.08779834,-0.05402682,0.06277506,-0.0072734836,0.028823651,0.027727166,0.0135458475,-0.06891289,0.059629872,-0.099502906,0.07209278,-0.085484594,0.08124328,0.06963067,-0.09356128,0.02371679,0.037957635,-0.0079409825,-0.11458874,-0.01348463,-0.06992233,0.035379656,0.03738674,-0.016954258,-0.06462953,0.09251484,0.042019777,0.036305346,0.11020257,-0.043120436,0.08187638,-0.059103068,-0.039387003,0.020260524,0.040045843,0.05647632,0.06322319,-0.09928482,-0.08205948,0.041992325,0.05757404,0.018761436,-0.07077515,0.019354355,0.08064243,0.070263594,0.04195836,0.05403535,0.04126075,0.051366746,-0.014994017,0.0070409114,0.08248147,0.01076937,-0.036548108,0.10412383,-0.08046312,0.002651992,0.02304929,0.0022248668,0.085748136,-0.00809013,-0.07189326,0.037943337,0.08296112,0.08712715,-0.023648595,-0.0094218105,0.032007057,0.065448694,0.03750359,0.027536606
05bed5476fa174c7aef2eaf54f0ab27f6a39a2af1d7ed53357ccae68851a331c,0.07405196,-0.00913207,0.004617581,0.009633398,-0.03205521,0.051177688,-0.010971153,0.027354855,-0.046720427,-0.052028276,-0.04563859,-0.009949144,0.0127120325,-0.008615644,-0.0073491344,0.0075691747,0.01869288,0.07771791,0.017269777,-0.06177572,0.0037484816,-0.008119888,-0.034119774,-0.06557496,-0.008752156,-0.007688558,-0.024019325,0.008890144,-0.08390913,-0.0854277,-0.055563007,-0.036074605,0.04377221,0.08868115,0.04180534,-0.025588961,-0.041697495,-0.03472493,0.0022554318,0.06669334,-0.06083071,-0.05780857,-0.04993078,0.04208732,-0.010501839,-0.022992756,0.0180702,0.02883472,-0.024895884,-0.03574572,0.023550866,0.012648203,0.012719569,-0.05852881,-0.023028621,0.067951664,-0.07048054,-0.03798595,0.02066258,-0.025088474,0.027811332,-0.0026588405,0.009259659,-0.035256393,0.05231227,-0.06701843,0.046452694,-0.058984295,0.066200875,0.04517243,-0.07536218,0.026211424,0.02362058,0.0033433426,-0.054595023,-0.006826728,-0.041015834,0.035316672,0.027469266,-0.016373828,-0.05133497,0.061404664,0.040729877,0.031704027,0.054307427,-0.034732785,0.03376474,-0.062066518,-0.010522251,0.038481828,0.03404785,0.031971253,0.05037103,-0.052771367,-0.08656954,-0.0027846992,0.07723931,0.047165245,-0.049924634,0.02145967,0.08148951,0.036700003,0.025182439,0.036687918,0.037956312,0.032000143,-0.0006971652,0.0008241747,0.053401902,-0.026035415,-0.03307385,0.036902327,-0.08051496,-0.01547273,0.01930029,0.011142024,0.06557487,-0.008690194,-0.0433321,0.05028097,0.059732236,0.08032952,-0.027205084,-0.00061348133,0.030707598,0.018994512,0.037253376,0.010531756
060451d1d301ca6e255cbd2c903caf9d,-0.0059867324,0.03516661,0.082711644,-0.06514799,-0.19480637,0.18558861,0.06777523,0.017204864,-0.07527915,-0.12737878,-0.12229767,-0.035951644,-0.028546825,0.029022641,0.044332836,0.09595216,0.06112537,0.030931456,0.035480063,-0.078506835,0.002446656,-0.08005238,0.028929364,-0.07397811,-0.10087836,0.032590616,-0.093282305,0.22009148,-0.21207178,-0.16574408,-0.09847936,-0.20886299,0.16955897,0.22944061,0.09984296,0.062882595,-0.037840888,-0.07353903,-0.12381558,0.15813197,-0.08381486,-0.10505734,-0.19518252,0.09193469,0.036764782,-0.05882103,-0.080452345,-0.044171195,-0.11256883,-0.027968708,-0.08100384,-0.024030058,0.19083561,-0.15460873,-0.16398562,0.18026444,-0.03234859,-0.0023419843,0.109625705,-0.045510404,0.0915494,-0.06832604,-0.14239955,-0.005898588,0.08083608,-0.05358326,0.13709621,-0.056819666,0.07249868,0.044648767,-0.10701599,0.16887562,-0.04919386,0.043188754,-0.1114507,-0.00844542,-0.008189714,0.17116837,-0.03816579,0.0987931,-0.26900694,0.0022597006,0.20997067,0.0545571,0.08735605,-0.06417655,0.04437417,-0.028460085,0.074244976,0.16777267,0.04731808,0.12432296,0.15820639,-0.12586844,-0.18551365,0.02120436,0.16816874,0.20413814,-0.03372251,0.07943343,0.16872056,0.07669457,0.014451459,0.00639915,0.031388488,0.12774847,-0.06454898,-0.025752684,0.13851207,-0.09617312,0.00044882484,0.22703442,-0.17869252,-0.048222996,0.00027981418,-0.0032405593,0.13729371,-0.07872783,-0.20645654,0.10607404,0.15685491,0.12471241,0.0913791,-0.052918777,0.15856443,0.10277823,0.16703925,0.110540204
0615cadf5248d9c355f4838f227a31a0,0.0704057,-0.001482832,-0.027427144,-0.023491537,-0.07853181,0.11616814,-0.0140940165,0.02506684,-0.111488104,-0.10109892,-0.046980858,-0.03483357,0.020031037,0.0027001791,0.032912213,0.04183504,0.03283863,0.074921384,0.017629217,-0.08007619,0.03295737,0.011066851,-0.042207815,-0.08114139,-0.00994177,-0.0019668522,-0.032572716,0.037941217,-0.101222694,-0.11590995,-0.051490594,-0.07544227,0.063059226,0.10632449,0.074902974,-0.0035556413,-0.0530113,-0.06518742,-0.01559261,0.09135364,-0.079099394,-0.09279367,-0.11273847,0.042013936,-0.033496767,-0.044702966,0.014208448,-0.02494649,-0.007945604,-0.02561129,0.0031858736,0.024247225,0.07176251,-0.09976239,-0.06561961,0.10655531,-0.0819192,-0.03411266,0.057178482,-0.027465353,0.06855709,0.0062715053,-0.036112417,-0.02380982,0.060008436,-0.07311149,0.09836488,-0.052949097,0.09240739,0.08037738,-0.09709464,0.03886744,0.0035754505,0.0024521216,-0.09014636,-0.0010815279,-0.057003364,0.06528397,-0.008835728,0.0017271171,-0.1271464,0.07122747,0.07625687,0.030364886,0.08770193,-0.02712969,0.0439934,-0.07684525,0.028604621,0.059471514,0.057663422,0.07375221,0.07051385,-0.081139,-0.13338643,0.023729997,0.09446914,0.08897455,-0.039630007,0.03656446,0.11351386,0.03463623,0.016453637,0.034418844,0.030433815,0.067959875,-0.026130341,5.3249998e-05,0.09181509,-0.030519476,-0.045352273,0.10659583,-0.096298024,-0.025928108,0.02619247,-0.01384741,0.0821553,-0.00517642,-0.08989006,0.06325431,0.12188984,0.092217125,-0.0152852265,-0.024482757,0.059393544,0.05797958,0.07493566,0.040113144
0630318153df63416998b97a3498406f,0.094383985,-0.033264168,-0.045602474,0.021650787,-0.03284687,0.090297006,-0.021211004,0.019251507,-0.11767542,-0.058691133,-0.031439483,-0.026488155,0.029209247,-0.0024498971,-0.017403249,0.022094201,0.04335755,0.10297294,0.009571005,-0.08977178,0.022003818,0.019631846,-0.066997856,-0.07558901,0.009968158,-0.014334589,-0.02328365,-0.030577961,-0.06391221,-0.09251701,-0.05669666,-0.004823587,0.023263441,0.054258842,0.06742065,-0.041634273,-0.053843465,-0.08036512,0.0051565673,0.058757894,-0.084989496,-0.084866956,-0.05830231,0.04763118,-0.047552463,-0.032769002,0.036460657,0.006127519,0.0068265814,-0.019247623,0.029806094,0.014350277,-0.0027947214,-0.06895286,-0.032354,0.08195838,-0.085444115,-0.043967262,0.011139821,-0.00876731,0.05292989,0.034888204,0.028499372,-0.0575145,0.056357235,-0.10645272,0.090589605,-0.06454945,0.09710973,0.057017755,-0.08994815,0.021734402,0.022515338,-0.009331889,-0.08802374,-0.026311466,-0.06327929,0.029359967,0.00058138167,-0.034764882,-0.049475558,0.09768549,0.018786656,0.027779441,0.098490365,-0.007417693,0.06415745,-0.08543613,-0.008789421,0.029791728,0.057706513,0.061360832,0.054104347,-0.070203476,-0.09297453,0.03917468,0.06644061,0.04122684,-0.06572526,0.051161926,0.078663126,0.036841374,0.029816847,0.027408531,0.022126151,0.046213645,-0.02799297,0.0077603483,0.08739612,-0.00041902764,-0.034964513,0.08425151,-0.09076538,-0.010808688,0.047433015,-0.01706562,0.04410224,0.011177164,-0.0582578,0.04517447,0.082506254,0.09744555,-0.047587954,0.0037168346,0.0013306264,0.061201133,0.016250197,0.017116848
06717e78164e7b2b1aa137adaa3d7d2d,0.065414235,-0.05381601,-0.08029108,0.023832217,-0.013263557,0.14002211,-0.020266777,0.04325704,-0.11315572,-0.03922526,-0.025147721,0.00911438,-0.014143193,-0.010723585,-0.046979956,-0.018511044,0.054182418,0.06784575,0.033764366,-0.07002438,0.049442664,0.045830607,-0.05687063,-0.047597606,-0.01951668,-0.016213322,-0.08437983,0.023209838,-0.0825383,-0.097991705,-0.022023184,-0.03386429,0.024386207,0.06465936,0.08871467,-0.022922575,-0.02841702,-0.07292055,-0.03419766,0.040758967,-0.11268899,-0.07842153,-0.12020193,0.044642046,-0.084775895,-0.07278043,-0.01173422,-0.013681831,0.04889464,-0.00051357015,-0.003854464,9.1335416e-05,0.008931107,-0.1227044,-0.044265535,0.13438998,-0.042813607,0.0025011809,0.0008035652,0.005348643,0.06967212,0.046600033,-0.0118012335,-0.026063144,0.11095848,-0.0864132,0.10562623,-0.016901478,0.06184759,0.0044734124,-0.068286106,0.07772579,-0.01197542,0.009298231,-0.08145968,-0.030336635,-0.055089463,0.046720415,-0.074644506,-0.005295995,-0.08859507,0.06843519,0.015154805,0.04442075,0.103032395,0.028223537,0.04261759,-0.07652436,0.037295118,0.044597693,0.054960057,0.076038025,0.07646129,-0.045943525,-0.117982425,0.043566626,0.05514739,0.120649405,-0.06509193,0.033999186,0.06224346,0.03167274,0.00035740336,0.014905921,0.017749876,0.060250778,-0.06907486,-0.003798081,0.09458188,-0.03660289,-0.015486938,0.071265355,-0.08508088,-0.03876923,0.054848798,-0.04514594,0.007292139,0.0070282207,-0.08981124,0.09658922,0.132978,0.12510285,-0.003134705,-0.016119339,-0.0091545265,0.06573532,0.018603517,0.052265555
0683cdf921258b19802d093b921ffd9e83a9f753b3faaffa4d404590c64dbf0b,0.100814536,-0.010873343,-0.007591765,-0.0013612293,-0.04647941,0.054919004,-0.024972973,0.034840383,-0.06093493,-0.060230162,-0.03793365,-0.0016776682,0.022678293,0.0009637676,0.0054352134,0.016679656,0.030248899,0.08928045,0.0025047197,-0.07489461,0.010233279,-0.007723276,-0.03179337,-0.079899475,0.00026731257,0.0016095968,-0.011388293,-0.0130416285,-0.08120922,-0.08985585,-0.049213566,-0.039309714,0.054623496,0.08218382,0.03304051,-0.028219264,-0.051847998,-0.033050362,0.017856725,0.07105705,-0.052900616,-0.056135178,-0.04614946,0.033116244,-0.009229807,-0.013914703,0.03201167,0.026644873,-0.030086521,-0.025307406,0.019662851,0.04299775,0.025356706,-0.062918276,-0.017976437,0.055376016,-0.08207822,-0.043047454,0.016495775,-0.038857196,0.041704822,-0.003929708,0.015224362,-0.026508383,0.037322734,-0.09588997,0.05124286,-0.07982631,0.085290454,0.06004827,-0.07860959,-0.0018263325,0.024378417,-0.0007364737,-0.03943695,0.00062353146,-0.056234505,0.026083652,0.03188651,-0.02852788,-0.057570696,0.08489513,0.06523608,0.019089153,0.053800024,-0.024187254,0.049239095,-0.07174072,-0.0075652073,0.053353958,0.04051813,0.03077105,0.036827333,-0.070847295,-0.09867246,-0.0036901226,0.0894385,0.047891673,-0.0560759,0.044648588,0.09768216,0.030713849,0.024489885,0.02821032,0.048943255,0.0364,0.020205934,0.024759991,0.044532962,-0.031727273,-0.043829244,0.038422145,-0.10609174,-0.020012865,0.030536905,0.02769779,0.057063766,-0.0021354067,-0.036091045,0.04913338,0.06562439,0.06976171,-0.05099445,0.011091496,0.044628635,0.0087467255,0.04068695,-0.0010189026
06b9650176bc09c654e06af0544ff9583b8ae9e8e8bd1aab3cc4fb034cdf1517,0.061423484,0.00933458,-0.005459767,0.008221922,-0.0435581,0.050460603,0.0037823902,0.0049714744,-0.060875528,-0.05280041,-0.036193322,-0.023835218,0.042365905,0.0015810833,0.007757443,0.019452713,0.013617947,0.058839455,0.0012894125,-0.061458148,0.0069375075,-0.0021448089,-0.029446887,-0.059752654,0.0035099562,-0.0005324411,-0.023015235,-0.015122947,-0.07008152,-0.08842559,-0.063061416,-0.024854708,0.032740977,0.064838015,0.03722276,-0.030603157,-0.028229104,-0.051350515,0.0026743263,0.061149754,-0.045975666,-0.056704815,-0.03619877,0.03581794,-0.006137446,-0.012779341,0.033673592,0.008640019,-0.020490253,-0.027602622,0.03426905,0.015107288,0.02507313,-0.047222547,-0.023106163,0.048422836,-0.07697245,-0.03783817,0.032361574,-0.015828282,0.025358345,0.014424868,0.007003123,-0.043784827,0.03451258,-0.07408871,0.05109978,-0.06837967,0.06747212,0.061485123,-0.07293202,-0.001041162,0.024193926,-0.002611622,-0.06369672,0.0007849849,-0.05322275,0.023025824,0.026377741,-0.026086088,-0.044376682,0.064318836,0.04088858,0.02815213,0.061729185,-0.029288525,0.044651356,-0.05467389,-0.019550186,0.020307261,0.041804943,0.037306864,0.03633481,-0.067691974,-0.07005566,0.020371877,0.057528045,0.017900648,-0.03283636,0.017680211,0.07254191,0.044241637,0.030900924,0.040902052,0.041496642,0.041518256,0.0036675849,0.014159244,0.05688381,-0.005292658,-0.03503819,0.06867416,-0.06621872,-0.0025726059,0.019987315,0.0056617353,0.06397824,-0.005477629,-0.036034007,0.022552582,0.045248482,0.064660616,-0.029142221,-0.0069448953,0.035636477,0.025938565,0.036221698,0.0012437815
06d1f82e3edb6c0af1b42d711a29779d,0.09319466,-0.034607776,-0.010010995,0.021400543,-0.040712915,0.06839681,-0.0037647379,0.039357655,-0.06321344,-0.045876503,-0.048608225,0.011023399,0.024979295,-0.0042189197,-0.006127223,-0.0028892332,0.03360261,0.0866554,0.02516314,-0.08200037,0.017310886,-0.013783471,-0.033943027,-0.08698728,-0.019757958,-0.01200344,-0.053848628,-0.00093817577,-0.12269988,-0.11349515,-0.06324683,-0.04266574,0.066250056,0.11100389,0.05554779,-0.03292658,-0.042014442,-0.030418176,0.013477056,0.09344889,-0.07827135,-0.07408287,-0.05993228,0.049198754,-0.01548481,-0.02454661,0.036471326,0.0440865,-0.04866831,-0.028377486,0.023287518,0.018704634,0.025492132,-0.08914094,-0.03233254,0.080044694,-0.08952322,-0.03837793,0.01811901,-0.035155863,0.027839933,0.005573042,0.015130486,-0.046957504,0.07806112,-0.094129786,0.071416385,-0.071641386,0.078627855,0.039591078,-0.10112336,0.028035201,0.038099736,-0.007938221,-0.06290417,-0.015038778,-0.07363331,0.028194988,0.023558248,-0.018900001,-0.06537591,0.082949445,0.051498536,0.03844995,0.05821727,-0.033476528,0.050113633,-0.06526677,-0.012773979,0.045278262,0.04410798,0.040538512,0.07208922,-0.068196125,-0.09722705,-0.004797428,0.08339425,0.06756605,-0.07419012,0.036945693,0.0949869,0.052660305,0.029123476,0.041484516,0.047760233,0.04250912,0.013253654,0.013670356,0.07035824,-0.027539164,-0.026515028,0.043173537,-0.12589556,-0.009602785,0.030915298,0.024604404,0.078686155,-0.016436918,-0.058170885,0.06368957,0.08268521,0.12047974,-0.038855456,-0.0027215292,0.04280802,0.017437255,0.052442413,0.023704138
06d2b5ec5984610a164b2a5a50849286,0.06676874,-0.02332877,-0.010095766,-0.016409608,-0.11144374,0.17861241,0.015249974,0.044076066,-0.11578545,-0.087184355,-0.08041391,-0.0019203149,-0.010865428,0.0119464705,0.0047364794,0.027209526,0.080169514,0.08542714,0.040247466,-0.10069661,0.03136272,-0.008915229,-0.04495897,-0.060538482,-0.041380826,-0.02595656,-0.073752485,0.08409631,-0.13689129,-0.15060201,-0.066424936,-0.09813191,0.07736084,0.14424558,0.08513387,-0.0006469856,-0.045156028,-0.10149994,-0.054986373,0.11302316,-0.11483414,-0.113222316,-0.16164003,0.06668609,-0.04379439,-0.059050977,-0.042091,-0.020966195,-0.01741926,-0.023215802,-0.03575008,-0.005307923,0.054931935,-0.13966052,-0.10933442,0.16991839,-0.038270935,-0.017646726,0.045658715,-0.022248287,0.10608087,-0.009409689,-0.046760324,-0.032385394,0.10909052,-0.10105829,0.16152368,-0.034256507,0.087832026,0.040110845,-0.10899409,0.11112931,-0.028589536,0.026893737,-0.11738521,-0.046599343,-0.04188047,0.099154554,-0.041153483,0.036096998,-0.16366215,0.06581246,0.10588436,0.05074457,0.10916829,-0.021673298,0.06282966,-0.057612803,0.04935935,0.100894585,0.04135153,0.09600247,0.096520245,-0.09717822,-0.15956564,0.0613747,0.112920105,0.15151714,-0.08312571,0.095249735,0.11246912,0.07057864,0.0073156175,0.027499652,0.022621999,0.0869095,-0.06790392,0.0035806894,0.12243284,-0.06727833,6.1224855e-05,0.13567992,-0.15994103,-0.049037777,0.0547155,-0.03543952,0.07702145,-0.03815736,-0.14532968,0.09891304,0.16258055,0.14125016,0.02199383,-0.02188813,0.046675816,0.09235089,0.108732596,0.07507093
07847630596c7a55101a80f26819d93d,0.89434254,-0.24476656,0.14336959,-0.14407426,-0.504318,0.36323872,-0.5941755,0.46028543,-0.15083678,-0.5776372,-0.12425175,0.059097894,0.09737817,-0.24719779,0.3694644,0.051072188,0.07514459,0.62798357,0.20799915,-0.088148646,0.26395458,0.08520605,-0.2124542,-0.88036084,0.306305,-0.3043861,0.31428316,-0.4488231,-0.55897707,-0.27951142,0.22316542,-0.047133613,0.52220047,0.32311544,0.27538085,-0.083113275,-0.7156313,0.34348515,0.5472146,0.65378606,0.022216223,-0.2638583,-0.7270131,-0.13757853,-0.252972,0.08608814,0.50326306,0.2482702,0.34686902,-0.40166208,0.087177955,0.622664,0.33082113,-0.2665937,0.02741882,0.24578635,-1.1131245,-0.38744488,-0.11150376,-0.73507804,0.4834948,-0.36055502,0.1361285,0.47365448,0.18309495,-0.4815242,0.0062785842,0.038209263,0.7963786,0.56654227,-0.72960365,-0.6186756,0.47891194,-0.24174207,0.05677982,-0.37311423,-0.54081917,0.053730138,0.47880602,-0.15903129,-0.20605822,0.43686438,0.08179685,-0.056023035,-0.5100227,-0.18315211,-0.31312972,-0.68932337,0.10265059,-0.2697019,0.29205936,-0.15943253,0.49145004,-0.3107471,-0.9974857,-0.26857218,0.8379603,0.46102664,-0.009091524,-0.16083173,0.9337945,-0.33764273,-0.300371,0.17819063,0.27259755,0.014477573,0.2478968,0.15612474,0.021762168,-0.38192004,-0.50891846,-0.22996189,-0.44974998,-0.1323459,-0.00036167345,0.15923327,0.3671701,0.27181473,0.42697737,0.06510037,0.5980039,0.364747,-0.3789588,-0.26531804,0.6399314,-0.26136374,0.30654982,-0.2929018
07940aac58f4b2e1712bc48a2470fcde,0.063051164,0.0010707282,0.031528633,-0.012527404,-0.078143716,0.08360118,0.014058118,0.019097993,-0.052795824,-0.07710383,-0.070851535,-0.021681413,0.021916619,0.0038143103,0.037313666,0.031913355,0.021210609,0.04417183,0.02240028,-0.060270604,0.0077631376,-0.029819537,-0.010050707,-0.08241054,-0.0074817096,-0.0039815,-0.04359939,0.034178436,-0.1137843,-0.10351044,-0.06382754,-0.07671139,0.07223476,0.11327353,0.05293806,0.00039256192,-0.04503402,-0.059633367,-0.010259604,0.094750986,-0.05954102,-0.06421219,-0.07422313,0.0632904,0.014187582,-0.029699355,0.0011850445,0.0023462817,-0.046483297,-0.048822813,0.012535869,0.008320385,0.062185597,-0.065443,-0.053884715,0.06924751,-0.08054582,-0.041657645,0.060921878,-0.030415408,0.043152254,-0.00788959,-0.036930013,-0.029662322,0.050528802,-0.067156196,0.06797136,-0.059945956,0.058239914,0.060814988,-0.0893381,0.029401282,0.014920278,0.008483711,-0.08521845,-0.018412508,-0.03817737,0.050959095,0.022624545,0.0016899304,-0.09810341,0.046523005,0.07372703,0.0259817,0.05897178,-0.050573125,0.0453016,-0.045795996,-0.010973625,0.043195877,0.037597243,0.04227356,0.07495853,-0.08540513,-0.10026512,0.018413298,0.077370904,0.05644356,-0.040762693,0.009961397,0.09332299,0.037080385,0.02865893,0.043824453,0.04259041,0.054833222,-0.011240127,-0.003819619,0.078527756,-0.038222384,-0.03448015,0.09996191,-0.07997512,-0.006536658,0.004928983,0.0076477956,0.0933851,-0.018443096,-0.07194525,0.0454877,0.08569752,0.088198684,0.00981472,-0.02323957,0.07098692,0.047641136,0.07704477,0.02688276
079aaccc770e2019ad30c008498abd65,0.06497003,0.08501738,-0.0062552225,-0.074953064,-0.20166987,0.26012456,0.0675055,-0.09812131,-0.3636653,-0.26207697,-0.15294313,-0.22464816,0.14549613,0.019960191,0.12282275,0.20088565,0.057206254,0.05676005,-0.010142219,-0.17680591,0.022625264,0.09916318,-0.14172411,-0.116552286,0.037917875,-0.04360535,-0.028963208,-0.049277965,-0.06037722,-0.19388841,-0.18225266,-0.050292358,0.036101002,0.06692558,0.19851764,-0.07431214,-0.11117304,-0.38282937,-0.05864894,0.11540082,-0.060407903,-0.19714138,-0.1635592,0.12956749,-0.09624647,-0.07409366,-0.0057938495,-0.20994829,0.10903707,-0.101611644,0.084357806,-0.055454493,0.09286025,-0.06486895,-0.15384224,0.12211811,-0.1694143,-0.10087764,0.20796487,0.09826026,0.1826712,0.11795803,-0.08134297,-0.16396888,0.045728084,-0.1866419,0.25638828,-0.07510232,0.19126232,0.23348373,-0.15545024,0.08070216,-0.014748517,-0.014140119,-0.3471911,-0.09997136,-0.09118798,0.13068298,0.025887124,0.0003080714,-0.22142337,0.16846514,0.09461857,0.008109507,0.2959387,-0.025881462,0.13487063,-0.10483774,-0.04083534,0.0076599964,0.08485076,0.13572356,0.1786052,-0.26577985,-0.18660451,0.21309589,0.050948415,-0.0057644844,-0.034536313,0.0046312176,0.12019955,0.15575485,0.06912384,0.05460158,-0.01796848,0.20716473,-0.19597827,-0.029708644,0.23662174,0.08520954,-0.08897421,0.47879654,-0.057724558,0.008181952,0.025420384,-0.16281804,0.13455954,-0.00890199,-0.20745513,-0.033690445,0.24927892,0.03825343,-0.006349671,-0.078791395,0.015082689,0.2826155,0.08413131,0.0825252
0808eb4e0b36adc2a7ad5b2adc99b3c2,0.07026794,-0.03229767,0.022355566,-0.0101344595,-0.0797489,0.11141835,0.014079809,0.022481529,-0.062876195,-0.058935888,-0.06496566,0.012827077,0.004567656,-0.007278985,0.015897324,0.0122491,0.045372337,0.06410893,0.047745023,-0.081544176,0.011846997,-0.024425536,-0.039553825,-0.06140243,-0.037881825,-0.024082137,-0.045940373,0.031302586,-0.08414956,-0.09228592,-0.049320873,-0.07469384,0.056386106,0.10237563,0.032837335,-0.015123352,-0.047524758,-0.05400171,-0.00089271425,0.10068003,-0.06390963,-0.077722125,-0.1032296,0.055073418,-0.0070409463,-0.024803407,-0.023719804,0.0013400072,-0.027766557,-0.031619765,0.0043174843,0.009704495,0.01766675,-0.08542789,-0.060648557,0.09270127,-0.038531594,-0.02173883,0.029322771,-0.03625959,0.06328171,-0.048394673,-0.020804662,-0.028399484,0.049605165,-0.08356906,0.08764094,-0.02642073,0.07169311,0.037322752,-0.07160962,0.060825087,0.0017669573,0.013668364,-0.065089546,-0.042612884,-0.025829503,0.0569527,0.0137589555,0.029502865,-0.091632515,0.055195853,0.08491919,0.036552973,0.050779533,-0.030216532,0.03590609,-0.036836702,0.0041300505,0.07151401,0.022314014,0.04580316,0.06605973,-0.08356268,-0.10948614,0.023228899,0.07717849,0.08650892,-0.06401238,0.043444186,0.088433616,0.041177943,0.008445149,0.03022796,0.025655335,0.047572684,-0.030095806,0.0015329194,0.06544136,-0.051032174,-0.014537281,0.078408204,-0.12002451,-0.029081773,0.040474348,0.016480206,0.081595086,-0.019300718,-0.079907306,0.044390578,0.10324886,0.10402532,0.011353569,-0.009431004,0.054298133,0.038509745,0.082150035,0.02751982
087a8b987bfcb13e7e995bdeb4b90726,0.10007334,-0.073301114,-0.040668264,0.013947236,-0.02397473,0.1104882,-0.023919327,0.055394873,-0.08662191,-0.04107812,-0.02522729,0.021317242,-0.0011541808,-0.028362123,-0.031026758,-0.00016679514,0.045394618,0.10757827,0.04577526,-0.07328339,0.04110971,0.008113551,-0.061004143,-0.07227081,-0.011621758,-0.027340578,-0.035305332,-0.008247982,-0.07901235,-0.09374768,-0.026324335,-0.027171513,0.028240675,0.0677857,0.055378675,-0.039481133,-0.046569835,-0.036097374,0.007633671,0.070085846,-0.09457815,-0.06551729,-0.09462375,0.041148413,-0.055366408,-0.033240248,0.014706584,0.033238832,0.022025045,-0.012408896,0.022744682,0.018830335,-0.009526169,-0.08962466,-0.035890914,0.09927066,-0.058801517,-0.02580188,-0.015821828,-0.04196519,0.060148157,0.0015377211,0.020677166,-0.025333425,0.060640514,-0.11429164,0.10009965,-0.04304912,0.083828874,0.016562114,-0.085607536,0.03166491,0.014675006,-0.006016818,-0.058340065,-0.042204276,-0.04953768,0.03735033,-0.005707667,-0.010514896,-0.05152074,0.08823683,0.026841663,0.033660255,0.05692277,0.005332324,0.037901875,-0.08014804,0.011448867,0.0442518,0.03996663,0.03924814,0.059741214,-0.04654852,-0.117323376,0.015399592,0.08178371,0.09713106,-0.07735747,0.058940053,0.092145406,0.012911626,-0.0013301056,0.017830575,0.023122216,0.03449379,-0.029396325,8.157757e-06,0.07440403,-0.03558942,-0.022665555,0.027234733,-0.11118675,-0.03724032,0.035766456,-0.011803008,0.031870533,0.022889288,-0.052296124,0.05808764,0.09187623,0.11547005,-0.04142493,-0.010891539,0.008866935,0.026848324,0.023076521,0.0105277905
092e19c3294633a983811779058f0c35,0.06841373,-0.0059919753,-0.017519124,0.0057420903,-0.056422982,0.08423521,-0.0071156467,0.030050738,-0.088897906,-0.06105562,-0.05616708,-0.021586016,0.023956997,0.0044943118,-0.0021222606,0.017655533,0.04160261,0.06879761,0.023840688,-0.08099836,0.023965325,-0.0014377707,-0.042780496,-0.07447777,-0.014487678,-0.0010283976,-0.040323872,0.008690804,-0.089338295,-0.102585346,-0.06333401,-0.0424951,0.04366434,0.096629515,0.057446588,-0.027789535,-0.045252938,-0.06295526,-0.016653715,0.07696199,-0.07580322,-0.06591674,-0.07617512,0.04691575,-0.015564737,-0.035856836,0.019658895,0.0026030117,-0.011599276,-0.032168794,0.012883138,0.012218036,0.029485926,-0.07232955,-0.04973007,0.078220665,-0.074984506,-0.02592829,0.031747986,-0.019487992,0.047892984,0.013166068,-0.01467691,-0.036243495,0.063311584,-0.091121264,0.07641817,-0.06395784,0.07035676,0.054112818,-0.083839916,0.030654253,0.008804687,0.010480134,-0.08263452,-0.014365862,-0.047800295,0.054537028,-0.0010356735,-0.0038812102,-0.08397201,0.06938466,0.06578326,0.042383347,0.081370816,-0.014189024,0.04665515,-0.07002167,0.007672837,0.044316594,0.04237682,0.050944258,0.05678108,-0.07349847,-0.10373238,0.013453209,0.08445559,0.06805368,-0.063117586,0.031318303,0.08118034,0.039018963,0.019171175,0.029195484,0.035950746,0.05864642,-0.024580985,0.002549447,0.080109715,-0.016421726,-0.020722846,0.07727619,-0.09126909,-0.010891211,0.022225378,-0.004534491,0.06328898,-0.008115394,-0.06716579,0.04549165,0.091723114,0.09277194,-0.012600413,-0.008204673,0.042657297,0.04659451,0.047328,0.03462534
097c73de543218e2d0edb52d5333601f,0.071881406,-0.07504251,-0.046264503,-0.0020161485,-0.031281143,0.16039571,-0.0048821634,0.03083703,-0.13353577,-0.04690541,-0.032028254,0.010923596,-0.004312974,-0.020853398,-0.034198288,0.0037991079,0.06114614,0.09395329,0.079640225,-0.0891392,0.039486352,0.029216269,-0.07889325,-0.056234676,-0.033520408,-0.03984515,-0.049340572,0.01351124,-0.05419353,-0.10358997,-0.03184034,-0.022565354,0.021127848,0.071249925,0.072363205,-0.05015436,-0.040967416,-0.10104049,-0.019635053,0.06796954,-0.10638257,-0.09482412,-0.12455674,0.051733363,-0.08457814,-0.06309521,-0.0066328063,-0.012617237,0.06277941,0.0018273455,-0.0021311704,-0.008050737,-0.029439924,-0.111700244,-0.049467552,0.1253233,-0.021051189,-0.0041802945,-0.0071316846,-0.014073152,0.090554036,0.009566853,-0.0108846165,-0.049938712,0.074399956,-0.1098626,0.13772511,-0.007557586,0.07233485,0.010502275,-0.0637151,0.07312488,-0.012892208,-0.004954912,-0.08502714,-0.06929078,-0.026456803,0.05034203,-0.052536733,0.02374205,-0.084209934,0.07319152,0.026007086,0.048301205,0.092209555,0.03288712,0.042323835,-0.0767448,0.029221553,0.04889414,0.05035217,0.06312052,0.07676991,-0.05551637,-0.14329286,0.074604005,0.07363946,0.12269767,-0.091848284,0.08935167,0.060477085,0.043511886,-0.007406266,0.007904591,-0.012224744,0.052879702,-0.08452282,-0.016583325,0.10404552,-0.032942053,-0.0063338513,0.08533245,-0.11537875,-0.039848987,0.057201464,-0.04860636,0.010887317,0.017476289,-0.09210445,0.059754528,0.14101164,0.130413,-0.0016556341,-0.022583004,-0.020077279,0.073361546,0.026521062,0.034017358
097d0891d4e3b47668d787792cfdf0ae,0.05569704,-0.02927158,-0.019503862,0.012624068,-0.02155267,0.072521366,-0.01072269,0.02938305,-0.074969836,-0.04118338,-0.03235831,0.0044266903,0.010499875,-0.009517774,-0.023440002,-0.002628894,0.037162285,0.065263726,0.035937186,-0.061698157,0.022195391,0.008610441,-0.047039844,-0.05794785,-0.017889824,-0.013286209,-0.03538879,0.014743136,-0.063186415,-0.084901586,-0.038786955,-0.023959694,0.022914823,0.066671364,0.037883162,-0.029172847,-0.03491197,-0.037178364,0.004366884,0.06104006,-0.07521584,-0.058942575,-0.07065025,0.031601973,-0.038591407,-0.026982043,0.010007542,0.0065298593,-0.0042195003,-0.0077709584,0.016035017,0.0148157505,0.00056952884,-0.06374235,-0.029260859,0.0782836,-0.052256297,-0.024066655,0.0048306906,-0.02632412,0.047097377,-0.0030193855,0.0014255679,-0.033134837,0.048141085,-0.08671198,0.071764864,-0.036777437,0.06093089,0.019309686,-0.060066983,0.039372537,0.0039902288,0.004490421,-0.0453846,-0.021523569,-0.03519703,0.0378335,-0.01448112,-0.0040550563,-0.05903461,0.059424084,0.03939727,0.036866665,0.057553567,0.002089647,0.033839885,-0.06263562,-0.0027229264,0.044023562,0.036786646,0.03681756,0.05401428,-0.043578014,-0.08716058,0.01705905,0.06425889,0.068006665,-0.055663012,0.04148533,0.054908115,0.032936916,0.007488154,0.019698665,0.023017585,0.03561668,-0.024551962,-0.0014394217,0.057694722,-0.025167601,-0.016670033,0.042239394,-0.077527314,-0.016249,0.02428282,0.00074687204,0.034773998,0.006445516,-0.0627672,0.050108038,0.06840728,0.09206467,-0.02121144,-0.009856303,0.017697573,0.026756665,0.029749637,0.011149135
09f623304b98d1bdc15ed33660ba337f29fa784f81e237b89d04c4f1a20d0d4b,0.059267294,-0.013738061,0.0048073907,0.011334719,-0.0111505855,0.035182793,0.007853029,0.008386918,-0.048629276,-0.024496496,-0.02612537,-0.0059863767,0.042979922,0.0032245996,-0.00070660276,0.012521154,0.027374698,0.06918488,0.017187081,-0.05960389,0.0019915388,-0.0036239885,-0.037780438,-0.05075555,-0.003922495,-0.01719588,-0.014775248,-0.03001051,-0.062155798,-0.056625474,-0.055002082,-0.012689345,0.02130143,0.060716357,0.023452163,-0.047264703,-0.025432026,-0.042504907,0.016463352,0.051101618,-0.04326088,-0.051526204,-0.012055877,0.045966357,-0.013348224,-0.009242509,0.024506876,0.024283096,-0.020161556,-0.030780256,0.040908366,0.016034482,-0.020587048,-0.022043724,-0.017050432,0.03226372,-0.0643191,-0.035024405,0.017484123,-0.018840216,0.015850088,0.0025897557,0.024632983,-0.057039,0.02918217,-0.07989382,0.046264455,-0.06565483,0.05436665,0.030575443,-0.06888394,0.011232689,0.036821578,-0.016345588,-0.04716967,-0.02555489,-0.040390003,0.018136624,0.043451834,-0.015280545,-0.022416212,0.06925857,0.020339297,0.024503812,0.050585564,-0.028030172,0.05385165,-0.051873423,-0.032874294,0.023089368,0.021962602,0.016176764,0.029210333,-0.052118964,-0.048281588,0.015535566,0.053269442,0.011154336,-0.051744852,0.021083502,0.059904184,0.040744644,0.024253082,0.03950429,0.032964088,0.019217288,0.007112736,0.008123304,0.04062404,0.0005550178,-0.016529212,0.029978974,-0.06296618,0.0067206575,0.023111261,0.0170585,0.041109174,0.004678202,-0.02690501,0.012419164,0.034007866,0.06531811,-0.029283052,0.0077642235,0.011599715,0.021421805,0.023331191,0.0019639311
09f83b8840be3869a1db8b8b49f2cb1fd0f8a04b9a0c09f56bdb54d272f8b788,0.09716556,0.0349504,-0.022335278,-0.035006225,-0.14238535,0.18917666,0.016736798,0.019277478,-0.19627415,-0.16367914,-0.09251732,-0.082507215,0.03022273,0.01073029,0.024738876,0.10345113,0.07535432,0.10114424,-0.0031791863,-0.1323878,0.01166519,0.006617911,-0.0734698,-0.119819805,-0.015437654,0.010585041,-0.026014619,0.05971851,-0.13172053,-0.16800562,-0.09069155,-0.08689956,0.08221012,0.15325327,0.118626304,-0.010774561,-0.09565209,-0.13659638,-0.049768902,0.1124401,-0.106760226,-0.12949418,-0.14639504,0.082528494,-0.05538581,-0.051759034,-0.0022296305,-0.065181844,0.010722171,-0.03604431,-0.0031712619,0.015925802,0.11525269,-0.1094962,-0.11375383,0.13340092,-0.12306452,-0.07527859,0.09146306,-0.022479458,0.118948676,0.024082633,-0.04090951,-0.04869346,0.076266505,-0.13719755,0.15526769,-0.10849163,0.14688876,0.12590316,-0.120183766,0.082638614,-0.0011435838,0.018247854,-0.16199596,-0.013606474,-0.06877656,0.11266749,-0.016059767,0.005097941,-0.20361896,0.11022168,0.13939127,0.03706559,0.1549198,-0.015335407,0.072574146,-0.10849603,0.03470941,0.097007975,0.102263294,0.09687171,0.10808016,-0.1365354,-0.18094057,0.046348568,0.14776129,0.12643965,-0.05714099,0.078429125,0.15305759,0.06737198,0.015470638,0.010473128,0.019768616,0.14004703,-0.07493875,-0.0008512843,0.15593009,-0.028094929,-0.05474025,0.22756878,-0.1314916,-0.04190449,0.023495814,-0.044078737,0.10754003,-0.015625563,-0.15243842,0.06243804,0.17176783,0.10350252,-0.03530569,-0.026687622,0.09255769,0.11696043,0.07868017,0.052725933
09fd6ee7e78f977f4cb86d35f4550a8c,0.11297062,-0.000262581,-0.03992415,-0.0013434525,-0.055990294,0.056434646,-0.033612113,0.04566558,-0.0774669,-0.07361942,-0.025166443,-0.006546934,0.019262366,-0.0014853606,-0.011342012,0.026056446,0.052383002,0.11630009,-0.023835827,-0.09673844,-0.0021510862,-0.005190992,-0.046645667,-0.0998022,0.01316001,0.0073102657,0.008362525,-0.0016683944,-0.0944389,-0.110393524,-0.04598541,-0.03171019,0.054377522,0.10358713,0.051935364,-0.012228208,-0.07284485,-0.02453478,0.023100995,0.068100564,-0.07759739,-0.06497874,-0.05467997,0.040154357,-0.032421693,-0.0108885355,0.0497466,0.02394769,-0.024365231,-0.00982422,0.007794236,0.06431577,0.048951313,-0.06919351,-0.023251057,0.06218203,-0.11544317,-0.056698784,0.0058318237,-0.047836423,0.04989887,0.016807105,0.037864193,-0.02186617,0.036654577,-0.1038751,0.06514935,-0.10884236,0.11142434,0.08565891,-0.09174858,-0.0010598646,0.036195546,0.0043169954,-0.052421547,0.030767303,-0.069902144,0.035895724,0.026110206,-0.040255785,-0.07580791,0.09402602,0.068208836,0.021115081,0.07345322,-0.016816663,0.038366742,-0.10466862,0.019769654,0.06539348,0.07530946,0.041678578,0.014624664,-0.06696945,-0.11047109,-0.026429778,0.12650202,0.07402164,-0.0496781,0.075096376,0.11019581,0.013978711,0.013216143,0.015327665,0.044074383,0.054147426,0.026816102,0.036453154,0.057628028,-0.034064956,-0.048545834,0.044748962,-0.10812143,-0.029862314,0.026457058,0.033314764,0.063382015,0.014874953,-0.034884065,0.06302933,0.062384233,0.07220346,-0.076331146,0.028934414,0.05290662,0.00059489266,0.026277807,-0.015278588
0a02f9f65079fc410334906886afb545,0.09309954,-0.025296815,-0.027987296,0.00020822175,-0.046011146,0.07135084,-0.024825783,0.03412455,-0.080341674,-0.0653633,-0.02600694,-0.011914751,0.012640447,-0.01225769,-0.0030656524,0.012736043,0.034911573,0.0932878,0.009580389,-0.08807077,0.0056707067,-0.0016420333,-0.053523645,-0.06870664,-0.0019174764,0.0005952217,-0.0010987121,0.0014973218,-0.084420085,-0.09428135,-0.046749245,-0.028656034,0.03357086,0.08127495,0.044513132,-0.029878205,-0.059822414,-0.02971054,0.019454595,0.061632365,-0.07356111,-0.065692484,-0.055886235,0.03122574,-0.03586996,-0.019527158,0.021632835,0.012304429,-0.01558669,-0.021395812,0.007659268,0.027857129,0.026537808,-0.063858904,-0.026038595,0.07470471,-0.086435296,-0.04184257,0.0031891142,-0.03859422,0.050344203,0.009547609,0.020871928,-0.0285307,0.055245582,-0.09545667,0.07172312,-0.059357863,0.08499778,0.04925896,-0.074623264,0.0104695,0.023805272,0.0041707144,-0.05023077,0.004491704,-0.061255455,0.03078394,0.014015796,-0.017276036,-0.065359466,0.07907602,0.044620685,0.017905151,0.070308596,-0.006732938,0.04503881,-0.08328894,0.004919368,0.048726294,0.054329213,0.0411623,0.03676907,-0.059242055,-0.09355041,0.00031856814,0.09300318,0.06680571,-0.04637685,0.056083314,0.08854777,0.018786762,0.012256603,0.018029457,0.026647193,0.04902047,-0.004793399,0.013946983,0.060668547,-0.02060593,-0.04364913,0.044539224,-0.092268705,-0.020589814,0.03663363,0.013178963,0.052015413,0.009198753,-0.03586318,0.051301315,0.07543306,0.084586844,-0.055202667,0.016532231,0.033919428,0.025596071,0.03434984,-0.0024185365
0a1310fd4e68a3de2e57ce3f4888c81a,0.4557552,0.20952073,0.004147677,-0.030609498,-0.38326728,-0.0034976257,-0.019664885,0.20073353,0.0073637315,-0.31507018,-0.2024179,-0.11991694,0.10613263,0.09288799,0.06633707,0.14628612,0.11976049,0.43596038,-0.25646478,-0.34396708,-0.17177095,-0.28333542,-0.00822013,-0.44001484,0.03714335,0.23123403,0.1745726,0.1384219,-0.5791254,-0.4413284,-0.29271862,-0.27787444,0.35369882,0.6449404,0.0447482,0.04173746,-0.2215964,0.14104593,0.109731406,0.3155374,-0.23417144,-0.121683605,0.04607191,0.1802429,0.18330416,0.05826052,0.23986526,0.19770434,-0.5323815,-0.09387659,-0.09705434,0.29844645,0.40345258,-0.13852492,-0.10662548,0.11667621,-0.51450807,-0.28957647,0.13773118,-0.34027117,0.012766015,-0.0543266,0.09324831,-0.06344868,0.08302562,-0.28724578,0.016439985,-0.71333414,0.3042368,0.4183167,-0.34435263,-0.09606637,0.18249674,0.13009484,-0.0226468,0.3830895,-0.20658472,0.15084279,0.25665075,-0.17267005,-0.3909455,0.2622958,0.4953482,0.08740028,0.1832764,-0.24118279,0.20080033,-0.3357211,0.0070883823,0.37015152,0.31031358,0.08783228,-0.06645849,-0.26114342,-0.31663123,-0.35746562,0.62455565,0.21748397,-0.13567933,0.27079597,0.552609,0.021192051,0.12369998,0.10675576,0.2740411,0.19795972,0.36372286,0.20461453,0.14878044,-0.1984401,-0.23685901,0.09090839,-0.43350756,-0.04791836,0.011929039,0.34005755,0.47175133,-0.0752963,-0.07181156,0.2479481,0.051357422,0.20186107,-0.31668073,0.20548844,0.53989565,-0.21901898,0.24812591,-0.09000122
0a1830c9206118843062d06d668c89622b88bea97fdb189e80b060d50905e7e3,0.07586065,0.0027024066,0.0067900866,-0.0025479156,-0.056165684,0.0570453,-0.017410839,0.01058463,-0.058908824,-0.0703347,-0.03419461,-0.0145971095,0.03565433,-0.009491007,0.016505303,0.030053321,0.024745788,0.080916464,-0.0028357375,-0.069570884,-0.0025405285,-0.0076403315,-0.037376188,-0.07385658,0.008141671,0.008759181,0.00022008677,-0.0041745137,-0.07917477,-0.07946036,-0.052936718,-0.03765782,0.04666146,0.07865549,0.031537216,-0.017593024,-0.04613873,-0.04004499,0.019453775,0.065715544,-0.040345967,-0.06067897,-0.051317327,0.031649224,-0.016197896,-0.00897513,0.03428484,0.008137664,-0.028785462,-0.034429085,0.021102853,0.03955057,0.030421622,-0.040504027,-0.03158955,0.042316083,-0.09610042,-0.047805987,0.028526764,-0.037316013,0.033706833,-0.016064748,0.012670842,-0.02686054,0.03558775,-0.08811604,0.056885175,-0.06621973,0.08616316,0.066971794,-0.08136133,0.005533184,0.022103142,-0.0047406917,-0.053570755,0.0067580077,-0.04421884,0.036025204,0.03918165,-0.026650334,-0.060932446,0.07487053,0.064380825,0.02490123,0.048600797,-0.022804039,0.039505653,-0.060660984,-0.0010054319,0.041552816,0.046321716,0.032619666,0.036906246,-0.0711434,-0.09160118,-0.006056175,0.09485573,0.047732644,-0.041454036,0.03510896,0.08706023,0.026835173,0.0099662775,0.029904837,0.032506768,0.038451076,0.008375509,0.007337783,0.055125944,-0.014421702,-0.04129636,0.055033777,-0.07767341,-0.00817762,0.0202244,0.022363653,0.062875085,-0.002504977,-0.042746134,0.034094952,0.067895874,0.06323774,-0.041551683,0.006659613,0.045236766,0.022295222,0.039522562,-0.00325735
0a8befffe85d17791a83d3a46dbcd271,0.046043307,-0.0006568392,0.00839745,-0.0043949587,-0.05740115,0.071853094,0.010627357,0.008456815,-0.051757324,-0.046396013,-0.053687565,-0.013245599,0.02028024,0.0012241895,0.026751734,0.024739232,0.0172955,0.04528933,0.029292516,-0.05745376,0.024167974,-0.02706843,-0.012806673,-0.06276804,-0.011713721,0.00729777,-0.044333994,0.028525721,-0.08941835,-0.08639971,-0.055740483,-0.05961601,0.065372765,0.08354165,0.051089182,-0.0013294006,-0.02375203,-0.044969164,-0.014361379,0.06962061,-0.05671074,-0.06155147,-0.063872494,0.041501004,0.006550206,-0.025533762,-0.001999478,0.010869327,-0.034711387,-0.03792451,0.016967138,-0.003606881,0.04906994,-0.070014745,-0.051893108,0.061263718,-0.05734508,-0.024323124,0.050152168,-0.018480716,0.02903392,-0.00041746,-0.015974047,-0.023825014,0.058272716,-0.05446877,0.06312452,-0.052215956,0.050743897,0.04193752,-0.066121064,0.040518813,0.017196806,0.007246603,-0.06953237,-0.0029351322,-0.03807207,0.050368946,0.00828826,0.00451601,-0.08502261,0.048174717,0.06405204,0.027232274,0.060772393,-0.03529369,0.035299,-0.033718605,-0.008075127,0.036875274,0.032212336,0.048454624,0.070590824,-0.06106996,-0.081647545,0.011861593,0.06766836,0.04717177,-0.044317845,0.013679061,0.070682704,0.038203288,0.022292068,0.03228978,0.030955,0.03768657,-0.009675383,-0.007488314,0.07097321,-0.030556476,-0.029465582,0.06975221,-0.068326764,-0.0064524747,-0.00074525876,0.012573431,0.0706177,-0.02309649,-0.060204726,0.036936115,0.07865433,0.09141402,-0.0021971967,-0.01723594,0.043572627,0.045147516,0.058238197,0.03126415
0b6f94ccbe1d282fa632d43907932ec4,0.061519034,-0.04461823,-0.041841395,0.02350785,-0.00016202302,0.059998263,-0.012369239,0.05197433,-0.033367153,-0.020308329,-0.01866845,0.02287671,-0.017366488,-0.012593363,-0.028063834,-0.011502661,0.034684956,0.065336525,0.018966025,-0.040384654,0.022522397,-0.0016245674,-0.03533053,-0.0390133,-0.013044401,-0.017022906,-0.033110626,0.017117811,-0.07079463,-0.062469855,-0.008148502,-0.017141594,0.016788747,0.05416287,0.030144818,-0.01368234,-0.02035913,-0.004603126,0.00047511666,0.033177335,-0.08010187,-0.033501476,-0.061305173,0.027804798,-0.04616317,-0.028944934,0.020346422,0.030926907,0.013771697,-0.0050266436,0.0020056188,0.010225488,-0.0049272967,-0.07360461,-0.023308063,0.068257645,-0.046730958,-0.0053595463,-0.017803611,-0.024903461,0.028475733,0.0022454376,0.010535819,-0.004368611,0.063563325,-0.059046693,0.044244,-0.028382739,0.034634113,-0.011510403,-0.04822426,0.023499597,0.016237436,-0.0015051102,-0.013444243,-0.029220587,-0.0414926,0.02323415,-0.021507608,-0.0044621234,-0.028704485,0.04630044,0.0122622335,0.02406522,0.03397051,0.012981893,0.0061598844,-0.053334292,0.008709123,0.019742742,0.03488066,0.020450056,0.045810334,-0.015345826,-0.07818028,-0.016076429,0.054743204,0.077133484,-0.044931177,0.03475451,0.052579533,0.008701598,-0.005179827,-0.003825054,0.01975542,0.018285641,-0.013008934,0.0014830786,0.053693935,-0.03880197,0.0046769544,0.006724635,-0.06625846,-0.029607978,0.016978955,-0.009300569,0.01709307,0.01417739,-0.037601016,0.050431408,0.059418593,0.09072836,-0.026555682,-0.0041776295,0.010527777,-0.0073541724,0.011150936,0.016695116
0bb2f4d84a08b94f4539a4615a6fadc2,0.09148749,-0.0002630811,0.011846009,0.0062217102,-0.071322456,0.08187524,0.013471134,0.013407192,-0.093886964,-0.081962354,-0.06368136,-0.029945401,0.039470043,-7.072417e-05,0.024296446,0.03489806,0.0272916,0.07179097,0.007825783,-0.10155052,0.010501448,-0.014624964,-0.034798536,-0.08233726,-0.011285273,-0.01052114,-0.039038688,0.004330975,-0.11135572,-0.12885502,-0.08975707,-0.059501126,0.064738534,0.109922744,0.076214194,-0.02528557,-0.052123893,-0.0752502,-0.011963582,0.097855285,-0.07170492,-0.08559833,-0.06443501,0.06995526,-0.008308312,-0.029049868,0.02163258,0.00963087,-0.034607947,-0.04442105,0.037528165,0.014407543,0.043024413,-0.068797,-0.05224208,0.07969685,-0.1074042,-0.04186506,0.06697152,-0.016384661,0.051134016,0.015573646,-0.010374704,-0.050226502,0.06821233,-0.10098209,0.08643473,-0.09134308,0.08098583,0.07278759,-0.10561519,0.0330509,0.030403132,-0.0024008143,-0.10774536,-0.007332783,-0.057609875,0.051930048,0.024096765,-0.012984298,-0.0942065,0.09468828,0.0723356,0.038565766,0.090658724,-0.046111017,0.06940425,-0.07142606,-0.024653705,0.036936373,0.047743764,0.051607348,0.07198284,-0.104992226,-0.10509186,0.024193736,0.07731084,0.045770347,-0.0611263,0.016918153,0.11164422,0.068271615,0.03232831,0.05679767,0.05247362,0.070202306,-0.02121169,0.0052308375,0.0934445,-0.011929754,-0.045443684,0.102746256,-0.09622606,0.0017412879,0.02629499,-7.834792e-05,0.091502205,-0.023236793,-0.0720156,0.03906145,0.09592096,0.09923515,-0.019076139,-0.014189323,0.049285606,0.055185918,0.06345307,0.024700101
0bd8963ea2899b2d78d92e70d5bac4f2,0.051249538,-0.026152544,-0.04563938,0.011284664,-0.025732644,0.09378022,-0.012702678,0.030046541,-0.09198941,-0.051867925,-0.035754945,-0.010121854,0.0066530164,0.00815222,-0.021138974,0.003147473,0.048562415,0.06602416,0.01943423,-0.06503186,0.017154215,0.020691345,-0.045192946,-0.035409007,-0.014641148,-0.018607656,-0.040162846,0.003468799,-0.0525975,-0.08381116,-0.03389485,-0.014817938,0.014455033,0.065713964,0.051639028,-0.028051207,-0.022905665,-0.07201407,-0.01914851,0.044815682,-0.082318135,-0.057690293,-0.06636969,0.033915058,-0.05277127,-0.041749053,0.008441753,-0.0054728896,0.018985325,0.00041524717,-0.00026140432,0.002493508,0.009067925,-0.06986126,-0.040137544,0.07803285,-0.04341661,-0.011668437,0.022778103,0.0021661096,0.052733675,0.039871532,-0.008036788,-0.051676918,0.05451785,-0.087392576,0.09986818,-0.04487174,0.06041704,0.018144703,-0.05661928,0.039047025,0.006549066,0.0073692743,-0.06561639,-0.01793848,-0.04093814,0.03713414,-0.031360995,-0.0019988096,-0.06304221,0.06797511,0.020487249,0.03866898,0.08603857,0.0031066365,0.044810962,-0.065287665,0.012702057,0.04166221,0.042184427,0.058013845,0.043451946,-0.044874802,-0.082708985,0.033808585,0.05263846,0.06875084,-0.053697243,0.047289822,0.055867586,0.031374436,0.015752455,0.014510791,0.010932052,0.055869896,-0.041762434,0.008715386,0.080121346,-0.0085519515,-0.013093107,0.07904093,-0.07862197,-0.024434477,0.029954879,-0.034828857,0.015584041,0.0031100523,-0.07033823,0.04690396,0.08377234,0.07834466,-0.020246102,0.0011872478,0.004879713,0.04621192,0.015530377,0.026622979
0bf493ef499bf4331f7f9ebd444553cd,0.06628643,0.046915174,-0.041958857,-0.01664309,-0.0754123,0.056621365,-0.0030165007,-0.0009730512,-0.07783705,-0.09158661,-0.043497317,-0.04921187,0.055004284,0.023902861,0.014049223,0.047780484,0.036621686,0.08737185,-0.046572313,-0.09108717,-0.021073032,-0.0010774495,-0.045656584,-0.07114149,0.013033482,0.023839673,0.010420551,0.012452938,-0.07850989,-0.10334103,-0.07378075,-0.04646223,0.044101443,0.095917344,0.04505766,-0.018030632,-0.042884342,-0.065761186,-0.010142362,0.051685005,-0.051498722,-0.06402515,-0.013068363,0.041404493,-0.0024850522,-0.02194271,0.026734678,-0.01161355,-0.062362805,-0.0055403165,-0.01005846,0.028423443,0.067363724,-0.04616325,-0.03914229,0.043524846,-0.08641038,-0.051089026,0.05750885,-0.0009828928,0.040832072,0.030286001,0.020687042,-0.05512294,0.03806425,-0.09416338,0.084899396,-0.10603108,0.08239543,0.093793385,-0.09513584,0.002930294,0.011237119,0.011492357,-0.07661239,0.042688273,-0.04356919,0.043120537,0.025078466,-0.026498716,-0.09405343,0.086651,0.08137902,0.0058720093,0.09963127,-0.021383746,0.07893822,-0.07651334,0.0055357595,0.060370404,0.06256433,0.06635472,0.0013691378,-0.084779404,-0.07293342,0.005952644,0.09481621,0.03397257,-0.04343959,0.061422028,0.08457918,0.04510157,0.031267986,0.03229294,0.041460935,0.07529099,-0.00088064093,0.03209601,0.0765067,0.0020888005,-0.045898844,0.10275847,-0.091689005,-0.0129911,0.023673702,0.009376759,0.066549465,-0.012358989,-0.06047909,0.024997612,0.04825645,0.028356262,-0.06578087,0.0430429,0.072742745,0.033342928,0.03982022,0.010513896
0c3583b5cd35e822cc0d9f2fca77c3ee7fa7208e7028d3f38cc623f51e165218,0.79804033,-0.41698778,0.1970031,0.02390055,-0.46107507,0.39194748,-0.15692134,0.47122192,-0.024494562,-0.23717263,-0.3125328,0.22610155,-0.036481988,-0.069864064,0.13247786,-0.07219632,0.1661504,0.6944661,0.36220405,-0.29510102,0.061177086,-0.21374483,-0.18682571,-0.648626,0.007943965,-0.2482566,0.0940481,-0.09150024,-0.62743264,-0.38709268,-0.031301674,-0.17687015,0.45320526,0.579321,0.023968246,-0.10711107,-0.42739406,0.24263832,0.36185345,0.65703505,-0.29557565,-0.29474026,-0.53086144,0.14504679,-0.037421603,0.009052323,0.23808093,0.41391394,-0.12196196,-0.25421295,0.007375459,0.32790786,-0.03123701,-0.3490589,-0.11654856,0.440714,-0.5992011,-0.24934584,-0.14085793,-0.686225,0.33085427,-0.49927488,0.12816513,0.1487222,0.26117486,-0.51976454,0.16471584,-0.23799156,0.46743354,0.30386895,-0.5279946,-0.106423356,0.31767446,-0.0016371208,0.053932447,-0.3197257,-0.263815,0.11903765,0.37600687,0.025909739,-0.21227995,0.29971525,0.33348152,0.151682,-0.182014,-0.24182169,-0.010965662,-0.33668828,0.03960647,0.20398405,0.16844894,-0.065872245,0.35969028,-0.29405758,-0.7973296,-0.23247208,0.7636848,0.63651377,-0.36650276,0.23931353,0.6892238,-0.14635506,-0.107924335,0.20757349,0.21653953,-0.047287762,0.29509524,0.13657959,0.12805042,-0.56447536,-0.19769563,-0.23613136,-0.70932674,-0.15139699,0.14226542,0.2667783,0.49457133,0.020333126,0.029520528,0.27535054,0.45696282,0.6601279,-0.17603557,-0.060564023,0.5080945,-0.33346295,0.45403865,-0.1453317
