type,x_0,x_1,x_2,x_3,x_4,x_5,x_6,x_7,x_8,x_9,x_10,x_11,x_12,x_13,x_14,x_15,x_16,x_17,x_18,x_19,x_20,x_21,x_22,x_23,x_24,x_25,x_26,x_27,x_28,x_29,x_30,x_31,x_32,x_33,x_34,x_35,x_36,x_37,x_38,x_39,x_40,x_41,x_42,x_43,x_44,x_45,x_46,x_47,x_48,x_49,x_50,x_51,x_52,x_53,x_54,x_55,x_56,x_57,x_58,x_59,x_60,x_61,x_62,x_63,x_64,x_65,x_66,x_67,x_68,x_69,x_70,x_71,x_72,x_73,x_74,x_75,x_76,x_77,x_78,x_79,x_80,x_81,x_82,x_83,x_84,x_85,x_86,x_87,x_88,x_89,x_90,x_91,x_92,x_93,x_94,x_95,x_96,x_97,x_98,x_99,x_100,x_101,x_102,x_103,x_104,x_105,x_106,x_107,x_108,x_109,x_110,x_111,x_112,x_113,x_114,x_115,x_116,x_117,x_118,x_119,x_120,x_121,x_122,x_123,x_124,x_125,x_126,x_127
003f3e6fc1634f4fc95c9a2e80bcf1fa,0.030078813,-0.11229625,0.0425894,0.034849554,0.038475726,0.13762969,-0.05385199,-0.016583346,0.07377585,0.06879231,-0.018172823,-0.096023515,0.112595975,-0.031739347,0.010387722,-0.08955983,0.039256427,0.10378956,0.009835798,0.051486894,0.023543326,-0.010727588,-0.05485546,0.049646918,0.12318864,-0.10866468,-0.010561112,0.05033258,-0.033010848,0.052820627,-0.03470266,-0.07862684,0.09487892,-0.006041672,0.091787055,-0.08703705,0.026871644,-0.10499416,-0.088516586,0.01685864,-0.056483846,-0.026674343,0.071812786,-0.0037382345,0.038842816,-0.013989354,0.07365772,-0.04776291,0.10302645,-0.088293225,-0.07970594,-0.039848488,0.08724481,0.024889283,-0.1115358,-0.059674185,0.023277184,0.0496641,0.052807316,0.055055626,0.14591312,0.022317817,-0.10784775,0.112525575,0.04966189,0.07411551,-0.06764645,0.11060913,0.0076278755,-0.12016417,0.013179586,0.04808155,-0.14655627,-0.09575149,0.062177427,-0.08183802,0.051194932,0.029300362,0.08578882,-0.0722881,0.031109385,0.03501192,-0.113829814,-0.020768194,-0.0991021,0.06524375,0.004174261,0.13785888,0.0134799145,-0.0044281306,-0.015698364,-0.047797687,-0.14906758,-0.028475014,0.07977082,0.1948529,-0.045467004,0.031157061,0.035642512,0.13173674,-0.069536656,0.075381264,-0.06511305,-0.046452638,0.13361008,-0.14556699,-0.064399906,0.110575326,-0.040053934,0.00652334,0.0038688881,-0.09621449,0.15726861,0.052438658,0.13980046,-0.0016454749,-0.057399932,0.04200037,-0.039102662,0.05576667,-0.054229356,-0.07864144,-0.09075273,-0.039136674,-0.030614939,-0.03715929,0.005957799,0.039649524
003f7e2a32d6132d74bd1eafc793b6c1,0.065707296,-0.09502067,0.10014324,0.05820232,0.036038775,-0.032233894,-0.15182863,-0.029837217,-0.04042613,-0.08058174,-0.20077583,-0.1319403,0.15480262,-0.049293287,0.05845613,-0.18959469,-0.10635195,0.09253676,0.1213487,0.278711,0.024993269,-0.1451652,-0.10622977,0.30537722,0.1342675,-0.09150342,-0.08828586,0.028253103,0.004191526,0.25614545,-0.17680925,0.009833906,0.20772938,0.20623451,0.12977877,-0.08702019,0.0061671403,-0.0865236,-0.1732406,-0.15802501,-0.26834118,-0.23330991,0.13795835,-0.087239325,0.005339803,0.078571476,0.069860704,0.22489604,0.20569123,-0.2465257,-0.112241656,-0.03631502,0.10580408,0.057858888,-0.21611713,-0.05242525,-0.1522326,0.20819287,-0.10591156,-0.00021361659,0.107866496,0.16005756,-0.1722515,0.106795415,0.017022636,0.14823094,-0.040624518,0.10124758,0.13563101,-0.050562076,0.008412792,0.15573351,-0.21414702,-0.24797344,0.1551698,-0.023869338,0.09598776,-0.088866696,0.30469877,-0.12826477,0.15219115,0.18593723,-0.118267834,0.10870123,-0.14720935,-0.088891506,0.13731107,0.23547958,-0.0018042424,-0.10430602,0.0062705716,-0.1048098,-0.19832508,-0.15352443,0.1562828,0.10628064,-0.1743185,0.039612852,0.07287601,-0.12588263,-0.18136376,0.042107075,-0.09561193,-0.23118174,0.23540401,-0.13303813,-0.07243729,0.114323944,-0.27658644,-0.19552614,0.124488115,-0.111481816,0.101305045,0.35117027,0.24860476,0.17356019,-0.17990273,-0.078893565,-0.03425882,0.18667202,-0.17610443,-0.30368832,-0.25069875,-0.0746493,-0.23442979,-0.0730054,-0.17403546,0.18997857
004b3dc6622a2a9374f6c289faf52d92c014452076d83648adf8e09d9ac82512,0.026932385,-0.05581951,0.04235353,0.016510362,0.014778379,0.06489322,-0.044312093,0.0034563083,0.04435664,0.007546059,-0.016656643,-0.060729884,0.04484103,-0.0246235,0.02143131,-0.061878085,-0.021089733,0.04552227,0.036509234,0.029225897,0.016490089,-0.007574334,-0.043851607,0.045196693,0.06417218,-0.052996885,-0.009675315,0.0112365,-0.013940754,0.035602722,-0.010089863,-0.037171826,0.05796779,0.02132228,0.07763615,-0.06692599,0.010445229,-0.058000453,-0.064202055,0.001951576,-0.049040943,-0.041365016,0.048459034,0.0017661126,0.0041487487,0.007679578,0.051577326,-0.0009679415,0.08551709,-0.07894678,-0.043171965,-0.012760717,0.04063019,0.022574829,-0.06810056,-0.032284375,-0.0071441685,0.03771742,-0.002134276,0.017672352,0.07645074,0.0057025137,-0.056199215,0.060174044,0.014432852,0.021076985,-0.042794853,0.04995435,0.03808174,-0.06543182,0.016580155,0.047173727,-0.08501586,-0.044021532,0.040590316,-0.051417597,0.02327709,0.013501289,0.06683197,-0.04180698,0.034066383,0.043428674,-0.06992432,-0.0048108194,-0.062306818,0.016903827,0.009125177,0.08331745,-0.008179668,-0.0067889416,0.015644344,-0.052808817,-0.096299805,-0.023722881,0.053338893,0.10573282,-0.03632192,0.015140546,0.021610755,0.050717443,-0.036817245,0.0393852,-0.029056827,-0.03909927,0.09276452,-0.078497194,-0.04135653,0.03912867,-0.033921603,-0.031958032,0.014370704,-0.051529612,0.08598198,0.03339851,0.089658886,0.03047044,-0.03454528,0.013464149,-0.022402871,0.052754518,-0.048710596,-0.051261656,-0.03764825,-0.03895996,-0.027642688,0.0004579631,-0.014919294,0.029755771
0064bd63e7337da6616b0d6adb03ca99,0.036396958,-0.20027448,0.051010016,0.061802726,0.055918634,0.22880325,-0.09194068,-0.10390034,0.146199,0.14056902,0.011612648,-0.21041659,0.20822886,-0.09223414,0.04238049,-0.10305209,0.1264891,0.19061434,0.013350299,0.032587744,0.057999726,0.038904916,-0.0903571,0.06649493,0.22677472,-0.21409792,0.015606061,0.08289783,-0.0431655,0.019973062,-0.03759366,-0.15326013,0.14840047,-0.021961335,0.21315376,-0.1449211,0.06938853,-0.19626772,-0.14798397,0.038117446,-0.04939274,-0.061967038,0.0951409,0.029941538,0.07989174,-0.020838123,0.1043189,-0.11497024,0.18429814,-0.15303132,-0.103614405,-0.06326241,0.15366834,-0.0026213299,-0.09352362,-0.10230623,0.08735612,0.052727625,0.091422595,0.10889347,0.24626864,0.016139293,-0.19423221,0.19613124,0.07769483,0.08047381,-0.13117097,0.20315921,-0.035933338,-0.24858056,0.049958985,0.07907827,-0.26594874,-0.14373444,0.054254018,-0.16692233,0.11473974,0.07074818,0.090044156,-0.09558009,0.02599605,-0.007356356,-0.18818496,-0.06050292,-0.13708566,0.13325581,0.016959043,0.21160483,0.08812892,0.029056545,-0.01227944,-0.05739113,-0.23614983,-0.015947996,0.08472109,0.3621099,-0.07347789,0.016130073,0.041688,0.24860184,-0.07674534,0.10931515,-0.086369894,-0.047677338,0.22895753,-0.27202448,-0.077431075,0.2531686,-0.068097875,0.047794197,0.00080663245,-0.16243507,0.289558,0.010617032,0.2180917,0.010979262,-0.0889423,0.09713005,-0.085504256,0.03244493,-0.12513009,-0.1236901,-0.12246771,-0.0631176,0.00621643,-0.053119253,0.06972033,0.029133018
009ed622bf936a036828fab19ceb69d78264ab51507396a3809bbe947ddd9ddf,0.01863029,-0.043673765,0.018422127,0.021202667,0.00844582,0.0583862,-0.035679813,0.0023855246,0.057225153,0.03306283,-0.0042655324,-0.051860686,0.05742456,-0.030055493,0.011090787,-0.039625052,0.010980821,0.063596845,0.0107644405,0.029997917,0.021345828,-0.01524149,-0.037938163,0.019775834,0.05352627,-0.05879986,-0.010736158,0.016595641,-0.014720259,0.023307392,-0.0032177195,-0.031929668,0.05450148,-0.009959193,0.051913243,-0.04858688,0.010278909,-0.04652543,-0.06056659,0.0179854,-0.03671243,-0.029358802,0.04424039,0.0059296936,0.013425886,-0.023569323,0.01429626,-0.019943401,0.066382624,-0.057832036,-0.032146003,-0.026989494,0.03796343,0.01835787,-0.0681623,-0.02619942,0.026237,0.016293272,0.023269001,0.035797086,0.053645574,0.00019171747,-0.052290708,0.056856047,0.0047328225,0.031534716,-0.042848516,0.047043037,0.011254825,-0.07062482,0.008760111,0.026999887,-0.08949725,-0.040149875,0.02354169,-0.04207574,0.015712854,0.02595105,0.050619345,-0.035157647,0.00802757,0.027145835,-0.06268292,-0.032953396,-0.06206694,0.021410031,0.0075109536,0.07454431,0.00913306,-0.0066307876,-0.0010438696,-0.034319032,-0.065721154,0.003071302,0.037724864,0.093981035,-0.02895567,0.0051022647,0.020082196,0.05315046,-0.03171967,0.025757989,-0.033912376,-0.023480088,0.065805584,-0.07279923,-0.016682442,0.05598019,-0.024574023,0.00060787733,-0.008019282,-0.039565425,0.07392576,0.037512958,0.091845974,0.018496616,-0.018726418,0.026255542,-0.020328794,0.025603171,-0.018262198,-0.03825764,-0.052837133,-0.008186275,-0.011880798,-0.009514647,0.00591799,-0.008479702
00bc7defa16eb3171966a8fb0e740750,0.026827713,-0.1084261,0.056166,0.020002438,0.038024373,0.11231744,-0.07909781,-0.047416523,0.05784151,0.059063908,-0.017637148,-0.12151128,0.10358072,-0.03586627,0.046855107,-0.082156226,0.019439906,0.08794906,0.04224081,0.036457453,0.029910734,0.0088167535,-0.063186094,0.064740136,0.12783861,-0.11562475,0.01296975,0.048002828,-0.0019134148,0.03580039,-0.027327117,-0.0691863,0.08620317,0.02399099,0.14305545,-0.09305478,0.03288487,-0.107730396,-0.10371501,-0.0069833477,-0.05152856,-0.057193942,0.07013243,0.0035564913,0.044526443,0.021213043,0.08658737,-0.016699303,0.112881914,-0.106631026,-0.067435116,-0.022641104,0.100703746,0.028217582,-0.08566858,-0.051101614,-0.011376907,0.061538927,0.007287995,0.03702155,0.15546472,0.016708955,-0.122104704,0.105072156,0.046754565,0.049331143,-0.07866177,0.10607137,0.016599273,-0.13070104,0.02397768,0.07461522,-0.14159797,-0.080231406,0.06366119,-0.09109587,0.0708697,0.017525924,0.089058205,-0.057877123,0.05075852,0.032878052,-0.11707933,0.005936988,-0.08395592,0.051504463,0.020857062,0.13080405,0.02236031,0.018886784,0.026479749,-0.054290816,-0.16098838,-0.061148725,0.073194236,0.21509634,-0.03614938,0.024187546,0.018088581,0.12808733,-0.07737354,0.06600456,-0.05157802,-0.06599441,0.14103974,-0.15643089,-0.06524824,0.117808305,-0.070452735,0.0032590358,0.025788182,-0.104862705,0.16886649,0.0242362,0.11293983,0.025955563,-0.044012934,0.04586253,-0.05479849,0.048039712,-0.10232426,-0.07661965,-0.06697103,-0.0646473,-0.029151008,-0.027301688,-0.0024138612,0.051957358
00c7fd6908fc5a04ab47adc5c7829ca7,0.033180177,-0.16023783,0.04165226,0.035603013,0.024283988,0.18476576,-0.08272858,-0.05606112,0.07463456,0.086893,-0.05105355,-0.13930452,0.14623258,-0.062209226,0.056304008,-0.1184364,0.04704498,0.108732946,0.010958771,0.09684374,0.037830986,0.019005435,-0.06263715,0.066328794,0.14636509,-0.17751776,-0.018622661,0.0531523,-0.010331331,0.08152007,-0.05050206,-0.08335791,0.13711771,0.024557106,0.15281609,-0.09780265,0.054339018,-0.15079306,-0.1188792,-0.011513252,-0.073854975,-0.029143872,0.074223146,-0.010068593,0.0702641,0.01580052,0.108349055,-0.0482525,0.14419869,-0.09643407,-0.09644066,-0.04307763,0.11220255,0.03866588,-0.1315008,-0.062598765,-0.011630898,0.08014103,0.027518118,0.05279065,0.19240311,0.020992829,-0.16397822,0.12941024,0.10222009,0.094607845,-0.06406953,0.12496327,0.016043335,-0.16096601,0.03716662,0.07654692,-0.1696601,-0.14235257,0.07621228,-0.12382833,0.09160175,0.0123509625,0.11269822,-0.09207104,0.038981494,0.052304618,-0.16890477,0.026829192,-0.10117691,0.03265787,0.0395414,0.15405497,0.015235561,0.0066732503,0.01403823,-0.06634885,-0.19459859,-0.064816035,0.08332361,0.25303,-0.057652496,0.031179767,0.01209167,0.17643838,-0.0861881,0.08769718,-0.09229809,-0.058679376,0.15179591,-0.18945049,-0.07464889,0.15416071,-0.06254055,0.00057250774,-0.0042967256,-0.13448316,0.20298773,0.020094182,0.17155813,-0.020964582,-0.06418617,0.074324325,-0.03986312,0.07711132,-0.11559678,-0.09711838,-0.10794506,-0.08811976,-0.023051808,-0.053362023,0.03648124,0.054845594
00d50962dce0b43d78a3a5e830255150,0.0194253,-0.08659453,0.034624718,0.027810179,0.014552568,0.068274215,-0.044178825,-0.030781293,0.036160816,0.039696798,-0.021567637,-0.07994093,0.076160766,-0.023129437,0.022047665,-0.06482034,0.01228189,0.06723159,0.028426295,0.035454717,0.024084935,-0.009507413,-0.0542353,0.06067359,0.09347567,-0.07948184,-0.00802268,0.021789024,-0.011801044,0.043250274,-0.017764444,-0.041270748,0.065540366,0.018245589,0.10164029,-0.06135046,0.017095909,-0.076479495,-0.06898212,-0.0072231544,-0.05783212,-0.04292054,0.039809693,-0.00038330257,0.02910197,0.003927652,0.050968207,-0.010538874,0.09347158,-0.08053226,-0.049718224,-0.018194158,0.054812785,0.015874604,-0.06604804,-0.040968336,-0.0027465262,0.045181032,0.0140950745,0.021803811,0.09310899,0.015374918,-0.0752163,0.08506207,0.033500332,0.04121619,-0.05607265,0.06953865,0.016347365,-0.087400675,0.017307121,0.050485916,-0.10412234,-0.06913072,0.039724596,-0.053417202,0.048313268,0.011546686,0.07509241,-0.04168821,0.03275089,0.030405264,-0.0911204,8.583776e-05,-0.06037144,0.019665899,0.028288236,0.09775098,0.0076027773,-0.013222928,-0.0020739648,-0.028216327,-0.11257573,-0.044637248,0.052619576,0.13783763,-0.035083197,0.013214092,0.0088428045,0.07808589,-0.05081231,0.04387085,-0.04296323,-0.04652999,0.104386196,-0.109787695,-0.03786824,0.084866725,-0.061191883,-0.012417512,0.015776943,-0.06367751,0.110247485,0.040576603,0.09729658,0.029460423,-0.03330865,0.027684636,-0.037905846,0.053533476,-0.061640013,-0.075737104,-0.06580804,-0.042417776,-0.02908385,-0.0116171455,-0.011602029,0.037230793
00f83a459e206283925ff0c2ac976d23,0.013669695,-0.024974467,0.019817635,0.024200577,0.021976404,0.022950215,-0.031546243,-0.000677916,0.027812535,-0.0006532778,-0.0014215782,-0.054959517,0.04370886,-0.046417907,0.012134795,-0.025451,0.023543365,0.058435716,0.017961323,0.004355288,0.0060699726,-0.015095181,-0.06339804,0.027591085,0.047800656,-0.03889582,0.0058266446,0.0046441983,-0.018973079,0.01223153,-0.008961471,-0.02409058,0.035785023,0.009042106,0.046633143,-0.043298952,-0.016273549,-0.04644667,-0.031652275,-0.006943872,-0.041392006,-0.04244006,0.016507637,0.014746029,-0.0014453414,-0.004511643,0.03647123,0.0038659992,0.04080123,-0.058909014,-0.030941598,-0.0023820447,0.04645658,0.010506814,-0.035149556,-0.012518708,0.0120532615,0.028098537,0.015116059,0.023034086,0.03986106,0.0130560445,-0.0570474,0.043308817,0.02647659,0.034153614,-0.03999187,0.037311837,-0.004965717,-0.04690572,0.004735805,0.036322735,-0.06252067,-0.034241542,-0.0027844673,-0.020251818,0.014137057,0.014686465,0.050336957,-0.028138852,0.011435132,0.025781933,-0.024872907,-0.013206159,-0.03051623,0.020334896,0.013745338,0.06229344,0.0041029677,0.009088368,-0.0007020063,-0.030050676,-0.057170134,-0.019253839,0.022198444,0.07501388,-0.028450632,0.0062729423,0.011923254,0.03306761,-0.031360384,0.03690024,-0.0069050337,-0.03331726,0.067684315,-0.06350779,-0.024971882,0.08017236,-0.0257012,-0.014574125,0.020476256,-0.056103375,0.041046917,0.039514102,0.05632711,0.03189984,-0.017365148,-0.0032015042,-0.01985096,0.035782084,-0.040622745,-0.04226755,-0.051099885,-0.00046220774,-0.022547262,-0.026354218,0.018778281,0.019887567
014cd58f9fe4febcfc159ca9b2253c65,0.033920545,-0.07878693,0.057353377,0.012992033,0.018566005,0.07830149,-0.06517193,-0.02821677,0.029537955,0.02610546,-0.040290914,-0.086123,0.06327718,-0.009962135,0.049949825,-0.083269835,-0.0210361,0.04960874,0.0397393,0.053262584,0.006777885,-0.0074038235,-0.058844913,0.07864163,0.08660237,-0.0822482,-0.009113757,0.023034003,-0.0023038324,0.056888584,-0.025574405,-0.034192596,0.07399205,0.03980644,0.11096676,-0.074398726,0.027614871,-0.07294457,-0.07803581,-0.028402127,-0.07311108,-0.026745692,0.054245334,0.007609994,0.028667947,0.021307457,0.07655357,0.009552592,0.0923814,-0.08880638,-0.040494513,-0.012535363,0.059689492,0.027190251,-0.085387535,-0.038755074,-0.040613346,0.057726398,-0.010284336,0.013483453,0.11658399,0.010365493,-0.07805169,0.08581568,0.029263478,0.039569356,-0.04220069,0.060974743,0.046467517,-0.08631922,0.027357982,0.052827004,-0.09136141,-0.07791306,0.064448334,-0.05783492,0.06137367,0.006918351,0.083709106,-0.058060158,0.038981583,0.06416679,-0.095208704,0.03453404,-0.060116373,0.00033193943,0.024113595,0.10235402,-0.011064505,0.002794039,0.027929766,-0.04399019,-0.12691197,-0.06870391,0.06262515,0.13603748,-0.038128663,0.012430604,-0.0060783084,0.071679,-0.05852079,0.042993784,-0.04213929,-0.068205595,0.09695271,-0.09472555,-0.06139276,0.0532121,-0.062793314,-0.029269643,0.013482107,-0.074370004,0.11049524,0.031989582,0.0797851,0.02358977,-0.034154523,0.025402328,-0.024023687,0.0601122,-0.066253886,-0.06459858,-0.058332745,-0.07248705,-0.04379226,-0.007979217,-0.017442012,0.050065327
017662f941ebe50c7e0d3fd9a826144a,0.035661258,-0.1133881,0.045994326,0.05283463,0.028490026,0.12033349,-0.09112222,-0.026829313,0.06176872,0.064010516,-0.039916147,-0.11936649,0.12160429,-0.03208525,0.032956433,-0.10932072,0.029884031,0.113735594,0.014223199,0.052806348,0.0083672805,-0.038614493,-0.081988096,0.095389575,0.13969901,-0.13170944,-0.019636247,0.058618292,-0.015725896,0.07022846,-0.03541809,-0.066845715,0.093551315,0.011797814,0.12031808,-0.08388198,0.028441075,-0.1074959,-0.09695182,-0.027121296,-0.07703959,-0.05150329,0.061807353,0.0064473203,0.035701625,0.016461622,0.09449648,-0.02541077,0.12162763,-0.09091743,-0.07487631,-0.031503785,0.098324135,0.03834866,-0.10153666,-0.054266818,-0.016409071,0.07711488,0.015948098,0.04301071,0.13031016,0.02777463,-0.1057745,0.1231944,0.06618713,0.07253873,-0.091535166,0.092663325,0.022556137,-0.13959816,0.024611669,0.07240211,-0.15289876,-0.1111632,0.076513946,-0.08618669,0.0929085,0.00726673,0.108771786,-0.0692659,0.045699015,0.041017227,-0.123672076,-0.0073358207,-0.10388128,0.043836,0.04002698,0.15306114,0.017567024,-0.0048032766,-0.012507429,-0.031781383,-0.16944519,-0.059895582,0.09148642,0.19106597,-0.06635702,0.03424091,0.021380058,0.11991431,-0.0736912,0.06177507,-0.06797093,-0.066753246,0.14356385,-0.1647966,-0.063583314,0.12142195,-0.065906495,-0.023203678,0.015143544,-0.11887206,0.1603531,0.070685074,0.1397244,0.022641093,-0.075527176,0.031343,-0.046155185,0.083408505,-0.07378256,-0.092684194,-0.12039281,-0.062690474,-0.0453512,-0.044494066,-0.0031842776,0.050357666
018b04599563dbb78f5dec1ae033b293,0.047395796,-0.13768534,0.07502405,0.044025514,-0.015528922,0.15819389,-0.104602054,-0.0896702,0.06747229,0.07933055,-0.068728834,-0.13505886,0.15418802,-0.06963022,0.08420092,-0.12961628,0.0026971716,0.11292323,0.07226436,0.10332478,0.0057802964,-0.019112226,-0.10521873,0.09505678,0.123895556,-0.20615351,-0.06653214,0.033408377,0.017512351,0.1114503,-0.05866094,-0.057622362,0.13142684,0.089173295,0.21029449,-0.08865977,0.047573216,-0.15267819,-0.12975836,-0.050364688,-0.14785673,-0.10813099,0.07764309,-0.0031118486,0.048247892,0.06603338,0.10313747,0.011164353,0.19959383,-0.14925145,-0.04594507,-0.01168093,0.10164108,0.041280594,-0.10469321,-0.072476454,-0.065881655,0.11141075,-0.01572826,0.035371978,0.17108935,0.0050351303,-0.16464926,0.13728403,0.06762139,0.07513318,-0.10573153,0.100922905,0.056047626,-0.1420476,0.06753344,0.11862052,-0.17787218,-0.15586944,0.09533369,-0.1198369,0.15348612,0.010210679,0.121253945,-0.09259372,0.031175045,0.06094659,-0.19728363,0.04266973,-0.083254345,-0.05284896,0.09836737,0.15430008,0.012042405,0.0029886856,0.026390394,-0.036181405,-0.19962944,-0.05823644,0.059880726,0.19878206,-0.08385297,0.017291928,-0.040851183,0.11226583,-0.09606326,0.05937334,-0.09500751,-0.08743508,0.17913884,-0.188529,-0.05454375,0.14545839,-0.11883832,-0.048840016,-0.017271448,-0.1154354,0.18874095,0.042336952,0.17249283,0.031961,-0.07257804,0.057453554,-0.033780072,0.0904305,-0.1384881,-0.14216058,-0.14865336,-0.11893664,-0.061878793,-0.012269473,-0.010701789,0.039434753
018f728ff1ade3660da7de6802c5fdbc,0.025775,-0.1048148,0.04414611,0.028429484,0.01837224,0.10008043,-0.059136193,-0.02441763,0.048225388,0.039499335,-0.036617994,-0.08836959,0.09391265,-0.021734798,0.030495293,-0.09498629,-0.0016480273,0.07891334,0.025126554,0.067867875,0.020003604,-0.034289714,-0.0519712,0.06782799,0.11149518,-0.101988375,-0.026210727,0.036778793,-0.002216204,0.05877101,-0.038506895,-0.04472183,0.09188588,0.023897056,0.09988721,-0.069296874,0.02677527,-0.098789625,-0.09056904,-0.018367298,-0.07378758,-0.03675364,0.06405206,-0.011122544,0.04207369,0.014935943,0.061293703,-0.004725733,0.10735835,-0.08295055,-0.055922464,-0.03155112,0.066029735,0.023673888,-0.10150352,-0.047350336,-0.019700704,0.06930846,0.011374371,0.035348836,0.10921069,0.015622742,-0.100993246,0.086073965,0.04348613,0.06453166,-0.0571707,0.08080408,0.032293864,-0.098052055,0.017181853,0.05765239,-0.12307104,-0.09055646,0.07086059,-0.06673429,0.06802214,0.0074624303,0.10303452,-0.07281816,0.03606529,0.051653855,-0.118795276,0.0046803653,-0.080611885,0.013400763,0.026050637,0.12222874,0.004421457,-0.017275728,0.0020752763,-0.033267204,-0.13742456,-0.05555474,0.061251145,0.14918916,-0.052899107,0.028454868,0.025259947,0.07936624,-0.069906466,0.045943934,-0.05109942,-0.045008235,0.11772467,-0.12533909,-0.043116152,0.07634794,-0.06512229,-0.032702126,0.0042528915,-0.06738948,0.12629932,0.06413326,0.12893042,0.02658279,-0.05794467,0.02299757,-0.038449056,0.071968146,-0.06365741,-0.09111569,-0.0981816,-0.05659009,-0.041059304,-0.024400935,-0.021726167,0.0306317
01c8543fd256a60a2124e5a949f1f3b4,0.03568119,-0.14253545,0.05370954,0.048751414,0.024515495,0.13157512,-0.09927742,-0.013470498,0.042981423,0.07116261,-0.09285037,-0.1065,0.10524314,0.015633807,0.0696617,-0.15936233,-0.0070237643,0.079752505,0.0141583085,0.09700203,0.008658386,-0.03145932,-0.073448636,0.12675837,0.14002872,-0.1441357,-0.03567432,0.0788357,-0.0019790903,0.10207528,-0.060991477,-0.06755143,0.11684479,0.04371282,0.14189434,-0.08359011,0.037687145,-0.12042702,-0.11290176,-0.042932954,-0.11052594,-0.013085545,0.08955274,-0.00043192448,0.0370705,0.042687833,0.13593905,-0.0097945165,0.11558976,-0.07503424,-0.09752016,-0.028558137,0.093870915,0.061243977,-0.14408688,-0.04897844,-0.08607715,0.09809137,0.0030143978,0.032809917,0.16451694,0.027677707,-0.11286341,0.11257195,0.076952204,0.10567135,-0.07476404,0.091399856,0.06422428,-0.12132663,0.02150083,0.07590164,-0.13955918,-0.12777165,0.11527651,-0.08524233,0.10856514,-0.017481761,0.12697177,-0.08930856,0.06986757,0.07977001,-0.1494754,0.034000386,-0.101884164,0.010783288,0.03849724,0.1592587,-0.016041653,-0.018126808,0.008855985,-0.02664533,-0.19894467,-0.11044748,0.10529408,0.191594,-0.059898593,0.05370867,-0.0027583216,0.13888852,-0.08788428,0.061676197,-0.07638111,-0.09799287,0.14426166,-0.1638692,-0.08746607,0.095817566,-0.086747326,-0.026606832,0.021753324,-0.12182924,0.16496676,0.08791786,0.13686821,0.009933727,-0.07731742,0.02399979,-0.044793844,0.11085796,-0.08520924,-0.08950201,-0.13562264,-0.09826076,-0.077392325,-0.03021919,-0.019959692,0.09997396
01f9c8db52f8edb462478310cfed7a23,0.021679848,-0.11258616,0.012546999,0.041399468,0.0055308547,0.12874962,-0.05594099,-0.050434344,0.07931126,0.08595276,-0.044647016,-0.09827777,0.12301592,-0.08625516,0.015692644,-0.07313019,0.06567774,0.1318974,-0.018591883,0.062412523,0.0077434666,-0.007216023,-0.043225653,0.040915627,0.1117775,-0.16406381,-0.044294916,0.052313715,-0.027428355,0.061916787,-0.041737236,-0.056732673,0.11387809,-0.0040724133,0.085621454,-0.047698285,0.02935645,-0.10813693,-0.06595931,-0.00011048606,-0.06641974,-0.049720492,0.04992616,-0.0076791076,0.03025727,-0.016278315,0.054082237,-0.050660525,0.09477899,-0.06195724,-0.075071625,-0.041931458,0.096202195,0.027959906,-0.074613795,-0.055496503,0.031726785,0.038214784,0.06526663,0.06164959,0.09960398,0.011562875,-0.12829646,0.09265081,0.07929857,0.09372364,-0.07973642,0.10075872,-0.020570774,-0.13334568,0.019271458,0.06340879,-0.16656709,-0.100451745,0.041072473,-0.07288685,0.0728837,0.019480502,0.06251251,-0.06571128,-0.0006003749,0.010763804,-0.1061617,-0.020762453,-0.08428463,0.016617624,0.042821355,0.13451056,0.03190301,0.013226275,-0.04461719,-0.02904279,-0.13328448,-0.008210592,0.059451167,0.13407823,-0.058591638,0.014825101,0.0056538708,0.13710952,-0.06701952,0.069873065,-0.09443967,-0.024988497,0.11723328,-0.15818454,-0.026994878,0.15274243,-0.049422823,0.009455926,0.00052237936,-0.09868314,0.14426735,0.047871105,0.13841888,-0.007524615,-0.05427774,0.036024984,-0.028389826,0.040288538,-0.04464631,-0.076487236,-0.1298593,-0.031277448,-0.011377692,-0.06332452,0.04082976,-0.0008306167
020ffd8294b9c0bd4f6127b06fccffae,0.044171415,-0.10065615,0.061138704,0.025644742,0.0021733844,0.1117799,-0.06956641,-0.02076749,0.053285927,0.036014903,-0.044056877,-0.094075345,0.101070255,-0.040141646,0.047200773,-0.10173575,-0.019519618,0.07161408,0.03667637,0.08035559,0.02082144,-0.02068127,-0.0591061,0.06964215,0.09616251,-0.11262053,-0.03537605,0.016319646,-0.013837089,0.08030013,-0.04865044,-0.0459914,0.097276084,0.055440202,0.109231,-0.07155174,0.03244374,-0.093450606,-0.09607915,-0.0208388,-0.08608943,-0.06715381,0.06456723,-0.0008879935,0.028596498,0.015104121,0.071507,0.012562498,0.13263765,-0.10404571,-0.06384622,-0.021125792,0.061672315,0.0382937,-0.112102896,-0.045742553,-0.03482448,0.07146041,-0.010515714,0.03095664,0.11844475,0.022369191,-0.0999054,0.08778675,0.041443367,0.05174123,-0.04201256,0.06401385,0.04010612,-0.09465368,0.019217785,0.06945713,-0.124216594,-0.108669594,0.07862495,-0.0817848,0.06027303,-0.0012066285,0.1104799,-0.07368236,0.037374195,0.068059824,-0.12210243,0.025643488,-0.08337787,-0.00022076705,0.040044706,0.11633676,0.0046324744,-0.013903041,0.026433697,-0.059996165,-0.13459052,-0.05624692,0.07756637,0.150074,-0.047354303,0.023848124,0.01363902,0.075419754,-0.066321656,0.05373271,-0.055720527,-0.06747541,0.1251766,-0.115016095,-0.04731425,0.06867065,-0.0843244,-0.043571822,-0.0072059915,-0.07264548,0.12796809,0.06241288,0.14197907,0.022956211,-0.04894857,0.03616124,-0.029681925,0.08112953,-0.084332846,-0.10437347,-0.08162476,-0.06715806,-0.042670332,-0.016766842,-0.028284809,0.04301964
0257ff0237e869e4b31d18322ec19b90,0.026362563,-0.14359398,0.005915582,0.056102082,0.006455828,0.1757521,-0.05843592,-0.024981095,0.08708064,0.107045084,-0.058472794,-0.11344676,0.14370976,-0.07803818,-0.0032210408,-0.108118564,0.09099689,0.16002274,-0.047225125,0.08327628,0.011957141,-0.03004295,-0.03883201,0.047194976,0.15039697,-0.18154368,-0.06459292,0.064196706,-0.02995051,0.07666114,-0.07066916,-0.07824675,0.14183255,-0.024989046,0.070425995,-0.049079657,0.047152083,-0.11614652,-0.08821405,0.014844754,-0.07611327,-0.016642276,0.052722115,-0.00785502,0.04571948,-0.03951292,0.06094551,-0.09433171,0.11541122,-0.03381751,-0.1044715,-0.059826035,0.10406196,0.046855908,-0.12070536,-0.055604495,0.026826922,0.040936172,0.09942125,0.07084499,0.11473436,0.036611594,-0.13898481,0.11799944,0.08823165,0.12990403,-0.077185266,0.09387368,-0.026864335,-0.13515331,0.018473132,0.047673803,-0.18866245,-0.13175647,0.060538635,-0.07779709,0.06422721,0.012233784,0.07032985,-0.094738565,0.0092605455,0.017813586,-0.13484505,-0.046596278,-0.101771444,0.0311209,0.043843605,0.15578228,0.031004958,0.0010732454,-0.06747645,-0.020597456,-0.15706448,0.000319099,0.08142922,0.14668517,-0.061087452,0.03884837,0.028187308,0.15672,-0.06737101,0.07433855,-0.12082665,-0.030532358,0.12269801,-0.18186773,-0.023532223,0.15752766,-0.033610627,0.008943597,-0.024232464,-0.10829298,0.18252724,0.08331117,0.19365385,-0.040474307,-0.08895221,0.03535943,-0.038733628,0.056313742,-0.030828211,-0.078033,-0.17604417,-0.039461955,-0.017639764,-0.06980958,0.059758298,0.0025828483
02ad7b97d9f5c9d33e6fcb0feff3a3ac9e0d05972248e74d4074f79ce1aa89bf,0.016459495,-0.06168095,0.029949732,0.019646468,0.016085122,0.05203872,-0.05045538,0.0012619405,0.034082737,0.025015054,-0.0344803,-0.062961854,0.06332505,-0.020121533,0.013615976,-0.064895034,0.0005308534,0.04842918,0.0055555133,0.0341685,0.00016356807,-0.02499633,-0.053719603,0.057828493,0.07086904,-0.058093224,-0.016400779,0.029343516,-0.0048343134,0.047181826,-0.026342222,-0.033291858,0.049960874,0.015062936,0.069677375,-0.059550907,0.0031190086,-0.06859018,-0.05298123,-0.022722961,-0.06223403,-0.029980894,0.035301715,-0.004792193,0.0051981704,0.009125965,0.052505422,0.0027929312,0.06999444,-0.05157636,-0.052595608,-0.021312075,0.048686918,0.016734533,-0.072794415,-0.035552315,-0.02760584,0.05610671,-0.0029806145,0.02471466,0.06612491,0.030952994,-0.066352814,0.067513846,0.018637795,0.043185007,-0.042886175,0.040347595,0.021059673,-0.06598469,0.011213239,0.03480959,-0.09038572,-0.06487087,0.05931976,-0.03564361,0.034412257,0.008584522,0.07551797,-0.042437147,0.034728084,0.042528838,-0.066445515,-0.0030869434,-0.06848505,0.016579859,0.030960824,0.08491162,0.0034632408,-0.012023875,-0.006851235,-0.031960696,-0.088775314,-0.03617859,0.063054144,0.08702104,-0.041496955,0.020941686,0.016368056,0.04684307,-0.03820268,0.03272582,-0.030021213,-0.05217281,0.07325549,-0.083829686,-0.023703635,0.05500084,-0.043981854,-0.031152664,0.010202114,-0.04895219,0.071499445,0.07682634,0.098255955,0.026148466,-0.051955085,0.011188648,-0.02361663,0.06532101,-0.03153688,-0.067495294,-0.07313789,-0.030587101,-0.041315537,-0.024078274,-0.023182806,0.032759383
02b016d43b493b4c25bdd1bdba58c199bb43c764c0363e7ea4abe14ca71f6f02,0.04478773,-0.18500148,0.038562123,0.043080293,0.024721878,0.2499773,-0.074254826,-0.025421944,0.13723135,0.120612554,-0.053772014,-0.15551293,0.18243924,-0.078111075,0.030776283,-0.1603504,0.063237704,0.1783146,-0.022554193,0.11550086,0.053460333,0.012498296,-0.042021662,0.038773444,0.16032395,-0.19317602,-0.061010633,0.07836714,-0.057759434,0.09335996,-0.06758438,-0.12122073,0.19526495,-0.021637756,0.120861955,-0.08311335,0.08401875,-0.16774733,-0.140453,0.045341376,-0.083835505,-0.024095776,0.08871645,-0.012404818,0.07037634,-0.06650055,0.06863439,-0.1304579,0.1484482,-0.08653202,-0.14925861,-0.087770194,0.12441386,0.051831946,-0.21189928,-0.09948512,0.042937335,0.044969447,0.11354166,0.10674309,0.19781384,0.045283433,-0.17086706,0.14680499,0.113618895,0.12278853,-0.08029868,0.13653407,-0.0029521529,-0.20442839,0.02479885,0.0733669,-0.24680331,-0.14568037,0.09515778,-0.13134147,0.046902202,0.046694145,0.10852823,-0.11359097,0.034382995,0.061804023,-0.18057168,-0.029684043,-0.14010403,0.049771238,0.017550752,0.19235502,0.018473793,-0.015735403,-0.025871567,-0.08003681,-0.21973331,-0.0070893476,0.14546873,0.24289207,-0.05992299,0.050319735,0.045264486,0.23248732,-0.08642614,0.12093679,-0.12632564,-0.044273138,0.16358832,-0.21796711,-0.076692864,0.14931503,-0.021432927,0.024096085,-0.03162349,-0.1229229,0.25134194,0.061110172,0.2664491,-0.051344603,-0.06737672,0.09626713,-0.055625763,0.08389156,-0.042980194,-0.09294921,-0.15945339,-0.07592052,-0.009886636,-0.06717186,0.040488876,0.016808301
02b51f81f1f26d649e555052d3655dbcb1af8dca97f2d1ad461b4ca73f1f31a4,0.03555107,-0.5135245,0.13413748,0.008760288,0.0065237973,0.44808128,-0.051593553,-0.48342666,0.1778432,0.2662669,-0.019031577,-0.44305697,0.5790047,-0.2095562,0.104281776,-0.11343542,0.28837907,0.2570849,0.19058731,0.15084994,0.2436081,0.2672952,0.0032340004,0.084472574,0.36931834,-0.5018189,0.03370718,0.1689234,0.038174696,-0.15265927,-0.07544209,-0.29897806,0.42444217,0.06727149,0.7164716,-0.2908004,0.16958638,-0.4814848,-0.29978994,-0.012994375,-0.04783845,-0.31944886,0.1637838,-0.041793294,0.30793512,0.14290419,0.13889022,-0.22762305,0.51843256,-0.46626502,-0.058185115,-0.09200248,0.33469304,-0.06390575,-0.025256088,-0.14111272,0.24054644,0.13669379,0.08628043,0.2143072,0.59923774,-0.029694078,-0.4851318,0.3557645,0.12543668,0.076989956,-0.23856549,0.68468255,-0.18630691,-0.44383344,0.13921095,0.2506769,-0.5715586,-0.1988891,-0.08310414,-0.44826505,0.4509657,0.06697028,0.20215678,-0.22592491,0.06530228,-0.22492206,-0.5459671,-0.02236808,-0.17404021,0.08912778,0.054536577,0.24928416,0.19765447,-0.0005092122,0.08487124,-0.09245572,-0.3972048,-0.18515682,-0.057300754,0.8748693,-0.054303456,-0.18060184,-0.013225206,0.4964147,-0.20217997,0.28000748,-0.124008164,-0.0016343724,0.49329385,-0.5316621,-0.14016256,0.6695712,-0.336271,0.16572621,0.028609538,-0.31660643,0.6502288,-0.23287868,0.2295124,0.100182965,0.031458102,0.30123347,-0.19883344,-0.12357443,-0.5788683,-0.323241,-0.13242918,-0.22608416,-0.0020545258,-0.076929785,0.19952734,0.07959734
032a439627f738fecd72d71fd28c5b56,0.031780656,-0.08628213,0.045118306,0.012455363,0.031181544,0.0818187,-0.041926865,-0.013595159,0.064151205,0.02971651,-0.0113117285,-0.07666826,0.075611964,-0.033538267,0.01494186,-0.06034365,0.005594742,0.0591545,0.0336296,0.041531473,0.035276264,0.006648039,-0.04876985,0.042087253,0.08399776,-0.058444068,-0.0030527029,0.016698873,-0.015426083,0.035318326,-0.018262517,-0.047863483,0.08163297,0.017866474,0.10108798,-0.073402695,0.018378766,-0.08474178,-0.0908143,0.018134914,-0.038767118,-0.03795279,0.058083534,0.009762356,0.021842107,-0.010497869,0.05228928,-0.021780936,0.089440495,-0.09159267,-0.053233128,-0.023706915,0.04948471,0.017204732,-0.08009463,-0.043932702,0.009534712,0.023557698,0.023734046,0.03781152,0.11079284,0.012142932,-0.08375683,0.07609529,0.017767243,0.036152296,-0.04663635,0.08051994,0.023680257,-0.0885308,0.0042176796,0.04778143,-0.11518127,-0.05509271,0.05101076,-0.07003146,0.021191394,0.019293882,0.07750499,-0.06013976,0.033440527,0.03777022,-0.09277563,-0.009455945,-0.07898891,0.03896317,0.003861446,0.091507815,0.01914775,-0.0009420022,0.019624924,-0.056641724,-0.11363475,-0.035620883,0.06828954,0.153811,-0.02499357,0.010457185,0.026475605,0.086286984,-0.04261793,0.053318035,-0.02340004,-0.042377543,0.114048764,-0.09646873,-0.044962093,0.06369889,-0.039490826,-0.014270032,0.00035656377,-0.050125152,0.12279406,0.036558315,0.109643236,0.029093582,-0.024290252,0.037596647,-0.04177427,0.041627694,-0.06136979,-0.07213146,-0.04035265,-0.028252676,-0.021114964,-0.005310712,-0.01919039,0.021560162
03b3b43ca40f505de2f059d56477f15c,0.01152778,-0.11360751,0.009463998,0.05425005,0.04188382,0.10604287,-0.06336257,-0.04861042,0.07169166,0.08142919,-0.024470018,-0.11577218,0.12159028,-0.04884392,0.00826706,-0.0717657,0.1008585,0.11637965,-0.015314443,0.0186939,0.023164619,0.0152141405,-0.06480237,0.062514,0.13452737,-0.12601326,0.011044548,0.06414608,-0.018701602,0.008133506,-0.024453234,-0.07636538,0.08644792,-0.013565878,0.10228617,-0.0727446,0.009900096,-0.10440795,-0.057424832,-0.009569771,-0.042193905,-0.037188053,0.039829675,0.0081212,0.03940198,-0.0013473188,0.076576486,-0.055909716,0.08055701,-0.06297013,-0.08505031,-0.026274787,0.11709598,0.0050829006,-0.055486508,-0.044659752,0.035594326,0.049862463,0.05442522,0.077375814,0.12043038,0.02958248,-0.111264154,0.11160411,0.08003434,0.080817096,-0.08465333,0.11888672,-0.048796274,-0.14683169,0.011709769,0.047153294,-0.15184017,-0.073351696,0.018425118,-0.06996029,0.07485043,0.024820203,0.06380581,-0.05350023,0.02726159,-0.004209274,-0.08609079,-0.03075203,-0.07856543,0.06656484,0.0149372425,0.13445142,0.04244371,0.021872135,-0.036117245,-0.018245207,-0.14516619,-0.036452044,0.05053604,0.19226243,-0.04286628,0.02522535,0.0290512,0.14750634,-0.06179425,0.07461833,-0.058382306,-0.036578503,0.12737873,-0.16538964,-0.04444734,0.17424338,-0.044287797,0.028963752,0.020653028,-0.13338308,0.15546522,0.040358085,0.11220662,0.016410956,-0.056969333,0.030705057,-0.04107486,0.029318089,-0.071100235,-0.06914444,-0.10174451,-0.041649714,-0.014800326,-0.07020546,0.056964442,0.0417229
03b544f462bc9c6226ea4886084050074806439962eea99c59d3f2e5fa8e88f2,0.016192833,-0.065426126,0.042326786,0.026149897,0.02859159,0.0754687,-0.05418259,0.00021693856,0.047258534,0.03478364,-0.01191431,-0.060622454,0.06407479,-0.013474583,0.022605365,-0.07918229,-0.0024665387,0.053029586,0.01740935,0.014695742,0.0039319918,-0.03504971,-0.06788285,0.05462065,0.08595417,-0.06832518,-0.0017985898,0.030523026,-0.015951306,0.05023016,-0.014079847,-0.045511816,0.05129427,0.008226174,0.08320399,-0.06834545,0.011411122,-0.0614199,-0.071709864,0.0030658324,-0.04366402,-0.024657466,0.045088604,0.020105433,0.01892213,-0.0067918734,0.05792649,-0.0029834935,0.09111123,-0.065430164,-0.045973808,-0.022922983,0.045833837,0.01782221,-0.07556597,-0.04450249,-0.018281154,0.039515518,0.019960174,0.0146336295,0.09280865,0.017015357,-0.05385319,0.07613255,0.0112594245,0.026653009,-0.06032723,0.037566125,0.028747689,-0.07424196,0.0059130383,0.027996147,-0.086651586,-0.059236895,0.06753706,-0.052832738,0.03966962,0.015124787,0.0643882,-0.03651765,0.040090337,0.042803586,-0.065810286,0.0011317007,-0.079013385,0.037729904,0.018652985,0.09419955,-0.0015819073,0.0060196863,-0.0041110693,-0.02638675,-0.10696948,-0.040895466,0.06702801,0.121435374,-0.03223474,0.0200551,0.027034432,0.06972812,-0.034254372,0.032362647,-0.030849598,-0.049138345,0.0858688,-0.09573275,-0.044723522,0.046605293,-0.027872328,-0.034718413,0.001093863,-0.05540261,0.09718326,0.05217369,0.09552518,0.026363926,-0.04816908,0.018224144,-0.03572701,0.06574716,-0.032772917,-0.04760155,-0.06671915,-0.03133497,-0.02322365,-0.004016637,-0.017140096,0.024012119
03ee77cc35efb49aa6db392247d242d6,0.018804783,-0.0847682,0.043259062,0.02400056,0.020853456,0.09111765,-0.04717221,-0.014913342,0.04607995,0.047989544,-0.016847681,-0.07626762,0.07969765,-0.01179007,0.016471827,-0.086529434,0.0077777556,0.06223797,0.01916221,0.032479383,0.01914404,-0.023461431,-0.05127868,0.059800275,0.08895705,-0.077932395,-0.024163773,0.037290394,-0.0058334423,0.042694237,-0.018791072,-0.04543307,0.07543432,0.01349825,0.09116891,-0.073694,0.029567571,-0.07686479,-0.07021989,0.0012001414,-0.04393566,-0.02263413,0.053332858,0.0013994235,0.03239717,-0.005573992,0.06112474,-0.020644302,0.08674626,-0.060694247,-0.04838413,-0.020324513,0.06063492,0.013733829,-0.0779271,-0.03766997,-0.018473038,0.04859028,0.013793845,0.018030887,0.10918005,0.011579364,-0.070526294,0.08857364,0.032414682,0.040467247,-0.046791945,0.06437612,0.020970907,-0.0927141,0.007900596,0.041453797,-0.095485575,-0.073427744,0.058283165,-0.071356095,0.053030144,0.018376265,0.07082493,-0.045601077,0.023672802,0.03365058,-0.08578293,0.0032538935,-0.070884146,0.024979047,0.017374486,0.10184459,0.006204562,0.00028009817,-0.006807287,-0.031416185,-0.112058,-0.029839024,0.06476932,0.1343432,-0.03130721,0.024403129,0.018972442,0.0914101,-0.040888976,0.036305055,-0.049647335,-0.03715098,0.08872105,-0.097229876,-0.046612933,0.056286614,-0.042832535,-0.015275975,-0.012149753,-0.06372658,0.11459919,0.04633064,0.104441,0.006020094,-0.04776826,0.033155844,-0.03705993,0.058100957,-0.03884004,-0.056047387,-0.07425586,-0.046673644,-0.024562875,-0.019602984,-0.0023928192,0.026446987
0424586cc6ae1f3a30e811665fcc4b934fd7cc8a2b084934fbd1bcd1fd48df25,0.025549402,-0.05966558,0.03738724,0.027062753,0.0054959673,0.08790914,-0.03025164,0.0043578153,0.055525646,0.049315702,-0.003036575,-0.03516978,0.06000562,-0.02606921,0.0031014683,-0.057828855,-0.0077975527,0.06413222,0.011722886,0.022409257,0.011162515,-0.030738065,-0.03755452,0.012926831,0.07016714,-0.071915,-0.031795427,0.016971746,-0.018730577,0.038964972,-0.01248116,-0.043394,0.05565747,0.0006825695,0.05718491,-0.05016368,0.035094865,-0.064056985,-0.06573516,0.023392228,-0.035332732,-0.009203403,0.042195577,0.017727021,0.0100983735,-0.029104773,0.019663269,-0.033106666,0.0829446,-0.037260354,-0.029441664,-0.039105818,0.025844516,0.018228792,-0.07214153,-0.03832965,0.00072576146,0.025289247,0.038664922,0.02168937,0.06349229,0.015090452,-0.036248807,0.066324,0.00854634,0.020799065,-0.03935064,0.02066271,0.040300965,-0.068620265,0.0088204,0.02007196,-0.087218285,-0.059711535,0.046874654,-0.058245655,0.021711398,0.0193851,0.048436794,-0.02854335,0.009890966,0.032076716,-0.07033292,-0.025133716,-0.0698814,0.019638041,0.021201465,0.07195414,0.0145327635,-0.011331671,-0.015083279,-0.0244631,-0.083644785,0.00046337966,0.048395343,0.08582628,-0.039662406,0.012450472,0.016604055,0.052636996,-0.026804993,0.025676915,-0.046935312,-0.006485993,0.06727167,-0.06728394,-0.020895572,0.019179286,-0.010218134,-0.026901817,-0.030699521,-0.009335016,0.08924366,0.05196231,0.098288454,-0.002656595,-0.035409145,0.03114588,-0.018530574,0.04443683,0.0018552864,-0.03576904,-0.067182586,-0.022267554,-0.0011546151,0.0042929603,-0.0133390995,-0.01659743
0446ae8ec2d513bc52974a8231649b2c,0.026176654,-0.10739154,0.037429307,0.04063449,0.0036670037,0.1041959,-0.06549806,-0.05553574,0.052012593,0.07237102,-0.04088273,-0.101337895,0.11587391,-0.03930191,0.03516249,-0.08039698,0.030950313,0.10243243,0.027384026,0.04028408,0.006487838,-0.013175623,-0.071326084,0.071174905,0.11701125,-0.14198712,-0.02769503,0.03855419,0.0015220825,0.056228474,-0.037077874,-0.056735285,0.07842066,0.022762256,0.12455672,-0.051527433,0.0371,-0.10753672,-0.064503394,-0.027407078,-0.0730902,-0.056092523,0.046203665,-0.0027810822,0.04665746,0.016424017,0.06916675,-0.03652424,0.12215749,-0.071305364,-0.04146025,-0.019786613,0.07616586,0.024614215,-0.04308627,-0.05360869,-0.019854644,0.07257784,0.026493305,0.028160922,0.10332707,0.0042554955,-0.09898004,0.10447423,0.052070744,0.06306433,-0.0724152,0.07912951,-0.00054504495,-0.10426626,0.03351068,0.057140663,-0.12509495,-0.096978985,0.05302399,-0.07642984,0.10669754,0.012932863,0.06575347,-0.050419345,0.016104149,0.01357363,-0.10905397,-0.005149024,-0.07108528,0.0009955673,0.05150543,0.10894786,0.019060511,0.004377765,-0.0138680395,0.0010512361,-0.120967895,-0.03696229,0.038754597,0.13441044,-0.047631256,0.0120376535,-0.0031533516,0.10032048,-0.06101228,0.03341207,-0.057744894,-0.046817943,0.11444778,-0.13983655,-0.02677754,0.121361285,-0.0670823,-0.009577302,-0.009999352,-0.08651648,0.14008664,0.030495448,0.11084685,0.0043730033,-0.05758567,0.034579348,-0.039188445,0.042773694,-0.06700975,-0.072449096,-0.12307614,-0.050716206,-0.023338255,-0.026996722,0.008540452,0.021480238
044eaf948c12e75d6d92e9a8bbfd7cde,0.016927097,-0.053001553,0.02302712,0.01541191,0.009998943,0.056219116,-0.052672643,-0.009624176,0.035164963,0.030095886,-0.035646807,-0.05215239,0.049202845,-0.016544795,0.02798749,-0.06342523,-0.005011635,0.041806128,0.010044763,0.035777647,0.008624116,-0.01055917,-0.043225802,0.045887843,0.060597938,-0.06752967,-0.009225695,0.020853192,-0.004380405,0.050147597,-0.026217954,-0.02245941,0.054756682,0.0148525555,0.075143196,-0.050218705,0.013698403,-0.0635242,-0.056902185,-0.012678746,-0.050631117,-0.028991595,0.041218445,0.0053647067,0.008161924,0.00994825,0.054002117,0.000934838,0.06403616,-0.050564937,-0.048318677,-0.006839462,0.048385948,0.020846,-0.065265685,-0.02835693,-0.028005525,0.049765363,0.0038794014,0.018245792,0.07862703,0.008739739,-0.06306105,0.065499045,0.030729081,0.042054024,-0.044608016,0.037412725,0.024074817,-0.06846969,0.022307003,0.051464424,-0.07399363,-0.063339874,0.052379403,-0.03833726,0.050139558,0.010106866,0.06741115,-0.049372356,0.032346696,0.039153367,-0.07368462,0.0041125254,-0.047686007,0.0022477605,0.020452866,0.08342638,-0.012153757,0.003726244,0.0024663056,-0.013900714,-0.09075826,-0.039737847,0.05087089,0.095291056,-0.029175626,0.017871454,-0.004264315,0.064252876,-0.049298868,0.026407156,-0.03217077,-0.0404275,0.08357474,-0.07415513,-0.04002473,0.05607959,-0.04816517,-0.020608017,0.0039555933,-0.06655996,0.07351824,0.03725501,0.07606465,0.005959172,-0.031368334,0.011634873,-0.016017558,0.049767263,-0.045942362,-0.042151447,-0.06145743,-0.036437705,-0.031582933,-0.014705373,-0.009734778,0.028635941
04d29fee25ab668406ab8e49c4f7a990,0.04197445,-0.099282205,0.054202847,0.06153319,0.047660094,0.08780708,-0.06900135,0.0130931325,0.062745854,0.032055818,-0.0010713116,-0.08540194,0.1308788,-0.07014587,-0.019985378,-0.10686084,0.0015523083,0.115719534,0.022226855,0.054766566,0.02374619,-0.10456554,-0.10807749,0.09527748,0.1355067,-0.07341381,-0.023588853,0.01192491,-0.01792288,0.07719767,-0.025415778,-0.061958287,0.09952801,-0.0037945332,0.0674543,-0.11740726,0.008956167,-0.097278595,-0.10949382,-0.0041495515,-0.09314147,-0.07153056,0.05470236,0.008125191,0.011550999,-0.040370554,0.04459317,0.030833222,0.14365323,-0.120091125,-0.0824691,-0.06303696,0.055571504,0.028255533,-0.1222844,-0.040903006,0.017421324,0.08726962,0.028430095,0.02086633,0.07758618,0.06560319,-0.08639684,0.10984242,0.010805635,0.086970426,-0.07614082,0.06471052,0.036131598,-0.10010688,0.00078332645,0.011439146,-0.18098688,-0.13647941,0.06916612,-0.06559613,0.024490815,-0.0001686539,0.14316425,-0.08065819,0.059726715,0.069458306,-0.08014612,-0.028007979,-0.13805291,0.08291185,0.031060688,0.14820392,0.02671082,-0.038819678,-0.031271704,-0.06850548,-0.15064286,-0.018846028,0.08901222,0.14232717,-0.090705015,0.033714935,0.09026874,0.03275519,-0.064152144,0.04039765,-0.054418925,-0.05382411,0.13595818,-0.12896784,-0.009424361,0.10399754,-0.08171541,-0.07184347,0.01536497,-0.06706069,0.122294135,0.18549584,0.20502396,0.078662276,-0.11266017,-0.00037924811,-0.047284763,0.1003779,-0.038873307,-0.13992533,-0.14642213,0.011381887,-0.06555809,-0.043253336,-0.047851373,0.014237898
051a74d370c049e56396b9420df284d4,0.03265311,-0.10037875,0.006934019,0.046198517,0.02785492,0.15691988,-0.05203218,-0.020640846,0.09736148,0.08357894,0.00068491936,-0.10601193,0.121338874,-0.07465044,-0.010817781,-0.059803843,0.071031995,0.14724673,-0.03722206,0.027798556,0.031482354,-0.0054056887,-0.04278615,0.0028245405,0.12815954,-0.1269232,-0.024669062,0.037924986,-0.04783739,0.049688935,-0.04032192,-0.07415255,0.09399522,-0.054543596,0.04952831,-0.06811196,0.049222283,-0.0975213,-0.07508153,0.04815799,-0.039413042,-0.019047972,0.06101787,0.01985728,0.022394296,-0.06611229,0.028577024,-0.09380834,0.09486943,-0.03765568,-0.08001561,-0.07001639,0.064280376,0.024044046,-0.09484847,-0.06597428,0.060864333,0.002542909,0.10348845,0.077662066,0.100382864,0.029004348,-0.090100385,0.08925678,0.046616677,0.058263976,-0.06981718,0.07433443,-0.018149015,-0.13340278,0.016771248,0.028981572,-0.16116092,-0.078314245,0.046716515,-0.07743422,0.0182581,0.0478354,0.04290461,-0.06815876,-0.0018902473,0.02330534,-0.09673942,-0.068386994,-0.09174773,0.07544007,0.011618,0.12928204,0.03817694,0.009612107,-0.04326342,-0.03675154,-0.12375238,0.04341987,0.08606786,0.14930919,-0.06280881,0.020343453,0.035290718,0.15139127,-0.0386824,0.06320135,-0.07618885,-0.009031058,0.1117517,-0.1469744,-0.022287682,0.11485551,-0.0043380675,0.028785624,-0.02625421,-0.063108705,0.15336686,0.05165684,0.17100187,-0.024812493,-0.05732329,0.059379615,-0.03965148,0.026884431,-0.0013194788,-0.053451553,-0.12408101,-0.008112194,0.01217426,-0.046658088,0.031811547,-0.031112408
052055c5202730d16d4117083db7a74c,0.05871779,-0.1019953,0.050274882,0.04341289,0.019280126,0.27245617,-0.081280455,0.03954386,0.24061401,0.10893675,0.06582834,-0.1530258,0.08001855,-0.10938966,0.040778816,-0.05532022,0.048470315,0.19918972,-0.042699978,0.005401407,0.0575703,0.06332148,-0.039435137,-0.14050472,0.098099366,-0.12625001,-0.013621927,0.017924432,-0.0998351,0.03875082,-0.005343493,-0.11221861,0.113099314,-0.10919629,0.03724631,-0.09718769,0.098646276,-0.11074812,-0.123865,0.1717233,-0.01961443,0.017409898,0.12680903,0.09169262,-0.007227808,-0.16180256,-0.010797369,-0.16727613,0.1073491,-0.06028623,-0.115874,-0.11145932,0.03925041,0.027540592,-0.18433577,-0.11238249,0.13606614,-0.10419506,0.17150457,0.10458759,0.15436293,-0.030770738,-0.12473379,0.10337023,0.0155181475,-0.0044005155,-0.08204966,0.054389525,-0.019414712,-0.23636673,0.030456906,0.04853987,-0.1901377,-0.020949341,0.07582159,-0.13830982,-0.093451455,0.16220352,0.015226256,-0.07172489,-0.033688195,0.07670352,-0.10471581,-0.12075738,-0.12617415,0.1131846,-0.031328496,0.13566442,0.052551683,0.06701863,0.004222911,-0.13695924,-0.14571649,0.15902504,0.16141018,0.23203886,-0.026483843,0.012266783,0.0453725,0.2826862,-0.008577695,0.10915338,-0.07266901,0.019373504,0.12525007,-0.18845674,-0.06943163,0.04818164,0.11608182,0.07537152,-0.090934105,-0.06865933,0.19906978,-0.06325928,0.2513139,-0.080132455,0.015366838,0.13710803,-0.039488934,0.044051763,0.07777295,0.026224805,-0.03801754,-0.013599204,0.13198194,-0.024968272,0.050880324,-0.10386477
0540e803f1788f75369f434ace742346,0.039130736,-0.1951545,0.039057996,0.06414894,-0.005755439,0.030961584,-0.15043426,-0.16652007,-0.039893765,0.02537541,-0.29810867,-0.1275796,0.25011963,-0.044134457,0.0495344,-0.20386934,0.011755071,0.11954036,0.08335742,0.2920019,0.016786939,-0.08071265,-0.04789712,0.33230597,0.16829419,-0.28099823,-0.14201266,0.11674308,0.02884168,0.22351567,-0.21302299,-0.02133146,0.2615605,0.18807256,0.2108926,-0.009857706,0.050031003,-0.13798235,-0.12881605,-0.22403134,-0.27479798,-0.2602423,0.10543963,-0.16499072,0.04907438,0.17803192,0.101581424,0.12095084,0.22234164,-0.19382977,-0.13559376,-0.051729728,0.16938166,0.10176495,-0.13450101,-0.05019182,-0.19027242,0.27233455,-0.08094336,0.046147387,0.14241117,0.14060329,-0.23543431,0.14118485,0.113548644,0.22584648,-0.08469739,0.20118308,0.06649097,-0.11224351,0.025557732,0.20713443,-0.30158523,-0.29682207,0.1460922,-0.069830395,0.2815504,-0.13738526,0.28310376,-0.1704136,0.099081,0.048460755,-0.23012528,0.110681154,-0.14773169,-0.19380121,0.17052239,0.27389103,0.039271813,-0.1306323,-0.07801887,0.011300519,-0.21697375,-0.21920569,0.08663808,0.126523,-0.16492285,0.04813924,-0.016297687,-0.0114208665,-0.23706204,0.039234117,-0.1717778,-0.16897428,0.24274994,-0.22392063,0.0035677375,0.28129625,-0.3274516,-0.12468877,0.09397689,-0.18394843,0.20017561,0.30281606,0.22083059,0.14432308,-0.18501092,-0.04704417,-0.053202126,0.1410313,-0.19258532,-0.30853376,-0.37776226,-0.15213071,-0.25522026,-0.0925304,-0.10752786,0.16920835
056c0f5cb55d4173ddc4f0d4a2596d9579bbabeeaff2c882c67d64610a9928bf,0.052010167,-0.23164596,0.08096775,0.012347704,0.05312473,0.2332288,-0.08684603,-0.110092714,0.10228728,0.08199939,-0.055821978,-0.19917476,0.19044994,-0.06382578,0.08667652,-0.144811,0.028009329,0.0988952,0.059468098,0.16680706,0.09404144,0.09950652,-0.03567528,0.08528977,0.14793703,-0.1887149,-0.004563005,0.06236805,-0.017195491,0.077763565,-0.08047709,-0.119715616,0.20787136,0.067546755,0.22184993,-0.13449396,0.09102677,-0.19854951,-0.16491696,-0.010444766,-0.09056431,-0.07719736,0.11510289,-0.04873286,0.106894985,0.017023472,0.121103376,-0.080932744,0.18697819,-0.19923425,-0.119087644,-0.060784426,0.15778182,0.047395676,-0.17708117,-0.07869252,0.004047018,0.067765206,0.030376993,0.09269028,0.30018303,0.04153743,-0.24648882,0.16600262,0.11037485,0.09629244,-0.04707715,0.21598676,0.0009904171,-0.20794599,0.032083403,0.13081671,-0.22404857,-0.15531087,0.106981434,-0.16977306,0.10045344,0.01826739,0.15517886,-0.14731541,0.06670047,0.06954845,-0.22456111,0.04426558,-0.116894804,0.040133838,0.018763024,0.17867813,0.027848827,-0.006911958,0.06284788,-0.1442387,-0.25713074,-0.09237337,0.1306716,0.37089708,-0.02867653,0.020867622,0.043091655,0.23520766,-0.11246207,0.14379415,-0.10706223,-0.08768674,0.22660562,-0.24621643,-0.120662875,0.19548014,-0.10551951,0.012371774,0.032024857,-0.14444238,0.28294036,-0.00645145,0.22340703,0.0023765084,-0.04076271,0.12657973,-0.07650287,0.06525635,-0.20734498,-0.15293394,-0.072493844,-0.12980062,-0.035295714,-0.050300594,0.028489744,0.108736925
0593aa87b0426bac363a292228735991,0.026282977,-0.0937428,0.047750097,0.025529198,0.027439792,0.09668293,-0.05963948,-0.014382144,0.050553836,0.042762253,-0.017687324,-0.089895494,0.08273776,-0.036443327,0.03346342,-0.08444958,-0.0062485663,0.07237655,0.023392102,0.051349383,0.02620768,-0.014097273,-0.052669805,0.04775753,0.08546815,-0.09099755,-0.015140882,0.025978317,-0.009484461,0.051052064,-0.028174223,-0.04452569,0.08110522,0.014537206,0.11072273,-0.08273555,0.030799689,-0.0864062,-0.083352685,-0.0070127845,-0.057599664,-0.048097648,0.0609008,-0.0034571781,0.026887404,0.002205871,0.051196653,-0.005272019,0.1186861,-0.08987303,-0.060478434,-0.035881534,0.057351094,0.017823571,-0.096095264,-0.05014053,0.0025349099,0.04579006,0.008394245,0.037917823,0.11256088,0.011657509,-0.09140664,0.0890425,0.031844266,0.043792002,-0.052471742,0.07898809,0.032300763,-0.09105776,0.019025445,0.044719197,-0.11790136,-0.07351927,0.06117738,-0.07300863,0.04250392,0.017321523,0.09096538,-0.065449886,0.036926676,0.050483145,-0.108298324,-0.0068251328,-0.08416251,0.028769994,0.022889294,0.10217085,0.009372997,-0.011275991,0.018265808,-0.057376895,-0.12958491,-0.030218309,0.06259307,0.15423442,-0.043944586,0.005498245,0.029057687,0.08265822,-0.06044538,0.053506494,-0.043750905,-0.055135228,0.12216483,-0.11124408,-0.046855662,0.076762214,-0.05094728,-0.030488929,-0.00029126182,-0.06503505,0.1283668,0.050878163,0.117903955,0.023010638,-0.049706705,0.02560281,-0.034776773,0.054505385,-0.0633345,-0.08093075,-0.06937656,-0.03664677,-0.03723853,-0.016495205,-0.018960195,0.02502263
05bed5476fa174c7aef2eaf54f0ab27f6a39a2af1d7ed53357ccae68851a331c,0.026057739,-0.06054464,0.049794387,0.0010297946,0.01541568,0.048911266,-0.05111098,-0.004002322,0.038828216,0.0075210384,-0.016318101,-0.07030112,0.03999713,-0.011697005,0.042311214,-0.047784325,-0.008518836,0.03674848,0.02737805,0.03459018,0.02597522,0.015199817,-0.04149683,0.031956103,0.06316148,-0.052133095,-0.0012410311,0.016337829,-0.015665317,0.032856856,-0.007139842,-0.029241791,0.0551403,0.021261137,0.08056349,-0.05690241,0.008208063,-0.062658235,-0.068514094,-0.005539371,-0.041560605,-0.036241103,0.046183668,-0.0016492028,0.018134065,0.014169565,0.053315926,-0.0073877303,0.06450248,-0.07226233,-0.044427313,-0.005335402,0.053388834,0.024621502,-0.070882834,-0.030432863,-0.009715356,0.03061071,-0.004051933,0.032907873,0.10019243,0.0028713327,-0.067414515,0.05086941,0.018699883,0.020117959,-0.04211125,0.055633057,0.02365893,-0.07091032,0.016301816,0.056621384,-0.06306224,-0.03533306,0.040893637,-0.041909933,0.03054064,0.0120533155,0.064544484,-0.042287774,0.03728145,0.03536972,-0.068977825,0.0068730526,-0.057860613,0.024392588,-0.007325145,0.07188446,-0.008513825,-7.584982e-05,0.0293937,-0.043150406,-0.0877941,-0.03831587,0.060875747,0.12611817,-0.022604683,0.012440056,0.012675365,0.07260203,-0.047701374,0.036788534,-0.0149610685,-0.050735265,0.08774998,-0.08532984,-0.05245312,0.0529875,-0.04753723,-0.010546992,0.020051863,-0.062336642,0.083943024,0.018608497,0.062964246,0.019721907,-0.016374683,0.024455346,-0.02233645,0.048543,-0.06439859,-0.03775458,-0.02522204,-0.03933106,-0.024892917,-0.0062401127,-0.013731001,0.03801118
060451d1d301ca6e255cbd2c903caf9d,0.027632864,-0.24009137,-0.026548443,-0.0077592437,-0.02358187,0.30830106,0.049499106,-0.08926719,0.06211673,0.16572763,-0.035010483,-0.02410873,0.20740207,-0.031386074,-0.094310746,-0.10830727,0.057683468,0.07742029,-0.103372544,0.19807898,0.1231823,0.028927516,0.15950212,-0.043164104,0.09878294,-0.17651659,-0.12602434,0.09789653,-0.033723123,0.04730892,-0.10281544,-0.12342056,0.22117499,-0.049722996,0.013730712,-0.034895696,0.1678445,-0.17299983,-0.09954789,0.10600711,0.027407872,0.063921705,0.024974784,-0.11726723,0.16757877,-0.09543733,-0.028724417,-0.18655366,0.102164425,0.007453359,-0.09029105,-0.16797471,0.026127568,0.026178254,-0.18184105,-0.029326824,0.0670522,0.022798393,0.1305365,0.049734484,0.16112882,0.058756873,-0.088672474,0.07550564,0.07007067,0.06975123,0.08141509,0.12896068,-0.029639274,-0.080776975,-0.022758596,-0.061721355,-0.22983542,-0.16340077,0.079085656,-0.17964548,0.037753493,-0.036587197,0.06947914,-0.12584347,-0.031281967,-0.025495287,-0.19208615,-0.0062434096,-0.11883265,0.043571424,0.024078371,0.056642093,0.059686765,-0.102836005,-0.068372965,-0.036172625,-0.10077687,0.054536235,0.050330706,0.15547824,0.02217774,0.03494286,0.114995755,0.16712895,-0.012087904,0.071042635,-0.17626408,0.12061105,0.05153364,-0.113024645,0.075391516,0.034898393,0.010091517,0.03707315,-0.11412971,0.08264317,0.21078843,0.063479505,0.27194864,-0.07979286,-0.069331154,0.121437505,-0.047172483,-0.022489976,0.014587013,-0.104250126,-0.11150253,-0.028291423,0.041694652,-0.038306262,0.038835708,-0.08887927
0615cadf5248d9c355f4838f227a31a0,0.03525655,-0.12444952,0.034935158,0.052417465,0.03588262,0.14179279,-0.07260152,0.0074813026,0.09235499,0.08271037,-0.019759076,-0.09220898,0.12909397,-0.059355766,-0.024030928,-0.10467235,0.02683729,0.12376609,-0.024486618,0.04305218,0.030909497,-0.06379729,-0.061646126,0.066169344,0.15834387,-0.11780349,-0.030279597,0.057697695,-0.023075955,0.06981127,-0.03778117,-0.09586895,0.10796319,-0.035765342,0.07564588,-0.11373348,0.03236024,-0.12602319,-0.11641504,0.026310302,-0.05854606,-0.028526787,0.07535936,0.012018292,0.03889106,-0.048386093,0.058484558,-0.04490922,0.13101804,-0.07282761,-0.08215169,-0.09149972,0.07238184,0.018510856,-0.1324669,-0.06007743,0.038060885,0.052797068,0.07226108,0.03743829,0.114329286,0.043375965,-0.10179771,0.119899176,0.027705207,0.085094765,-0.082710445,0.08133367,0.031998716,-0.12924494,-0.007924977,0.012329668,-0.20384836,-0.10937618,0.07261068,-0.0970332,0.04390121,0.01737327,0.11537541,-0.079390906,0.046998944,0.045515608,-0.118458696,-0.056435954,-0.13812277,0.09832833,0.027449714,0.14514749,0.049995445,-0.019211236,-0.04313919,-0.03558693,-0.15857928,-0.017674724,0.092343785,0.1886504,-0.08081287,0.043921098,0.07611738,0.10682542,-0.057883497,0.060032822,-0.08445651,-0.038725216,0.14029294,-0.1450932,-0.019612703,0.09405759,-0.029312983,-0.027826777,-0.008855363,-0.068897225,0.16899048,0.15307964,0.21135002,0.029576106,-0.09399177,0.023580652,-0.06411174,0.08849525,-0.016629199,-0.097543396,-0.14495973,-0.009543254,-0.044557635,-0.04457182,-0.015826054,-0.0037229992
0630318153df63416998b97a3498406f,0.0134529555,-0.12363348,0.011819426,0.056792486,0.011804494,0.13131316,-0.0668457,-0.048274133,0.04253533,0.07885442,-0.06702471,-0.07547801,0.124199465,-0.016909644,0.01120635,-0.10513719,0.040808085,0.091676615,-0.022536263,0.057593808,0.016950091,-0.04068636,-0.037675202,0.08211425,0.13705178,-0.148832,-0.048510853,0.06695029,-0.012731711,0.070238315,-0.051222797,-0.064498775,0.09798998,-0.0003818234,0.09837919,-0.048621092,0.046156142,-0.10716393,-0.07683703,-0.02501868,-0.073235005,-0.025943644,0.043169446,-0.016421355,0.0468466,0.004913182,0.07624185,-0.051495686,0.112485334,-0.041728135,-0.07248406,-0.037578307,0.087356575,0.026485123,-0.09596284,-0.05163468,-0.030181652,0.07368686,0.029938536,0.046392616,0.107134745,0.03309498,-0.09154714,0.096834525,0.060981147,0.08772592,-0.07652647,0.08788757,0.0094785895,-0.113224395,0.021929998,0.038907044,-0.15929969,-0.12227642,0.06765039,-0.077808306,0.100978374,-0.008798173,0.07809521,-0.07268484,0.024668807,0.018985761,-0.119417325,0.00828616,-0.08941404,0.021927632,0.043941163,0.12939951,0.011474656,-0.022986583,-0.04486837,0.013060678,-0.14639124,-0.06324563,0.054067735,0.13912806,-0.048904788,0.028228778,0.01011679,0.12027051,-0.061298996,0.04029463,-0.08608641,-0.0497055,0.10686621,-0.13753474,-0.032736342,0.121664934,-0.066721275,-0.0074864887,-0.00593681,-0.08669159,0.15280963,0.078489855,0.12776612,-0.0044033015,-0.080803886,0.028857792,-0.033973098,0.04906926,-0.040272616,-0.08292083,-0.14100797,-0.061805457,-0.040318314,-0.05060777,0.006624335,0.03831189
06717e78164e7b2b1aa137adaa3d7d2d,0.034679778,-0.13349538,0.020735003,0.04570403,-0.0024058342,0.18903121,-0.056570392,-0.026311448,0.09354291,0.098667614,-0.042242464,-0.0872894,0.15486339,-0.08553147,-0.00371389,-0.10537434,0.039893337,0.13064611,-0.03831431,0.086741425,0.019738952,-0.059969276,-0.05703631,0.03959634,0.13311607,-0.15895188,-0.0911665,0.043821774,-0.020286312,0.095348775,-0.061447464,-0.07921523,0.13306634,-0.014171219,0.07847898,-0.06293725,0.06628219,-0.12942973,-0.10791331,0.036273804,-0.07614384,-0.019845026,0.04539632,-0.0008971109,0.05689189,-0.04332529,0.04144171,-0.055786494,0.1458053,-0.05239085,-0.08639518,-0.07264293,0.07706581,0.030295918,-0.1266982,-0.06325664,0.0171893,0.05484711,0.089088485,0.05392585,0.10886221,0.028595712,-0.111562505,0.12129501,0.063962124,0.103798784,-0.055660415,0.06318618,0.006024016,-0.11393875,0.017629731,0.028549956,-0.1957751,-0.14205642,0.069698066,-0.09570803,0.058083925,0.010000635,0.084473774,-0.09592557,0.00851661,0.035287812,-0.13282217,-0.03351408,-0.12216445,0.02080731,0.05854442,0.12727968,0.02812509,-0.015605823,-0.046958614,-0.033936102,-0.15138954,0.011002308,0.0780923,0.13468267,-0.06826584,0.040291682,0.039714005,0.11206454,-0.050364826,0.06587014,-0.1135409,-0.011225975,0.11559149,-0.1624359,0.0069562276,0.11631148,-0.039662797,-0.017682359,-0.04180601,-0.060442604,0.1639505,0.10688982,0.2168045,-0.021823488,-0.09943053,0.045335833,-0.036994167,0.072206125,-0.031281315,-0.10920534,-0.15991016,-0.031944614,-0.014604766,-0.053022865,0.020899668,-0.023782164
0683cdf921258b19802d093b921ffd9e83a9f753b3faaffa4d404590c64dbf0b,0.028472444,-0.06767433,0.034992475,0.021792598,0.014627483,0.06526931,-0.04822301,-0.0036517556,0.021449564,0.02169931,-0.038366202,-0.043200497,0.05096687,0.0016321614,0.022007702,-0.08117883,-0.018761944,0.03612219,0.019989401,0.043290786,0.0013510749,-0.026823012,-0.038405374,0.050737154,0.06691055,-0.06492359,-0.020677477,0.022637185,-0.0042493097,0.057205867,-0.025010029,-0.028639356,0.06612692,0.029457236,0.06749757,-0.052567255,0.013171243,-0.05738726,-0.06458491,-0.012671619,-0.063336246,-0.015516657,0.0451925,0.0054131043,0.021079002,0.008295065,0.049666584,0.009651895,0.07578104,-0.051225606,-0.043559335,-0.017886056,0.037515458,0.034876868,-0.09146976,-0.024043545,-0.03817669,0.045235746,0.004367427,0.0066729747,0.08482859,0.009755773,-0.06286827,0.064193666,0.03324229,0.047550645,-0.033367112,0.027966563,0.048438154,-0.058858864,0.015906911,0.034038614,-0.07719936,-0.0777223,0.06600221,-0.042828593,0.047648348,-0.00044383854,0.07709367,-0.040415514,0.034557644,0.04390282,-0.07774404,0.014601413,-0.065480314,0.009336537,0.025427785,0.08060085,-0.0067642457,-0.017798342,0.009218555,-0.022769388,-0.09086296,-0.03801894,0.064135715,0.09200116,-0.03663734,0.01951652,0.0035793374,0.046379507,-0.04758897,0.029969411,-0.046618655,-0.04071151,0.07898237,-0.06937915,-0.03890323,0.031886265,-0.045937,-0.03635306,0.0016318042,-0.04052647,0.09023996,0.065959424,0.0852675,0.017653678,-0.045490332,0.011999713,-0.026093146,0.06918139,-0.038359042,-0.056532614,-0.07284848,-0.040926028,-0.04275801,-0.017338127,-0.029219238,0.033341356
06b9650176bc09c654e06af0544ff9583b8ae9e8e8bd1aab3cc4fb034cdf1517,0.024645222,-0.059348393,0.016083421,0.02619766,-0.004823722,0.08231947,-0.037624087,-0.0032532301,0.032146372,0.03523185,-0.0413879,-0.036748204,0.06022231,-0.028583046,0.008217641,-0.05423827,0.0029946794,0.066318154,0.0007064423,0.051419523,0.011332507,-0.03429635,-0.0382156,0.02603631,0.06742889,-0.0842714,-0.046932656,0.025067793,-0.013542169,0.058777265,-0.025819788,-0.02596028,0.07357574,0.0010086505,0.038151782,-0.031884205,0.019099448,-0.057469018,-0.046731576,-0.0005449068,-0.059877306,-0.013572734,0.034202967,0.003991601,0.009711309,-0.011297749,0.02951163,-0.020175189,0.07823244,-0.027692009,-0.0387033,-0.030181266,0.024142958,0.029570624,-0.0756982,-0.019636486,-0.015566513,0.03507624,0.033464603,0.015836297,0.055975553,0.006342407,-0.05541599,0.054110233,0.0262023,0.05363995,-0.040581107,0.03299487,0.019948483,-0.05643536,0.009185534,0.027298477,-0.08167321,-0.072326556,0.05225418,-0.042155594,0.034571923,-0.0032238523,0.056030817,-0.038508806,0.014898415,0.02728289,-0.06948376,-0.011673284,-0.05857784,-0.00734861,0.0311268,0.07535279,0.0022740194,-0.015695186,-0.016933892,-0.0095227845,-0.075854845,-0.013972239,0.03938697,0.05467605,-0.044171724,0.02542037,0.012153845,0.040282525,-0.03208207,0.01764174,-0.054274127,-0.02842538,0.05908573,-0.07739303,-0.01667137,0.035316397,-0.031356804,-0.028105281,-0.011766299,-0.027392952,0.077904925,0.06007735,0.09404679,-0.008806493,-0.040395327,0.01617554,-0.010107887,0.05270853,-0.00398628,-0.048851583,-0.0820189,-0.024512634,-0.029981958,-0.02239914,-0.0032079176,-0.006333527
06d1f82e3edb6c0af1b42d711a29779d,0.018205248,-0.077366404,0.031786524,0.019167867,0.0014572106,0.076239355,-0.038772926,-0.021122089,0.028722141,0.03769467,-0.022127824,-0.058849238,0.08134528,-0.029063918,0.015580251,-0.050008867,0.012274241,0.05529767,0.018432891,0.056230884,0.028539376,-0.006138196,-0.032257594,0.031571098,0.060347147,-0.07422407,-0.028294332,0.027348787,0.003053938,0.037924424,-0.019689128,-0.036818065,0.0839561,0.0134042585,0.0787569,-0.050012622,0.02170192,-0.0769063,-0.065873735,-0.0039777867,-0.0528597,-0.045154274,0.035845254,-0.009226513,0.035020087,0.008174849,0.044331763,-0.005781747,0.08588835,-0.05920253,-0.04400301,-0.019401742,0.045854468,0.016911501,-0.064137526,-0.01798698,-0.005079896,0.051125877,0.010138951,0.027117124,0.0845245,0.008529242,-0.081465766,0.069049634,0.03653392,0.045141663,-0.04208496,0.06617613,0.017817367,-0.06868305,0.015925441,0.043569956,-0.09434233,-0.056795266,0.028685702,-0.051487193,0.05349728,0.0026775058,0.06961973,-0.059781887,0.017460475,0.017308138,-0.080317184,0.01243722,-0.058054924,0.012074975,0.030042175,0.07291023,0.008018628,-0.008080253,0.013351586,-0.027214259,-0.091638245,-0.03606416,0.033698943,0.11818422,-0.02497311,0.012515279,0.007780771,0.066832386,-0.046125073,0.035526253,-0.04533823,-0.024528962,0.086832285,-0.07897945,-0.03440582,0.07361828,-0.052959338,-0.016092543,-0.0036730156,-0.05351303,0.09054782,0.03507753,0.09545375,0.017006854,-0.03261076,0.014697032,-0.021642921,0.04059847,-0.05278334,-0.063974835,-0.06420479,-0.03935995,-0.02395365,-0.01492272,-0.005035491,0.020655949
06d2b5ec5984610a164b2a5a50849286,0.051794678,-0.16064076,0.012578062,0.030390581,0.027085178,0.2675902,-0.05037591,-0.032013103,0.12286716,0.14201516,-0.030798687,-0.13732748,0.1421065,-0.073523395,0.028143171,-0.103007525,0.08317734,0.1285169,-0.06697058,0.11435776,0.06778672,0.061242312,0.019114748,-0.040268358,0.11650864,-0.16786273,-0.03486878,0.0618212,-0.05746241,0.06700194,-0.06787559,-0.10959997,0.17947625,-0.03966298,0.06667954,-0.05795714,0.103486784,-0.16083884,-0.1310478,0.08849974,-0.035888873,0.027677478,0.0733256,-0.02211735,0.09496981,-0.09382081,0.06344189,-0.16859592,0.09107939,-0.0471407,-0.12791495,-0.09875849,0.10015175,0.03675672,-0.18673271,-0.0744394,0.067739755,-0.02270703,0.12732533,0.08533612,0.18697363,0.009124248,-0.15574315,0.10619323,0.09875852,0.09354892,-0.032061774,0.11763419,-0.04398351,-0.15925944,0.022983216,0.04281945,-0.17903835,-0.114290744,0.07264088,-0.12873155,0.003641705,0.04342088,0.05177446,-0.1148246,0.005844307,0.046744283,-0.15304883,-0.02110632,-0.10743794,0.056983672,0.00804937,0.12578051,0.024401587,0.021431463,-0.0052939975,-0.091576084,-0.18178488,0.03021829,0.118591025,0.2300422,-0.025231268,0.04291823,0.055079706,0.24606429,-0.037783924,0.11755442,-0.12568219,-0.0020933624,0.104184516,-0.19984928,-0.055010688,0.10235963,0.015302961,0.061151776,-0.054813825,-0.08896169,0.2268503,-0.01590618,0.2306657,-0.10355005,-0.046636168,0.114978425,-0.03979211,0.03187518,-0.030906327,-0.044667352,-0.085628584,-0.04945791,0.04930852,-0.07148608,0.08641545,-0.018207142
07847630596c7a55101a80f26819d93d,-0.006012672,-0.4352606,0.19077472,0.42597216,-0.22464453,0.58562803,-0.2797354,-0.64640236,0.02942625,0.47791505,0.25150427,-0.3109964,0.5927717,-0.32640538,0.15135732,-0.45801446,0.10241201,0.49124998,0.24689761,-0.39368057,-0.3641127,-0.4817079,-0.92395663,0.45565173,0.61292195,-0.9657281,-0.34853196,-0.111915655,0.41599724,0.32827157,-0.0015996082,-0.2599754,-0.16937485,0.1522068,0.7942105,-0.3743189,0.12608363,-0.63568246,-0.08615907,-0.263908,-0.36373052,-0.14880303,-0.19801386,0.3671389,0.27894095,0.36570403,0.3753658,0.13571842,0.87633,-0.09689661,0.34429207,0.25052676,0.18225236,-0.18353616,0.53735626,-0.167499,-0.4862311,0.7915624,-0.08128123,-0.29382557,0.09553291,-0.06337103,-0.052731715,0.6757489,0.13661066,0.080841996,-0.5833028,-0.1415441,0.044288527,-0.4080132,0.30836198,0.007999388,-0.3561765,-0.76805186,0.18323785,-0.46391523,1.0797535,0.032393996,-0.005619255,0.24865477,-0.09751343,-0.26515377,-0.5175974,0.11618332,-0.086791724,-0.006212083,0.692913,0.30203074,0.18554142,0.047637124,-0.2913876,0.5545861,-0.39172682,-0.09052175,-0.4592763,0.15394025,-0.38081777,0.115557484,-0.35015506,0.08172252,-0.07717733,-0.28824037,-0.32797146,0.059879865,0.36862853,-0.3384246,0.37698475,0.58958346,-0.1625246,-0.51540303,-0.44416553,-0.16729976,0.47440055,0.0250733,0.30471733,0.15747146,-0.63214946,0.0932582,-0.055087324,0.13675098,-0.30353665,-0.42881384,-0.7189134,-0.19932309,-0.05620897,0.24013962,-0.016367406,-0.343424
07940aac58f4b2e1712bc48a2470fcde,0.013150911,-0.0581429,0.047870036,0.017535515,0.040720444,0.053953536,-0.05661432,-0.03175557,0.04771084,0.008083428,-0.0015122772,-0.08592305,0.050575342,-0.028914673,0.037522517,-0.04768935,0.017282536,0.053573813,0.04463239,0.01590758,0.022800853,0.016692448,-0.060521483,0.04050215,0.06379582,-0.050001103,0.029379833,0.020584881,-0.012309016,0.01612041,-0.0026140315,-0.036152188,0.043828916,0.020333016,0.10490211,-0.069119,0.0028654966,-0.06589789,-0.06951765,-0.014388629,-0.044567943,-0.04889794,0.043393776,0.009771049,0.019969156,0.010844993,0.050383814,-0.008567253,0.08266574,-0.09761429,-0.04453518,-0.0102229165,0.060266793,0.0071316697,-0.04929482,-0.039379176,0.018563401,0.031076238,-0.0036114734,0.035934,0.10908715,0.006434336,-0.084748596,0.068565875,0.021197464,0.021951519,-0.05802214,0.07312742,0.0038337768,-0.084991224,0.023716927,0.056312043,-0.09024396,-0.04340447,0.024196487,-0.059362438,0.035402432,0.019548828,0.06683203,-0.03393789,0.031899977,0.026850563,-0.06532715,0.0049047056,-0.04714731,0.031547513,0.0018081932,0.08745543,0.015981248,0.017819952,0.023762254,-0.059909843,-0.095898375,-0.040059604,0.05384659,0.15812224,-0.027076233,0.003124468,0.0061719157,0.08526448,-0.048381742,0.046720937,-0.015121995,-0.05285688,0.09857533,-0.099041544,-0.053017266,0.08494393,-0.052195653,0.003870033,0.03457189,-0.08603672,0.09792448,-0.00563106,0.07242631,0.03216484,-0.020668393,0.032227032,-0.040408477,0.039769728,-0.08539697,-0.056773074,-0.033651445,-0.036238946,-0.026064022,-0.013302134,0.0057050963,0.038834248
079aaccc770e2019ad30c008498abd65,0.047704622,-0.26885432,0.046580333,0.012677064,0.02378513,0.3527764,-0.020460583,-0.14311537,0.100293115,0.1602434,-0.005523992,-0.14717886,0.22304012,-0.05472001,0.014355642,-0.15364496,0.06855866,0.10945469,-0.02266557,0.14231452,0.10041525,0.09313366,0.037895046,0.0035381294,0.15232426,-0.20701821,-0.049135044,0.06628717,-0.022459827,0.05717915,-0.07923893,-0.16359347,0.20596044,0.015538488,0.17759356,-0.115191095,0.14919356,-0.24176227,-0.14907221,0.073726974,-0.013581135,0.030006599,0.074679546,-0.058701977,0.16847448,-0.04078801,0.09000662,-0.16787179,0.17648418,-0.10329376,-0.09099632,-0.10580942,0.12144625,-0.00041719512,-0.15984318,-0.07172699,0.047065143,0.06411923,0.092384174,0.05509055,0.27209884,0.026695661,-0.18990198,0.16560617,0.10655122,0.07680194,0.0065909615,0.18600938,-0.030671172,-0.19077367,0.024783686,0.0169717,-0.2294994,-0.17703363,0.0775227,-0.22733524,0.11461152,0.0077957036,0.10359537,-0.13312082,0.007353662,0.01160079,-0.23255773,0.036269736,-0.11766,0.0829626,0.029464386,0.11391654,0.0518387,-0.018242724,0.022257691,-0.083418384,-0.20176074,-0.02276122,0.06530302,0.34106535,0.011394379,0.035146408,0.06491934,0.26110667,-0.04327729,0.11760136,-0.15649101,0.03911761,0.13966098,-0.2027996,-0.044608537,0.14053427,-0.0058918064,0.04263502,-0.07427642,-0.041418605,0.3112071,-0.03634035,0.2611652,-0.07264801,-0.06676726,0.16927071,-0.07223944,0.011895214,-0.12732404,-0.12127931,-0.058424864,-0.105722815,0.03752645,-0.023535991,0.06675202,-0.00016999594
0808eb4e0b36adc2a7ad5b2adc99b3c2,0.024762588,-0.11137958,0.01877651,0.043135617,0.02048391,0.12916668,-0.064569704,-0.012367106,0.06743739,0.062607154,-0.054043755,-0.10219164,0.11354978,-0.04068347,0.014268495,-0.09489756,0.04785132,0.113163225,-0.017996836,0.07415919,0.013892095,-0.031797726,-0.050035138,0.068308815,0.13464533,-0.12256442,-0.02210079,0.06491486,-0.026290268,0.058000002,-0.042608384,-0.07102705,0.11073425,-0.0006524001,0.082982995,-0.056137204,0.029519148,-0.102457404,-0.090409845,-0.0071065957,-0.07185004,-0.029481452,0.051216327,-0.010324051,0.035997115,-0.011669471,0.07006342,-0.05195457,0.10582478,-0.06653024,-0.10020468,-0.040183034,0.09669644,0.032999076,-0.118251674,-0.052343287,0.0037838453,0.0536222,0.04947355,0.055594105,0.12281509,0.037175238,-0.1140549,0.10512498,0.061154675,0.099968165,-0.06859468,0.08678707,-0.0029104652,-0.11397803,0.014832186,0.049888574,-0.16535273,-0.106593125,0.069184236,-0.060355153,0.062344905,0.016920237,0.082425,-0.07230966,0.025164133,0.035165325,-0.10561511,-0.019037975,-0.10097973,0.038329616,0.016541904,0.1389768,0.019482452,-0.0049955403,-0.02918591,-0.031582683,-0.15334249,-0.036284804,0.08044433,0.15049292,-0.051101338,0.03669147,0.04058194,0.124605015,-0.063637234,0.05953826,-0.08136558,-0.0578964,0.117308736,-0.14840508,-0.0400351,0.12569103,-0.047722466,-0.0075052027,0.0072910776,-0.09643434,0.1522303,0.08081676,0.14843827,-0.0033410047,-0.07053308,0.032594733,-0.041439414,0.065658025,-0.043920875,-0.08114634,-0.136537,-0.04138751,-0.03406633,-0.058519028,0.014521203,0.034492996
087a8b987bfcb13e7e995bdeb4b90726,0.027801687,-0.09561252,0.03167347,0.04953954,0.030982671,0.1056222,-0.059717774,-0.026328832,0.059005752,0.06238376,-0.040791452,-0.10153792,0.11370721,-0.041833412,0.030208346,-0.08579211,0.04107396,0.10396764,0.0006489676,0.047637966,0.010230885,-0.016911516,-0.067527615,0.06989636,0.118347906,-0.12027533,-0.011112433,0.054105364,-0.02055421,0.052016497,-0.03292345,-0.06259587,0.08808094,0.0099118985,0.09854318,-0.06884313,0.021673912,-0.09135962,-0.08703098,-0.019357866,-0.073460534,-0.040657032,0.056322433,0.00082955696,0.023927914,-0.0019828512,0.06975682,-0.025635324,0.10079062,-0.07213091,-0.070498124,-0.030186938,0.083015144,0.01987745,-0.08910865,-0.05242918,-0.00286848,0.058886442,0.03890555,0.0553262,0.11916412,0.017124195,-0.10596273,0.098483495,0.06196748,0.07069802,-0.076259874,0.08941303,0.0066007604,-0.12649035,0.022020113,0.064682625,-0.14359704,-0.0965856,0.058420584,-0.06798869,0.067438036,0.014245164,0.08082307,-0.06503607,0.035120416,0.024853226,-0.10628767,-0.02160281,-0.08781112,0.032890957,0.026526887,0.13016279,0.02533934,0.002934721,-0.025705548,-0.030404197,-0.13920322,-0.048841942,0.063223906,0.1509725,-0.05238227,0.0299472,0.019937,0.10347959,-0.066552006,0.055648852,-0.052044667,-0.057830796,0.12527838,-0.14920403,-0.035268076,0.13587748,-0.06146397,-0.0061705527,0.016706018,-0.09916266,0.13825352,0.056855343,0.12709147,0.017368514,-0.057998426,0.027456855,-0.04017221,0.062074464,-0.066827625,-0.07294906,-0.11533964,-0.040284198,-0.03921925,-0.04956172,0.0074894233,0.030660111
092e19c3294633a983811779058f0c35,0.025189364,-0.118225485,0.029144345,0.031644132,0.018578798,0.121119246,-0.062220547,-0.04244229,0.07652706,0.054356623,-0.023147665,-0.11210145,0.12053772,-0.06600863,0.018069403,-0.07006901,0.045149796,0.11458759,0.014358433,0.06984644,0.037232377,0.004994036,-0.028383281,0.040799808,0.10463104,-0.12445333,-0.023558427,0.042545617,-0.028258298,0.046721745,-0.040057793,-0.06281843,0.1267669,0.006216985,0.09750179,-0.07273795,0.03444826,-0.10853371,-0.090996765,0.006931528,-0.06611793,-0.06113373,0.06388178,-0.01655052,0.030881958,-0.007456054,0.03746554,-0.033367127,0.117325,-0.10290268,-0.0665572,-0.0530022,0.07824823,0.019754866,-0.095515355,-0.053043302,0.028611714,0.04590425,0.047469266,0.05796251,0.124992535,0.029325027,-0.13004166,0.09826667,0.044077564,0.07325431,-0.060843766,0.109738216,0.00433191,-0.1251367,0.011537531,0.0566408,-0.16512074,-0.08841378,0.039950546,-0.090046845,0.055329263,0.01969358,0.08275993,-0.07778053,0.0319428,0.028041746,-0.11140233,-0.022180295,-0.09071213,0.018664612,0.026459087,0.12626122,0.026745167,-0.0017400768,-0.01946197,-0.055000003,-0.13833901,-0.016269285,0.061450377,0.16211388,-0.056039527,0.01692036,0.031408757,0.10298319,-0.0639924,0.071008384,-0.06969206,-0.03934084,0.1336851,-0.15532266,-0.032550104,0.13081029,-0.06438604,-0.0025681318,0.0003415593,-0.07731474,0.15423091,0.04943433,0.15549538,0.015930766,-0.048973415,0.03825351,-0.0386398,0.046961196,-0.07308795,-0.103641726,-0.10628688,-0.042778052,-0.028873302,-0.038939185,0.018860778,0.02157142
097c73de543218e2d0edb52d5333601f,0.041415118,-0.13742831,0.024636524,0.03389763,0.002157481,0.19383869,-0.032001406,-0.05594923,0.0987419,0.09440338,-0.013429328,-0.10820625,0.14456755,-0.08950554,-0.0030203983,-0.07054794,0.048657376,0.13688,-0.016970344,0.07696005,0.043990377,0.013920404,-0.0061554248,0.0021860544,0.10598319,-0.15597874,-0.05445751,0.048320908,-0.04182352,0.06437851,-0.05750963,-0.09102845,0.14477724,-0.011164462,0.08065949,-0.069315374,0.08228024,-0.12782815,-0.09455494,0.054700185,-0.038788985,-0.028688505,0.05993947,-0.0053877085,0.06299943,-0.043923933,0.020319838,-0.08211947,0.12682013,-0.07131077,-0.078290574,-0.07947583,0.07559793,0.024698729,-0.09728782,-0.06347279,0.058997933,0.013668819,0.08333548,0.06935206,0.121949874,0.011862704,-0.11672443,0.10680291,0.05669902,0.07040732,-0.054214448,0.09217839,-0.014476674,-0.12995447,0.016502028,0.032777585,-0.17823793,-0.11357878,0.048607364,-0.11270313,0.04873822,0.032495726,0.06279541,-0.076968156,-0.0068135625,0.0057855835,-0.13940911,-0.03642631,-0.09046525,0.033627372,0.028155563,0.10715366,0.046914283,-0.006083791,-0.02730658,-0.04352992,-0.12613836,0.046221696,0.047170874,0.15886645,-0.04089244,0.02506197,0.044299394,0.14521277,-0.031446528,0.06873197,-0.11472332,0.017150681,0.10787837,-0.16457893,-0.006314466,0.12310932,-0.028680556,0.01727476,-0.04794637,-0.037256382,0.18186215,0.026869686,0.19925867,-0.024440365,-0.05760876,0.07984926,-0.032783676,0.022102898,-0.042914636,-0.08103766,-0.09973803,-0.034427058,0.021643233,-0.037227426,0.036252752,-0.035836775
097d0891d4e3b47668d787792cfdf0ae,0.01716066,-0.062710896,0.017522603,0.011523569,-0.0032578988,0.09779541,-0.032296695,-0.020362262,0.063527465,0.043524574,-0.025306378,-0.06637948,0.08156698,-0.06185804,0.010104935,-0.043548,0.026003888,0.0931213,-0.0015181561,0.061948217,0.017203035,0.0103832325,-0.011928646,0.0012909188,0.044222176,-0.094106674,-0.049036633,0.021529151,-0.029464006,0.0470553,-0.041161038,-0.030927563,0.09061564,-0.0024326425,0.040320728,-0.025821134,0.025453987,-0.06761405,-0.05246811,0.02362561,-0.045995638,-0.035492018,0.04357934,-0.007983072,0.010764336,-0.026352162,0.009742531,-0.04472523,0.08395829,-0.049374107,-0.049244463,-0.03746258,0.041479237,0.039068464,-0.077249184,-0.029207274,0.028295025,0.012339922,0.040980436,0.044944994,0.058281295,-0.0047012493,-0.086927205,0.053168513,0.036216892,0.06005314,-0.034858856,0.053947248,-0.005469937,-0.079895146,0.019759053,0.04884853,-0.099985994,-0.047801457,0.028027384,-0.043900818,0.023662405,0.022118874,0.044103254,-0.06904418,-0.010473835,0.0264006,-0.0761983,-0.018265992,-0.045967374,-0.014143843,0.016859408,0.08180188,0.007113536,-0.00074410846,-0.01131395,-0.039204374,-0.077703014,0.016610313,0.03595514,0.08269645,-0.04034495,0.008616533,0.014893381,0.08050489,-0.0430341,0.054061953,-0.06539025,-0.005301429,0.07709461,-0.10209396,-0.01370964,0.07376921,-0.02795032,0.014398003,-0.017949993,-0.0534142,0.09583652,0.02549697,0.107637174,-0.016242014,-0.02223978,0.036367524,-0.0075504263,0.029045803,-0.02995424,-0.047203727,-0.077033855,-0.024603328,0.004369692,-0.038082086,0.02776936,-0.01615125
09f623304b98d1bdc15ed33660ba337f29fa784f81e237b89d04c4f1a20d0d4b,0.023737365,-0.04134854,0.02838799,0.019179434,0.023061458,0.04933565,-0.050514117,0.0067795534,0.0314106,0.019456945,-0.009498185,-0.06061217,0.03166,-0.004797277,0.038378328,-0.051267423,-0.0006283164,0.0438475,0.019359304,0.016043488,0.010270745,-0.0067731515,-0.053503662,0.045026023,0.059260983,-0.042865068,0.003497365,0.018138211,-0.008521355,0.03383378,-0.004667482,-0.028733425,0.03301104,0.019459661,0.0673442,-0.0491191,0.0038164894,-0.049430195,-0.060286053,-0.011664627,-0.042447843,-0.013379763,0.05016321,0.021781838,0.010018657,0.00014523364,0.05897498,-0.00691297,0.051111147,-0.053876843,-0.038254768,-0.008988384,0.047191802,0.014386029,-0.05491559,-0.021535091,-0.017946865,0.03353155,-0.0010903709,0.012207545,0.073943086,0.003579576,-0.05371447,0.04536836,0.025389163,0.01942953,-0.034863666,0.030549383,0.019301094,-0.07215455,0.00966955,0.037060823,-0.052689575,-0.031672165,0.040462743,-0.03468751,0.01948591,0.012811108,0.045207255,-0.024965677,0.024667889,0.03991902,-0.052634526,0.006288955,-0.04173899,0.024278551,0.011928667,0.0636545,0.0037112574,0.00693615,0.019588793,-0.024608942,-0.088066705,-0.035996646,0.049198404,0.09897627,-0.01830083,0.018810218,-3.799901e-05,0.070163645,-0.03958932,0.02993769,-0.00903273,-0.05033031,0.06959151,-0.07031046,-0.050019164,0.03624259,-0.021816246,-0.017075844,0.012616593,-0.05540655,0.06582899,0.013891934,0.052488755,0.013382221,-0.020706145,0.01137578,-0.023098962,0.041728195,-0.042361476,-0.034532662,-0.026581315,-0.043791458,-0.01985629,0.0013264889,-0.017830227,0.042837467
09f83b8840be3869a1db8b8b49f2cb1fd0f8a04b9a0c09f56bdb54d272f8b788,0.06284328,-0.21038057,0.070028484,0.02214934,0.012455795,0.28257003,-0.056692824,-0.077111535,0.13232465,0.1134811,-0.042811677,-0.1525079,0.20264713,-0.08336543,0.0095374435,-0.12612547,0.023184298,0.15629764,0.008701004,0.1664126,0.09491666,0.038182482,0.010456102,0.019363353,0.1424527,-0.1910728,-0.07859501,0.066113144,-0.052815393,0.08354346,-0.07416074,-0.12222666,0.23331924,0.012323264,0.13754481,-0.11106108,0.12401699,-0.1814549,-0.1820588,0.076367185,-0.08446698,-0.05490609,0.11381583,-0.044748638,0.09514338,-0.060404837,0.029904496,-0.10461356,0.20497207,-0.15373564,-0.10225308,-0.11184476,0.08719808,0.03392692,-0.22136028,-0.07991586,0.058744453,0.030361345,0.092292644,0.07805026,0.23091047,0.0467773,-0.1815519,0.14156799,0.05387243,0.073600866,-0.03945523,0.16642766,0.008814971,-0.18552268,0.016353168,0.06897612,-0.27332857,-0.15840717,0.09961658,-0.17912653,0.044148415,0.031393703,0.13167436,-0.14124784,0.028401442,0.057415944,-0.21812624,-0.030292286,-0.16302645,0.04807554,0.023180317,0.16681361,0.041984547,-0.025358578,0.000747565,-0.117223784,-0.21451677,0.006881714,0.12837784,0.27935335,-0.053371795,0.015378975,0.07165283,0.20140713,-0.070827566,0.12253466,-0.14095685,-0.009547701,0.17840205,-0.22152829,-0.04228965,0.12328022,-0.06589213,0.008139151,-0.05374938,-0.05021408,0.25807056,0.04987501,0.29220837,-0.023519833,-0.06375188,0.11850552,-0.07154789,0.054547805,-0.08786309,-0.14284897,-0.12055323,-0.071436696,0.0001965224,-0.034907654,0.0016749515,-0.017637238
09fd6ee7e78f977f4cb86d35f4550a8c,0.02357699,-0.111153096,0.035864815,0.03304684,-0.01736647,0.1511503,-0.03914565,-0.030340778,0.07318705,0.09088353,-0.020355659,-0.05887192,0.11938558,-0.03829467,-0.004972538,-0.086017795,0.0076523116,0.10063337,-0.022351315,0.057505473,0.013027915,-0.047159567,-0.031571656,0.01872824,0.10710405,-0.14328592,-0.071334735,0.03914821,-0.025774961,0.06355969,-0.03514984,-0.07727093,0.11020349,-0.024286894,0.06616144,-0.06658188,0.05955881,-0.09730584,-0.085222416,0.04316788,-0.06293018,-0.024817409,0.054084394,-0.0016488747,0.04386376,-0.03878256,0.02604703,-0.0608889,0.12961292,-0.043689508,-0.05756558,-0.0686387,0.035361324,0.029011393,-0.10365514,-0.057780806,0.00591689,0.04299891,0.065871,0.030443672,0.08698295,0.010961102,-0.06591104,0.09351558,0.022154657,0.052069236,-0.05984541,0.047641747,0.0133244665,-0.0979045,0.01995852,0.026677959,-0.15328532,-0.10257677,0.07765164,-0.09448515,0.0553545,0.0175503,0.0691703,-0.06005463,0.0037539627,0.018957473,-0.130224,-0.031593904,-0.101386786,0.019817594,0.038525637,0.10035102,0.008909331,-0.01504342,-0.037389763,-0.010220983,-0.11583939,0.018980972,0.05184404,0.104382254,-0.057475325,0.01864713,0.020183504,0.101149306,-0.032721866,0.039472878,-0.08800991,-0.006320772,0.09815291,-0.11388101,0.008234637,0.055376187,-0.024222158,-0.02331213,-0.062767565,-0.025647638,0.14781117,0.065840326,0.15634453,-0.0130964825,-0.072282076,0.041963458,-0.025263492,0.04968757,-0.010491832,-0.072037846,-0.120130874,-0.03417925,-0.00970191,-0.020250028,0.0037261716,-0.044904
0a02f9f65079fc410334906886afb545,0.028564401,-0.090435095,0.030058473,0.03283436,1.8760693e-07,0.11480312,-0.041812867,-0.025870824,0.04571601,0.0529687,-0.03905732,-0.06905692,0.10151955,-0.039899483,0.0036282048,-0.079135604,0.006561489,0.08197019,-0.0016429925,0.06967948,0.020942245,-0.026448453,-0.021001011,0.028086646,0.091555156,-0.107013516,-0.059791997,0.036405824,-0.020309733,0.06262871,-0.04606821,-0.05860532,0.10552541,0.0016513371,0.067418486,-0.046747115,0.040822368,-0.0909234,-0.080778815,0.015296296,-0.06696782,-0.033737775,0.048332043,-0.009246602,0.038241386,-0.022039093,0.019627094,-0.03291171,0.104107894,-0.060238615,-0.055631477,-0.041087132,0.048244927,0.020360105,-0.10038862,-0.03520404,-0.0022837094,0.034080997,0.03597382,0.039930325,0.0812354,0.013585599,-0.07777624,0.07581818,0.036621124,0.053333674,-0.044406712,0.06099825,0.0112701515,-0.07644065,0.01403421,0.041718516,-0.13379304,-0.08954095,0.059385378,-0.06833787,0.054510884,0.008567986,0.07108055,-0.057490993,0.017281396,0.026195219,-0.10445719,-0.01552099,-0.079192795,0.0017790664,0.035747226,0.0904692,0.02133193,-0.01957444,-0.020517355,-0.01881037,-0.106501445,0.0014515013,0.04719858,0.099641085,-0.04220793,0.013218521,0.020889768,0.07958761,-0.039469536,0.035025273,-0.07739687,-0.021569088,0.08614666,-0.11040874,-0.0067598987,0.07640895,-0.05010063,-0.017874941,-0.020311745,-0.034686342,0.11828166,0.06397918,0.14233865,0.0006691172,-0.052335307,0.040642112,-0.024224285,0.04375826,-0.035533216,-0.067925476,-0.1073353,-0.029024113,-0.016642446,-0.023587428,0.0071147643,-0.0043891
0a1310fd4e68a3de2e57ce3f4888c81a,0.08385015,-0.17134932,0.098414645,0.018973235,-0.123512894,0.08607617,-0.15579838,-0.047140166,0.066785865,0.01891121,-0.38770384,-0.116909705,0.26603025,-0.09199425,0.09506653,-0.16792308,-0.06452738,0.18859735,0.13487884,0.4024313,0.0352226,-0.15330279,0.031766567,0.20579559,0.13900252,-0.37919512,-0.29635745,0.14924984,-0.05303218,0.26977673,-0.2280965,-0.001264854,0.4204984,0.16286026,0.26296622,0.02330935,0.055616695,-0.13157459,-0.21656434,-0.13833192,-0.36444798,-0.33188072,0.19513842,-0.13908772,-0.014562059,0.13967855,0.052315313,0.09226468,0.3172744,-0.26464865,-0.15619648,-0.11702118,0.14098543,0.20878874,-0.3177247,-0.07410357,-0.11202933,0.15634537,-0.034096926,0.14611684,0.2029093,0.014321575,-0.2579536,0.1168322,0.09384059,0.25259674,-0.15922919,0.22821726,0.1663194,-0.12959757,0.062841035,0.35910738,-0.34764397,-0.22377644,0.19952385,-0.098257765,0.21811132,-0.09777946,0.30234498,-0.26557526,0.0842467,0.098314986,-0.3731234,0.039266784,-0.19360726,-0.35194287,0.13271579,0.3353558,-0.071452126,-0.13818705,-0.0542497,-0.05551366,-0.24638602,-0.15836218,0.17496513,0.11396167,-0.20358533,-0.014506849,-0.093535565,0.059906885,-0.2879639,0.11755224,-0.18167943,-0.1788367,0.32553002,-0.303433,-0.07758858,0.20894833,-0.41384754,-0.09135703,0.06377972,-0.18500078,0.26332623,0.27374247,0.26146534,0.08450609,-0.05580698,-0.007660708,-0.04022471,0.15164544,-0.19843143,-0.29472235,-0.39931393,-0.21966481,-0.24339251,-0.112436615,-0.1236983,0.10142381
0a1830c9206118843062d06d668c89622b88bea97fdb189e80b060d50905e7e3,0.023799565,-0.067934886,0.042999547,0.030015238,0.020512745,0.09358415,-0.056994338,0.018817445,0.05494096,0.03245079,0.0010220001,-0.050644178,0.057919838,-0.024471397,0.0055863005,-0.08261545,-0.024904132,0.07594538,0.007255164,0.031835236,0.015943112,-0.042753343,-0.061090823,0.029056994,0.08519884,-0.05764332,-0.035080094,0.0028812003,-0.020002114,0.05107801,-0.00695624,-0.04258758,0.06613153,-0.007490259,0.055218026,-0.07836434,0.02414104,-0.072253406,-0.08885575,0.035042524,-0.055158418,-0.024454545,0.060506903,0.010225199,0.012265325,-0.039813515,0.037023686,-0.018703151,0.101072885,-0.07586043,-0.0504928,-0.040261183,0.02004376,0.01911781,-0.113831356,-0.036054462,0.00213351,0.028770223,0.029743906,0.02722947,0.08320515,0.021445127,-0.048722416,0.07251716,0.0014700833,0.027432032,-0.038668357,0.03149179,0.047994368,-0.080599695,-0.0005826423,0.018017327,-0.1096961,-0.07109867,0.06232041,-0.057546955,-0.0030168097,0.018804185,0.08025668,-0.04745695,0.038625468,0.06553844,-0.08661467,-0.026451482,-0.08335413,0.045078155,0.012546328,0.08814418,0.004402418,-0.013166446,5.2830972e-05,-0.047557432,-0.110102914,-0.008987893,0.07556733,0.120358065,-0.038122367,0.019877482,0.04785644,0.065632,-0.03351575,0.031051675,-0.041522533,-0.031287935,0.088242896,-0.0884241,-0.038247373,0.02167591,-0.01789471,-0.032375857,-0.01825384,-0.031750746,0.09803871,0.06430363,0.13679674,0.0060351766,-0.055431344,0.025288189,-0.026521659,0.078789875,-0.0022174027,-0.05116189,-0.063164465,-0.012757252,-0.029347647,0.00078476954,-0.037921753,-0.00403696
0a1830c9206118843062d06d668c89622b88bea97fdb189e80b060d50905e7e3,0.023799565,-0.067934886,0.042999547,0.030015238,0.020512745,0.09358415,-0.056994338,0.018817445,0.05494096,0.03245079,0.0010220001,-0.050644178,0.057919838,-0.024471397,0.0055863005,-0.08261545,-0.024904132,0.07594538,0.007255164,0.031835236,0.015943112,-0.042753343,-0.061090823,0.029056994,0.08519884,-0.05764332,-0.035080094,0.0028812003,-0.020002114,0.05107801,-0.00695624,-0.04258758,0.06613153,-0.007490259,0.055218026,-0.07836434,0.02414104,-0.072253406,-0.08885575,0.035042524,-0.055158418,-0.024454545,0.060506903,0.010225199,0.012265325,-0.039813515,0.037023686,-0.018703151,0.101072885,-0.07586043,-0.0504928,-0.040261183,0.02004376,0.01911781,-0.113831356,-0.036054462,0.00213351,0.028770223,0.029743906,0.02722947,0.08320515,0.021445127,-0.048722416,0.07251716,0.0014700833,0.027432032,-0.038668357,0.03149179,0.047994368,-0.080599695,-0.0005826423,0.018017327,-0.1096961,-0.07109867,0.06232041,-0.057546955,-0.0030168097,0.018804185,0.08025668,-0.04745695,0.038625468,0.06553844,-0.08661467,-0.026451482,-0.08335413,0.045078155,0.012546328,0.08814418,0.004402418,-0.013166446,5.2830972e-05,-0.047557432,-0.110102914,-0.008987893,0.07556733,0.120358065,-0.038122367,0.019877482,0.04785644,0.065632,-0.03351575,0.031051675,-0.041522533,-0.031287935,0.088242896,-0.0884241,-0.038247373,0.02167591,-0.01789471,-0.032375857,-0.01825384,-0.031750746,0.09803871,0.06430363,0.13679674,0.0060351766,-0.055431344,0.025288189,-0.026521659,0.078789875,-0.0022174027,-0.05116189,-0.063164465,-0.012757252,-0.029347647,0.00078476954,-0.037921753,-0.00403696
0a8befffe85d17791a83d3a46dbcd271,0.021747682,-0.049729787,0.041702252,0.026008079,0.0139519125,0.06930381,-0.06865607,0.007568514,0.044692885,0.014327205,-0.020811917,-0.06719241,0.052880067,-0.010882893,0.036414467,-0.08473871,-0.025934044,0.05585515,0.02610679,0.04895107,-0.0055282284,-0.031155981,-0.064436994,0.056353997,0.08119124,-0.060635194,-0.02105422,0.007186911,-0.0058839186,0.069318496,-0.0201693,-0.033152,0.06311522,0.025193924,0.085751064,-0.0619308,0.017689144,-0.057220954,-0.07606717,-0.016836902,-0.0753641,-0.03463314,0.060342837,0.008572784,0.012662461,0.00678315,0.06316748,0.012943161,0.08788443,-0.07021398,-0.050633352,-0.011462822,0.050739355,0.024889315,-0.08973188,-0.040833242,-0.027689192,0.04983954,-0.002733179,0.011475778,0.0929038,0.016566996,-0.06583668,0.071341984,0.020182714,0.047656205,-0.053590707,0.032727145,0.045334596,-0.06726159,0.015161518,0.05008388,-0.0835648,-0.066034794,0.06409314,-0.044878248,0.03337969,0.0041105202,0.08436877,-0.049359944,0.04182277,0.066337876,-0.07441895,0.016243277,-0.062213104,0.014614011,0.03161752,0.09623576,-0.004712348,-0.0021756457,0.01153936,-0.042253796,-0.11666131,-0.04681463,0.071603015,0.102846414,-0.052508585,0.014746507,0.0025600584,0.05079605,-0.051525716,0.02634349,-0.038204856,-0.05499852,0.098179676,-0.09379139,-0.05045852,0.041915413,-0.041389976,-0.038226184,-0.0006304169,-0.0674574,0.09221584,0.05037657,0.08882518,0.022143263,-0.04156013,0.004174803,-0.017888596,0.06626887,-0.04102092,-0.058059372,-0.06764178,-0.04836172,-0.04845168,-0.0108516365,-0.022080636,0.041416585
0b6f94ccbe1d282fa632d43907932ec4,0.018487154,-0.056233026,0.007958502,0.021421444,-0.016391631,0.07732317,-0.027797882,-0.043410674,0.04218474,0.05231144,-0.021192333,-0.06367141,0.09097808,-0.053408567,0.016882075,-0.03336517,0.03655159,0.07209841,0.013307334,0.054460913,0.015597681,-0.0051619667,-0.019279847,0.010926949,0.059229746,-0.11199427,-0.0429486,0.030610243,0.0021845717,0.034517825,-0.032406945,-0.02885285,0.0769504,0.010351644,0.06837043,-0.014439804,0.03489394,-0.06553483,-0.0490963,-0.0095847435,-0.055034887,-0.047573186,0.019685395,-0.008771645,0.022161312,0.01554659,0.023663232,-0.030778142,0.09343603,-0.04414494,-0.029119145,-0.019382402,0.049784392,0.022256318,-0.045353055,-0.022116011,0.00950396,0.025349976,0.025056204,0.040019438,0.054288473,0.0023079976,-0.07682366,0.06330375,0.028395526,0.049742967,-0.05158782,0.05785774,-0.0024062712,-0.059062842,0.029588569,0.05617841,-0.09003372,-0.06288572,0.0225227,-0.053607207,0.05475764,0.0035704505,0.034173515,-0.054290272,0.0036280337,-0.014226853,-0.09214479,-0.01186387,-0.035769075,-0.027672531,0.042425096,0.054130394,0.019483948,-0.007613125,-0.016293975,-0.0028257505,-0.07033743,-0.008756213,0.017771427,0.07643313,-0.031738415,-0.008314729,-0.01252373,0.061333183,-0.04499857,0.03714439,-0.059422385,-0.005550259,0.080183946,-0.08589457,-0.0077956137,0.09531732,-0.045041185,-0.0048080785,-0.012922289,-0.043047924,0.09481805,0.01724822,0.07525738,-0.0061180675,-0.02588407,0.020614702,-0.021441432,0.0155932205,-0.052661873,-0.065592594,-0.074578896,-0.036935415,-0.0102661215,-0.018613573,0.029905904,-0.005270354
0bb2f4d84a08b94f4539a4615a6fadc2,0.018231304,-0.079189695,0.032915745,0.028976906,0.027540948,0.08605872,-0.06642044,-0.03627566,0.0437232,0.037388448,-0.029445391,-0.095472135,0.069465786,-0.029109353,0.03259421,-0.07212103,0.008481765,0.06071266,0.023933413,0.044483095,0.02059637,0.011061872,-0.062903285,0.059993926,0.08334849,-0.086686,0.0023558289,0.03796833,-0.007212253,0.0352701,-0.028665205,-0.040496465,0.07439632,0.019319793,0.110044844,-0.06927137,0.024333272,-0.08639622,-0.07465412,-0.011043714,-0.061127666,-0.04602809,0.05050435,0.013241124,0.022340119,0.005894512,0.06409295,-0.017736299,0.08330786,-0.07646763,-0.062410958,-0.017436225,0.07411445,0.02450915,-0.06923378,-0.039736234,-0.005059945,0.04447748,0.01733266,0.04276534,0.114154756,0.01942735,-0.09915629,0.08262468,0.03759897,0.049240883,-0.053685687,0.08008718,0.009144114,-0.10337828,0.028743722,0.06558821,-0.101428494,-0.061712094,0.046895403,-0.05899104,0.063322544,0.015932666,0.06626151,-0.058652446,0.033612613,0.038437873,-0.0963658,-3.1349948e-05,-0.06534323,0.02475018,0.011290141,0.11202991,0.013259776,0.01022361,0.010936486,-0.039860267,-0.11915536,-0.042047516,0.065637454,0.15945238,-0.039057963,0.00897393,0.006350224,0.09420564,-0.0481891,0.05171189,-0.038381428,-0.05298448,0.11243957,-0.10942115,-0.053969868,0.08973031,-0.048144955,-0.0030278512,0.022091532,-0.07761216,0.116018765,0.031773597,0.09524513,0.016222894,-0.037911654,0.027038267,-0.038102612,0.048435934,-0.06599579,-0.062230248,-0.068427995,-0.04694429,-0.026201634,-0.019266525,0.007794545,0.038647953
0bd8963ea2899b2d78d92e70d5bac4f2,0.017923295,-0.123517476,0.0086013945,0.057328444,0.00042576104,0.16199082,-0.052780733,0.004993098,0.049536992,0.11174042,-0.05653332,-0.053078517,0.10068529,0.009411054,-0.0027790267,-0.11864595,0.04180438,0.08657491,-0.06599913,0.042344607,0.008930734,-0.061826732,-0.030710375,0.041387938,0.13357446,-0.12679711,-0.041106068,0.07375934,-0.009217843,0.06471905,-0.047173146,-0.08291502,0.088119864,-0.045407016,0.04349282,-0.046340078,0.05519974,-0.09469471,-0.065928265,0.030331112,-0.044848528,0.04837953,0.03688191,0.01215741,0.059474654,-0.04211935,0.079569735,-0.080023214,0.08452327,0.010732503,-0.09428311,-0.05116731,0.058693655,0.03238178,-0.1119456,-0.040626727,-0.020642985,0.042319693,0.06960096,0.038740523,0.10197235,0.027394805,-0.059960883,0.09573994,0.06315271,0.100299925,-0.059443437,0.051321696,0.016687097,-0.0958501,0.0106818965,-0.004294552,-0.13127898,-0.11151868,0.085184686,-0.07496662,0.05962084,0.012291753,0.059362736,-0.06915462,0.011757588,0.031527273,-0.107680455,-0.011933802,-0.10802173,0.057542652,0.020182632,0.115842715,0.00016590182,-0.021336526,-0.059584137,0.016594645,-0.1311457,-0.027879536,0.082562454,0.12368638,-0.03368924,0.052495245,0.04267911,0.12874863,-0.027803365,0.032641545,-0.08066048,-0.012394209,0.07448205,-0.11661196,-0.03429022,0.050782982,0.0047731525,0.00060202234,-0.029874846,-0.07405713,0.14141911,0.08670951,0.14970963,-0.03958841,-0.082792364,0.03389905,-0.028457189,0.06305164,0.026312783,-0.038611323,-0.12173521,-0.04399528,-0.024992788,-0.03938277,0.013365358,0.016094552
0bf493ef499bf4331f7f9ebd444553cd,0.033417527,-0.117522895,0.015982293,0.07586324,0.0465773,0.095376246,-0.067358546,0.019200481,0.070802934,0.060634084,-0.038704608,-0.07813556,0.12171581,-0.046837926,-0.020105233,-0.11364078,0.050313942,0.12843883,-0.041071985,0.058580063,0.023730053,-0.08139754,-0.07081407,0.098766625,0.15403977,-0.106672496,-0.02824873,0.057706006,-0.0407344,0.08204978,-0.048175614,-0.07685328,0.09904968,-0.027627459,0.040600292,-0.080500215,0.017588887,-0.098798,-0.0783041,-0.010682714,-0.07552101,-0.022445379,0.057912037,-0.0047613666,0.02776604,-0.037350886,0.07526907,-0.027831098,0.08460192,-0.045623932,-0.121559836,-0.063494265,0.09079935,0.034407075,-0.14455506,-0.05008027,0.006059839,0.07464548,0.06662763,0.0565191,0.088538535,0.067325674,-0.09752959,0.10187446,0.059469286,0.122733004,-0.071963996,0.08262786,0.0006246426,-0.1095214,-0.00018100499,0.017341897,-0.18213479,-0.114798084,0.07295666,-0.04370487,0.035237044,0.007533668,0.11722683,-0.078903645,0.045389935,0.05959794,-0.08854959,-0.044550553,-0.13050728,0.08196636,0.015155347,0.1719868,0.015779022,-0.027503615,-0.0694472,-0.025860695,-0.16015312,-0.03301792,0.104213536,0.1472861,-0.078246914,0.04578227,0.08284348,0.09926806,-0.07766387,0.055382036,-0.07285601,-0.068106085,0.1252926,-0.14715059,-0.030102951,0.123818524,-0.0554438,-0.027183743,0.026917454,-0.09950829,0.12495816,0.16643131,0.18986173,0.021278039,-0.09913364,-0.008859299,-0.05158754,0.0892881,-0.014668378,-0.09110081,-0.1752499,-0.008671643,-0.07043619,-0.071819015,0.004547759,0.033117477
0c3583b5cd35e822cc0d9f2fca77c3ee7fa7208e7028d3f38cc623f51e165218,0.023268322,-0.38779747,-0.014076877,0.27936336,-0.21257958,0.47922415,-0.23751071,-0.5100338,0.228663,0.47357693,-0.20672965,-0.39904305,0.62228864,-0.42532116,0.10868068,-0.1931119,0.37433222,0.59825027,0.053391732,0.09904985,-0.113902904,-0.20422071,-0.34380102,0.23520659,0.49965703,-0.9536975,-0.39352876,0.15019134,0.07654288,0.22916915,-0.24148132,-0.2107112,0.350143,0.054493476,0.57943845,-0.05959733,0.13264774,-0.46345788,-0.1710929,-0.19708008,-0.39474258,-0.38099915,0.051199082,0.07242916,0.13944012,0.19939487,0.13095677,-0.13051361,0.64642644,-0.18073195,-0.050897148,-0.031853054,0.34616634,0.016847197,0.13300416,-0.17446461,-0.029060813,0.3379973,0.17951366,0.16410218,0.19803423,-0.054416586,-0.41356224,0.44115487,0.25448868,0.33569327,-0.50314754,0.30297342,-0.17756978,-0.45103934,0.24440643,0.32590434,-0.63469803,-0.47615585,0.05015191,-0.33170187,0.71867204,0.038078863,0.07603994,-0.14666185,-0.1340011,-0.247583,-0.5474257,-0.11135749,-0.17861927,-0.26352194,0.40472278,0.41439328,0.20080118,0.052619003,-0.30760434,0.3043669,-0.3980447,0.020946085,-0.18810153,0.25500283,-0.37986985,-0.04090388,-0.2643565,0.3246051,-0.25777853,0.07609438,-0.39195672,-0.04279075,0.4676398,-0.6000386,0.19909403,0.82371986,-0.3546127,-0.0521935,-0.19597803,-0.41391793,0.5404411,0.09950374,0.37292504,0.029110411,-0.33951035,0.09361314,-0.07633414,0.025123995,-0.30883902,-0.36140966,-0.79738486,-0.18420394,-0.08422888,-0.15305603,0.23312059,-0.18751025
